{"learner":{"attributes":{"best_iteration":"999","best_ntree_limit":"1000","scikit_learn":"{\"use_label_encoder\": null, \"n_estimators\": 1000, \"max_depth\": null, \"max_leaves\": null, \"max_bin\": null, \"grow_policy\": null, \"learning_rate\": null, \"verbosity\": null, \"booster\": null, \"tree_method\": null, \"gamma\": null, \"min_child_weight\": null, \"max_delta_step\": null, \"subsample\": null, \"sampling_method\": null, \"colsample_bytree\": null, \"colsample_bylevel\": null, \"colsample_bynode\": null, \"reg_alpha\": null, \"reg_lambda\": null, \"scale_pos_weight\": null, \"base_score\": null, \"missing\": NaN, \"num_parallel_tree\": null, \"random_state\": 4, \"n_jobs\": null, \"monotone_constraints\": null, \"interaction_constraints\": null, \"importance_type\": null, \"gpu_id\": null, \"validate_parameters\": null, \"predictor\": null, \"enable_categorical\": false, \"feature_types\": null, \"max_cat_to_onehot\": null, \"max_cat_threshold\": null, \"eval_metric\": null, \"early_stopping_rounds\": null, \"callbacks\": null, \"classes_\": [0.0, 1.0], \"n_classes_\": 2, \"_estimator_type\": \"classifier\"}"},"feature_names":["heart_rate(t-4)","steps(t-4)","stress_score(t-4)","awake(t-4)","deep(t-4)","light(t-4)","rem(t-4)","nonrem_total(t-4)","total(t-4)","nonrem_percentage(t-4)","sleep_efficiency(t-4)","timestamp_dayofweek(t-4)","timestamp_hour_sin(t-4)","timestamp_hour_cos(t-4)","wearing_off(t-4)","heart_rate(t-3)","steps(t-3)","stress_score(t-3)","awake(t-3)","deep(t-3)","light(t-3)","rem(t-3)","nonrem_total(t-3)","total(t-3)","nonrem_percentage(t-3)","sleep_efficiency(t-3)","timestamp_dayofweek(t-3)","timestamp_hour_sin(t-3)","timestamp_hour_cos(t-3)","wearing_off(t-3)","heart_rate(t-2)","steps(t-2)","stress_score(t-2)","awake(t-2)","deep(t-2)","light(t-2)","rem(t-2)","nonrem_total(t-2)","total(t-2)","nonrem_percentage(t-2)","sleep_efficiency(t-2)","timestamp_dayofweek(t-2)","timestamp_hour_sin(t-2)","timestamp_hour_cos(t-2)","wearing_off(t-2)","heart_rate(t-1)","steps(t-1)","stress_score(t-1)","awake(t-1)","deep(t-1)","light(t-1)","rem(t-1)","nonrem_total(t-1)","total(t-1)","nonrem_percentage(t-1)","sleep_efficiency(t-1)","timestamp_dayofweek(t-1)","timestamp_hour_sin(t-1)","timestamp_hour_cos(t-1)","wearing_off(t-1)","heart_rate(t)","steps(t)","stress_score(t)","awake(t)","deep(t)","light(t)","rem(t)","nonrem_total(t)","total(t)","nonrem_percentage(t)","sleep_efficiency(t)","timestamp_dayofweek(t)","timestamp_hour_sin(t)","timestamp_hour_cos(t)","wearing_off(t)"],"feature_types":["float","float","float","float","float","float","float","float","float","float","float","float","float","float","float","float","float","float","float","float","float","float","float","float","float","float","float","float","float","float","float","float","float","float","float","float","float","float","float","float","float","float","float","float","float","float","float","float","float","float","float","float","float","float","float","float","float","float","float","float","float","float","float","float","float","float","float","float","float","float","float","float","float","float","float"],"gradient_booster":{"model":{"gbtree_model_param":{"num_parallel_tree":"1","num_trees":"1000","size_leaf_vector":"0"},"tree_info":[0,0,0,0,0,0,0,0,0,0,0,0,0,0,0,0,0,0,0,0,0,0,0,0,0,0,0,0,0,0,0,0,0,0,0,0,0,0,0,0,0,0,0,0,0,0,0,0,0,0,0,0,0,0,0,0,0,0,0,0,0,0,0,0,0,0,0,0,0,0,0,0,0,0,0,0,0,0,0,0,0,0,0,0,0,0,0,0,0,0,0,0,0,0,0,0,0,0,0,0,0,0,0,0,0,0,0,0,0,0,0,0,0,0,0,0,0,0,0,0,0,0,0,0,0,0,0,0,0,0,0,0,0,0,0,0,0,0,0,0,0,0,0,0,0,0,0,0,0,0,0,0,0,0,0,0,0,0,0,0,0,0,0,0,0,0,0,0,0,0,0,0,0,0,0,0,0,0,0,0,0,0,0,0,0,0,0,0,0,0,0,0,0,0,0,0,0,0,0,0,0,0,0,0,0,0,0,0,0,0,0,0,0,0,0,0,0,0,0,0,0,0,0,0,0,0,0,0,0,0,0,0,0,0,0,0,0,0,0,0,0,0,0,0,0,0,0,0,0,0,0,0,0,0,0,0,0,0,0,0,0,0,0,0,0,0,0,0,0,0,0,0,0,0,0,0,0,0,0,0,0,0,0,0,0,0,0,0,0,0,0,0,0,0,0,0,0,0,0,0,0,0,0,0,0,0,0,0,0,0,0,0,0,0,0,0,0,0,0,0,0,0,0,0,0,0,0,0,0,0,0,0,0,0,0,0,0,0,0,0,0,0,0,0,0,0,0,0,0,0,0,0,0,0,0,0,0,0,0,0,0,0,0,0,0,0,0,0,0,0,0,0,0,0,0,0,0,0,0,0,0,0,0,0,0,0,0,0,0,0,0,0,0,0,0,0,0,0,0,0,0,0,0,0,0,0,0,0,0,0,0,0,0,0,0,0,0,0,0,0,0,0,0,0,0,0,0,0,0,0,0,0,0,0,0,0,0,0,0,0,0,0,0,0,0,0,0,0,0,0,0,0,0,0,0,0,0,0,0,0,0,0,0,0,0,0,0,0,0,0,0,0,0,0,0,0,0,0,0,0,0,0,0,0,0,0,0,0,0,0,0,0,0,0,0,0,0,0,0,0,0,0,0,0,0,0,0,0,0,0,0,0,0,0,0,0,0,0,0,0,0,0,0,0,0,0,0,0,0,0,0,0,0,0,0,0,0,0,0,0,0,0,0,0,0,0,0,0,0,0,0,0,0,0,0,0,0,0,0,0,0,0,0,0,0,0,0,0,0,0,0,0,0,0,0,0,0,0,0,0,0,0,0,0,0,0,0,0,0,0,0,0,0,0,0,0,0,0,0,0,0,0,0,0,0,0,0,0,0,0,0,0,0,0,0,0,0,0,0,0,0,0,0,0,0,0,0,0,0,0,0,0,0,0,0,0,0,0,0,0,0,0,0,0,0,0,0,0,0,0,0,0,0,0,0,0,0,0,0,0,0,0,0,0,0,0,0,0,0,0,0,0,0,0,0,0,0,0,0,0,0,0,0,0,0,0,0,0,0,0,0,0,0,0,0,0,0,0,0,0,0,0,0,0,0,0,0,0,0,0,0,0,0,0,0,0,0,0,0,0,0,0,0,0,0,0,0,0,0,0,0,0,0,0,0,0,0,0,0,0,0,0,0,0,0,0,0,0,0,0,0,0,0,0,0,0,0,0,0,0,0,0,0,0,0,0,0,0,0,0,0,0,0,0,0,0,0,0,0,0,0,0,0,0,0,0,0,0,0,0,0,0,0,0,0,0,0,0,0,0,0,0,0,0,0,0,0,0,0,0,0,0,0,0,0,0,0,0,0,0,0,0,0,0,0,0,0,0,0,0,0,0,0,0,0,0,0,0,0,0,0,0,0,0,0,0,0,0,0,0,0,0,0,0,0,0,0,0,0,0,0,0,0,0,0,0,0,0,0,0,0,0,0,0,0,0,0,0,0,0,0,0,0,0,0,0,0,0,0,0,0,0,0,0,0,0,0,0,0,0,0,0,0,0,0,0,0,0,0,0,0,0,0,0,0,0,0,0,0,0,0,0,0,0,0,0,0,0,0,0,0,0,0,0,0,0,0,0,0,0,0,0,0,0,0,0,0,0,0,0,0,0,0,0,0,0,0,0,0,0,0,0,0,0,0,0,0,0,0,0,0,0,0,0,0,0,0,0,0,0,0,0,0,0,0,0,0,0,0,0,0,0,0,0,0,0,0,0,0,0],"trees":[{"base_weights":[-0E0,7.6836157E-1,-1.8295964E0,5.8594596E-1,1.9432625E0,-1.9709443E0,-5.4054055E-2,7.7894735E-1,-1.6756756E0,-5E-1,-1.9804401E0,1E0,-1.5294118E0,9.5717883E-1,-1.4461539E0,-1.7714286E0,-0E0,1.6E0,-1E0,1.1570247E0,-1.1111112E0,-1.7333333E0,1.1111112E0,-1.8181819E0,-5E-1,1.2418671E0,-1.6521739E0,2.0689656E-1,-1.8297873E0],"categories":[],"categories_nodes":[],"categories_segments":[],"categories_sizes":[],"default_left":[1,1,1,1,0,1,1,1,1,0,0,1,0,1,1,1,0,0,0,1,1,0,0,0,0,0,0,0,0],"id":0,"left_children":[1,3,5,7,-1,9,11,13,15,-1,-1,17,-1,19,21,23,-1,-1,-1,25,27,-1,-1,-1,-1,-1,-1,-1,-1],"loss_changes":[5.299834E2,5.5763397E1,2.7876526E1,1.0224501E2,0E0,4.5196533E-1,1.5914149E1,8.615387E1,2.9683418E0,0E0,0E0,8.8E0,0E0,8.3333435E1,1.3859829E1,1.3116837E-1,0E0,0E0,0E0,4.5310257E1,1.742855E1,0E0,0E0,0E0,0E0,0E0,0E0,0E0,0E0],"parents":[2147483647,0,0,1,1,2,2,3,3,5,5,6,6,7,7,8,8,11,11,13,13,14,14,15,15,19,19,20,20],"right_children":[2,4,6,8,-1,10,12,14,16,-1,-1,18,-1,20,22,24,-1,-1,-1,26,28,-1,-1,-1,-1,-1,-1,-1,-1],"split_conditions":[1.08162075E-1,2.608895E-1,2.2814988E-1,1.6186814E-1,5.829788E-1,4.8852095E-4,1.2797388E-1,1.6231094E-1,1.8049572E-1,-1.5E-1,-5.9413207E-1,2.649657E-3,-4.5882356E-1,1.5238196E-1,1.53205395E-2,1.7752773E-1,-0E0,4.8000002E-1,-3E-1,1.7481925E-1,7.815736E-3,-5.2000004E-1,3.3333337E-1,-5.4545456E-1,-1.5E-1,3.7256014E-1,-4.9565217E-1,6.206897E-2,-5.489362E-1],"split_indices":[73,74,10,44,0,42,58,14,74,0,0,16,0,74,44,14,0,0,0,11,73,0,0,0,0,0,0,0,0],"split_type":[0,0,0,0,0,0,0,0,0,0,0,0,0,0,0,0,0,0,0,0,0,0,0,0,0,0,0,0,0],"sum_hessian":[3.75E2,2.645E2,1.105E2,2.3025E2,3.425E1,1.0225E2,8.25E0,2.1275E2,1.75E1,1E0,1.0125E2,5E0,3.25E0,1.975E2,1.525E1,1.65E1,1E0,4E0,1E0,1.805E2,1.7E1,1.4E1,1.25E0,1.55E1,1E0,1.7575E2,4.75E0,6.25E0,1.075E1],"tree_param":{"num_deleted":"0","num_feature":"75","num_nodes":"29","size_leaf_vector":"0"}},{"base_weights":[-8.133178E-3,6.109009E-1,-1.3378178E0,4.769685E-1,1.5081576E0,-1.471755E0,-4.8004314E-2,6.3167244E-1,-1.2990826E0,-1.513085E0,9.0335846E-1,7.67713E-1,-1.2910576E0,7.7337885E-1,-1.0671015E0,-1.4907606E0,-4.3081966E-1,-1.5867538E0,-9.7948027E-1,1.2513317E0,-7.6654994E-1,9.337315E-1,-8.395273E-1,-1.3543086E0,1.0153164E0,-1.1274679E0,8.1493235E-1,9.375968E-1,-1.4274665E0,1.0040623E0,-1.3149816E0,-1.3992647E0,3.882142E-1,-1.4765716E0,-5.1777977E-1],"categories":[],"categories_nodes":[],"categories_segments":[],"categories_sizes":[],"default_left":[1,1,1,1,0,1,1,1,1,1,0,1,0,1,1,0,1,0,1,0,0,1,1,1,0,0,0,0,0,0,0,0,0,0,0],"id":1,"left_children":[1,3,5,7,-1,9,11,13,15,17,-1,19,-1,21,23,-1,25,-1,27,-1,-1,29,31,33,-1,-1,-1,-1,-1,-1,-1,-1,-1,-1,-1],"loss_changes":[2.9330264E2,2.8500015E1,1.948349E1,5.9352882E1,0E0,1.1429459E1,1.2836439E1,4.8160103E1,2.2529736E0,2.4212189E0,0E0,6.658115E0,0E0,4.787407E1,1.0681137E1,0E0,4.8696003E0,0E0,1.4118537E1,0E0,0E0,2.7586777E1,1.2219706E1,6.777992E-1,0E0,0E0,0E0,0E0,0E0,0E0,0E0,0E0,0E0,0E0,0E0],"parents":[2147483647,0,0,1,1,2,2,3,3,5,5,6,6,7,7,8,8,9,9,11,11,13,13,14,14,16,16,18,18,21,21,22,22,23,23],"right_children":[2,4,6,8,-1,10,12,14,16,18,-1,20,-1,22,24,-1,26,-1,28,-1,-1,30,32,34,-1,-1,-1,-1,-1,-1,-1,-1,-1,-1,-1],"split_conditions":[9.777254E-2,2.608895E-1,2.2699726E-1,1.6186814E-1,4.524473E-1,4.2960876E-1,1.2797388E-1,1.2744302E-1,1.4724928E-1,2.0747283E-1,2.7100754E-1,2.3908839E-3,-3.873173E-1,1.5238196E-1,1.53205395E-2,-4.472282E-1,3.0369898E-2,-4.7602618E-1,1.2470396E-1,3.7539953E-1,-2.2996499E-1,1.7481925E-1,5.331832E-2,1.6683581E-1,3.0459493E-1,-3.3824039E-1,2.4447972E-1,2.8127906E-1,-4.2823997E-1,3.012187E-1,-3.944945E-1,-4.1977942E-1,1.16464265E-1,-4.429715E-1,-1.5533394E-1],"split_indices":[73,74,10,44,0,74,58,14,5,10,0,16,0,74,44,0,3,0,28,0,0,11,3,8,0,0,0,0,0,0,0,0,0,0,0],"split_type":[0,0,0,0,0,0,0,0,0,0,0,0,0,0,0,0,0,0,0,0,0,0,0,0,0,0,0,0,0,0,0,0,0,0,0],"sum_hessian":[3.543374E2,2.421467E2,1.1219071E2,2.1202899E2,3.0117714E1,1.0150875E2,1.0681962E1,1.9563263E2,1.6396353E1,1.0012932E2,1.3794373E0,6.6804857E0,4.001476E0,1.8107285E2,1.4559793E1,1.2843968E1,3.5523837E0,8.624833E1,1.3880987E1,5.2196093E0,1.4608767E0,1.6508176E2,1.5991085E1,1.3102361E1,1.4574325E0,2.3392055E0,1.2131782E0,2.4222946E0,1.1458693E1,1.6061195E2,4.469808E0,1.0887622E1,5.103462E0,1.0764027E1,2.3383343E0],"tree_param":{"num_deleted":"0","num_feature":"75","num_nodes":"35","size_leaf_vector":"0"}},{"base_weights":[-1.6261859E-2,4.4778177E-1,-1.2142928E0,5.9305847E-1,-2.6132706E-1,-1.4051696E0,-6.6503716E-1,9.052924E-1,3.2567937E-2,-1.2222706E0,6.292317E-1,-1.9769666E0,-1.3218973E0,8.400924E-1,-1.2632041E0,-1.2769537E0,9.603741E-1,-5.983969E-1,5.506502E-1,-1.5709897E0,1.729686E-2,1.2766347E0,4.2699953E-3,1.1848048E0,-6.167397E-1,9.973578E-1,-1.5634604E0,-9.351978E-1,8.43783E-1,6.9437116E-1,-1.0198324E0,-1.7238184E0,2.4483074E-1,-1.0484171E0,7.787876E-1,1.356136E0,3.249227E-1,-9.490229E-1,8.4857893E-1,1.2092203E0,4.1670442E-1,-1.2662925E0,1.9974151E-1,1.2179034E0,-5.2336234E-1,-1.0325785E0,8.02081E-1,9.212856E-1,2.2546056E-1,-1.3020462E0,6.4853676E-2,1.069196E0,-1.5960842E-1],"categories":[],"categories_nodes":[],"categories_segments":[],"categories_sizes":[],"default_left":[1,1,1,1,1,1,1,1,1,1,1,0,0,1,0,0,1,1,1,1,1,1,1,0,0,1,0,1,1,1,0,0,0,0,1,0,0,1,1,0,0,0,0,0,0,0,0,0,0,0,0,0,0],"id":2,"left_children":[1,3,5,7,9,11,13,15,17,19,21,-1,-1,23,-1,-1,25,27,29,31,33,35,37,-1,-1,39,-1,41,43,45,-1,-1,-1,-1,47,-1,-1,49,51,-1,-1,-1,-1,-1,-1,-1,-1,-1,-1,-1,-1,-1,-1],"loss_changes":[1.7647945E2,2.372947E1,8.356995E0,3.3262497E1,3.4662476E1,4.7547913E-1,2.3348248E1,1.5907532E1,2.2916964E1,8.4086075E0,8.578446E0,0E0,0E0,4.567769E0,0E0,0E0,1.2732353E1,1.6154598E1,9.389835E0,4.624508E0,5.0740004E0,3.475647E-1,1.0301445E1,0E0,0E0,1.4084068E1,0E0,1.0067829E1,3.9695306E0,7.4936333E0,0E0,0E0,0E0,0E0,7.879329E-2,0E0,0E0,2.236825E0,1.6797338E0,0E0,0E0,0E0,0E0,0E0,0E0,0E0,0E0,0E0,0E0,0E0,0E0,0E0,0E0],"parents":[2147483647,0,0,1,1,2,2,3,3,4,4,5,5,6,6,7,7,8,8,9,9,10,10,13,13,16,16,17,17,18,18,19,19,20,20,21,21,22,22,25,25,27,27,28,28,29,29,34,34,37,37,38,38],"right_children":[2,4,6,8,10,12,14,16,18,20,22,-1,-1,24,-1,-1,26,28,30,32,34,36,38,-1,-1,40,-1,42,44,46,-1,-1,-1,-1,48,-1,-1,50,52,-1,-1,-1,-1,-1,-1,-1,-1,-1,-1,-1,-1,-1,-1],"split_conditions":[1.0791625E-1,1.5264904E-1,1.8232164E-1,7.614894E-2,1.6877672E-1,1.0749398E-1,1.23120196E-1,1.944349E-3,2.2664834E-5,1.044438E-2,2.0870108E-2,-5.9309E-1,-3.965692E-1,1.705187E-2,-3.7896124E-1,-3.8308612E-1,4.1914248E-1,2.539688E-1,8.2880124E-2,8.97048E-2,8.493189E-2,1.4400582E-1,2.3311896E-4,3.5544145E-1,-1.850219E-1,6.488037E-2,-4.6903813E-1,1.7367236E-1,4.7841247E-2,1.7348421E-3,-3.0594972E-1,-5.171456E-1,7.3449224E-2,-3.1452513E-1,1.1763155E-1,4.068408E-1,9.747682E-2,2.3923758E-3,7.5819734E-3,3.627661E-1,1.2501132E-1,-3.7988776E-1,5.9922457E-2,3.6537102E-1,-1.5700871E-1,-3.0977356E-1,2.4062431E-1,2.763857E-1,6.763817E-2,-3.9061388E-1,1.9456103E-2,3.2075882E-1,-4.788253E-2],"split_indices":[28,11,10,2,3,73,58,17,31,31,28,0,0,32,0,0,57,9,59,58,4,0,46,0,0,62,0,5,0,13,0,0,0,0,0,0,0,61,46,0,0,0,0,0,0,0,0,0,0,0,0,0,0],"split_type":[0,0,0,0,0,0,0,0,0,0,0,0,0,0,0,0,0,0,0,0,0,0,0,0,0,0,0,0,0,0,0,0,0,0,0,0,0,0,0,0,0,0,0,0,0,0,0,0,0,0,0,0,0],"sum_hessian":[3.154661E2,2.2784079E2,8.7625305E1,1.8923538E2,3.860541E1,6.3870693E1,2.3754608E1,1.211377E2,6.809768E1,1.8389755E1,2.0215654E1,5.228414E0,5.864228E1,6.6406693E0,1.711394E1,2.4362075E0,1.1870149E2,3.063398E1,3.7463703E1,1.4143493E1,4.2462626E0,9.4173765E0,1.0798279E1,5.5210223E0,1.1196469E0,1.17583275E2,1.1182144E0,2.5119265E1,5.514714E0,3.4833786E1,2.6299148E0,1.3092249E1,1.0512439E0,1.6126071E0,2.6336555E0,8.299162E0,1.1182144E0,5.013551E0,5.784727E0,8.535673E1,3.222655E1,1.9356638E1,5.7626276E0,4.4155564E0,1.0991573E0,1.540925E0,3.3292862E1,1.5655001E0,1.0681554E0,3.5079033E0,1.5056478E0,4.6965003E0,1.0882269E0],"tree_param":{"num_deleted":"0","num_feature":"75","num_nodes":"53","size_leaf_vector":"0"}},{"base_weights":[-2.3049109E-2,3.7642428E-1,-1.0272768E0,2.7611813E-1,1.1898667E0,-1.1476085E0,-2.282563E-2,3.8880837E-1,-1.0772617E0,-1.1842957E0,6.662851E-1,5.330119E-1,-9.585027E-1,4.9093047E-1,-8.9083636E-1,-1.2642899E0,-2.6610285E-1,-5.154358E-2,-1.200518E0,9.5319086E-1,-6.339213E-1,6.138828E-1,-6.955481E-1,-1.1203487E0,7.377801E-1,6.082484E-1,-8.453729E-1,-5.904421E-1,-1.2323985E0,2.462444E-1,1.0620059E0,2.912507E-1,9.9095744E-1,1.7505571E-1,-1.2620236E0,-1.2491194E0,-3.4727895E-1,-1.2467442E0,5.930042E-1],"categories":[],"categories_nodes":[],"categories_segments":[],"categories_sizes":[],"default_left":[1,1,1,1,0,1,1,1,1,1,0,1,0,1,1,0,1,0,1,1,0,1,1,1,0,0,0,1,0,0,0,0,0,0,0,0,0,0,0],"id":3,"left_children":[1,3,5,7,-1,9,11,13,15,17,-1,19,-1,21,23,-1,25,-1,27,29,-1,31,33,35,-1,-1,-1,37,-1,-1,-1,-1,-1,-1,-1,-1,-1,-1,-1],"loss_changes":[1.1293037E2,1.6107365E1,9.656136E0,2.7966692E1,0E0,5.548271E0,5.498668E0,2.2323288E1,1.810133E0,1.2328644E0,0E0,3.8692768E0,0E0,2.3147018E1,5.5860167E0,0E0,2.4984474E0,0E0,6.225128E-1,1.4584827E-1,0E0,1.6944199E1,7.6643414E0,7.1672535E-1,0E0,0E0,0E0,4.9080243E0,0E0,0E0,0E0,0E0,0E0,0E0,0E0,0E0,0E0,0E0,0E0],"parents":[2147483647,0,0,1,1,2,2,3,3,5,5,6,6,7,7,8,8,9,9,11,11,13,13,14,14,16,16,18,18,19,19,21,21,22,22,23,23,27,27],"right_children":[2,4,6,8,-1,10,12,14,16,18,-1,20,-1,22,24,-1,26,-1,28,30,-1,32,34,36,-1,-1,-1,38,-1,-1,-1,-1,-1,-1,-1,-1,-1,-1,-1],"split_conditions":[9.777254E-2,2.608895E-1,2.2699726E-1,1.6186814E-1,3.5696E-1,4.2960876E-1,1.2797388E-1,1.2744302E-1,5.2879035E-2,5.8515975E-4,1.9988553E-1,2.3908839E-3,-2.8755084E-1,1.5238196E-1,1.53205395E-2,-3.7928697E-1,7.486813E-2,-1.5463074E-2,1.0449749E-1,1.0705584E-1,-1.9017641E-1,2.6713028E-6,7.815736E-3,1.4112525E-1,2.2133404E-1,1.8247452E-1,-2.536119E-1,1.2851731E-1,-3.6971956E-1,7.3873326E-2,3.186018E-1,8.7375216E-2,2.9728726E-1,5.2516717E-2,-3.786071E-1,-3.7473583E-1,-1.0418369E-1,-3.7402326E-1,1.7790127E-1],"split_indices":[73,74,10,44,0,74,58,14,3,72,0,16,0,74,44,0,62,0,73,73,0,16,73,30,0,0,0,13,0,0,0,0,0,0,0,0,0,0,0],"split_type":[0,0,0,0,0,0,0,0,0,0,0,0,0,0,0,0,0,0,0,0,0,0,0,0,0,0,0,0,0,0,0,0,0,0,0,0,0,0,0],"sum_hessian":[2.7954404E2,2.0043701E2,7.910701E1,1.7962657E2,2.0810434E1,7.051669E1,8.590317E0,1.6647742E2,1.314916E1,6.945894E1,1.057754E0,5.658964E0,2.9313529E0,1.5474438E2,1.1733027E1,1.0231475E1,2.917685E0,1.0396695E0,6.841927E1,4.2954593E0,1.3635046E0,1.4065157E2,1.4092829E1,1.0557325E1,1.1757021E0,1.1427662E0,1.7749188E0,4.367207E0,6.405206E1,1.0082238E0,3.2872355E0,7.675282E1,6.3898743E1,5.827557E0,8.265272E0,8.522016E0,2.0353093E0,2.7748673E0,1.5923398E0],"tree_param":{"num_deleted":"0","num_feature":"75","num_nodes":"39","size_leaf_vector":"0"}},{"base_weights":[-2.7371364E-2,2.842095E-1,-1.0057273E0,9.644972E-1,1.754046E-1,-1.2049469E0,-4.7528666E-1,-6.74142E-1,1.0594336E0,-1.3214967E0,2.3867346E-1,5.765559E-1,-1.0779598E0,1.1139044E0,-8.657278E-2,-1.759728E0,5.8801305E-1,3.3283377E-1,-9.442386E-1,9.705845E-1,-8.252522E-1,8.20479E-2,1.1701694E0,4.1669095E-1,-8.01724E-1,-1.1245451E0,-2.961925E-1,2.359316E-1,1.0695437E0,5.282115E-1,-5.1141334E-1,-1.157943E0,9.19166E-2,4.7404438E-1,-7.8209084E-1],"categories":[],"categories_nodes":[],"categories_segments":[],"categories_sizes":[],"default_left":[1,1,1,1,1,0,1,0,1,1,1,1,0,1,0,0,0,1,1,1,0,0,0,1,1,0,1,0,0,0,0,0,0,0,0],"id":4,"left_children":[1,3,5,7,9,-1,11,-1,13,15,17,19,-1,21,-1,-1,-1,23,25,27,-1,-1,-1,29,31,-1,33,-1,-1,-1,-1,-1,-1,-1,-1],"loss_changes":[7.498971E1,1.3646208E1,5.7058716E0,4.6832943E0,1.5670633E1,0E0,1.1951713E1,0E0,1.6261597E0,6.6647015E0,1.7735268E1,4.756954E0,0E0,1.2663422E0,0E0,0E0,0E0,1.4187817E1,1.0448503E0,1.8751192E-1,0E0,0E0,0E0,1.4372297E1,3.4055576E0,0E0,1.8394997E0,0E0,0E0,0E0,0E0,0E0,0E0,0E0,0E0],"parents":[2147483647,0,0,1,1,2,2,3,3,4,4,6,6,8,8,9,9,10,10,11,11,13,13,17,17,18,18,19,19,23,23,24,24,26,26],"right_children":[2,4,6,8,10,-1,12,-1,14,16,18,20,-1,22,-1,-1,-1,24,26,28,-1,-1,-1,30,32,-1,34,-1,-1,-1,-1,-1,-1,-1,-1],"split_conditions":[1.0791625E-1,3.7949272E-3,1.8232164E-1,1.944349E-3,4.5211604E-3,-3.6148408E-1,1.2797388E-1,-2.0224261E-1,9.17186E-2,2.369274E-1,1.6186814E-1,5.1211536E-2,-3.2338795E-1,1.802845E-3,-2.5971835E-2,-5.279184E-1,1.7640392E-1,1.6231094E-1,5.2879035E-2,3.3947416E-2,-2.4757566E-1,2.4614371E-2,3.5105082E-1,1.5238196E-1,1.2190013E-1,-3.3736354E-1,1.0779193E-1,7.077949E-2,3.2086313E-1,1.5846345E-1,-1.5342401E-1,-3.473829E-1,2.757498E-2,1.4221331E-1,-2.3462726E-1],"split_indices":[28,47,10,17,17,0,58,0,58,59,44,32,0,47,0,0,0,14,3,60,0,0,0,74,6,0,3,0,0,0,0,0,0,0,0],"split_type":[0,0,0,0,0,0,0,0,0,0,0,0,0,0,0,0,0,0,0,0,0,0,0,0,0,0,0,0,0,0,0,0,0,0,0],"sum_hessian":[2.4406174E2,1.8564738E2,5.8414352E1,2.4513792E1,1.6113359E2,4.1541027E1,1.6873323E1,1.0083458E0,2.3505447E1,5.727908E0,1.5540569E2,6.162054E0,1.0711269E1,2.2465645E1,1.0398014E0,4.722531E0,1.0053777E0,1.4461305E2,1.0792628E1,5.050148E0,1.1119062E0,1.2887735E0,2.1176872E1,1.3524927E2,9.363786E0,7.8681736E0,2.924455E0,1.0012448E0,4.048903E0,1.2112574E2,1.4123536E1,6.4835734E0,2.8802123E0,1.1406747E0,1.7837801E0],"tree_param":{"num_deleted":"0","num_feature":"75","num_nodes":"35","size_leaf_vector":"0"}},{"base_weights":[-3.354511E-2,2.5001526E-1,-8.510761E-1,3.2354778E-1,-7.6224035E-1,-1.1470649E0,-1.928961E-1,-1.1722033E0,3.7019038E-1,-1.8962389E0,3.4767097E-1,6.3942415E-1,-9.6323985E-1,-1.593018E0,1.8234612E-1,4.235604E-1,-8.4797823E-1,9.1546607E-1,-1.1649765E0,9.412508E-1,-8.9414604E-2,-2.7996254E-1,-1.0091441E0,-4.95975E-1,-1.8210042E0,1.0554378E0,3.3068633E-1,-1.2268896E0,5.4567385E-1,1.0455831E0,1.7893468E-1,-1.0789038E0,8.1661403E-1,1.1459422E0,-2.229553E-1,2.2218204E-1,1.0573827E0],"categories":[],"categories_nodes":[],"categories_segments":[],"categories_sizes":[],"default_left":[1,1,1,1,1,0,1,1,1,0,1,1,1,1,0,1,1,0,0,1,1,0,0,0,0,1,1,0,0,0,0,0,0,0,0,0,0],"id":5,"left_children":[1,3,5,7,9,-1,11,13,15,-1,17,19,21,23,-1,25,27,-1,-1,29,31,-1,-1,-1,-1,33,35,-1,-1,-1,-1,-1,-1,-1,-1,-1,-1],"loss_changes":[5.0338E1,1.2253858E1,1.0670944E1,1.0974971E1,1.4784509E1,0E0,1.2507128E1,3.0317302E0,9.9345665E0,0E0,6.663447E0,2.1773965E0,3.2090187E-2,4.0218353E-2,0E0,7.970627E0,4.1098495E0,0E0,0E0,3.5498524E-1,4.197948E0,0E0,0E0,0E0,0E0,2.3046284E0,9.625775E0,0E0,0E0,0E0,0E0,0E0,0E0,0E0,0E0,0E0,0E0],"parents":[2147483647,0,0,1,1,2,2,3,3,4,4,6,6,7,7,8,8,10,10,11,11,12,12,13,13,15,15,16,16,19,19,20,20,25,25,26,26],"right_children":[2,4,6,8,10,-1,12,14,16,-1,18,20,22,24,-1,26,28,-1,-1,30,32,-1,-1,-1,-1,34,36,-1,-1,-1,-1,-1,-1,-1,-1,-1,-1],"split_conditions":[9.526582E-2,1.4234465E-1,1.8159726E-1,2.0007553E-4,1.2649316E-1,-3.441195E-1,1.23568475E-1,5.394661E-2,1.7230402E-1,-5.688717E-1,3.5036386E-3,1.2704134E-1,8.300573E-3,5.894111E-2,5.470384E-2,1.6886145E-3,8.73134E-2,2.7463984E-1,-3.4949297E-1,8.218167E-2,1.5485875E-1,-8.398876E-2,-3.0274323E-1,-1.487925E-1,-5.4630125E-1,1.7381335E-2,8.4002614E-2,-3.680669E-1,1.6370216E-1,3.1367496E-1,5.3680405E-2,-3.2367116E-1,2.4498422E-1,3.4378266E-1,-6.68866E-2,6.6654615E-2,3.1721482E-1],"split_indices":[58,32,10,28,4,0,43,3,11,0,46,47,32,17,0,43,32,0,0,2,32,0,0,0,0,31,58,0,0,0,0,0,0,0,0,0,0],"split_type":[0,0,0,0,0,0,0,0,0,0,0,0,0,0,0,0,0,0,0,0,0,0,0,0,0,0,0,0,0,0,0,0,0,0,0,0,0],"sum_hessian":[2.1522531E2,1.6031447E2,5.491084E1,1.5009183E2,1.022264E1,3.7364807E1,1.7546032E1,3.809088E0,1.4628275E2,4.706025E0,5.516615E0,8.515444E0,9.030587E0,2.7718985E0,1.0371895E0,1.4076776E2,5.5149765E0,4.2980638E0,1.2185512E0,5.8156347E0,2.6998096E0,1.0153974E0,8.01519E0,1.0233098E0,1.7485888E0,1.6710714E1,1.2405705E2,4.4301496E0,1.0848272E0,4.78866E0,1.0269746E0,1.1992657E0,1.5005438E0,1.5702646E1,1.0080686E0,1.0907641E2,1.4980643E1],"tree_param":{"num_deleted":"0","num_feature":"75","num_nodes":"37","size_leaf_vector":"0"}},{"base_weights":[-3.614717E-2,1.6167402E-1,-9.190512E-1,7.081931E-1,2.7942626E-2,-1.1111262E0,-4.245028E-1,9.342961E-1,-2.8128576E-1,-8.857227E-1,1.2984875E-1,4.3392545E-1,-9.526847E-1,-5.342715E-1,1.0225575E0,-1.375027E0,8.0107194E-1,-1.6717368E0,6.7055184E-1,2.1201213E-1,-9.9134046E-1,7.839376E-1,-4.6445355E-1,1.1076182E0,-1.5530558E-1,-7.0030254E-1,-2.0056212E0,9.3879783E-1,-2.0184079E-1,-7.3412724E-2,5.602792E-1,-1.6743755E0,6.9536096E-1,1.1298147E0,3.108556E-1,2.0620205E-1,-7.4343914E-1,6.6894376E-1,-6.6646326E-1,-1.9465277E0,-6.984404E-1],"categories":[],"categories_nodes":[],"categories_segments":[],"categories_sizes":[],"default_left":[1,1,1,1,1,0,1,1,1,1,1,1,0,0,1,0,0,1,1,1,1,0,0,1,0,0,0,0,0,1,1,1,0,0,0,0,0,0,0,0,0],"id":6,"left_children":[1,3,5,7,9,-1,11,13,15,17,19,21,-1,-1,23,-1,-1,25,27,29,31,-1,-1,33,-1,-1,-1,-1,-1,35,37,39,-1,-1,-1,-1,-1,-1,-1,-1,-1],"loss_changes":[3.4387707E1,1.1747414E1,2.9511127E0,7.3348904E0,1.2255599E1,0E0,5.717373E0,3.911522E0,8.97191E0,1.7282497E1,1.1097047E1,1.9812993E0,0E0,0E0,2.6601048E0,0E0,0E0,1.5355339E0,1.3940394E0,1.1068533E1,1.0663625E1,0E0,0E0,6.05793E-2,0E0,0E0,0E0,0E0,0E0,1.1741289E1,7.122033E0,2.771759E-1,0E0,0E0,0E0,0E0,0E0,0E0,0E0,0E0,0E0],"parents":[2147483647,0,0,1,1,2,2,3,3,4,4,6,6,7,7,8,8,9,9,10,10,11,11,14,14,17,17,18,18,19,19,20,20,23,23,29,29,30,30,31,31],"right_children":[2,4,6,8,10,-1,12,14,16,18,20,22,-1,-1,24,-1,-1,26,28,30,32,-1,-1,34,-1,-1,-1,-1,-1,36,38,40,-1,-1,-1,-1,-1,-1,-1,-1,-1],"split_conditions":[1.1441769E-1,5.1691714E-3,1.8298542E-1,7.115774E-2,1.2355083E-2,-3.3333787E-1,1.3016081E-1,1.9520987E-3,4.827046E-3,8.831923E-2,2.0548858E-2,1.705187E-2,-2.8580543E-1,-1.6028145E-1,1.2456589E-1,-4.125081E-1,2.4032159E-1,8.8097334E-2,1.0106355E-1,5.0379193E-5,1.8108559E-1,2.3518129E-1,-1.3933606E-1,4.56862E-2,-4.6591677E-2,-2.1009077E-1,-6.0168636E-1,2.8163937E-1,-6.055224E-2,1.1909345E-1,1.6187936E-1,1.691021E-2,2.086083E-1,3.3894444E-1,9.325668E-2,6.1860617E-2,-2.2303174E-1,2.0068313E-1,-1.9993898E-1,-5.839583E-1,-2.0953213E-1],"split_indices":[13,47,10,13,17,0,43,32,32,43,1,32,0,0,11,0,0,5,43,16,5,0,0,0,0,0,0,0,0,12,44,31,0,0,0,0,0,0,0,0,0],"split_type":[0,0,0,0,0,0,0,0,0,0,0,0,0,0,0,0,0,0,0,0,0,0,0,0,0,0,0,0,0,0,0,0,0,0,0,0,0,0,0,0,0],"sum_hessian":[1.9503621E2,1.6000319E2,3.5033016E1,3.0610764E1,1.2939243E2,2.4334946E1,1.0698072E1,2.496244E1,5.648325E0,1.2211906E1,1.1718052E2,4.1430426E0,6.55503E0,1.1287116E0,2.3833729E1,2.6748962E0,2.9734285E0,8.064598E0,4.1473083E0,1.0993512E2,7.2453995E0,3.0731263E0,1.0699161E0,2.2284096E1,1.5496329E0,2.8551118E0,5.209486E0,3.113761E0,1.0335473E0,6.0852337E1,4.9082783E1,5.162241E0,2.0831583E0,2.1273445E1,1.0106506E0,4.342324E1,1.7429096E1,4.5506523E1,3.5762587E0,3.2589228E0,1.9033183E0],"tree_param":{"num_deleted":"0","num_feature":"75","num_nodes":"41","size_leaf_vector":"0"}},{"base_weights":[-3.7404936E-2,1.4353682E-1,-7.921293E-1,2.0574872E-1,-7.0066166E-1,4.703458E-1,-8.7620944E-1,-1.0239657E0,2.4899973E-1,-1.412298E0,3.5438502E-1,-9.536453E-1,-1.3306664E-1,-1.9350372E-2,-1.3073E0,8.627272E-1,1.7424333E-1,-3.0395347E-1,-1.5681527E0,-7.0610464E-1,8.480525E-1,-9.9444425E-1,8.154145E-2,-6.608695E-1,4.3131438E-1,1.3486826E-1,1.0723144E0,2.3050955E-1,-9.672865E-1,-1.0582817E0,-5.910314E-1,-6.468387E-1,5.859681E-1,3.311735E-2,5.454305E-1,4.478833E-1,-2.0817459E0,1.4551428E-1,-8.651989E-1],"categories":[],"categories_nodes":[],"categories_segments":[],"categories_sizes":[],"default_left":[1,1,1,1,1,0,1,1,1,1,1,1,1,0,0,1,1,0,0,0,0,1,0,0,0,1,0,1,1,0,1,0,0,0,0,0,0,0,0],"id":7,"left_children":[1,3,5,7,9,-1,11,13,15,17,19,21,23,-1,-1,25,27,-1,-1,-1,-1,29,-1,-1,-1,31,-1,33,35,-1,37,-1,-1,-1,-1,-1,-1,-1,-1],"loss_changes":[2.422484E1,7.668183E0,4.0527077E0,7.392712E0,8.053543E0,0E0,1.7436161E0,1.3282743E0,5.8345976E0,5.9577465E-1,3.1387765E0,1.3175106E0,1.544948E0,0E0,0E0,1.9775028E0,7.7722616E0,0E0,0E0,0E0,0E0,1.0180664E-1,0E0,0E0,0E0,1.8791022E0,0E0,6.99531E0,9.943702E0,0E0,1.3624163E0,0E0,0E0,0E0,0E0,0E0,0E0,0E0,0E0],"parents":[2147483647,0,0,1,1,2,2,3,3,4,4,6,6,7,7,8,8,9,9,10,10,11,11,12,12,15,15,16,16,21,21,25,25,27,27,28,28,30,30],"right_children":[2,4,6,8,10,-1,12,14,16,18,20,22,24,-1,-1,26,28,-1,-1,-1,-1,30,-1,-1,-1,32,-1,34,36,-1,38,-1,-1,-1,-1,-1,-1,-1,-1],"split_conditions":[9.777254E-2,1.4206567E-1,2.7316716E-4,2.0007553E-4,3.5135313E-3,1.4110374E-1,2.2699726E-1,4.765226E-2,1.6886145E-3,2.1175157E-2,1.3920213E-1,3.2090777E-1,1.3003239E-2,-5.805112E-3,-3.9219E-1,4.767753E-2,1.4855069E-1,-9.118605E-2,-4.704458E-1,-2.118314E-1,2.5441575E-1,2.0779085E-1,2.4462435E-2,-1.9826086E-1,1.2939432E-1,4.2424657E-4,3.216943E-1,2.878836E-5,1.6350769E-2,-3.174845E-1,1.14968956E-1,-1.9405162E-1,1.7579043E-1,9.935206E-3,1.6362914E-1,1.3436499E-1,-6.2452376E-1,4.3654285E-2,-2.595597E-1],"split_indices":[73,32,72,28,16,0,9,62,43,73,2,59,12,0,0,45,15,0,0,0,0,10,0,0,0,28,0,16,3,0,58,0,0,0,0,0,0,0,0],"split_type":[0,0,0,0,0,0,0,0,0,0,0,0,0,0,0,0,0,0,0,0,0,0,0,0,0,0,0,0,0,0,0,0,0,0,0,0,0,0,0],"sum_hessian":[1.7555928E2,1.4226234E2,3.329694E1,1.3320247E2,9.059871E0,1.7922364E0,3.1504704E1,3.7553463E0,1.2944713E2,5.208255E0,3.8516157E0,2.8275156E1,3.229546E0,1.061146E0,2.6942003E0,1.2911023E1,1.165361E2,1.0058063E0,4.2024484E0,1.0867499E0,2.7648656E0,2.724089E1,1.034265E0,1.5805087E0,1.6490375E0,3.2539904E0,9.657033E0,1.11822426E2,4.7136784E0,2.2117605E1,5.1232867E0,1.0319018E0,2.2220886E0,6.941704E1,4.2405384E1,2.3401763E0,2.3735018E0,1.5170399E0,3.606247E0],"tree_param":{"num_deleted":"0","num_feature":"75","num_nodes":"39","size_leaf_vector":"0"}},{"base_weights":[-3.762055E-2,9.241298E-2,-8.2315266E-1,6.052412E-1,-1.972593E-2,-1.0555071E0,-3.1266057E-1,7.3088795E-1,-8.3954084E-1,-7.9902387E-1,6.5588966E-2,3.7414607E-1,-8.565533E-1,8.2038945E-1,-6.275762E-1,-1.430318E0,5.627859E-1,1.4776435E-1,-8.310807E-1,7.1426415E-1,-4.0716243E-1,-6.363789E-2,9.637967E-1,-6.227032E-1,-1.6255239E0,8.500785E-1,-1.7440091E-1,2.955445E-1,-3.9062735E-1,-1.0116954E0,-2.2662641E-1,-6.9530994E-1,5.9006476E-1,1.0231767E0,-7.549565E-2,-7.418989E-1,-1.8844704E-1,3.82252E-1,-6.6717935E-1,-3.7170365E-2,-1.8201283E0,4.301537E-1,-7.280303E-1],"categories":[],"categories_nodes":[],"categories_segments":[],"categories_sizes":[],"default_left":[1,1,1,1,1,0,1,1,0,1,1,1,0,1,0,1,1,1,1,0,0,1,1,1,0,0,0,1,1,0,1,0,0,0,0,0,0,0,0,0,0,0,0],"id":8,"left_children":[1,3,5,7,9,-1,11,13,-1,15,17,19,-1,21,-1,23,25,27,29,-1,-1,31,33,35,-1,-1,-1,37,39,-1,41,-1,-1,-1,-1,-1,-1,-1,-1,-1,-1,-1,-1],"loss_changes":[1.6909662E1,8.194946E0,2.4582405E0,5.2542086E0,7.8797636E0,0E0,3.597828E0,3.439311E0,0E0,1.0857252E1,8.009747E0,1.5061315E0,0E0,2.9771147E0,0E0,2.9180336E-1,1.0846101E0,7.98431E0,7.6822567E-1,0E0,0E0,2.1232102E0,1.3023243E0,2.7436137E-2,0E0,0E0,0E0,6.7802577E0,1.0912188E1,0E0,1.4297702E0,0E0,0E0,0E0,0E0,0E0,0E0,0E0,0E0,0E0,0E0,0E0,0E0],"parents":[2147483647,0,0,1,1,2,2,3,3,4,4,6,6,7,7,9,9,10,10,11,11,13,13,15,15,16,16,17,17,18,18,21,21,22,22,23,23,27,27,28,28,30,30],"right_children":[2,4,6,8,10,-1,12,14,-1,16,18,20,-1,22,-1,24,26,28,30,-1,-1,32,34,36,-1,-1,-1,38,40,-1,42,-1,-1,-1,-1,-1,-1,-1,-1,-1,-1,-1,-1],"split_conditions":[1.1441769E-1,5.200687E-3,1.8298542E-1,1.5366048E-1,1.2355083E-2,-3.1665212E-1,1.3016081E-1,4.1849822E-1,-2.5186226E-1,8.831923E-2,1.6186814E-1,7.3745385E-2,-2.56966E-1,1.944349E-3,-1.8827286E-1,1.271636E-2,8.4324535E-3,1.2855993E-1,5.2879035E-2,2.1427925E-1,-1.2214873E-1,1.8989649E-2,9.150173E-2,6.9202296E-3,-4.876572E-1,2.5502357E-1,-5.2320275E-2,1.9454598E-2,1.4373517E-1,-3.0350864E-1,7.486813E-2,-2.08593E-1,1.7701943E-1,3.06953E-1,-2.2648696E-2,-2.2256967E-1,-5.6534115E-2,1.14675604E-1,-2.0015381E-1,-1.115111E-2,-5.460385E-1,1.2904611E-1,-2.184091E-1],"split_indices":[13,47,10,11,17,0,43,57,0,43,44,47,0,47,0,62,2,17,3,0,0,28,15,2,0,0,0,1,12,0,62,0,0,0,0,0,0,0,0,0,0,0,0],"split_type":[0,0,0,0,0,0,0,0,0,0,0,0,0,0,0,0,0,0,0,0,0,0,0,0,0,0,0,0,0,0,0,0,0,0,0,0,0,0,0,0,0,0,0],"sum_hessian":[1.6380013E2,1.412934E2,2.2506731E1,2.4563507E1,1.1672989E2,1.4733181E1,7.7735496E0,2.3052818E1,1.5106895E0,1.0692751E1,1.0603714E2,3.5733533E0,4.200196E0,2.1999485E1,1.0533316E0,7.2715645E0,3.4211862E0,9.790027E1,8.136872E0,2.5493739E0,1.0239794E0,3.148282E0,1.8851204E1,2.2310677E0,5.040497E0,2.3515959E0,1.0695903E0,7.7169495E1,2.0730768E1,5.7461524E0,2.3907201E0,1.5687511E0,1.579531E0,1.7847021E1,1.004183E0,1.194706E0,1.0363618E0,7.134663E1,5.8228683E0,1.7443666E1,3.2871015E0,1.0965154E0,1.2942048E0],"tree_param":{"num_deleted":"0","num_feature":"75","num_nodes":"43","size_leaf_vector":"0"}},{"base_weights":[-4.53141E-2,7.770356E-2,-7.0548E-1,2.2578858E-2,9.2343026E-1,5.455692E-1,-7.8771305E-1,-1.6064931E-1,2.9435307E-1,-8.5613996E-1,1.8968335E-1,-3.909801E-1,3.2611328E-1,4.4991094E-1,-6.652651E-1,-3.8493615E-1,-9.938948E-1,-1.8030329E-1,-1.4824133E0,5.5529565E-1,-1.4623462E0,6.3636017E-1,-3.387021E-1,5.239116E-1,-1.0168592E0,5.3802496E-1,-7.780238E-1,9.926578E-2,-9.910238E-1,-1.8486588E0,-6.915226E-1,-9.687455E-1,6.840928E-1,7.300552E-1,-5.106041E-1,6.5621054E-1,-1.287914E0,-1.3018973E0,-2.5014274E-2],"categories":[],"categories_nodes":[],"categories_segments":[],"categories_sizes":[],"default_left":[1,1,1,1,0,0,1,1,1,1,0,1,1,1,1,1,0,1,1,1,0,1,1,0,1,0,0,0,0,0,0,0,0,0,0,0,0,0,0],"id":9,"left_children":[1,3,5,7,-1,-1,9,11,13,15,-1,17,19,21,23,25,-1,27,29,31,-1,33,35,-1,37,-1,-1,-1,-1,-1,-1,-1,-1,-1,-1,-1,-1,-1,-1],"loss_changes":[1.2251359E1,5.9229107E0,2.8667965E0,6.0585537E0,0E0,0E0,1.6763582E0,8.284089E0,7.6086373E0,1.0024242E0,0E0,1.1192478E1,1.0613533E1,6.4986124E0,3.5571978E0,2.7619107E0,0E0,9.824701E0,1.0172157E0,4.9657187E0,0E0,4.124132E0,9.178048E0,0E0,1.6419554E0,0E0,0E0,0E0,0E0,0E0,0E0,0E0,0E0,0E0,0E0,0E0,0E0,0E0,0E0],"parents":[2147483647,0,0,1,1,2,2,3,3,6,6,7,7,8,8,9,9,11,11,12,12,13,13,14,14,15,15,17,17,18,18,19,19,21,21,22,22,24,24],"right_children":[2,4,6,8,-1,-1,10,12,14,16,-1,18,20,22,24,26,-1,28,30,32,-1,34,36,-1,38,-1,-1,-1,-1,-1,-1,-1,-1,-1,-1,-1,-1,-1,-1],"split_conditions":[9.777254E-2,2.608895E-1,1.5936635E-4,8.6733635E-6,2.770291E-1,1.6367076E-1,2.538354E-1,1.3727364E-1,1.4994046E-1,2.8160516E-2,5.6905005E-2,1.3038781E-1,1.1895738E-1,1.9454598E-2,1.1241175E-1,1.08162075E-1,-2.9816845E-1,7.75116E-2,6.667229E-2,4.5989774E-4,-4.3870386E-1,1.4957505E-1,3.8914062E-2,1.5717348E-1,1.3754752E-1,1.614075E-1,-2.3340714E-1,2.9779734E-2,-2.9730713E-1,-5.545977E-1,-2.0745678E-1,-2.9062366E-1,2.0522785E-1,2.1901657E-1,-1.5318123E-1,1.9686317E-1,-3.8637424E-1,-3.905692E-1,-7.5042825E-3],"split_indices":[73,74,57,1,0,0,9,45,11,30,0,60,12,1,30,73,0,2,32,13,0,0,4,0,0,0,0,0,0,0,0,0,0,0,0,0,0,0,0],"split_type":[0,0,0,0,0,0,0,0,0,0,0,0,0,0,0,0,0,0,0,0,0,0,0,0,0,0,0,0,0,0,0,0,0,0,0,0,0,0,0],"sum_hessian":[1.491814E2,1.26492615E2,2.2688787E1,1.1971618E2,6.776436E0,1.0518644E0,2.1636923E1,7.175104E1,4.7965137E1,2.0337189E1,1.2997344E0,4.883814E1,2.29129E1,4.173146E1,6.2336774E0,5.4588876E0,1.4878301E1,4.1912975E1,6.925165E0,2.0921432E1,1.9914675E0,3.390781E1,7.82365E0,1.3106467E0,4.9230304E0,1.5203722E0,3.9385154E0,3.1818302E1,1.0094673E1,3.819153E0,3.1060119E0,1.1221141E0,1.9799318E1,3.1683119E1,2.224691E0,3.9705806E0,3.8530693E0,3.5812442E0,1.3417863E0],"tree_param":{"num_deleted":"0","num_feature":"75","num_nodes":"39","size_leaf_vector":"0"}},{"base_weights":[-4.636745E-2,2.9089581E-2,-8.7464446E-1,1.20399214E-1,-3.5826927E-1,-9.393097E-1,-1.2507682E-1,3.2972744E-1,-3.0423367E-1,-9.8629194E-1,2.522765E-1,3.9594892E-1,-8.785151E-1,-1.1141984E0,-8.45815E-2,-1.172653E0,2.142677E-1,8.551146E-1,-2.4380055E-1,4.392376E-1,-8.904168E-1,-4.9853925E-2,-1.1507387E0,-1.5668422E0,5.3393435E-1,-1.0674213E0,1.1779907E-1,-1.2414055E0,-2.6665136E-1,9.74374E-1,1.2420934E-1,-8.7006277E-1,5.3010267E-1,4.8043352E-1,-7.651735E-1,-2.829437E-1,-1.2335012E0,4.6535417E-1,-3.90719E-1,-1.0977288E0,-2.4556667E-2,1.16677076E-1,6.3910925E-1],"categories":[],"categories_nodes":[],"categories_segments":[],"categories_sizes":[],"default_left":[1,1,1,1,1,0,0,1,1,1,1,1,1,1,1,1,0,1,1,1,0,0,0,0,0,1,1,0,0,0,0,1,1,0,0,0,0,0,0,0,0,0,0],"id":10,"left_children":[1,3,5,7,9,-1,-1,11,13,15,17,19,21,23,25,27,-1,29,31,33,-1,-1,-1,-1,-1,35,37,-1,-1,-1,-1,39,41,-1,-1,-1,-1,-1,-1,-1,-1,-1,-1],"loss_changes":[8.6369E0,4.543856E0,4.4169998E-1,9.3200245E0,9.652643E0,0E0,0E0,5.9450307E0,6.0914536E0,3.00171E0,4.165532E0,4.122509E0,8.3267E-1,6.308749E0,5.781364E0,3.4145164E-1,0E0,4.189806E-1,4.35641E0,3.6173782E0,0E0,0E0,0E0,0E0,0E0,2.9648972E-1,4.5081778E0,0E0,0E0,0E0,0E0,9.010036E-1,1.1543369E-1,0E0,0E0,0E0,0E0,0E0,0E0,0E0,0E0,0E0,0E0],"parents":[2147483647,0,0,1,1,2,2,3,3,4,4,7,7,8,8,9,9,10,10,11,11,12,12,13,13,14,14,15,15,17,17,18,18,19,19,25,25,26,26,31,31,32,32],"right_children":[2,4,6,8,10,-1,-1,12,14,16,18,20,22,24,26,28,-1,30,32,34,-1,-1,-1,-1,-1,36,38,-1,-1,-1,-1,40,42,-1,-1,-1,-1,-1,-1,-1,-1,-1,-1],"split_conditions":[1.1864738E-1,1.5264904E-1,2.2699726E-1,8.8030145E-2,1.6894999E-1,-2.8179294E-1,-3.7523046E-2,1.272757E-1,1.7379497E-1,1.4863873E-1,2.0870108E-2,4.0359342E-1,4.623408E-2,1.7135671E-1,9.978939E-3,9.9297225E-2,6.4280316E-2,1.4062697E-1,2.3311896E-4,1.3447158E-1,-2.6712504E-1,-1.4956178E-2,-3.4522164E-1,-4.700527E-1,1.6018032E-1,1.7917913E-1,1.2908766E-1,-3.7242165E-1,-7.999541E-2,2.923122E-1,3.72628E-2,2.3923758E-3,7.047783E-5,1.4413007E-1,-2.2955206E-1,-8.488311E-2,-3.7005037E-1,1.3960625E-1,-1.172157E-1,-3.2931867E-1,-7.3670004E-3,3.5003126E-2,1.9173278E-1],"split_indices":[43,11,9,2,3,0,0,32,10,45,28,72,60,5,13,13,0,62,46,47,0,0,0,0,0,10,17,0,0,0,0,61,61,0,0,0,0,0,0,0,0,0,0],"split_type":[0,0,0,0,0,0,0,0,0,0,0,0,0,0,0,0,0,0,0,0,0,0,0,0,0,0,0,0,0,0,0,0,0,0,0,0,0,0,0,0,0,0,0],"sum_hessian":[1.367848E2,1.26248314E2,1.0536494E1,1.02723206E2,2.3525106E1,9.466668E0,1.0698258E0,6.8954636E1,3.376857E1,1.1293205E1,1.2231901E1,6.6009094E1,2.9455395E0,6.335165E0,2.7433407E1,9.7958555E0,1.4973503E0,5.1950583E0,7.036843E0,6.4497185E1,1.5119101E0,1.0209268E0,1.9246128E0,5.0088544E0,1.3263105E0,3.954495E0,2.347891E1,8.760831E0,1.0350243E0,4.1799273E0,1.015131E0,3.8207455E0,3.216097E0,6.2945293E1,1.5518897E0,1.1633027E0,2.7911923E0,1.3997185E1,9.481727E0,2.775175E0,1.0455705E0,1.1030319E0,2.1130652E0],"tree_param":{"num_deleted":"0","num_feature":"75","num_nodes":"43","size_leaf_vector":"0"}},{"base_weights":[-5.2856818E-2,2.6390329E-2,-6.9017005E-1,9.2269665E-1,-1.0542955E-2,-1.0084273E0,-1.1163524E-1,-1.1190705E0,8.510371E-2,4.3562135E-1,-7.148061E-1,6.0141706E-1,-1.4196631E0,1.2040378E-1,-8.058757E-1,7.1575135E-1,-1.6926591E-1,-9.134226E-1,1.5158947E-1,-9.442384E-1,-1.9855028E-1,-2.1033579E-1,-1.1684399E0,6.2748504E-1,6.8669885E-2],"categories":[],"categories_nodes":[],"categories_segments":[],"categories_sizes":[],"default_left":[1,1,1,0,1,0,1,1,1,1,0,0,0,1,1,0,0,1,1,0,0,0,0,0,0],"id":11,"left_children":[1,3,5,-1,7,-1,9,11,13,15,-1,-1,-1,17,19,-1,-1,21,23,-1,-1,-1,-1,-1,-1],"loss_changes":[6.448736E0,3.7903426E0,2.4868817E0,0E0,1.1829743E1,0E0,2.3364017E0,5.4366665E0,3.330675E0,7.714566E-1,0E0,0E0,0E0,3.3549507E0,1.5269208E-1,0E0,0E0,3.0354714E-1,3.8123145E0,0E0,0E0,0E0,0E0,0E0,0E0],"parents":[2147483647,0,0,1,1,2,2,4,4,6,6,7,7,8,8,9,9,13,13,14,14,17,17,18,18],"right_children":[2,4,6,-1,8,-1,10,12,14,16,-1,-1,-1,18,20,-1,-1,22,24,-1,-1,-1,-1,-1,-1],"split_conditions":[1.13257036E-1,1.8874125E-4,1.8159726E-1,2.76809E-1,3.1758389E-3,-3.025282E-1,1.94364E-2,1.0614306E-4,1.7204165E-1,1.2839413E-1,-2.1444184E-1,1.8042512E-1,-4.2589894E-1,1.944349E-3,3.650961E-2,2.1472542E-1,-5.0779775E-2,1.3444875E-1,4.1074876E-2,-2.8327155E-1,-5.9565086E-2,-6.310074E-2,-3.5053197E-1,1.8824552E-1,2.0600967E-2],"split_indices":[13,72,10,0,72,0,32,57,11,28,0,0,0,32,13,0,0,12,30,0,0,0,0,0,0],"split_type":[0,0,0,0,0,0,0,0,0,0,0,0,0,0,0,0,0,0,0,0,0,0,0,0,0],"sum_hessian":[1.2632382E2,1.13205765E2,1.3118056E1,3.5310307E0,1.09674736E2,7.9833007E0,5.134756E0,7.861486E0,1.0181325E2,2.8378015E0,2.2969546E0,1.0203846E0,6.8411016E0,9.87651E1,3.04815E0,1.814299E0,1.0235025E0,2.063658E0,9.670145E1,2.03075E0,1.0174E0,1.0349832E0,1.028675E0,1.3374508E1,8.3326935E1],"tree_param":{"num_deleted":"0","num_feature":"75","num_nodes":"25","size_leaf_vector":"0"}},{"base_weights":[-4.8383873E-2,-7.0728296E-5,-8.720453E-1,-3.560705E-2,7.1730834E-1,-8.113593E-1,2.3307316E-2,1.7522848E-1,8.0171824E-1,-1.3229051E0,7.01282E-1,9.218703E-2,-7.170915E-1,1.6641518E-1,-6.2569726E-1,-1.06298E0,1.1930549E-1,2.122289E-1,-6.5436506E-1,3.319416E-1,-1.0911272E0,-6.8969953E-1,7.949249E-1],"categories":[],"categories_nodes":[],"categories_segments":[],"categories_sizes":[],"default_left":[1,1,0,1,1,1,1,0,0,0,0,1,1,1,1,0,1,0,0,0,0,0,0],"id":12,"left_children":[1,3,-1,5,7,9,11,-1,-1,-1,-1,13,15,17,19,-1,21,-1,-1,-1,-1,-1,-1],"loss_changes":[4.8167896E0,2.9658804E0,0E0,5.084988E0,1.10771656E-1,7.0035276E0,5.3697357E0,0E0,0E0,0E0,0E0,5.22133E0,2.720471E0,3.4412289E0,4.4667826E0,0E0,2.47329E0,0E0,0E0,0E0,0E0,0E0,0E0],"parents":[2147483647,0,0,1,1,3,3,4,4,5,5,6,6,11,11,12,12,13,13,14,14,16,16],"right_children":[2,4,-1,6,8,10,12,-1,-1,-1,-1,14,16,18,20,-1,22,-1,-1,-1,-1,-1,-1],"split_conditions":[1.2713802E-1,2.608895E-1,-2.616136E-1,4.556155E-3,9.15032E-2,1.4595604E-1,1.2744302E-1,5.2568544E-2,2.4051549E-1,-3.9687154E-1,2.1038462E-1,1.5202594E-1,1.1327262E-2,1.6921902E-1,3.347966E-2,-3.1889403E-1,5.2553844E-2,6.366867E-2,-1.9630952E-1,9.9582486E-2,-3.2733816E-1,-2.0690987E-1,2.3847748E-1],"split_indices":[58,74,0,32,12,5,14,0,0,0,0,59,1,74,32,0,3,0,0,0,0,0,0],"split_type":[0,0,0,0,0,0,0,0,0,0,0,0,0,0,0,0,0,0,0,0,0,0,0],"sum_hessian":[1.2004566E2,1.1433901E2,5.706648E0,1.09847916E2,4.491097E0,6.852048E0,1.0299587E2,1.0195396E0,3.4715571E0,5.214156E0,1.6378918E0,9.503061E1,7.9652605E0,8.682158E1,8.209033E0,5.4433017E0,2.521959E0,8.293387E1,3.8877115E0,2.778655E0,5.4303775E0,1.1382033E0,1.3837559E0],"tree_param":{"num_deleted":"0","num_feature":"75","num_nodes":"23","size_leaf_vector":"0"}},{"base_weights":[-4.8034646E-2,-8.284312E-3,-8.3217484E-1,8.3045465E-1,-3.7942138E-2,-9.605457E-1,3.2771993E-2,2.4148957E-1,-1.2036783E0,2.6009196E-1,-1.5174912E-1,-1.4326358E0,-5.170698E-1,3.683158E-1,-7.703274E-1,7.2508596E-2,-9.349581E-1,-6.193898E-1,-1.484761E-1,5.064206E-1,-2.8431702E-1,-1.1573924E0,-3.595069E-2,1.8800686E-1,-9.505138E-1,-1.4155598E0,-1.7595105E-1],"categories":[],"categories_nodes":[],"categories_segments":[],"categories_sizes":[],"default_left":[1,1,0,0,1,1,1,0,1,1,1,0,1,1,1,1,1,0,0,0,0,0,0,0,0,0,0],"id":13,"left_children":[1,3,-1,-1,5,7,9,-1,11,13,15,-1,17,19,21,23,25,-1,-1,-1,-1,-1,-1,-1,-1,-1,-1],"loss_changes":[3.5146687E0,2.731434E0,0E0,0E0,6.93323E0,2.5012999E0,4.201466E0,0E0,2.7454376E-1,5.2824125E0,9.798186E0,0E0,2.7962565E-2,3.8611045E0,1.2613735E0,5.3771276E0,4.2755327E0,0E0,0E0,0E0,0E0,0E0,0E0,0E0,0E0,0E0,0E0],"parents":[2147483647,0,0,1,1,4,4,5,5,6,6,8,8,9,9,10,10,12,12,13,13,14,14,15,15,16,16],"right_children":[2,4,-1,-1,6,8,10,-1,12,14,16,-1,18,20,22,24,26,-1,-1,-1,-1,-1,-1,-1,-1,-1,-1],"split_conditions":[1.2713802E-1,1.8874125E-4,-2.4965246E-1,2.491364E-1,3.1758389E-3,1.8495685E-4,1.1299269E-1,7.2446875E-2,1.0205483E-3,2.085074E-2,1.2658808E-1,-4.2979077E-1,4.284111E-4,1.4451107E-1,1.064377E-1,1.1922899E-1,4.1767163E-3,-1.8581694E-1,-4.454283E-2,1.5192619E-1,-8.529511E-2,-3.4721774E-1,-1.0785207E-2,5.640206E-2,-2.8515413E-1,-4.2466795E-1,-5.278532E-2],"split_indices":[58,72,0,0,72,57,27,0,72,61,60,0,31,0,17,17,16,0,0,0,0,0,0,0,0,0,0],"split_type":[0,0,0,0,0,0,0,0,0,0,0,0,0,0,0,0,0,0,0,0,0,0,0,0,0,0,0],"sum_hessian":[1.1197983E2,1.0753893E2,4.4408946E0,2.7505562E0,1.04788376E2,6.56405E0,9.822433E1,1.1054614E0,5.4585886E0,4.382489E1,5.4399433E1,3.2787218E0,2.179867E0,4.0240982E1,3.5839083E0,4.299579E1,1.1403645E1,1.1736531E0,1.0062139E0,3.3397675E1,6.8433084E0,1.9697173E0,1.614191E0,3.9367462E1,3.6283257E0,6.452757E0,4.950887E0],"tree_param":{"num_deleted":"0","num_feature":"75","num_nodes":"27","size_leaf_vector":"0"}},{"base_weights":[-5.1049013E-2,-1.8663792E-1,1.7664412E-1,-3.2136226E-1,7.155923E-2,3.534416E-1,-4.57172E-1,-1.0887722E-1,-1.0996761E0,-1.1995243E-1,6.213266E-1,4.6989262E-1,-2.6321396E-1,3.7212992E-1,-1.1138718E0,7.559437E-3,-8.0923855E-1,-3.2261354E-1,-1.223329E0,-4.253749E-1,4.4007573E-1,7.5618964E-1,-4.728684E-2,1.0713392E-1,8.475774E-1,-1.0048573E0,3.0939656E-1,7.79798E-1,-2.1784167E-1,1.6628055E-1,-6.799795E-1,-9.4355464E-1,-1.6560952E-1,-1.3357778E0,-3.7737596E-1,-8.8293976E-1,4.311022E-1,8.183973E-1,-4.358533E-1,8.765621E-1,1.1763738E-1,5.339333E-1,-5.348096E-1,9.589281E-1,-1.4339544E-1,-3.0192143E-1,6.1386544E-1,6.0262555E-1,-1.868719E-1,-1.1063331E0,2.4850121E-1,4.76481E-2,-1.0916411E0,8.597288E-1,-5.6485164E-1,8.1510633E-1,-2.7326062E-1,-1.028867E0,5.670798E-1],"categories":[],"categories_nodes":[],"categories_segments":[],"categories_sizes":[],"default_left":[1,1,1,1,1,1,1,1,1,1,1,1,1,1,0,1,1,0,1,1,1,1,0,1,1,0,1,0,0,1,1,0,0,0,0,1,1,0,0,0,0,1,1,0,0,0,0,0,0,0,0,0,0,0,0,0,0,0,0],"id":14,"left_children":[1,3,5,7,9,11,13,15,17,19,21,23,25,27,-1,29,31,-1,33,35,37,39,-1,41,43,-1,45,-1,-1,47,49,-1,-1,-1,-1,51,53,-1,-1,-1,-1,55,57,-1,-1,-1,-1,-1,-1,-1,-1,-1,-1,-1,-1,-1,-1,-1,-1],"loss_changes":[3.354621E0,2.385671E0,4.71902E0,7.291728E0,2.6126432E0,2.4477654E0,5.482805E0,2.9674182E0,5.1825047E-1,3.3886168E0,6.1193824E-1,3.68821E0,2.7663114E0,1.3393188E0,0E0,3.6190803E0,2.9205513E-1,0E0,2.4155617E-1,5.32635E0,2.7084508E0,3.1011772E-1,0E0,4.453866E0,1.6126585E0,0E0,9.349388E-1,0E0,0E0,4.258665E0,2.7380748E0,0E0,0E0,0E0,0E0,1.7132621E0,2.6484144E0,0E0,0E0,0E0,0E0,2.410339E0,4.162969E0,0E0,0E0,0E0,0E0,0E0,0E0,0E0,0E0,0E0,0E0,0E0,0E0,0E0,0E0,0E0,0E0],"parents":[2147483647,0,0,1,1,2,2,3,3,4,4,5,5,6,6,7,7,8,8,9,9,10,10,11,11,12,12,13,13,15,15,16,16,18,18,19,19,20,20,21,21,23,23,24,24,26,26,29,29,30,30,35,35,36,36,41,41,42,42],"right_children":[2,4,6,8,10,12,14,16,18,20,22,24,26,28,-1,30,32,-1,34,36,38,40,-1,42,44,-1,46,-1,-1,48,50,-1,-1,-1,-1,52,54,-1,-1,-1,-1,56,58,-1,-1,-1,-1,-1,-1,-1,-1,-1,-1,-1,-1,-1,-1,-1,-1],"split_conditions":[8.6733635E-6,1.3172673E-1,1.734432E-2,1.1861285E-1,1.8020627E-1,1.1605708E-2,4.049134E-2,1.5634581E-1,2.7561053E-3,1.6877672E-1,1.116098E-1,1.7748409E-5,1.4433828E-1,1.2701026E-1,-3.3416155E-1,9.4759926E-2,9.398012E-2,-9.678406E-2,2.6370487E-3,6.82428E-2,1.4615643E-1,5.4905243E-2,-1.4186052E-2,5.0833087E-2,1.5334532E-1,-3.014572E-1,1.0646353E-1,2.339394E-1,-6.535251E-2,7.115774E-2,4.9761686E-2,-2.830664E-1,-4.968286E-2,-4.0073335E-1,-1.13212794E-1,1.3135844E-1,9.3459986E-2,2.4551919E-1,-1.3075599E-1,2.6296866E-1,3.5291217E-2,7.8473106E-2,2.539688E-1,2.8767845E-1,-4.301863E-2,-9.057643E-2,1.8415964E-1,1.8078767E-1,-5.6061573E-2,-3.3189994E-1,7.455037E-2,1.429443E-2,-3.2749233E-1,2.5791866E-1,-1.694555E-1,2.4453191E-1,-8.197819E-2,-3.0866012E-1,1.7012393E-1],"split_indices":[1,30,1,30,10,31,4,11,28,3,32,31,7,15,0,2,28,0,16,28,30,3,0,49,11,0,6,0,0,13,30,0,0,0,0,45,58,0,0,0,0,47,9,0,0,0,0,0,0,0,0,0,0,0,0,0,0,0,0],"split_type":[0,0,0,0,0,0,0,0,0,0,0,0,0,0,0,0,0,0,0,0,0,0,0,0,0,0,0,0,0,0,0,0,0,0,0,0,0,0,0,0,0,0,0,0,0,0,0,0,0,0,0,0,0,0,0,0,0,0,0],"sum_hessian":[1.06592026E2,6.692136E1,3.967067E1,4.3814705E1,2.3106653E1,3.1364244E1,8.306422E0,3.531371E1,8.500997E0,1.7716808E1,5.3898444E0,2.6582354E1,4.781892E0,3.8623078E0,4.4441147E0,3.112784E1,4.1858673E0,1.6624993E0,6.838497E0,1.1620033E1,6.096775E0,4.3761654E0,1.0136786E0,1.4213871E1,1.2368483E1,1.7545428E0,3.027349E0,2.0937674E0,1.7685404E0,2.5905584E1,5.222257E0,3.077621E0,1.1082463E0,5.525055E0,1.3134425E0,7.5536623E0,4.066371E0,4.3036647E0,1.7931105E0,3.3684506E0,1.007715E0,8.638666E0,5.5752053E0,1.1148155E1,1.2203268E0,1.0092753E0,2.0180738E0,1.1271914E1,1.463367E1,3.4475892E0,1.7746679E0,1.5250845E0,6.028578E0,2.938509E0,1.1278619E0,6.3996487E0,2.239017E0,3.8950431E0,1.6801622E0],"tree_param":{"num_deleted":"0","num_feature":"75","num_nodes":"59","size_leaf_vector":"0"}},{"base_weights":[-4.6110302E-2,-1.6684355E-1,1.5669644E-1,7.964265E-2,-4.0388995E-1,2.7262518E-1,-8.221708E-1,2.8634334E-1,-6.06126E-1,-9.504068E-2,-1.2702396E0,9.1236925E-1,9.981277E-2,-1.9134375E-1,5.926208E-1,-8.1263095E-1,1.9892654E-1,-3.655755E-1,2.4200307E-1,-1.3750546E0,-2.5685802E-1,4.3595675E-1,-2.4064389E-1,-6.006724E-1,4.3239582E-1,-5.802806E-1,7.259012E-1,1.0397814E-1,-1.0115094E0,-4.797803E-1,5.260793E-1,4.1612327E-1,-7.552959E-1,7.1636826E-1,-1.8855758E-1,1.7055939E-1,-9.3405265E-1,-9.837234E-1,7.405152E-2,-2.9567325E-1,7.3155075E-1,8.07462E-1,-1.7177065E-1,-9.9955297E-1,-1.8610139E-1,6.590053E-1,-2.8335315E-1,2.3673302E-1,9.050412E-1,1.8032172E-1,-7.9089487E-1,-5.650656E-1,5.0022477E-1,-1.1381581E0,-1.05193555E-1],"categories":[],"categories_nodes":[],"categories_segments":[],"categories_sizes":[],"default_left":[1,1,1,1,1,1,0,1,1,1,1,0,1,1,1,1,0,1,1,0,0,1,1,1,1,0,1,0,0,1,0,1,0,1,1,1,1,0,0,0,0,0,0,0,0,0,0,0,0,0,0,0,0,0,0],"id":15,"left_children":[1,3,5,7,9,11,-1,13,15,17,19,-1,21,23,25,27,-1,29,31,-1,-1,33,35,37,39,-1,41,-1,-1,43,-1,45,-1,47,49,51,53,-1,-1,-1,-1,-1,-1,-1,-1,-1,-1,-1,-1,-1,-1,-1,-1,-1,-1],"loss_changes":[2.4251075E0,3.6488156E0,4.431518E0,4.593338E0,8.366156E0,3.656909E0,0E0,3.718046E0,1.4155538E0,2.319087E0,5.2361774E-1,0E0,3.2880175E0,2.9102576E0,2.8062005E0,1.2352672E0,0E0,1.6748751E0,2.310299E0,0E0,0E0,2.648296E0,4.2830925E0,1.8010204E0,1.2388617E0,0E0,1.174252E0,0E0,0E0,1.7840202E0,0E0,1.9587965E0,0E0,7.008805E-1,1.3066041E0,2.6894295E0,8.1721306E-1,0E0,0E0,0E0,0E0,0E0,0E0,0E0,0E0,0E0,0E0,0E0,0E0,0E0,0E0,0E0,0E0,0E0,0E0],"parents":[2147483647,0,0,1,1,2,2,3,3,4,4,5,5,7,7,8,8,9,9,10,10,12,12,13,13,14,14,15,15,17,17,18,18,21,21,22,22,23,23,24,24,26,26,29,29,31,31,33,33,34,34,35,35,36,36],"right_children":[2,4,6,8,10,12,-1,14,16,18,20,-1,22,24,26,28,-1,30,32,-1,-1,34,36,38,40,-1,42,-1,-1,44,-1,46,-1,48,50,52,54,-1,-1,-1,-1,-1,-1,-1,-1,-1,-1,-1,-1,-1,-1,-1,-1,-1,-1],"split_conditions":[2.6713028E-6,9.7833514E-2,2.4242088E-2,8.4877364E-2,1.10029474E-1,2.5058582E-3,-2.4665125E-1,1.9547138E-2,1.5070274E-2,4.998653E-2,1.7312577E-1,2.737108E-1,7.743076E-2,1.5382844E-1,1.9929299E-4,4.9140926E-2,5.9677962E-2,2.4977882E-1,9.013933E-2,-4.125164E-1,-7.705741E-2,9.144695E-3,1.1479354E-1,1.4270297E-1,8.19328E-2,-1.7408419E-1,6.470144E-2,3.1193445E-2,-3.0345285E-1,4.5671626E-3,1.578238E-1,9.075107E-2,-2.2658877E-1,1.4230746E-1,1.3864495E-1,8.239793E-2,1.3147783E-1,-2.9511702E-1,2.2215458E-2,-8.870198E-2,2.1946524E-1,2.422386E-1,-5.1531196E-2,-2.998659E-1,-5.583042E-2,1.9770159E-1,-8.500595E-2,7.101991E-2,2.715124E-1,5.409652E-2,-2.3726846E-1,-1.695197E-1,1.5006743E-1,-3.4144744E-1,-3.1558067E-2],"split_indices":[16,72,1,4,0,16,0,72,46,4,64,0,47,9,28,60,0,74,17,0,0,46,12,60,17,0,43,0,0,32,0,60,0,12,15,62,0,0,0,0,0,0,0,0,0,0,0,0,0,0,0,0,0,0,0],"split_type":[0,0,0,0,0,0,0,0,0,0,0,0,0,0,0,0,0,0,0,0,0,0,0,0,0,0,0,0,0,0,0,0,0,0,0,0,0,0,0,0,0,0,0,0,0,0,0,0,0,0,0,0,0,0,0],"sum_hessian":[9.697481E1,6.0898525E1,3.6076283E1,3.0180342E1,3.0718182E1,3.290123E1,3.1750536E0,2.3637964E1,6.542378E0,2.3463327E1,7.254855E0,6.087188E0,2.6814043E1,9.381431E0,1.4256534E1,5.199289E0,1.3430891E0,1.2968917E1,1.049441E1,6.251373E0,1.0034821E0,1.3351332E1,1.346271E1,5.686591E0,3.6948392E0,1.1124918E0,1.3144042E1,1.0120478E0,4.187241E0,1.1905908E1,1.0630093E0,9.430647E0,1.0637636E0,9.112618E0,4.2387133E0,8.92441E0,4.5383005E0,3.3351893E0,2.3514018E0,1.0794249E0,2.6154144E0,1.2141391E1,1.0026509E0,3.4306154E0,8.475292E0,7.0429525E0,2.3876936E0,3.2091637E0,5.9034543E0,3.0633237E0,1.1753899E0,2.5407805E0,6.38363E0,3.342141E0,1.1961597E0],"tree_param":{"num_deleted":"0","num_feature":"75","num_nodes":"55","size_leaf_vector":"0"}},{"base_weights":[-4.888515E-2,-1.8358753E-3,-5.2326095E-1,-5.8462836E-2,5.132397E-1,-8.52112E-1,-4.811408E-2,2.4432516E-1,-1.5116845E-1,7.5905514E-1,-1.748359E-1,3.8571176E-1,-5.819918E-1,3.7193996E-1,-6.651103E-1,-1.0662866E0,-6.724291E-2,9.271204E-1,-5.929169E-2,-3.2141867E-1,5.7112193E-1,-7.931559E-1,1.8359419E-2,-7.24651E-1,1.8761455E-1,7.2724515E-1,-3.0976868E-1,-1.1661654E0,-8.154249E-2,-2.1214494E-1,2.9265732E-1],"categories":[],"categories_nodes":[],"categories_segments":[],"categories_sizes":[],"default_left":[1,1,1,1,1,0,1,1,1,1,0,0,0,1,0,0,1,0,0,1,1,1,1,0,0,0,0,0,0,0,0],"id":16,"left_children":[1,3,5,7,9,-1,11,13,15,17,-1,-1,-1,19,-1,-1,21,-1,-1,23,25,27,29,-1,-1,-1,-1,-1,-1,-1,-1],"loss_changes":[1.9807692E0,2.4153752E0,1.2103145E0,2.1304028E0,1.5201311E0,0E0,1.2285998E0,2.3206444E0,4.360975E0,9.1194296E-1,0E0,0E0,0E0,2.4356654E0,0E0,0E0,3.3660512E0,0E0,0E0,1.0142655E0,2.0170064E0,1.4210641E0,3.1742845E0,0E0,0E0,0E0,0E0,0E0,0E0,0E0,0E0],"parents":[2147483647,0,0,1,1,2,2,3,3,4,4,6,6,7,7,8,8,9,9,13,13,16,16,19,19,20,20,21,21,22,22],"right_children":[2,4,6,8,10,-1,12,14,16,18,-1,-1,-1,20,-1,-1,22,-1,-1,24,26,28,30,-1,-1,-1,-1,-1,-1,-1,-1],"split_conditions":[1.1441769E-1,9.583693E-2,1.8298542E-1,4.7769316E-2,9.006083E-2,-2.5563362E-1,1.94364E-2,1.3021946E-1,1.1600436E-2,1.7674649E-1,-5.2450772E-2,1.1571353E-1,-1.7459755E-1,3.8907386E-2,-1.9953309E-1,-3.1988597E-1,5.2447904E-2,2.7813613E-1,-1.7787509E-2,1.0550129E-3,4.7860056E-2,4.501354E-2,7.6711745E-5,-2.173953E-1,5.6284364E-2,2.1817355E-1,-9.293061E-2,-3.498496E-1,-2.4462748E-2,-6.3643485E-2,8.7797195E-2],"split_indices":[13,28,10,0,73,0,32,11,2,12,0,0,0,11,0,0,30,0,0,1,15,28,16,0,0,0,0,0,0,0,0],"split_type":[0,0,0,0,0,0,0,0,0,0,0,0,0,0,0,0,0,0,0,0,0,0,0,0,0,0,0,0,0,0,0],"sum_hessian":[8.779099E1,8.0782715E1,7.008276E0,7.35799E1,7.202814E0,3.6728895E0,3.3353865E0,1.6864117E1,5.6715786E1,5.230911E0,1.9719034E0,1.9932287E0,1.3421578E0,1.5307185E1,1.5569307E0,3.7811573E0,5.2934628E1,4.2293944E0,1.0015163E0,3.2790427E0,1.2028143E1,4.7118936E0,4.8222733E1,1.5933123E0,1.6857303E0,1.0365458E1,1.6626847E0,2.6723526E0,2.039541E0,2.6326244E1,2.189649E1],"tree_param":{"num_deleted":"0","num_feature":"75","num_nodes":"31","size_leaf_vector":"0"}},{"base_weights":[-4.7962453E-2,7.115343E-1,-7.612728E-2,-3.016689E-1,3.383142E-2,-5.4911304E-1,3.4588438E-1,5.8910555E-1,-9.068761E-2,2.5071284E-1,-8.500531E-1,5.782852E-1,-6.3205516E-1,-5.174815E-1,8.020137E-1,-4.7906384E-1,8.571063E-2,-4.6990448E-1,4.9198005E-1,-9.6836615E-1,2.760961E-1,7.358554E-1,-1.7964178E-1,9.0184814E-1,8.7764435E-2,-5.8506256E-1,2.1362135E-1,-1.02997825E-1,3.7241322E-1,4.8415195E-2,7.4222153E-1,-1.1651105E0,-4.117547E-1,-1.6596725E-2,8.894433E-1,9.687823E-1,2.3352633E-1,-3.375222E-1,-1.03073E0,5.971592E-3,-7.2255003E-1,5.1476616E-1,-5.2731836E-1],"categories":[],"categories_nodes":[],"categories_segments":[],"categories_sizes":[],"default_left":[1,0,1,1,1,1,1,1,1,1,1,1,0,0,1,1,1,0,1,1,0,1,0,1,0,1,0,1,1,0,0,0,0,0,0,0,0,0,0,0,0,0,0],"id":17,"left_children":[1,-1,3,5,7,9,11,13,15,17,19,21,-1,-1,23,25,27,-1,29,31,-1,33,-1,35,-1,37,-1,39,41,-1,-1,-1,-1,-1,-1,-1,-1,-1,-1,-1,-1,-1,-1],"loss_changes":[1.8491815E0,0E0,2.0392864E0,4.50276E0,3.9185379E0,4.993615E0,2.1962256E0,2.8588943E0,3.228645E0,1.3094752E0,2.2204752E0,9.718363E-1,0E0,0E0,5.6912374E-1,1.2031398E0,1.8153231E0,0E0,5.340315E-1,9.9722767E-1,0E0,7.1010804E-1,0E0,1.2575483E-1,0E0,1.0865722E0,0E0,1.3944144E0,1.9689677E0,0E0,0E0,0E0,0E0,0E0,0E0,0E0,0E0,0E0,0E0,0E0,0E0,0E0,0E0],"parents":[2147483647,0,0,2,2,3,3,4,4,5,5,6,6,7,7,8,8,9,9,10,10,11,11,14,14,15,15,16,16,18,18,19,19,21,21,23,23,25,25,27,27,28,28],"right_children":[2,-1,4,6,8,10,12,14,16,18,20,22,-1,-1,24,26,28,-1,30,32,-1,34,-1,36,-1,38,-1,40,42,-1,-1,-1,-1,-1,-1,-1,-1,-1,-1,-1,-1,-1,-1],"split_conditions":[1.9421946E-4,2.1346031E-1,2.1265592E-2,1.21851295E-1,2.9520053E-2,4.5498036E-2,1.3623735E-2,9.956233E-3,1.7113036E-1,3.8967993E-2,1.8456393E-1,1.0621406E-1,-1.8961656E-1,-1.5524445E-1,1.7716476E-1,1.7119071E-1,1.7748409E-5,-1.4097135E-1,1.1066826E-5,1.3664383E-1,8.2828835E-2,4.0849566E-2,-5.3892538E-2,3.6952123E-2,2.6329331E-2,8.1648394E-2,6.408641E-2,1.4077789E-1,1.1162946E-2,1.45245595E-2,2.2266647E-1,-3.4953314E-1,-1.2352642E-1,-4.9790177E-3,2.66833E-1,2.906347E-1,7.0057906E-2,-1.0125667E-1,-3.09219E-1,1.7914777E-3,-2.1676502E-1,1.5442985E-1,-1.5819551E-1],"split_indices":[58,0,73,6,73,15,58,13,10,11,5,42,0,0,9,48,31,0,61,15,0,4,0,43,0,2,0,0,1,0,0,0,0,0,0,0,0,0,0,0,0,0,0],"split_type":[0,0,0,0,0,0,0,0,0,0,0,0,0,0,0,0,0,0,0,0,0,0,0,0,0,0,0,0,0,0,0,0,0,0,0,0,0,0,0,0,0,0,0],"sum_hessian":[8.291409E1,2.09721E0,8.081688E1,2.5915949E1,5.4900932E1,1.8860834E1,7.0551143E0,9.372887E0,4.5528046E1,5.202021E0,1.3658813E1,6.030642E0,1.0244722E0,1.281544E0,8.091343E0,1.368405E1,3.1843998E1,1.0671133E0,4.1349077E0,1.2487036E1,1.1717777E0,5.0167913E0,1.0138509E0,6.8686266E0,1.2227163E0,1.2002697E1,1.6813526E0,1.9590334E1,1.2253663E1,1.9218361E0,2.2130716E0,8.418239E0,4.068797E0,1.001622E0,4.015169E0,5.834693E0,1.033934E0,8.846411E0,3.156286E0,1.7502316E1,2.0880184E0,1.0949182E1,1.3044815E0],"tree_param":{"num_deleted":"0","num_feature":"75","num_nodes":"43","size_leaf_vector":"0"}},{"base_weights":[-3.9111886E-2,6.30957E-1,-6.669386E-2,-8.5234183E-1,-5.0389683E-3,-9.750233E-1,-1.649584E-1,3.5692114E-2,-6.558927E-1,1.0006812E-1,-3.4910408E-1,-1.2460398E-1,2.2933298E-1,1.0930752E-1,-8.2251805E-1,-3.5827675E-1,4.2995614E-1,6.4435816E-1,6.917143E-2,-4.0476358E-1,5.8221406E-1,-1.1065946E0,-3.136629E-2],"categories":[],"categories_nodes":[],"categories_segments":[],"categories_sizes":[],"default_left":[1,0,1,1,1,0,0,1,0,1,1,1,1,1,1,0,0,0,0,0,0,0,0],"id":18,"left_children":[1,-1,3,5,7,-1,-1,9,-1,11,13,15,17,19,21,-1,-1,-1,-1,-1,-1,-1,-1],"loss_changes":[1.4891768E0,0E0,3.6822634E0,3.0567694E-1,1.9208645E0,0E0,0E0,1.7270367E0,0E0,1.7506409E0,2.262868E0,3.04429E0,2.4807642E0,1.6869369E0,1.0987141E0,0E0,0E0,0E0,0E0,0E0,0E0,0E0,0E0],"parents":[2147483647,0,0,2,2,3,3,4,4,7,7,9,9,10,10,11,11,12,12,13,13,14,14],"right_children":[2,-1,4,6,8,-1,-1,10,-1,12,14,16,18,20,22,-1,-1,-1,-1,-1,-1,-1,-1],"split_conditions":[1.9525632E-4,1.8928711E-1,3.1758389E-3,8.230354E-2,1.14506185E-1,-2.9250702E-1,-4.9487524E-2,1.3271812E-1,-1.9676782E-1,1.8614037E-2,8.852494E-2,1.2176368E-1,3.18681E-2,5.201835E-2,3.1687394E-2,-1.0748303E-1,1.2898685E-1,1.9330746E-1,2.075143E-2,-1.2142908E-1,1.7466423E-1,-3.3197838E-1,-9.409887E-3],"split_indices":[72,0,72,13,73,0,0,32,0,73,5,6,58,30,28,0,0,0,0,0,0,0,0],"split_type":[0,0,0,0,0,0,0,0,0,0,0,0,0,0,0,0,0,0,0,0,0,0,0],"sum_hessian":[7.729833E1,2.1911612E0,7.510717E1,4.5320716E0,7.0575096E1,3.4906228E0,1.0414491E0,6.730805E1,3.2670443E0,5.829526E1,9.012792E0,2.1303764E1,3.6991497E1,4.969694E0,4.0430975E0,1.5237249E1,6.066514E0,9.458527E0,2.753297E1,2.4502518E0,2.519442E0,2.681534E0,1.3615637E0],"tree_param":{"num_deleted":"0","num_feature":"75","num_nodes":"23","size_leaf_vector":"0"}},{"base_weights":[-3.3485193E-2,-1.3594215E-1,1.4658383E-1,-2.3472749E-1,1.4512953E-1,3.096476E-1,-3.0375424E-1,-1.1393771E-1,-8.641025E-1,-4.3382037E-1,3.4081936E-1,5.4623686E-2,7.007138E-1,1.1709272E-1,-6.6548175E-1,6.8424116E-3,-6.547529E-1,-8.7581664E-1,1.9703229E-1,5.53791E-1,-3.076239E-1,-2.8319085E-1,6.51969E-1,8.1147E-1,-1.9239668E-2,-1.9842187E-1,5.3719133E-1,-9.8257107E-1,3.1231968E-2,1.7828225E-1,-4.5142132E-1,-8.274434E-1,-2.9813994E-2,7.9694256E-2,6.902817E-1,-6.59221E-1,2.1491826E-1,3.1287947E-1,-6.190058E-1,3.8305257E-2,7.902529E-1,8.7023777E-1,2.3599042E-1,-6.777752E-1,3.5125256E-1,3.4551924E-1,-3.453115E-1,-6.108925E-1,2.0130599E-1,-9.99325E-2,6.200836E-1,-8.675234E-1,1.5021314E-1],"categories":[],"categories_nodes":[],"categories_segments":[],"categories_sizes":[],"default_left":[1,1,1,1,1,1,1,1,0,1,1,1,1,1,1,1,1,0,0,1,1,1,1,1,0,1,0,0,0,1,1,0,0,0,0,0,0,1,1,0,0,0,0,0,0,0,0,0,0,0,0,0,0],"id":19,"left_children":[1,3,5,7,9,11,13,15,-1,17,19,21,23,25,27,29,31,-1,-1,33,35,37,39,41,-1,43,-1,-1,-1,45,47,-1,-1,-1,-1,-1,-1,49,51,-1,-1,-1,-1,-1,-1,-1,-1,-1,-1,-1,-1,-1,-1],"loss_changes":[1.4055874E0,1.377599E0,2.1295085E0,2.6525114E0,1.6435379E0,2.0406127E0,1.276486E0,2.0628119E0,0E0,1.2251632E0,1.6102899E0,2.9494994E0,6.649556E-1,7.016769E-1,9.991267E-1,2.1819723E0,5.972874E-1,0E0,0E0,4.7599673E-1,7.334055E-1,2.0851204E0,4.1544223E-1,3.4101963E-2,0E0,1.1060591E0,0E0,0E0,0E0,1.8866229E0,9.10483E-1,0E0,0E0,0E0,0E0,0E0,0E0,5.780357E-1,1.3499131E0,0E0,0E0,0E0,0E0,0E0,0E0,0E0,0E0,0E0,0E0,0E0,0E0,0E0,0E0],"parents":[2147483647,0,0,1,1,2,2,3,3,4,4,5,5,6,6,7,7,9,9,10,10,11,11,12,12,13,13,14,14,15,15,16,16,19,19,20,20,21,21,22,22,23,23,25,25,29,29,30,30,37,37,38,38],"right_children":[2,4,6,8,10,12,14,16,-1,18,20,22,24,26,28,30,32,-1,-1,34,36,38,40,42,-1,44,-1,-1,-1,46,48,-1,-1,-1,-1,-1,-1,50,52,-1,-1,-1,-1,-1,-1,-1,-1,-1,-1,-1,-1,-1,-1],"split_conditions":[8.6733635E-6,1.3735425E-1,8.538711E-3,1.3034557E-1,9.5349535E-2,1.7748409E-5,1.5149292E-1,1.4894456E-1,-2.5923076E-1,1.3629559E-1,1.3804418E-1,1.6677746E-1,1.5909985E-2,1.4506781E-1,9.795165E-2,7.75116E-2,7.784207E-2,-2.62745E-1,5.9109688E-2,9.206818E-2,1.42358E-1,5.082036E-2,3.1048074E-2,1.1777729E-2,-5.7719005E-3,1.7594841E-1,1.611574E-1,-2.9477134E-1,9.36959E-3,1.0249315E-1,1.4978236E-2,-2.4823304E-1,-8.9441985E-3,2.3908278E-2,2.0708452E-1,-1.977663E-1,6.447548E-2,4.580351E-2,1.2148239E-1,1.1491577E-2,2.3707588E-1,2.6107135E-1,7.079713E-2,-2.0333257E-1,1.05375774E-1,1.0365578E-1,-1.03593454E-1,-1.8326774E-1,6.03918E-2,-2.997975E-2,1.8602508E-1,-2.6025704E-1,4.5063943E-2],"split_indices":[1,45,31,60,62,31,9,71,0,11,32,8,1,72,47,2,73,0,0,6,62,60,47,16,0,10,0,0,0,43,31,0,0,0,0,0,0,45,6,0,0,0,0,0,0,0,0,0,0,0,0,0,0],"split_type":[0,0,0,0,0,0,0,0,0,0,0,0,0,0,0,0,0,0,0,0,0,0,0,0,0,0,0,0,0,0,0,0,0,0,0,0,0,0,0,0,0,0,0,0,0,0,0,0,0,0,0,0,0],"sum_hessian":[7.41063E1,4.7388126E1,2.6718178E1,3.518641E1,1.2201718E1,1.9844908E1,6.87327E0,3.051164E1,4.6747675E0,2.7749953E0,9.426723E0,1.2701577E1,7.1433315E0,3.4896176E0,3.3836524E0,2.5748568E1,4.7630734E0,1.4034121E0,1.3715832E0,7.20599E0,2.2207325E0,8.449231E0,4.2523456E0,6.0807652E0,1.0625665E0,2.294222E0,1.1953952E0,2.0433748E0,1.3402777E0,1.918302E1,6.565547E0,3.4779625E0,1.2851108E0,1.964888E0,5.241102E0,1.1711493E0,1.0495833E0,3.0693839E0,5.3798475E0,1.0168531E0,3.2354925E0,5.052599E0,1.0281659E0,1.1010146E0,1.1932076E0,1.4796944E1,4.3860765E0,5.327943E0,1.2376045E0,1.5974628E0,1.4719212E0,3.96957E0,1.4102776E0],"tree_param":{"num_deleted":"0","num_feature":"75","num_nodes":"53","size_leaf_vector":"0"}},{"base_weights":[-3.110471E-2,6.3855904E-1,-5.6367725E-2,6.029516E-1,-7.8299016E-2,-6.4333725E-1,-2.8683376E-2,2.3166607E-3,-8.0489594E-1,-1.4505564E-1,1.7013983E-1,9.685894E-2,-3.350736E-1,-1.1118647E-1,5.171456E-1,-3.193055E-1,2.6887527E-1,-6.283088E-1,1.3826568E-1,-3.912701E-1,5.727391E-1,6.6886E-1,-6.5394685E-2],"categories":[],"categories_nodes":[],"categories_segments":[],"categories_sizes":[],"default_left":[1,0,1,0,1,1,1,0,0,1,1,1,1,1,1,0,0,0,0,0,0,0,0],"id":20,"left_children":[1,-1,3,-1,5,7,9,-1,-1,11,13,15,17,19,21,-1,-1,-1,-1,-1,-1,-1,-1],"loss_changes":[1.2117003E0,0E0,1.0288525E0,0E0,1.8483119E0,5.5767226E-1,1.4652027E0,0E0,0E0,1.8625596E0,2.3464115E0,1.3952003E0,3.2129514E0,2.8621805E0,9.8718286E-1,0E0,0E0,0E0,0E0,0E0,0E0,0E0,0E0],"parents":[2147483647,0,0,2,2,4,4,5,5,6,6,9,9,10,10,11,11,12,12,13,13,14,14],"right_children":[2,-1,4,-1,6,8,10,-1,-1,12,14,16,18,20,22,-1,-1,-1,-1,-1,-1,-1,-1],"split_conditions":[1.9482797E-4,1.9156772E-1,1.7531295E-4,1.8088548E-1,3.1758389E-3,3.9932635E-4,2.0548676E-5,6.9499825E-4,-2.4146879E-1,1.0105564E-1,3.8592756E-2,9.265566E-2,7.846305E-2,1.6411372E-1,1.1174431E-2,-9.579166E-2,8.0662586E-2,-1.8849264E-1,4.1479707E-2,-1.1738104E-1,1.7182174E-1,2.0065801E-1,-1.9618407E-2],"split_indices":[73,0,57,0,72,57,16,0,0,72,13,66,73,8,31,0,0,0,0,0,0,0,0],"split_type":[0,0,0,0,0,0,0,0,0,0,0,0,0,0,0,0,0,0,0,0,0,0,0],"sum_hessian":[6.849552E1,1.607518E0,6.688801E1,1.3004323E0,6.558758E1,4.328368E0,6.1259205E1,1.0635707E0,3.2647972E0,3.8812485E1,2.244672E1,1.7290266E1,2.152222E1,1.2771846E1,9.674875E0,4.8062077E0,1.2484058E1,1.3087238E1,8.434982E0,9.36469E0,3.4071555E0,7.558255E0,2.1166198E0],"tree_param":{"num_deleted":"0","num_feature":"75","num_nodes":"23","size_leaf_vector":"0"}},{"base_weights":[-1.827884E-2,7.95628E-3,-6.382716E-1,6.890722E-2,-2.6691985E-1,1.9007942E-1,-1.6299766E-1,-6.0414517E-1,8.4012106E-2,2.3078339E-1,-5.846112E-1,-5.551831E-1,1.073311E-1,-8.040216E-1,1.2640683E-1,6.0065943E-1,-1.4947683E-1,-5.1425494E-2,3.2286257E-1,6.417634E-2,-9.466247E-1,4.2656723E-1,-3.6816302E-1,1.03067935E-1,-6.1035025E-1,4.7891167E-1,-7.242299E-1,9.164481E-2,6.711221E-1,5.84252E-1,-4.3100023E-1,-2.8926855E-1,-1.0433855E0,-2.7838143E-2,7.2600734E-1,4.8355553E-2,-6.823713E-1,-3.047176E-1,4.3792012E-1],"categories":[],"categories_nodes":[],"categories_segments":[],"categories_sizes":[],"default_left":[1,1,0,1,1,1,1,1,1,1,0,1,1,0,0,0,1,1,1,1,1,1,1,1,0,0,0,0,0,0,0,0,0,0,0,0,0,0,0],"id":21,"left_children":[1,3,-1,5,7,9,11,13,15,17,-1,19,21,-1,-1,-1,23,25,27,29,31,33,35,37,-1,-1,-1,-1,-1,-1,-1,-1,-1,-1,-1,-1,-1,-1,-1],"loss_changes":[1.0900724E0,1.107141E0,0E0,1.5479833E0,1.4708205E0,1.2675698E0,2.080884E0,1.0129988E0,9.050351E-1,9.220301E-1,0E0,1.9860764E0,1.9974158E0,0E0,0E0,0E0,6.97863E-1,3.7131946E0,2.0650454E0,1.2849861E0,1.1727333E-2,1.0702662E0,7.406131E-1,7.314849E-1,0E0,0E0,0E0,0E0,0E0,0E0,0E0,0E0,0E0,0E0,0E0,0E0,0E0,0E0,0E0],"parents":[2147483647,0,0,1,1,3,3,4,4,5,5,6,6,7,7,8,8,9,9,11,11,12,12,16,16,17,17,18,18,19,19,20,20,21,21,22,22,23,23],"right_children":[2,4,-1,6,8,10,12,14,16,18,-1,20,22,-1,-1,-1,24,26,28,30,32,34,36,38,-1,-1,-1,-1,-1,-1,-1,-1,-1,-1,-1,-1,-1,-1,-1],"split_conditions":[1.2713802E-1,1.5264904E-1,-1.9148149E-1,8.8030145E-2,1.6894999E-1,1.3801368E-1,9.6212536E-2,1.044438E-2,1.4379588E-2,7.267571E-3,-1.7538336E-1,7.7795302E-3,4.4957247E-2,-2.4120648E-1,3.792205E-2,1.8019783E-1,1.4615643E-1,7.115774E-2,1.6275418E-1,1.1947742E-1,1.9921746E-2,2.2664834E-5,1.2443256E-1,4.2204116E-2,-1.8310508E-1,1.4367351E-1,-2.1726897E-1,2.7493443E-2,2.0133664E-1,1.7527561E-1,-1.2930007E-1,-8.678057E-2,-3.1301567E-1,-8.351443E-3,2.1780221E-1,1.4506667E-2,-2.047114E-1,-9.1415286E-2,1.3137604E-1],"split_indices":[58,11,0,2,3,32,62,31,43,17,0,3,57,0,0,0,30,13,12,2,13,31,17,2,0,0,0,0,0,0,0,0,0,0,0,0,0,0,0],"split_type":[0,0,0,0,0,0,0,0,0,0,0,0,0,0,0,0,0,0,0,0,0,0,0,0,0,0,0,0,0,0,0,0,0,0,0,0,0,0,0],"sum_hessian":[6.570489E1,6.3984535E1,1.7203518E0,5.2984978E1,1.0999557E1,3.4919575E1,1.8065405E1,5.241364E0,5.7581925E0,3.384346E1,1.0761145E0,6.941352E0,1.1124054E1,4.036441E0,1.204923E0,1.302835E0,4.4553576E0,8.434496E0,2.5408962E1,3.0118675E0,3.9294844E0,6.7171836E0,4.4068704E0,3.3797307E0,1.0756269E0,4.877779E0,3.5567172E0,1.602965E1,9.3793125E0,1.3812635E0,1.630604E0,1.0160884E0,2.913396E0,3.0284672E0,3.6887167E0,2.2587483E0,2.148122E0,1.564484E0,1.8152466E0],"tree_param":{"num_deleted":"0","num_feature":"75","num_nodes":"39","size_leaf_vector":"0"}},{"base_weights":[-2.4946207E-2,-1.172249E-1,1.4393517E-1,-2.3181817E-1,7.7035375E-2,2.9298618E-1,-2.4911204E-1,-3.092155E-1,3.3331496E-1,5.80813E-1,-5.48799E-2,4.8700684E-1,-7.442664E-2,2.6041374E-1,-4.4374374E-1,-5.3850716E-1,6.491459E-2,8.383459E-3,5.3336346E-1,3.0258268E-1,-2.631875E-1,1.04774125E-1,7.2533375E-1,2.8480276E-1,-6.8635815E-1,-1.9208048E-2,-7.038825E-1,-3.5154182E-1,-8.716778E-1,2.812563E-1,-6.1703175E-1,-6.585832E-2,6.188939E-1,2.9155353E-1,-5.993931E-1,5.0341517E-1,-3.8607118E-1,8.148757E-1,1.1506227E-1,4.7683454E-1,-1.98722E-1,3.577957E-1,-3.8396442E-1,-5.048123E-1,1.0580487E-1,4.92908E-1,-2.5959972E-1,-3.4748396E-1,2.7228928E-1,-1.8848294E-1,5.269228E-1,3.2164967E-1,-8.816948E-1,6.2614113E-1,1.1423103E-1,6.0401744E-1,8.399044E-2],"categories":[],"categories_nodes":[],"categories_segments":[],"categories_sizes":[],"default_left":[1,1,1,1,1,1,1,1,1,0,1,1,1,0,1,1,1,0,0,1,1,1,1,1,0,1,0,1,0,1,0,1,0,1,1,1,0,0,0,1,0,0,0,0,0,0,0,0,0,0,0,0,0,0,0,0,0],"id":22,"left_children":[1,3,5,7,9,11,13,15,17,-1,19,21,23,-1,25,27,29,-1,-1,31,33,35,37,39,-1,41,-1,43,-1,45,-1,47,-1,49,51,53,-1,-1,-1,55,-1,-1,-1,-1,-1,-1,-1,-1,-1,-1,-1,-1,-1,-1,-1,-1,-1],"loss_changes":[9.878757E-1,9.2705053E-1,1.3890506E0,1.2375995E0,1.0888101E0,1.2300957E0,7.8169465E-1,2.0365372E0,2.2990584E-1,0E0,1.0861855E0,9.344797E-1,1.6584071E0,0E0,5.641067E-1,6.014085E-1,1.6132427E0,0E0,0E0,6.749983E-1,1.8673904E0,1.2566302E0,2.7036476E-1,5.497408E-1,0E0,5.5202675E-1,0E0,8.252742E-1,0E0,1.0546358E0,0E0,4.2009124E-1,0E0,5.622699E-1,1.8379471E0,9.229565E-2,0E0,0E0,0E0,1.3919598E-1,0E0,0E0,0E0,0E0,0E0,0E0,0E0,0E0,0E0,0E0,0E0,0E0,0E0,0E0,0E0,0E0,0E0],"parents":[2147483647,0,0,1,1,2,2,3,3,4,4,5,5,6,6,7,7,8,8,10,10,11,11,12,12,14,14,15,15,16,16,19,19,20,20,21,21,22,22,23,23,25,25,27,27,29,29,31,31,33,33,34,34,35,35,39,39],"right_children":[2,4,6,8,10,12,14,16,18,-1,20,22,24,-1,26,28,30,-1,-1,32,34,36,38,40,-1,42,-1,44,-1,46,-1,48,-1,50,52,54,-1,-1,-1,56,-1,-1,-1,-1,-1,-1,-1,-1,-1,-1,-1,-1,-1,-1,-1,-1,-1],"split_conditions":[8.6733635E-6,4.983838E-2,8.538711E-3,1.8222669E-1,6.044817E-3,1.6007844E-2,4.579779E-3,1.3160518E-1,7.147837E-2,1.742439E-1,2.9384485E-2,1.1066826E-5,1.3547048E-1,7.812412E-2,1.4828487E-1,5.901918E-2,1.4450306E-1,2.515038E-3,1.6000904E-1,5.5535915E-3,4.7424063E-2,7.040857E-2,1.0071366E-1,7.5291395E-2,-2.0590745E-1,1.4342496E-1,-2.1116476E-1,1.8234661E-1,-2.6150337E-1,4.7859997E-3,-1.8510953E-1,1.3533264E-1,1.8566819E-1,1.14503175E-1,8.154945E-2,3.9135713E-2,-1.15821354E-1,2.4446273E-1,3.451868E-2,7.0627905E-2,-5.9616603E-2,1.0733871E-1,-1.1518933E-1,-1.5144369E-1,3.1741463E-2,1.478724E-1,-7.787992E-2,-1.0424519E-1,8.168679E-2,-5.6544885E-2,1.5807685E-1,9.6494906E-2,-2.6450846E-1,1.8784235E-1,3.426931E-2,1.8120524E-1,2.5197133E-2],"split_indices":[1,4,31,59,62,3,1,30,11,0,72,61,60,0,9,32,0,0,0,31,15,12,6,4,0,11,0,10,0,61,0,2,0,4,4,11,0,0,0,32,0,0,0,0,0,0,0,0,0,0,0,0,0,0,0,0,0],"split_type":[0,0,0,0,0,0,0,0,0,0,0,0,0,0,0,0,0,0,0,0,0,0,0,0,0,0,0,0,0,0,0,0,0,0,0,0,0,0,0,0,0,0,0,0,0,0,0,0,0,0,0,0,0,0,0,0,0],"sum_hessian":[6.1307068E1,3.9842533E1,2.1464535E1,2.493824E1,1.4904293E1,1.5747398E1,5.7171373E0,2.2332548E1,2.6056905E0,2.3866968E0,1.2517596E1,1.0092384E1,5.6550145E0,1.4868182E0,4.230319E0,1.3574091E1,8.758458E0,1.3899509E0,1.2157397E0,4.4421487E0,8.075447E0,4.4288855E0,5.6634984E0,3.9000852E0,1.7549292E0,2.0152888E0,2.2150302E0,1.001123E1,3.56286E0,7.09515E0,1.663308E0,2.4177423E0,2.0244064E0,3.0974503E0,4.9779973E0,2.4298606E0,1.9990251E0,4.646477E0,1.0170212E0,2.8013613E0,1.0987239E0,1.000391E0,1.0148978E0,7.420587E0,2.590644E0,5.163273E0,1.9318773E0,1.3040533E0,1.113689E0,1.0846028E0,2.0128474E0,1.135127E0,3.84287E0,1.384435E0,1.0454255E0,1.7101514E0,1.0912098E0],"tree_param":{"num_deleted":"0","num_feature":"75","num_nodes":"57","size_leaf_vector":"0"}},{"base_weights":[-1.5599153E-2,5.7402974E-1,-3.912559E-2,-5.5857384E-1,-9.646785E-3,-6.4534806E-2,2.7643573E-1,2.3379824E-3,-4.552203E-1,5.6500995E-1,-3.3099842E-1,-1.01107985E-1,5.8979213E-1,-8.2897127E-1,5.256434E-2,7.590735E-1,-3.9511874E-2,6.633052E-2,-5.9270054E-1,1.6758126E-1,-2.6080728E-1,-1.11281246E-1,7.53444E-1,3.677225E-1,-3.666467E-1],"categories":[],"categories_nodes":[],"categories_segments":[],"categories_sizes":[],"default_left":[1,0,1,0,1,1,1,1,1,1,1,1,1,0,1,0,0,0,0,0,0,0,0,0,0],"id":23,"left_children":[1,-1,3,-1,5,7,9,11,13,15,17,19,21,-1,23,-1,-1,-1,-1,-1,-1,-1,-1,-1,-1],"loss_changes":[8.25797E-1,0E0,8.6170083E-1,0E0,8.752292E-1,1.2191529E0,1.7609246E0,2.5392847E0,1.3377477E0,7.8744125E-1,4.05578E-1,1.5690641E0,8.015828E-1,0E0,6.410386E-1,0E0,0E0,0E0,0E0,0E0,0E0,0E0,0E0,0E0,0E0],"parents":[2147483647,0,0,2,2,4,4,5,5,6,6,7,7,8,8,9,9,10,10,11,11,12,12,14,14],"right_children":[2,-1,4,-1,6,8,10,12,14,16,18,20,22,-1,24,-1,-1,-1,-1,-1,-1,-1,-1,-1,-1],"split_conditions":[1.9421946E-4,1.7220894E-1,2.936839E-4,-1.6757216E-1,2.3092437E-1,9.56894E-2,4.8632495E-2,8.2641855E-2,1.790964E-1,2.3207753E-3,4.8374407E-2,1.766663E-2,6.882E-2,-2.486914E-1,1.5884569E-2,2.2772206E-1,-1.1853563E-2,1.9899158E-2,-1.7781016E-1,5.027438E-2,-7.824218E-2,-3.3384375E-2,2.2603321E-1,1.1031676E-1,-1.0999402E-1],"split_indices":[58,0,28,0,10,58,0,73,10,16,15,13,28,0,32,0,0,0,0,0,0,0,0,0,0],"split_type":[0,0,0,0,0,0,0,0,0,0,0,0,0,0,0,0,0,0,0,0,0,0,0,0,0],"sum_hessian":[5.6911285E1,1.2858349E0,5.562545E1,2.0233598E0,5.360209E1,4.5623203E1,7.978885E0,3.9804047E1,5.819156E0,5.4565024E0,2.522383E0,3.4548264E1,5.2557845E0,2.987618E0,2.8315382E0,3.9369907E0,1.5195117E0,1.2980944E0,1.2242886E0,1.2860875E1,2.1687387E1,1.0552367E0,4.2005477E0,1.6864823E0,1.145056E0],"tree_param":{"num_deleted":"0","num_feature":"75","num_nodes":"25","size_leaf_vector":"0"}},{"base_weights":[-1.0428637E-2,-3.7375405E-2,4.8896024E-1,2.5169194E-2,-7.150755E-1,-6.266939E-1,7.6126285E-2,-8.13665E-2,-8.050592E-1,1.299267E-1,-6.066307E-1,1.8546692E-1,-3.8567036E-1,-7.111359E-1,-1.7195867E-1,2.1709052E-1,-4.5266074E-1,2.0491312E-1,-6.998631E-1],"categories":[],"categories_nodes":[],"categories_segments":[],"categories_sizes":[],"default_left":[1,1,0,1,0,1,1,0,0,1,1,1,1,0,0,0,0,0,0],"id":24,"left_children":[1,3,-1,5,-1,7,9,-1,-1,11,13,15,17,-1,-1,-1,-1,-1,-1],"loss_changes":[7.632292E-1,2.2836938E0,0E0,1.7053351E0,0E0,2.9695868E-1,1.8117313E0,0E0,0E0,1.3473978E0,4.2259216E-2,9.235604E-1,1.0076239E0,0E0,0E0,0E0,0E0,0E0,0E0],"parents":[2147483647,0,0,1,1,3,3,5,5,6,6,9,9,10,10,11,11,12,12],"right_children":[2,4,-1,6,-1,8,10,-1,-1,12,14,16,18,-1,-1,-1,-1,-1,-1],"split_conditions":[2.608895E-1,1.6186814E-1,1.4668807E-1,4.556155E-3,-2.1452266E-1,1.4812645E-1,1.6231094E-1,-2.4409952E-2,-2.4151777E-1,1.5238196E-1,1.766536E-1,1.2357475E-1,3.1079832E-2,-2.1334079E-1,-5.1587604E-2,6.512716E-2,-1.3579823E-1,6.147394E-2,-2.0995893E-1],"split_indices":[74,44,0,32,0,72,14,0,0,74,29,43,17,0,0,0,0,0,0],"split_type":[0,0,0,0,0,0,0,0,0,0,0,0,0,0,0,0,0,0,0],"sum_hessian":[5.4358463E1,5.245327E1,1.9051937E0,4.8902905E1,3.5503635E0,2.7264624E0,4.6176445E1,1.0308769E0,1.6955856E0,4.3554134E1,2.6223097E0,3.9896736E1,3.6573968E0,1.601293E0,1.0210167E0,3.8641582E1,1.2551552E0,1.3908488E0,2.266548E0],"tree_param":{"num_deleted":"0","num_feature":"75","num_nodes":"19","size_leaf_vector":"0"}},{"base_weights":[-2.5233885E-2,-1.0634584E-1,1.2148958E-1,2.2246324E-1,-1.6240025E-1,2.4711771E-1,-2.8449327E-1,5.0264275E-1,-1.9799389E-1,-2.8568912E-1,4.609063E-2,3.5394832E-1,-2.595586E-1,2.6839483E-1,-7.3619205E-1,1.3703062E-1,5.9256846E-1,-4.548472E-1,6.1064832E-2,-1.2052613E-1,4.5146394E-1,-2.820545E-1,4.3029088E-1,-5.083665E-1,1.1989753E-1,-9.669507E-1,-2.3043165E-1,5.164542E-1,-1.9389026E-1,-3.0117983E-1,1.9515464E-1,5.990431E-1,1.22322984E-1,5.108658E-1,-1.5632354E-1,1.2525584E-1,-5.160163E-1,-5.018506E-1,2.3795769E-1,-5.289588E-1,2.8413263E-1,5.552649E-1,-3.1404322E-1,5.776257E-1,-4.0624652E-2],"categories":[],"categories_nodes":[],"categories_segments":[],"categories_sizes":[],"default_left":[1,1,1,1,1,1,1,1,0,1,1,1,1,0,0,0,0,1,1,1,1,0,1,0,0,0,1,0,1,1,1,0,0,1,0,0,0,0,0,0,0,0,0,0,0],"id":25,"left_children":[1,3,5,7,9,11,13,15,-1,17,19,21,23,-1,-1,-1,-1,25,27,29,31,-1,33,-1,-1,-1,35,-1,37,39,41,-1,-1,43,-1,-1,-1,-1,-1,-1,-1,-1,-1,-1,-1],"loss_changes":[6.4268297E-1,6.7405015E-1,1.0549495E0,7.430775E-1,7.881107E-1,9.1887915E-1,1.4530505E0,3.587705E-2,0E0,1.1471692E0,8.692426E-1,7.545693E-1,3.6660102E-1,0E0,0E0,0E0,0E0,1.2648818E0,9.2899185E-1,5.913784E-1,1.07657135E-1,0E0,6.489253E-1,0E0,0E0,0E0,1.1122777E0,0E0,8.2476735E-1,9.94638E-1,9.0895313E-1,0E0,0E0,4.218247E-1,0E0,0E0,0E0,0E0,0E0,0E0,0E0,0E0,0E0,0E0,0E0],"parents":[2147483647,0,0,1,1,2,2,3,3,4,4,5,5,6,6,7,7,9,9,10,10,11,11,12,12,17,17,18,18,19,19,20,20,22,22,26,26,28,28,29,29,30,30,33,33],"right_children":[2,4,6,8,10,12,14,16,-1,18,20,22,24,-1,-1,-1,-1,26,28,30,32,-1,34,-1,-1,-1,36,-1,38,40,42,-1,-1,44,-1,-1,-1,-1,-1,-1,-1,-1,-1,-1,-1],"split_conditions":[8.6733635E-6,5.0039035E-3,1.734432E-2,7.115774E-2,1.3172673E-1,2.0500813E-2,4.049134E-2,1.2931282E-2,-5.939817E-2,9.0189084E-2,1.7967635E-1,3.4019505E-3,7.445963E-2,8.0518454E-2,-2.2085762E-1,4.1109186E-2,1.7777054E-1,1.2355083E-2,1.0837774E-1,1.6877672E-1,4.3217365E-2,-8.4616356E-2,1.6577211E-1,-1.5250996E-1,3.596926E-2,-2.9008523E-1,6.900594E-2,1.5493627E-1,1.2903248E-1,6.82428E-2,1.4615643E-1,1.7971292E-1,3.6696896E-2,1.5518457E-1,-4.6897065E-2,3.7576754E-2,-1.548049E-1,-1.505552E-1,7.1387306E-2,-1.5868765E-1,8.523979E-2,1.6657947E-1,-9.421297E-2,1.7328772E-1,-1.2187396E-2],"split_indices":[1,62,1,13,30,61,4,73,0,43,10,72,17,0,0,0,0,17,13,3,4,0,29,0,0,0,62,0,65,28,30,0,0,11,0,0,0,0,0,0,0,0,0,0,0],"split_type":[0,0,0,0,0,0,0,0,0,0,0,0,0,0,0,0,0,0,0,0,0,0,0,0,0,0,0,0,0,0,0,0,0,0,0,0,0,0,0,0,0,0,0,0,0],"sum_hessian":[5.19167E1,3.3610996E1,1.8305702E1,4.462974E0,2.9148024E1,1.427861E1,4.027092E0,2.5609617E0,1.9020123E0,1.808398E1,1.1064042E1,1.20412035E1,2.2374072E0,1.9931941E0,2.0338979E0,1.0037642E0,1.5571976E0,1.1945058E1,6.138923E0,8.339156E0,2.724886E0,1.0016829E0,1.103952E1,1.146154E0,1.0912532E0,2.6314611E0,9.313597E0,1.8352373E0,4.303686E0,5.3331223E0,3.0060344E0,1.3151731E0,1.4097128E0,9.819837E0,1.2196839E0,4.3977413E0,4.915855E0,2.4175658E0,1.8861201E0,3.9084122E0,1.4247099E0,1.707794E0,1.2982403E0,8.717198E0,1.1026382E0],"tree_param":{"num_deleted":"0","num_feature":"75","num_nodes":"45","size_leaf_vector":"0"}},{"base_weights":[-2.228532E-2,6.2028613E-2,-1.7197455E-1,-7.351397E-2,2.7990097E-1,-4.7033083E-1,4.337225E-2,1.370224E-1,-5.204601E-1,-2.655079E-1,4.1455394E-1,2.2650246E-1,-6.108795E-1,-4.3432224E-1,2.31505E-1,2.7440345E-1,-4.719114E-1,-7.224005E-1,2.3922104E-1,-4.226332E-3,-4.025396E-1,5.2231336E-1,-1.0354422E-1,-3.0883007E-2,-8.5688317E-1,-6.4735556E-1,-1.3278953E-2,-2.877463E-1,3.9456794E-1,3.862736E-1,-4.0193224E-1,-8.3052355E-1,-2.137654E-1,6.0743797E-1,-6.6989675E-2,1.92008E-1,-2.4085325E-1,8.94362E-2,7.3292184E-1,4.7017607E-1,-2.3483182E-1,6.994499E-1,1.2164036E-1,-2.924581E-1,3.216669E-1],"categories":[],"categories_nodes":[],"categories_segments":[],"categories_sizes":[],"default_left":[1,1,1,1,1,1,1,1,1,1,1,0,1,1,1,1,0,1,0,0,0,1,0,1,0,0,0,0,1,1,0,0,0,1,0,0,0,1,0,0,0,0,0,0,0],"id":26,"left_children":[1,3,5,7,9,11,13,15,17,19,21,-1,23,25,27,29,-1,31,-1,-1,-1,33,-1,35,-1,-1,-1,-1,37,39,-1,-1,-1,41,-1,-1,-1,43,-1,-1,-1,-1,-1,-1,-1],"loss_changes":[6.391378E-1,9.829593E-1,1.19021E0,2.0363085E0,1.0432513E0,8.9415646E-1,1.1331713E0,1.3832514E0,1.2306165E0,1.1020374E-1,6.4482427E-1,0E0,9.283893E-1,3.137995E-1,8.6675584E-1,1.1283102E0,0E0,1.3571644E-1,0E0,0E0,0E0,4.8839188E-1,0E0,1.8807445E-1,0E0,0E0,0E0,0E0,6.769316E-1,7.120596E-1,0E0,0E0,0E0,2.679336E-1,0E0,0E0,0E0,5.3045654E-1,0E0,0E0,0E0,0E0,0E0,0E0,0E0],"parents":[2147483647,0,0,1,1,2,2,3,3,4,4,5,5,6,6,7,7,8,8,9,9,10,10,12,12,13,13,14,14,15,15,17,17,21,21,23,23,28,28,29,29,33,33,37,37],"right_children":[2,4,6,8,10,12,14,16,18,20,22,-1,24,26,28,30,-1,32,-1,-1,-1,34,-1,36,-1,-1,-1,-1,38,40,-1,-1,-1,42,-1,-1,-1,44,-1,-1,-1,-1,-1,-1,-1],"split_conditions":[8.799239E-2,3.999629E-2,9.634695E-2,6.488037E-2,3.5979792E-2,8.8253856E-2,4.9248546E-2,9.006083E-2,1.17698245E-1,1.21673346E-1,1.1006214E-1,6.795074E-2,7.7795302E-3,2.606722E-4,9.936413E-3,1.245199E-1,-1.4157343E-1,6.909771E-2,7.176632E-2,-1.2678996E-3,-1.20761886E-1,1.6581288E-1,-3.1063268E-2,1.2463127E-1,-2.5706497E-1,-1.9420667E-1,-3.983686E-3,-8.6323895E-2,7.6711745E-5,1.6118254E-1,-1.20579675E-1,-2.4915707E-1,-6.412962E-2,1.285341E-1,-2.0096904E-2,5.76024E-2,-7.225598E-2,4.9984906E-2,2.1987656E-1,1.4105283E-1,-7.044955E-2,2.0983498E-1,3.649211E-2,-8.7737426E-2,9.650008E-2],"split_indices":[2,2,62,62,32,5,30,73,13,30,17,0,3,46,13,0,0,17,0,0,0,14,0,2,0,0,0,0,16,9,0,0,0,62,0,0,0,6,0,0,0,0,0,0,0],"split_type":[0,0,0,0,0,0,0,0,0,0,0,0,0,0,0,0,0,0,0,0,0,0,0,0,0,0,0,0,0,0,0,0,0,0,0,0,0,0,0,0,0,0,0,0,0],"sum_hessian":[4.8796062E1,3.1588913E1,1.7207148E1,1.9882322E1,1.1706592E1,6.716954E0,1.0490193E1,1.3987065E1,5.895256E0,2.1255012E0,9.58109E0,1.0247475E0,5.692207E0,2.5943058E0,7.895888E0,1.186058E1,2.1264846E0,4.696022E0,1.199234E0,1.0858767E0,1.0396245E0,7.924694E0,1.656396E0,2.0304966E0,3.6617103E0,1.36577E0,1.2285359E0,1.7042633E0,6.1916246E0,1.054521E1,1.3153708E0,3.350865E0,1.3451571E0,6.8975697E0,1.0271244E0,1.02644E0,1.0040567E0,3.920446E0,2.2711787E0,9.504313E0,1.0408958E0,5.4294195E0,1.4681503E0,1.3844421E0,2.5360038E0],"tree_param":{"num_deleted":"0","num_feature":"75","num_nodes":"45","size_leaf_vector":"0"}},{"base_weights":[-2.9665044E-2,-1.1129741E-1,1.11224346E-1,-1.9029404E-1,2.956098E-1,6.8133146E-1,-8.276356E-3,-3.7077356E-3,-3.590907E-1,-2.2262606E-1,5.1505655E-1,1.4284378E-1,-3.4458408E-1,-3.113554E-1,2.1665642E-1,6.1513614E-3,-7.656385E-1,6.758375E-1,2.3999963E-2,-3.9555326E-2,5.09382E-1,-5.891767E-1,1.7606877E-1,-4.583805E-1,1.7653047E-1,-2.4856633E-2,5.8148164E-1,1.9786286E-1,-2.9891485E-1,-1.0446278E-1,-8.689612E-1,-4.44499E-1,2.348958E-1,6.715656E-1,2.2519324E-2,-6.575789E-1,-1.2976316E-1,-5.065889E-1,2.2990178E-1,4.3551272E-1,-4.3450645E-1,6.683298E-2,-4.7236452E-1,-2.3518388E-1,-9.6354765E-1,-6.4308256E-1,5.178442E-2,4.3002504E-1,-3.2205158E-1],"categories":[],"categories_nodes":[],"categories_segments":[],"categories_sizes":[],"default_left":[1,1,1,1,1,0,1,1,1,0,1,1,1,1,1,1,1,0,0,1,1,0,0,1,0,1,0,1,1,0,1,1,1,0,0,0,0,0,0,0,0,0,0,0,0,0,0,0,0],"id":27,"left_children":[1,3,5,7,9,-1,11,13,15,-1,17,19,21,23,25,27,29,-1,-1,31,33,-1,-1,35,-1,37,-1,39,41,-1,43,45,47,-1,-1,-1,-1,-1,-1,-1,-1,-1,-1,-1,-1,-1,-1,-1,-1],"loss_changes":[5.4781693E-1,1.0198174E0,1.203265E0,8.084452E-1,7.134352E-1,0E0,8.3803195E-1,9.638696E-1,2.0076194E0,0E0,2.9963732E-1,7.8336096E-1,7.538532E-1,5.0619185E-1,7.452209E-1,5.327133E-1,3.4584808E-1,0E0,0E0,1.0546882E0,2.900803E-1,0E0,0E0,2.3109365E-1,0E0,8.4659153E-1,0E0,1.0269358E0,2.5507274E-1,0E0,9.655666E-2,4.0778923E-1,7.634524E-1,0E0,0E0,0E0,0E0,0E0,0E0,0E0,0E0,0E0,0E0,0E0,0E0,0E0,0E0,0E0,0E0],"parents":[2147483647,0,0,1,1,2,2,3,3,4,4,6,6,7,7,8,8,10,10,11,11,12,12,13,13,14,14,15,15,16,16,19,19,20,20,23,23,25,25,27,27,28,28,30,30,31,31,32,32],"right_children":[2,4,6,8,10,-1,12,14,16,-1,18,20,22,24,26,28,30,-1,-1,32,34,-1,-1,36,-1,38,-1,40,42,-1,44,46,48,-1,-1,-1,-1,-1,-1,-1,-1,-1,-1,-1,-1,-1,-1,-1,-1],"split_conditions":[2.6713028E-6,2.2855046E-1,2.0558543E-3,1.0318796E-1,1.4106724E-2,2.0439945E-1,1.8669096E-1,1.962577E-2,1.3480911E-2,-6.6787824E-2,1.2341447E-1,1.4506781E-1,2.3426141E-1,1.8000627E-1,9.982422E-3,2.0844525E-1,4.932165E-2,2.0275126E-1,7.199989E-3,6.374591E-2,7.283159E-2,-1.7675301E-1,5.2820634E-2,1.4270297E-1,5.295914E-2,7.787109E-2,1.744445E-1,9.416942E-2,3.893746E-2,-3.1338837E-2,1.3949654E-1,1.5118164E-1,6.32847E-3,2.0146969E-1,6.7557977E-3,-1.9727367E-1,-3.892895E-2,-1.5197667E-1,6.897054E-2,1.3065383E-1,-1.3035195E-1,2.0049896E-2,-1.4170936E-1,-7.0555165E-2,-2.8906432E-1,-1.9292478E-1,1.5535326E-2,1.2900752E-1,-9.661548E-2],"split_indices":[16,10,16,72,13,0,10,72,2,0,32,72,9,5,13,72,21,0,0,17,17,0,0,60,0,12,0,60,73,0,9,7,46,0,0,0,0,0,0,0,0,0,0,0,0,0,0,0,0],"split_type":[0,0,0,0,0,0,0,0,0,0,0,0,0,0,0,0,0,0,0,0,0,0,0,0,0,0,0,0,0,0,0,0,0,0,0,0,0,0,0,0,0,0,0,0,0,0,0,0,0],"sum_hessian":[4.555523E1,2.8976223E1,1.6579004E1,2.471116E1,4.2650633E0,2.0582304E0,1.4520774E1,1.2222492E1,1.24886675E1,1.2644664E0,3.000597E0,1.0415721E1,4.1050534E0,4.9286923E0,7.2937994E0,7.0973163E0,5.3913517E0,1.9769987E0,1.0235983E0,7.5504847E0,2.8652363E0,2.703425E0,1.4016283E0,3.8338363E0,1.094856E0,4.949268E0,2.3445315E0,4.574188E0,2.5231283E0,1.0004401E0,4.3909116E0,2.7998316E0,4.750653E0,1.8646955E0,1.0005406E0,1.7636906E0,2.0701458E0,1.3700612E0,3.5792067E0,3.550994E0,1.0231943E0,1.009375E0,1.5137533E0,1.0229653E0,3.3679461E0,1.7884154E0,1.0114163E0,3.6868396E0,1.0638131E0],"tree_param":{"num_deleted":"0","num_feature":"75","num_nodes":"49","size_leaf_vector":"0"}},{"base_weights":[-2.9468944E-2,-1.0120063E-1,1.1561287E-1,-2.1020594E-1,1.0468057E-1,-4.0659836E-1,2.4771383E-1,-3.2552043E-1,2.1137713E-2,-1.9914818E-1,3.0523738E-1,-5.105969E-2,-5.429037E-1,6.939059E-1,4.424255E-2,-6.086141E-1,4.878386E-3,-1.7539613E-1,3.2232222E-1,2.2930698E-1,-7.5908047E-1,5.070601E-1,-1.7491691E-1,3.8593343E-1,-3.5926077E-1,5.4596406E-3,-7.335589E-1,2.099494E-1,-4.4976607E-1,2.666341E-1,-3.4530023E-1,7.0201117E-3,4.57327E-1,4.580661E-1,-1.7155387E-1,6.6893256E-1,-6.3970335E-2,5.57469E-1,-4.1924372E-2,-5.971169E-1,7.970082E-2,-8.742913E-1,-1.9238766E-1,-1.7278224E-1,3.7755382E-1,-5.762494E-1,8.689272E-2,2.0019838E-1,6.4567876E-1],"categories":[],"categories_nodes":[],"categories_segments":[],"categories_sizes":[],"default_left":[1,1,1,1,1,1,1,1,1,1,1,0,0,0,1,1,1,1,1,1,0,1,0,1,1,0,1,1,0,0,1,0,0,0,0,0,0,1,0,0,0,0,0,0,0,0,0,0,0],"id":28,"left_children":[1,3,5,7,9,11,13,15,17,19,21,-1,-1,-1,23,25,27,29,31,33,-1,35,-1,37,39,-1,41,43,-1,-1,45,-1,-1,-1,-1,-1,-1,47,-1,-1,-1,-1,-1,-1,-1,-1,-1,-1,-1],"loss_changes":[4.6300948E-1,6.852119E-1,1.1226735E0,5.312023E-1,7.2483385E-1,1.3557029E-1,1.099125E0,1.2354933E0,4.991157E-1,1.3588012E0,7.6309E-1,0E0,0E0,0E0,1.4643337E0,5.491109E-1,7.538439E-1,4.805091E-1,1.3746649E-1,4.0555304E-1,0E0,5.194055E-1,0E0,4.4086635E-1,5.619884E-1,0E0,2.8197002E-1,4.216319E-1,0E0,0E0,4.6647835E-1,0E0,0E0,0E0,0E0,0E0,0E0,9.0777874E-4,0E0,0E0,0E0,0E0,0E0,0E0,0E0,0E0,0E0,0E0,0E0],"parents":[2147483647,0,0,1,1,2,2,3,3,4,4,5,5,6,6,7,7,8,8,9,9,10,10,14,14,15,15,16,16,17,17,18,18,19,19,21,21,23,23,24,24,26,26,27,27,30,30,37,37],"right_children":[2,4,6,8,10,12,14,16,18,20,22,-1,-1,-1,24,26,28,30,32,34,-1,36,-1,38,40,-1,42,44,-1,-1,46,-1,-1,-1,-1,-1,-1,48,-1,-1,-1,-1,-1,-1,-1,-1,-1,-1,-1],"split_conditions":[8.577819E-6,1.4724928E-1,3.858187E-2,1.16984084E-1,4.0678225E-2,3.4982637E-3,4.7808863E-2,1.665118E-1,7.6711745E-5,1.7464668E-1,1.0190891E-1,-1.5317908E-2,-1.6287112E-1,2.0817177E-1,9.10652E-3,2.1049783E-2,2.2496977E-1,4.121182E-2,4.7725177E-4,1.19385526E-1,-2.2772415E-1,4.5045875E-2,-5.2475076E-2,9.02943E-2,1.476315E-1,1.6378922E-3,1.3783243E-1,9.583693E-2,-1.3492982E-1,7.999024E-2,8.2461625E-2,2.1060335E-3,1.371981E-1,1.3741983E-1,-5.1466163E-2,2.0067978E-1,-1.9191101E-2,4.2001255E-2,-1.2577312E-2,-1.7913507E-1,2.3910247E-2,-2.622874E-1,-5.77163E-2,-5.1834676E-2,1.1326615E-1,-1.7287484E-1,2.6067816E-2,6.0059518E-2,1.9370364E-1],"split_indices":[46,50,11,32,47,31,15,27,16,5,47,0,0,0,46,0,12,4,31,60,0,73,0,2,7,0,0,28,0,0,73,0,0,0,0,0,0,2,0,0,0,0,0,0,0,0,0,0,0],"split_type":[0,0,0,0,0,0,0,0,0,0,0,0,0,0,0,0,0,0,0,0,0,0,0,0,0,0,0,0,0,0,0,0,0,0,0,0,0,0,0,0,0,0,0,0,0,0,0,0,0],"sum_hessian":[4.2366096E1,2.8551872E1,1.3814225E1,1.8654242E1,9.897631E0,2.369473E0,1.1444752E1,1.2177311E1,6.476931E0,3.9383483E0,5.959283E0,1.037599E0,1.3318739E0,2.8295329E0,8.615219E0,6.104645E0,6.0726657E0,4.172118E0,2.3048131E0,2.5656273E0,1.3727212E0,4.1562533E0,1.8030293E0,4.688495E0,3.926724E0,1.193785E0,4.91086E0,4.5559015E0,1.5167639E0,1.0003196E0,3.1717985E0,1.0063931E0,1.2984201E0,1.542604E0,1.0230232E0,3.104702E0,1.0515515E0,3.130495E0,1.5580001E0,2.3130686E0,1.6136554E0,3.408834E0,1.5020261E0,1.378088E0,3.1778138E0,1.8499389E0,1.3218596E0,1.2672797E0,1.8632153E0],"tree_param":{"num_deleted":"0","num_feature":"75","num_nodes":"49","size_leaf_vector":"0"}},{"base_weights":[-2.7368685E-2,2.1867435E-2,-2.884127E-1,-3.1226087E-2,4.2298332E-1,-7.187263E-1,9.17761E-2,-1.4712681E-1,1.3377349E-1,-1.0661497E-1,6.4522135E-1,-1.4402337E-1,4.186805E-1,6.913743E-2,-3.8549292E-1,2.2767302E-1,-4.2550626E-1,1.9464664E-1,-3.8685888E-1,2.2423303E-1,-3.6906475E-1,9.94212E-2,-7.0622134E-1,3.203876E-1,-3.6097234E-1,-1.580371E-1,4.1746885E-1,-5.0366795E-1,-3.8909215E-2,2.7719158E-1,-1.7588285E-1,-7.883156E-1,-1.718506E-1,5.650471E-1,5.0467394E-2],"categories":[],"categories_nodes":[],"categories_segments":[],"categories_sizes":[],"default_left":[1,1,1,1,1,0,1,1,1,0,0,1,0,1,1,1,0,0,0,1,1,1,1,1,0,0,0,0,0,0,0,0,0,0,0],"id":29,"left_children":[1,3,5,7,9,-1,11,13,15,-1,-1,17,-1,19,21,23,-1,-1,-1,25,27,29,31,33,-1,-1,-1,-1,-1,-1,-1,-1,-1,-1,-1],"loss_changes":[5.2595335E-1,7.574091E-1,1.1270939E0,6.276394E-1,5.5764276E-1,0E0,3.9410314E-1,1.0138426E0,8.132425E-1,0E0,0E0,3.4339067E-1,0E0,8.22773E-1,1.5106379E0,7.886464E-1,0E0,0E0,0E0,7.0598155E-1,1.23691946E-1,2.7210385E-1,1.1449051E-1,7.100034E-1,0E0,0E0,0E0,0E0,0E0,0E0,0E0,0E0,0E0,0E0,0E0],"parents":[2147483647,0,0,1,1,2,2,3,3,4,4,6,6,7,7,8,8,11,11,13,13,14,14,15,15,19,19,20,20,21,21,22,22,23,23],"right_children":[2,4,6,8,10,-1,12,14,16,-1,-1,18,-1,20,22,24,-1,-1,-1,26,28,30,32,34,-1,-1,-1,-1,-1,-1,-1,-1,-1,-1,-1],"split_conditions":[9.526582E-2,8.4002614E-2,1.790964E-1,2.6713028E-6,1.3461828E-1,-2.156179E-1,4.9340535E-2,1.1299269E-1,1.9454598E-2,-3.1984493E-2,1.9356641E-1,3.3868752E-2,1.2560415E-1,8.4877364E-2,4.9348686E-2,1.6187936E-1,-1.2765189E-1,5.8393996E-2,-1.1605767E-1,1.9547138E-2,1.4395124E-1,2.0354185E-1,8.384831E-2,7.743076E-2,-1.0829171E-1,-4.7411133E-2,1.2524065E-1,-1.511004E-1,-1.1672765E-2,8.315748E-2,-5.2764855E-2,-2.3649469E-1,-5.1555183E-2,1.6951413E-1,1.5140219E-2],"split_indices":[58,58,10,16,7,0,30,27,1,0,0,45,0,4,0,44,0,0,0,72,45,72,47,47,0,0,0,0,0,0,0,0,0,0,0],"split_type":[0,0,0,0,0,0,0,0,0,0,0,0,0,0,0,0,0,0,0,0,0,0,0,0,0,0,0,0,0,0,0,0,0,0,0],"sum_hessian":[3.9430622E1,3.39445E1,5.486121E0,3.0791016E1,3.1534867E0,2.15573E0,3.330391E0,1.8150131E1,1.2640883E1,1.0859383E0,2.0675485E0,2.2598038E0,1.070587E0,9.888484E0,8.261647E0,1.1331341E1,1.309543E0,1.0265586E0,1.2332453E0,7.6641517E0,2.2243319E0,3.5636802E0,4.697967E0,1.0183163E1,1.1481782E0,2.6345294E0,5.0296226E0,1.2067833E0,1.0175486E0,2.1612523E0,1.4024279E0,3.660405E0,1.0375624E0,4.767997E0,5.415166E0],"tree_param":{"num_deleted":"0","num_feature":"75","num_nodes":"35","size_leaf_vector":"0"}},{"base_weights":[-3.0798385E-2,-4.2491224E-1,-1.1295063E-3,5.716457E-1,-4.089136E-2,-2.2394095E-1,3.7527725E-2,3.93266E-1,-3.5064647E-1,3.7024185E-1,-6.11034E-2,-5.1100427E-1,-7.077658E-2,5.1311684E-1,-1.620323E-1,-2.586468E-1,1.2021495E-1,-1.18393235E-1,-7.099991E-1,2.4421975E-1,-4.871506E-1,6.0554814E-1,7.606397E-2,-1.1155758E-1,-6.483179E-1,-1.4999025E-1,3.1359327E-1],"categories":[],"categories_nodes":[],"categories_segments":[],"categories_sizes":[],"default_left":[1,0,1,0,1,1,1,0,1,1,1,1,1,1,0,1,1,0,0,0,0,0,0,0,0,0,0],"id":30,"left_children":[1,-1,3,-1,5,7,9,-1,11,13,15,17,19,21,-1,23,25,-1,-1,-1,-1,-1,-1,-1,-1,-1,-1],"loss_changes":[4.4361514E-1,0E0,8.506298E-1,0E0,5.0936323E-1,9.676623E-1,8.524922E-1,0E0,3.8263714E-1,5.336637E-1,7.60512E-1,3.6687827E-1,7.170418E-1,1.5230906E-1,0E0,5.044771E-1,6.3753283E-1,0E0,0E0,0E0,0E0,0E0,0E0,0E0,0E0,0E0,0E0],"parents":[2147483647,0,0,2,2,4,4,5,5,6,6,8,8,9,9,10,10,11,11,12,12,13,13,15,15,16,16],"right_children":[2,-1,4,-1,6,8,10,-1,12,14,16,18,20,22,-1,24,26,-1,-1,-1,-1,-1,-1,-1,-1,-1,-1],"split_conditions":[2.936839E-4,-1.2747368E-1,1.5816698E-3,1.7149371E-1,2.1265592E-2,6.4031994E-3,3.19244E-2,1.179798E-1,1.3230073E-1,1.7662014E-1,1.5220857E-1,1.1765978E-1,1.4472194E-1,4.4585094E-2,-4.8609693E-2,9.56894E-2,4.974248E-2,-3.5517972E-2,-2.1299973E-1,7.3265925E-2,-1.461452E-1,1.8166445E-1,2.2819191E-2,-3.3467274E-2,-1.9449537E-1,-4.4997074E-2,9.407798E-2],"split_indices":[28,0,43,0,73,45,73,0,0,9,69,30,0,13,0,58,30,0,0,0,0,0,0,0,0,0,0],"split_type":[0,0,0,0,0,0,0,0,0,0,0,0,0,0,0,0,0,0,0,0,0,0,0,0,0,0,0],"sum_hessian":[3.697984E1,1.6562897E0,3.532355E1,1.424642E0,3.3898907E1,9.610327E0,2.4288582E1,1.278539E0,8.331788E0,4.9241285E0,1.9364452E1,4.7718086E0,3.559979E0,3.9104598E0,1.0136687E0,9.063471E0,1.03009815E1,2.14155E0,2.6302588E0,2.2621057E0,1.2978733E0,2.9095912E0,1.0008686E0,7.5135984E0,1.5498724E0,4.390524E0,5.9104576E0],"tree_param":{"num_deleted":"0","num_feature":"75","num_nodes":"27","size_leaf_vector":"0"}},{"base_weights":[-2.7579855E-2,3.1216785E-2,-2.087551E-1,-1.10023715E-1,1.5888648E-1,-5.633636E-1,-2.0385083E-2,3.1068107E-2,-3.989876E-1,-4.7570148E-1,2.5870848E-1,-4.903246E-1,1.5600885E-1,-2.4380262E-1,2.7839425E-1,2.0847785E-1,-6.385145E-1,4.1226172E-1,-1.8090023E-1,4.045498E-1,-8.434522E-2,-4.669488E-1,2.0816258E-1,-1.4339125E-1,5.181612E-1,-1.2849855E-1,5.0533104E-1,1.0770299E-1,-5.307169E-1,-3.2743186E-1,2.3692632E-1,-6.137967E-1,-2.5438055E-2,9.947747E-2,6.6396207E-1,2.4433395E-1,6.159125E-1,2.6450145E-1,-1.16882175E-1],"categories":[],"categories_nodes":[],"categories_segments":[],"categories_sizes":[],"default_left":[1,1,1,1,1,0,1,1,1,0,1,0,1,1,1,0,0,1,1,0,1,1,0,0,1,0,1,1,0,0,0,0,0,0,0,0,0,0,0],"id":31,"left_children":[1,3,5,7,9,-1,11,13,15,-1,17,-1,19,21,23,-1,-1,25,27,-1,29,31,-1,-1,33,-1,35,37,-1,-1,-1,-1,-1,-1,-1,-1,-1,-1,-1],"loss_changes":[3.9439374E-1,5.288784E-1,5.9313595E-1,5.854407E-1,1.0925714E0,0E0,6.5252155E-1,7.7298254E-1,8.145873E-1,0E0,1.0110111E0,0E0,3.8126296E-1,6.464055E-1,6.736347E-1,0E0,0E0,5.9771824E-1,4.8988724E-1,0E0,3.7291375E-1,2.4073952E-1,0E0,0E0,1.7783678E-1,0E0,1.16031885E-1,1.4289391E-1,0E0,0E0,0E0,0E0,0E0,0E0,0E0,0E0,0E0,0E0,0E0],"parents":[2147483647,0,0,1,1,2,2,3,3,4,4,6,6,7,7,8,8,10,10,12,12,13,13,14,14,17,17,18,18,20,20,21,21,24,24,26,26,27,27],"right_children":[2,4,6,8,10,-1,12,14,16,-1,18,-1,20,22,24,-1,-1,26,28,-1,30,32,-1,-1,34,-1,36,38,-1,-1,-1,-1,-1,-1,-1,-1,-1,-1,-1],"split_conditions":[1.2008345E-1,3.7467208E-2,9.5588446E-2,2.0964108E-2,4.548781E-3,-1.6900909E-1,4.9248546E-2,8.157501E-3,7.79799E-3,-1.4271045E-1,9.547514E-2,-1.4709738E-1,8.852494E-2,1.4907154E-1,1.5110067E-1,6.254336E-2,-1.9155437E-1,6.418951E-3,8.243118E-2,1.2136494E-1,2.2664834E-5,8.02123E-3,6.2448774E-2,-4.3017376E-2,3.8308077E-2,-3.854957E-2,1.7109188E-1,1.5884569E-2,-1.5921508E-1,-9.8229565E-2,7.10779E-2,-1.8413901E-1,-7.631417E-3,2.9843243E-2,1.9918863E-1,7.330019E-2,1.8477376E-1,7.935044E-2,-3.5064653E-2],"split_indices":[17,13,62,28,32,0,30,3,3,0,58,0,5,12,7,0,0,72,15,0,31,13,0,0,32,0,10,32,0,0,0,0,0,0,0,0,0,0,0],"split_type":[0,0,0,0,0,0,0,0,0,0,0,0,0,0,0,0,0,0,0,0,0,0,0,0,0,0,0,0,0,0,0,0,0,0,0,0,0,0,0],"sum_hessian":[3.541185E1,2.7360325E1,8.051523E0,1.30554E1,1.4304925E1,2.1026099E0,5.948913E0,9.37189E0,3.68351E0,1.4325335E0,1.2872392E1,1.1378362E0,4.8110766E0,4.445521E0,4.926369E0,1.0783437E0,2.6051662E0,9.586188E0,3.2862027E0,2.0294054E0,2.7816715E0,2.953938E0,1.491583E0,1.9311485E0,2.995221E0,1.3517053E0,8.234483E0,2.1798854E0,1.1063174E0,1.5726033E0,1.2090681E0,1.9238425E0,1.0300955E0,1.208154E0,1.7870669E0,3.4057307E0,4.8287525E0,1.1790062E0,1.0008792E0],"tree_param":{"num_deleted":"0","num_feature":"75","num_nodes":"39","size_leaf_vector":"0"}},{"base_weights":[-2.9788502E-2,6.79091E-3,-3.018472E-1,4.477735E-2,-4.6356678E-1,-6.198797E-1,2.0778272E-1,-5.9619717E-2,2.1783759E-1,-3.511637E-1,5.6025732E-2,6.4024436E-1,6.5890804E-2,-3.6901165E-2,-6.6717553E-1,1.7653531E-1,-4.0520132E-1,-9.662285E-2,3.4422883E-1,-3.2057676E-1,3.7049913E-1,-2.0274048E-1,3.0131036E-1,4.22483E-1,-2.6485124E-1,1.418143E-2,4.6374092E-1],"categories":[],"categories_nodes":[],"categories_segments":[],"categories_sizes":[],"default_left":[1,1,1,1,0,0,0,1,1,1,1,0,1,1,0,1,0,1,1,0,0,0,0,0,0,0,0],"id":32,"left_children":[1,3,5,7,-1,-1,-1,9,11,13,15,-1,17,19,-1,21,-1,23,25,-1,-1,-1,-1,-1,-1,-1,-1],"loss_changes":[3.4282914E-1,5.775481E-1,7.9015684E-1,5.504072E-1,0E0,0E0,0E0,6.716948E-1,6.8996614E-1,5.344969E-1,8.8908035E-1,0E0,4.6316695E-1,5.673389E-1,0E0,6.4593536E-1,0E0,7.041023E-1,1.4026529E-1,0E0,0E0,0E0,0E0,0E0,0E0,0E0,0E0],"parents":[2147483647,0,0,1,1,2,2,3,3,7,7,8,8,9,9,10,10,12,12,13,13,15,15,17,17,18,18],"right_children":[2,4,6,8,-1,-1,-1,10,12,14,16,-1,18,20,-1,22,-1,24,26,-1,-1,-1,-1,-1,-1,-1,-1],"split_conditions":[1.595869E-1,1.6027099E-1,1.797835E-1,1.7748409E-5,-1.3907003E-1,-1.8596393E-1,6.2334817E-2,4.7697164E-2,2.5804387E-3,5.6821596E-2,1.4380854E-1,1.9207332E-1,1.3476785E-1,2.7209805E-2,-2.0015267E-1,1.2625989E-2,-1.215604E-1,3.3913277E-2,1.7696832E-1,-9.617303E-2,1.1114974E-1,-6.0822144E-2,9.039311E-2,1.2674491E-1,-7.9455376E-2,4.254429E-3,1.3912228E-1],"split_indices":[14,44,29,31,0,0,0,45,31,32,0,0,60,45,0,17,0,5,10,0,0,0,0,0,0,0,0],"split_type":[0,0,0,0,0,0,0,0,0,0,0,0,0,0,0,0,0,0,0,0,0,0,0,0,0,0,0],"sum_hessian":[3.3243168E1,3.0162706E1,3.0804615E0,2.8745962E1,1.4167439E0,1.7635757E0,1.3168857E0,1.8338762E1,1.0407199E1,4.6299734E0,1.370879E1,1.9030837E0,8.504115E0,2.8813474E0,1.748626E0,1.135833E1,2.35046E0,5.7813864E0,2.722729E0,1.8242358E0,1.0571117E0,2.6570153E0,8.701314E0,1.0451083E0,4.736278E0,1.0212053E0,1.7015238E0],"tree_param":{"num_deleted":"0","num_feature":"75","num_nodes":"27","size_leaf_vector":"0"}},{"base_weights":[-2.6672542E-2,3.0784687E-1,-5.6004487E-2,-2.849237E-1,1.1141364E-2,3.7124787E-2,-5.145031E-1,4.4493756E-1,-5.64981E-2,3.2690933E-1,-3.1303692E-1,-6.290814E-1,-8.229782E-2,3.881191E-2,6.030454E-1,-3.525898E-1,2.7834926E-2,1.634635E-1,-5.630648E-1,1.1773637E-1,-2.3726116E-1,2.3624742E-1,-2.1671046E-1,-5.2423674E-1,2.3043673E-1],"categories":[],"categories_nodes":[],"categories_segments":[],"categories_sizes":[],"default_left":[1,0,1,1,1,1,1,1,1,0,0,0,0,0,0,1,1,0,0,1,1,0,0,0,0],"id":33,"left_children":[1,-1,3,5,7,9,11,13,15,-1,-1,-1,-1,-1,-1,17,19,-1,-1,21,23,-1,-1,-1,-1],"loss_changes":[3.3759773E-1,0E0,4.7757208E-1,5.3940344E-1,7.5357574E-1,4.9416575E-1,1.5501618E-1,1.9886267E-1,5.682626E-1,0E0,0E0,0E0,0E0,0E0,0E0,6.384846E-1,4.6486866E-1,0E0,0E0,6.203255E-1,7.884749E-1,0E0,0E0,0E0,0E0],"parents":[2147483647,0,0,2,2,3,3,4,4,5,5,6,6,7,7,8,8,15,15,16,16,19,19,20,20],"right_children":[2,-1,4,6,8,10,12,14,16,-1,-1,-1,-1,-1,-1,18,20,-1,-1,22,24,-1,-1,-1,-1],"split_conditions":[7.4180757E-4,9.235407E-2,9.956233E-3,1.5106267E-1,1.766663E-2,1.5299028E-1,7.0790146E-3,1.2769091E-1,3.1627383E-2,9.8072805E-2,-9.391108E-2,-1.8872444E-1,-2.4689347E-2,1.1643574E-2,1.8091363E-1,7.711701E-3,1.2008345E-1,4.9039055E-2,-1.6891944E-1,9.56894E-2,1.2597671E-1,7.087423E-2,-6.501314E-2,-1.5727103E-1,6.9131024E-2],"split_indices":[73,0,13,9,13,11,13,45,28,0,0,0,0,0,0,3,17,0,0,58,4,0,0,0,0],"split_type":[0,0,0,0,0,0,0,0,0,0,0,0,0,0,0,0,0,0,0,0,0,0,0,0,0],"sum_hessian":[3.164915E1,1.7859386E0,2.9863213E1,6.03723E0,2.3825983E1,2.861491E0,3.175739E0,2.4614894E0,2.1364492E1,1.6020672E0,1.2594237E0,2.1502018E0,1.0255373E0,1.0387552E0,1.4227341E0,4.0309567E0,1.7333536E1,1.2324739E0,2.7984827E0,1.3359001E1,3.9745355E0,1.0080573E1,3.2784278E0,2.3882422E0,1.5862932E0],"tree_param":{"num_deleted":"0","num_feature":"75","num_nodes":"25","size_leaf_vector":"0"}},{"base_weights":[-2.4222983E-2,-9.2403755E-2,1.06875226E-1,-1.4261635E-1,1.6411266E-1,2.8243732E-1,-7.71451E-2,-2.4910352E-1,3.4646306E-2,4.1428116E-1,-2.5700024E-1,3.9355183E-1,-7.429227E-2,3.6038226E-1,-2.5077227E-1,-5.0658163E-2,-5.9159195E-1,1.5581813E-1,-3.0870506E-1,9.139397E-2,5.240535E-1,-5.210415E-1,1.3235672E-1,-1.8076546E-1,3.5657492E-1,-1.2952495E-1,-7.067267E-1,3.0169588E-1,-2.0190506E-1,1.17726006E-1,-4.3798727E-1,4.1750714E-1,-7.5935E-2],"categories":[],"categories_nodes":[],"categories_segments":[],"categories_sizes":[],"default_left":[1,1,1,1,1,1,1,1,1,0,0,1,0,0,1,1,1,1,0,0,0,0,0,1,0,0,0,1,0,0,0,0,0],"id":34,"left_children":[1,3,5,7,9,11,13,15,17,-1,-1,19,-1,-1,21,23,25,27,-1,-1,-1,-1,-1,29,-1,-1,-1,31,-1,-1,-1,-1,-1],"loss_changes":[2.90073E-1,2.959377E-1,3.832684E-1,3.5274458E-1,5.203582E-1,2.6470977E-1,5.6503737E-1,7.5235724E-1,3.6926252E-1,0E0,0E0,1.3698113E-1,0E0,0E0,5.9321237E-1,5.085448E-1,1.2813067E-1,3.933418E-1,0E0,0E0,0E0,0E0,0E0,5.9021795E-1,0E0,0E0,0E0,2.4713477E-1,0E0,0E0,0E0,0E0,0E0],"parents":[2147483647,0,0,1,1,2,2,3,3,4,4,5,5,6,6,7,7,8,8,11,11,14,14,15,15,16,16,17,17,23,23,27,27],"right_children":[2,4,6,8,10,12,14,16,18,-1,-1,20,-1,-1,22,24,26,28,-1,-1,-1,-1,-1,30,-1,-1,-1,32,-1,-1,-1,-1,-1],"split_conditions":[8.6733635E-6,2.2814988E-1,5.0603367E-2,1.3172673E-1,4.7822706E-2,1.0888463E-2,2.9538646E-3,6.488037E-2,6.1572893E-3,1.2428435E-1,-7.7100076E-2,1.7684418E-1,-2.2287682E-2,1.0811468E-1,8.577819E-6,3.5087783E-2,1.2156056E-2,1.3297245E-1,-9.261152E-2,2.7418192E-2,1.5721606E-1,-1.5631247E-1,3.9707016E-2,7.075563E-3,1.0697248E-1,-3.8857486E-2,-2.1201801E-1,1.4090638E-1,-6.0571518E-2,3.5317805E-2,-1.3139619E-1,1.2525214E-1,-2.27805E-2],"split_indices":[1,10,64,30,15,31,1,62,61,0,0,10,0,0,46,62,17,32,0,0,0,0,0,2,0,0,0,0,0,0,0,0,0],"split_type":[0,0,0,0,0,0,0,0,0,0,0,0,0,0,0,0,0,0,0,0,0,0,0,0,0,0,0,0,0,0,0,0,0],"sum_hessian":[3.0347675E1,2.0158777E1,1.0188899E1,1.7230053E1,2.9287233E0,4.940585E0,5.2483144E0,1.0510682E1,6.7193713E0,1.8474442E0,1.0812792E0,3.6884737E0,1.2521113E0,1.1854529E0,4.0628614E0,7.381557E0,3.1291246E0,5.370321E0,1.3490506E0,1.6254067E0,2.063067E0,2.1712449E0,1.8916166E0,6.0157065E0,1.3658508E0,1.0480399E0,2.0810845E0,3.9259567E0,1.4443638E0,3.0354981E0,2.9802082E0,2.9237192E0,1.0022377E0],"tree_param":{"num_deleted":"0","num_feature":"75","num_nodes":"33","size_leaf_vector":"0"}},{"base_weights":[-2.1101015E-2,1.325355E-2,-2.7706468E-1,-8.8172466E-2,1.8616082E-1,-5.561551E-1,1.2834266E-1,-4.4201976E-1,-9.579267E-3,5.629319E-1,6.093281E-2,1.6611461E-1,-1.585956E-1,-1.500227E-1,2.3722348E-1,-2.0854189E-1,2.569851E-1,-3.3023655E-1,1.2664896E-1,3.2866323E-1,-4.009151E-1,-1.6716872E-1,3.7404606E-1,4.790092E-2,4.2715183E-1,8.292732E-2,-5.3573716E-1,3.440189E-1,-1.6518077E-1,-8.994529E-3,-5.557603E-1,5.175485E-1,-2.731801E-2],"categories":[],"categories_nodes":[],"categories_segments":[],"categories_sizes":[],"default_left":[1,1,1,1,1,0,0,0,1,0,1,1,1,1,1,0,1,1,1,0,1,0,1,0,0,0,0,0,0,0,0,0,0],"id":35,"left_children":[1,3,5,7,9,-1,-1,-1,11,-1,13,15,17,19,21,-1,23,25,27,-1,29,-1,31,-1,-1,-1,-1,-1,-1,-1,-1,-1,-1],"loss_changes":[2.6767677E-1,4.9736202E-1,4.7851533E-1,4.9533385E-1,4.5925704E-1,0E0,0E0,0E0,4.379407E-1,0E0,3.6927307E-1,3.1584647E-1,4.8333642E-1,6.959015E-1,3.5440966E-1,0E0,2.160497E-1,5.459873E-1,3.1758136E-1,0E0,2.0937347E-1,0E0,2.5895482E-1,0E0,0E0,0E0,0E0,0E0,0E0,0E0,0E0,0E0,0E0],"parents":[2147483647,0,0,1,1,2,2,3,3,4,4,8,8,10,10,11,11,12,12,13,13,14,14,16,16,17,17,18,18,20,20,22,22],"right_children":[2,4,6,8,10,-1,-1,-1,12,-1,14,16,18,20,22,-1,24,26,28,-1,30,-1,32,-1,-1,-1,-1,-1,-1,-1,-1,-1,-1],"split_conditions":[1.595869E-1,1.7748409E-5,1.7856917E-1,2.8270878E-2,2.5786906E-3,-1.6684653E-1,3.8502797E-2,-1.3260594E-1,4.254147E-2,1.6887957E-1,1.4408451E-1,8.8613145E-3,8.2641855E-2,3.4051932E-2,6.121362E-2,-6.256257E-2,1.4345191E-1,4.7710396E-2,1.1320932E-1,9.859897E-2,7.082858E-3,-5.0150618E-2,9.591081E-3,1.4370277E-2,1.2814556E-1,2.4878196E-2,-1.6072115E-1,1.0320567E-1,-4.9554233E-2,-2.6983588E-3,-1.6672811E-1,1.5526456E-1,-8.195403E-3],"split_indices":[14,31,29,64,31,0,0,0,34,0,7,72,73,5,17,0,39,0,13,0,31,0,46,0,0,0,0,0,0,0,0,0,0],"split_type":[0,0,0,0,0,0,0,0,0,0,0,0,0,0,0,0,0,0,0,0,0,0,0,0,0,0,0,0,0,0,0,0,0],"sum_hessian":[2.9022636E1,2.6424282E1,2.5983553E0,1.6963617E1,9.460663E0,1.3186963E0,1.279659E0,2.2426171E0,1.4721002E1,1.4881223E0,7.972541E0,6.7031198E0,8.017881E0,3.6972668E0,4.275274E0,1.055673E0,5.6474466E0,4.90728E0,3.1106012E0,1.1648444E0,2.5324225E0,1.0247463E0,3.2505276E0,3.1089585E0,2.5384884E0,1.8281676E0,3.0791125E0,1.6802382E0,1.4303629E0,1.0168401E0,1.5155824E0,2.1811957E0,1.0693319E0],"tree_param":{"num_deleted":"0","num_feature":"75","num_nodes":"33","size_leaf_vector":"0"}},{"base_weights":[-1.795699E-2,-8.945394E-2,1.04407944E-1,-1.7957291E-1,1.1813141E-1,3.528008E-1,-1.2353883E-1,1.2919565E-1,-3.382529E-1,2.1569934E-1,-1.9074051E-1,4.9442017E-1,-1.265163E-1,-3.075692E-1,9.9981606E-2,2.765776E-1,-2.4098429E-1,-4.2028666E-1,6.94058E-3,4.0023464E-1,-3.711786E-2,5.834301E-1,9.3631476E-2,-5.669633E-1,1.4523677E-2,3.0098972E-1,-2.1077779E-1,4.4931233E-1,-1.2954687E-1,-8.782002E-3,-5.049408E-1,9.985663E-2,4.9901888E-1,-2.5838995E-1,1.946339E-1,1.2108586E-1,5.4399616E-1,-6.0676586E-2,-5.805321E-1],"categories":[],"categories_nodes":[],"categories_segments":[],"categories_sizes":[],"default_left":[1,1,1,1,1,1,1,1,1,1,0,1,0,1,1,1,0,1,0,1,1,0,0,0,0,0,0,1,0,0,1,0,0,0,0,0,0,0,0],"id":36,"left_children":[1,3,5,7,9,11,13,15,17,19,-1,21,-1,23,25,27,-1,29,-1,31,33,-1,-1,-1,-1,-1,-1,35,-1,-1,37,-1,-1,-1,-1,-1,-1,-1,-1],