{"learner":{"attributes":{"best_iteration":"999","best_ntree_limit":"1000","scikit_learn":"{\"use_label_encoder\": null, \"n_estimators\": 1000, \"max_depth\": null, \"max_leaves\": null, \"max_bin\": null, \"grow_policy\": null, \"learning_rate\": null, \"verbosity\": null, \"booster\": null, \"tree_method\": null, \"gamma\": null, \"min_child_weight\": null, \"max_delta_step\": null, \"subsample\": null, \"sampling_method\": null, \"colsample_bytree\": null, \"colsample_bylevel\": null, \"colsample_bynode\": null, \"reg_alpha\": null, \"reg_lambda\": null, \"scale_pos_weight\": null, \"base_score\": null, \"missing\": NaN, \"num_parallel_tree\": null, \"random_state\": 4, \"n_jobs\": null, \"monotone_constraints\": null, \"interaction_constraints\": null, \"importance_type\": null, \"gpu_id\": null, \"validate_parameters\": null, \"predictor\": null, \"enable_categorical\": false, \"feature_types\": null, \"max_cat_to_onehot\": null, \"max_cat_threshold\": null, \"eval_metric\": null, \"early_stopping_rounds\": null, \"callbacks\": null, \"classes_\": [0.0, 1.0], \"n_classes_\": 2, \"_estimator_type\": \"classifier\"}"},"feature_names":["heart_rate(t-4)","steps(t-4)","stress_score(t-4)","awake(t-4)","deep(t-4)","light(t-4)","rem(t-4)","nonrem_total(t-4)","total(t-4)","nonrem_percentage(t-4)","sleep_efficiency(t-4)","timestamp_dayofweek(t-4)","timestamp_hour_sin(t-4)","timestamp_hour_cos(t-4)","wearing_off(t-4)","heart_rate(t-3)","steps(t-3)","stress_score(t-3)","awake(t-3)","deep(t-3)","light(t-3)","rem(t-3)","nonrem_total(t-3)","total(t-3)","nonrem_percentage(t-3)","sleep_efficiency(t-3)","timestamp_dayofweek(t-3)","timestamp_hour_sin(t-3)","timestamp_hour_cos(t-3)","wearing_off(t-3)","heart_rate(t-2)","steps(t-2)","stress_score(t-2)","awake(t-2)","deep(t-2)","light(t-2)","rem(t-2)","nonrem_total(t-2)","total(t-2)","nonrem_percentage(t-2)","sleep_efficiency(t-2)","timestamp_dayofweek(t-2)","timestamp_hour_sin(t-2)","timestamp_hour_cos(t-2)","wearing_off(t-2)","heart_rate(t-1)","steps(t-1)","stress_score(t-1)","awake(t-1)","deep(t-1)","light(t-1)","rem(t-1)","nonrem_total(t-1)","total(t-1)","nonrem_percentage(t-1)","sleep_efficiency(t-1)","timestamp_dayofweek(t-1)","timestamp_hour_sin(t-1)","timestamp_hour_cos(t-1)","wearing_off(t-1)","heart_rate(t)","steps(t)","stress_score(t)","awake(t)","deep(t)","light(t)","rem(t)","nonrem_total(t)","total(t)","nonrem_percentage(t)","sleep_efficiency(t)","timestamp_dayofweek(t)","timestamp_hour_sin(t)","timestamp_hour_cos(t)","wearing_off(t)"],"feature_types":["float","float","float","float","float","float","float","float","float","float","float","float","float","float","float","float","float","float","float","float","float","float","float","float","float","float","float","float","float","float","float","float","float","float","float","float","float","float","float","float","float","float","float","float","float","float","float","float","float","float","float","float","float","float","float","float","float","float","float","float","float","float","float","float","float","float","float","float","float","float","float","float","float","float","float"],"gradient_booster":{"model":{"gbtree_model_param":{"num_parallel_tree":"1","num_trees":"1000","size_leaf_vector":"0"},"tree_info":[0,0,0,0,0,0,0,0,0,0,0,0,0,0,0,0,0,0,0,0,0,0,0,0,0,0,0,0,0,0,0,0,0,0,0,0,0,0,0,0,0,0,0,0,0,0,0,0,0,0,0,0,0,0,0,0,0,0,0,0,0,0,0,0,0,0,0,0,0,0,0,0,0,0,0,0,0,0,0,0,0,0,0,0,0,0,0,0,0,0,0,0,0,0,0,0,0,0,0,0,0,0,0,0,0,0,0,0,0,0,0,0,0,0,0,0,0,0,0,0,0,0,0,0,0,0,0,0,0,0,0,0,0,0,0,0,0,0,0,0,0,0,0,0,0,0,0,0,0,0,0,0,0,0,0,0,0,0,0,0,0,0,0,0,0,0,0,0,0,0,0,0,0,0,0,0,0,0,0,0,0,0,0,0,0,0,0,0,0,0,0,0,0,0,0,0,0,0,0,0,0,0,0,0,0,0,0,0,0,0,0,0,0,0,0,0,0,0,0,0,0,0,0,0,0,0,0,0,0,0,0,0,0,0,0,0,0,0,0,0,0,0,0,0,0,0,0,0,0,0,0,0,0,0,0,0,0,0,0,0,0,0,0,0,0,0,0,0,0,0,0,0,0,0,0,0,0,0,0,0,0,0,0,0,0,0,0,0,0,0,0,0,0,0,0,0,0,0,0,0,0,0,0,0,0,0,0,0,0,0,0,0,0,0,0,0,0,0,0,0,0,0,0,0,0,0,0,0,0,0,0,0,0,0,0,0,0,0,0,0,0,0,0,0,0,0,0,0,0,0,0,0,0,0,0,0,0,0,0,0,0,0,0,0,0,0,0,0,0,0,0,0,0,0,0,0,0,0,0,0,0,0,0,0,0,0,0,0,0,0,0,0,0,0,0,0,0,0,0,0,0,0,0,0,0,0,0,0,0,0,0,0,0,0,0,0,0,0,0,0,0,0,0,0,0,0,0,0,0,0,0,0,0,0,0,0,0,0,0,0,0,0,0,0,0,0,0,0,0,0,0,0,0,0,0,0,0,0,0,0,0,0,0,0,0,0,0,0,0,0,0,0,0,0,0,0,0,0,0,0,0,0,0,0,0,0,0,0,0,0,0,0,0,0,0,0,0,0,0,0,0,0,0,0,0,0,0,0,0,0,0,0,0,0,0,0,0,0,0,0,0,0,0,0,0,0,0,0,0,0,0,0,0,0,0,0,0,0,0,0,0,0,0,0,0,0,0,0,0,0,0,0,0,0,0,0,0,0,0,0,0,0,0,0,0,0,0,0,0,0,0,0,0,0,0,0,0,0,0,0,0,0,0,0,0,0,0,0,0,0,0,0,0,0,0,0,0,0,0,0,0,0,0,0,0,0,0,0,0,0,0,0,0,0,0,0,0,0,0,0,0,0,0,0,0,0,0,0,0,0,0,0,0,0,0,0,0,0,0,0,0,0,0,0,0,0,0,0,0,0,0,0,0,0,0,0,0,0,0,0,0,0,0,0,0,0,0,0,0,0,0,0,0,0,0,0,0,0,0,0,0,0,0,0,0,0,0,0,0,0,0,0,0,0,0,0,0,0,0,0,0,0,0,0,0,0,0,0,0,0,0,0,0,0,0,0,0,0,0,0,0,0,0,0,0,0,0,0,0,0,0,0,0,0,0,0,0,0,0,0,0,0,0,0,0,0,0,0,0,0,0,0,0,0,0,0,0,0,0,0,0,0,0,0,0,0,0,0,0,0,0,0,0,0,0,0,0,0,0,0,0,0,0,0,0,0,0,0,0,0,0,0,0,0,0,0,0,0,0,0,0,0,0,0,0,0,0,0,0,0,0,0,0,0,0,0,0,0,0,0,0,0,0,0,0,0,0,0,0,0,0,0,0,0,0,0,0,0,0,0,0,0,0,0,0,0,0,0,0,0,0,0,0,0,0,0,0,0,0,0,0,0,0,0,0,0,0,0,0,0,0,0,0,0,0,0,0,0,0,0,0,0,0,0,0,0,0,0,0,0,0,0,0,0,0,0,0,0,0,0,0,0,0,0,0,0,0,0,0,0,0,0,0,0,0,0,0,0,0,0,0,0,0,0,0,0,0,0,0,0,0,0,0,0,0,0,0,0,0,0,0,0,0,0,0,0,0,0,0,0,0,0,0,0,0,0,0,0,0,0,0,0,0,0,0,0,0,0,0,0,0,0,0,0,0,0,0,0,0,0,0,0,0,0,0,0,0,0,0,0,0,0,0,0,0,0,0,0,0,0],"trees":[{"base_weights":[-0E0,7.649123E-1,-1.963964E0,9.351433E-2,1.6839917E0,-5.4545456E-1,-1.9816934E0,-1.5752212E0,4.33213E-1,1.7939914E0,-1.3684211E0,-1.9148936E0,8.695652E-2,-1.7288135E0,6.8537074E-1,-1.2E0,1.8434782E0,-1.1428572E0,1.3846154E0,-5.4545456E-1,-1.8461539E0,1.2639405E-1,1.3162394E0,1.877193E0,-1E0,-4.1340783E-1,1.1489362E0,1.5090909E0,-1.3333334E0,-0E0,1.8938053E0],"categories":[],"categories_nodes":[],"categories_segments":[],"categories_sizes":[],"default_left":[1,1,1,1,1,0,0,1,1,1,0,0,1,1,1,0,1,0,0,0,0,1,1,1,0,0,0,0,0,0,0],"id":0,"left_children":[1,3,5,7,9,-1,-1,11,13,15,-1,-1,17,19,21,-1,23,-1,-1,-1,-1,25,27,29,-1,-1,-1,-1,-1,-1,-1],"loss_changes":[5.94895E2,1.757069E2,1.7106628E0,9.4640656E1,4.2830658E1,0E0,0E0,1.6116348E1,7.669116E1,1.9473175E1,0E0,0E0,1.075872E1,1.0411263E0,4.3825577E1,0E0,1.29019165E1,0E0,0E0,0E0,0E0,3.759497E1,3.1904121E1,3.5550232E0,0E0,0E0,0E0,0E0,0E0,0E0,0E0],"parents":[2147483647,0,0,1,1,2,2,3,3,4,4,7,7,8,8,9,9,12,12,13,13,14,14,16,16,21,21,22,22,23,23],"right_children":[2,4,6,8,10,-1,-1,12,14,16,-1,-1,18,20,22,-1,24,-1,-1,-1,-1,26,28,30,-1,-1,-1,-1,-1,-1,-1],"split_conditions":[1.1169593E-1,3.066733E-7,1.12862326E-1,5.2069888E-2,1.18086115E-1,-1.6363637E-1,-5.9450805E-1,9.013954E-3,3.679471E-2,1.8856896E-3,-4.1052634E-1,-5.7446814E-1,9.221766E-2,1.5802729E-1,1.2977184E-1,-3.6E-1,3.0090195E-1,-3.4285718E-1,4.1538465E-1,-1.6363637E-1,-5.538462E-1,2.414332E-1,1.5124914E-1,9.335205E-3,-3E-1,-1.2402236E-1,3.4468085E-1,4.527273E-1,-4.0000004E-1,-0E0,5.681416E-1],"split_indices":[73,74,73,30,3,0,0,46,12,13,0,0,17,10,5,0,74,0,0,0,0,0,44,12,0,0,0,0,0,0,0],"split_type":[0,0,0,0,0,0,0,0,0,0,0,0,0,0,0,0,0,0,0,0,0,0,0,0,0,0,0,0,0,0,0],"sum_hessian":[3.94E2,2.84E2,1.1E2,1.6475E2,1.1925E2,1.75E0,1.0825E2,2.725E1,1.375E2,1.155E2,3.75E0,2.25E1,4.75E0,1.375E1,1.2375E2,1.5E0,1.14E2,2.5E0,2.25E0,1.75E0,1.2E1,6.625E1,5.75E1,1.13E2,1E0,4.375E1,2.25E1,5.4E1,3.5E0,1E0,1.12E2],"tree_param":{"num_deleted":"0","num_feature":"75","num_nodes":"31","size_leaf_vector":"0"}},{"base_weights":[-6.619776E-3,5.661968E-1,-1.5220658E0,6.18883E-2,1.2819381E0,-4.4343472E-1,-1.53635E0,-1.0419236E0,3.7678248E-1,1.3708711E0,-1.083861E0,-1.2807496E0,5.728085E-1,-1.4733306E0,5.6841433E-1,-7.569932E-1,1.4212087E0,-1.3971326E0,6.514684E-1,-9.25251E-1,1.2358197E0,6.6302955E-1,-1.6597127E0,1.4504746E0,-6.06948E-1,-1.5233489E0,-3.039347E-1,-7.081093E-1,8.125502E-1,1.4685297E0,-8.897064E-2],"categories":[],"categories_nodes":[],"categories_segments":[],"categories_sizes":[],"default_left":[1,1,1,1,1,0,0,1,1,1,0,1,1,0,1,0,1,1,0,0,0,1,0,1,0,0,0,0,0,0,0],"id":1,"left_children":[1,3,5,7,9,-1,-1,11,13,15,-1,17,19,-1,21,-1,23,25,-1,-1,-1,27,-1,29,-1,-1,-1,-1,-1,-1,-1],"loss_changes":[3.2267084E2,9.729062E1,8.896637E-1,5.57639E1,2.4935394E1,0E0,0E0,1.4471798E1,4.504125E1,1.2628616E1,0E0,7.9585876E0,6.3887634E0,0E0,2.5069798E1,0E0,7.1549835E0,3.659916E0,0E0,0E0,0E0,2.308213E1,0E0,3.0353088E0,0E0,0E0,0E0,0E0,0E0,0E0,0E0],"parents":[2147483647,0,0,1,1,2,2,3,3,4,4,7,7,8,8,9,9,11,11,12,12,14,14,16,16,17,17,21,21,23,23],"right_children":[2,4,6,8,10,-1,-1,12,14,16,-1,18,20,-1,22,-1,24,26,-1,-1,-1,28,-1,30,-1,-1,-1,-1,-1,-1,-1],"split_conditions":[1.1169593E-1,3.066733E-7,1.12862326E-1,3.7428033E-2,1.18086115E-1,-1.3303041E-1,-4.6090502E-1,1.9613945E-1,3.4874164E-2,2.7825679E-3,-3.251583E-1,2.1476348E-1,2.0368885E-2,-4.419992E-1,1.8541926E-1,-2.2709796E-1,2.8956518E-1,1.377526E-1,1.9544053E-1,-2.775753E-1,3.7074593E-1,5.2071907E-2,-4.979138E-1,2.6109242E-1,-1.8208441E-1,-4.570047E-1,-9.1180414E-2,-2.124328E-1,2.4376507E-1,4.4055894E-1,-2.6691193E-2],"split_indices":[73,74,73,62,3,0,0,14,12,13,0,0,4,0,11,0,74,7,0,0,0,0,0,29,0,0,0,0,0,0,0],"split_type":[0,0,0,0,0,0,0,0,0,0,0,0,0,0,0,0,0,0,0,0,0,0,0,0,0,0,0,0,0,0,0],"sum_hessian":[3.697168E2,2.6875696E2,1.0095984E2,1.5830344E2,1.10453514E2,1.7383372E0,9.9221504E1,3.4624367E1,1.2367906E2,1.0685718E2,3.5963356E0,3.0343296E1,4.281071E0,1.0980386E1,1.1269868E2,2.1450217E0,1.0471216E2,2.888066E1,1.4626375E0,1.1920751E0,3.088996E0,1.0878179E2,3.9168851E0,1.03503456E2,1.208697E0,2.5538593E1,3.342065E0,1.0328765E1,9.8453026E1,1.02349144E2,1.1543182E0],"tree_param":{"num_deleted":"0","num_feature":"75","num_nodes":"31","size_leaf_vector":"0"}},{"base_weights":[-1.4394362E-2,4.418041E-1,-1.3168566E0,3.4681614E-2,1.0751177E0,-3.6304882E-1,-1.3319873E0,-4.0296048E-1,6.177711E-1,1.1551319E0,-9.00618E-1,-9.708241E-2,-1.3139048E0,-5.186815E-1,8.7775934E-1,-9.0158385E-1,1.1961826E0,-1.0921168E0,3.1693545E-1,-1.4408013E0,9.53841E-2,5.878811E-1,-1.3793025E0,-2.3580801E-1,1.1411989E0,1.2244629E0,-5.136746E-1,-1.2382134E0,4.6638972E-1,-1.7857945E-2,1.2179005E0,-7.908539E-1,1.2376429E0,-1.5954088E0,1.1328487E0,1.2347046E0,-1.1783314E0,1.2518724E0,2.0090736E-1],"categories":[],"categories_nodes":[],"categories_segments":[],"categories_sizes":[],"default_left":[1,1,1,1,1,0,0,1,1,1,0,1,1,1,1,0,1,1,1,0,0,1,0,1,1,1,0,0,0,0,0,0,0,0,0,0,0,0,0],"id":2,"left_children":[1,3,5,7,9,-1,-1,11,13,15,-1,17,19,21,23,-1,25,27,29,-1,-1,31,-1,33,35,37,-1,-1,-1,-1,-1,-1,-1,-1,-1,-1,-1,-1,-1],"loss_changes":[1.9617935E2,6.301534E1,7.5239563E-1,3.849806E1,1.6162514E1,0E0,0E0,2.3898918E1,1.9559942E1,8.877365E0,0E0,2.7384222E1,3.9994888E0,1.2873928E1,1.5814983E1,0E0,5.0290527E0,5.0196686E0,1.4235783E1,0E0,0E0,6.5713816E0,0E0,2.2215036E1,1.0786758E1,2.268097E0,0E0,0E0,0E0,0E0,0E0,0E0,0E0,0E0,0E0,0E0,0E0,0E0,0E0],"parents":[2147483647,0,0,1,1,2,2,3,3,4,4,7,7,8,8,9,9,11,11,12,12,13,13,14,14,16,16,17,17,18,18,21,21,23,23,24,24,25,25],"right_children":[2,4,6,8,10,-1,-1,12,14,16,-1,18,20,22,24,-1,26,28,30,-1,-1,32,-1,34,36,38,-1,-1,-1,-1,-1,-1,-1,-1,-1,-1,-1,-1,-1],"split_conditions":[1.1169593E-1,3.066733E-7,1.12862326E-1,7.629095E-7,1.18086115E-1,-1.0891465E-1,-3.9959618E-1,1.8500441E-1,9.263024E-2,1.8856896E-3,-2.701854E-1,3.7499394E-2,1.9325459E-1,1.8405054E-2,5.4502293E-2,-2.7047518E-1,2.8956518E-1,7.1451925E-3,1.4770757E-1,-4.322404E-1,2.861523E-2,1.083657E-1,-4.1379076E-1,2.4152625E-1,1.1313465E-1,2.560364E-1,-1.5410239E-1,-3.7146404E-1,1.3991693E-1,-5.3573838E-3,3.6537015E-1,-2.3725618E-1,3.712929E-1,-4.7862265E-1,3.3985463E-1,3.704114E-1,-3.534994E-1,3.7556174E-1,6.0272213E-2],"split_indices":[73,74,73,61,3,0,0,10,57,13,0,47,14,58,7,0,74,46,4,0,0,11,0,0,13,29,0,0,0,0,0,0,0,0,0,0,0,0,0],"split_type":[0,0,0,0,0,0,0,0,0,0,0,0,0,0,0,0,0,0,0,0,0,0,0,0,0,0,0,0,0,0,0,0,0,0,0,0,0,0,0],"sum_hessian":[3.2818832E2,2.435453E2,8.464301E1,1.488881E2,9.465721E1,1.7120528E0,8.293096E1,8.52283E1,6.36598E1,9.1372116E1,3.2850885E0,6.463249E1,2.0595808E1,1.166688E1,5.1992924E1,1.3778219E0,8.99943E1,1.8509539E1,4.612295E1,1.887398E1,1.7218281E0,5.242775E0,6.4241047E0,9.966995E0,4.202593E1,8.880931E1,1.1849889E0,1.7111038E1,1.3985002E0,3.4341885E1,1.1781067E1,1.6097944E0,3.6329803E0,4.9169273E0,5.0500684E0,4.084698E1,1.1789458E0,8.627589E1,2.5334227E0],"tree_param":{"num_deleted":"0","num_feature":"75","num_nodes":"39","size_leaf_vector":"0"}},{"base_weights":[-1.8354528E-2,3.58802E-1,-1.1971434E0,2.1504585E-2,9.374522E-1,-2.9843888E-1,-1.2151073E0,-3.139339E-1,4.8942724E-1,1.0128332E0,-7.654664E-1,-4.8254094E-1,1.1951323E0,-4.883756E-1,6.9199675E-1,-6.1815333E-1,1.0629585E0,-6.811662E-1,5.048816E-1,1.3553423E0,1.1165379E-1,5.367492E-1,-1.1597133E0,-1.9395627E-1,8.991671E-1,1.1030345E0,-1.8437049E-1,-8.087951E-1,1.2211848E0,-4.58599E-1,1.2275777E0,-5.8983105E-1,1.0196034E0,-1.2693907E0,-3.9462548E-1,-1.3006426E0,9.570698E-1,9.829037E-1,-9.9606085E-1,-2.8515595E-1,1.1266465E0,-7.176902E-1,4.245799E-1],"categories":[],"categories_nodes":[],"categories_segments":[],"categories_sizes":[],"default_left":[1,1,1,1,1,0,0,1,1,1,0,1,1,1,1,0,1,1,1,0,0,1,1,1,1,1,1,0,0,0,0,0,0,0,0,0,0,0,0,0,0,0,0],"id":3,"left_children":[1,3,5,7,9,-1,-1,11,13,15,-1,17,19,21,23,-1,25,27,29,-1,-1,31,33,35,37,39,41,-1,-1,-1,-1,-1,-1,-1,-1,-1,-1,-1,-1,-1,-1,-1,-1],"loss_changes":[1.2676738E2,4.214909E1,7.531357E-1,2.173823E1,1.0985558E1,0E0,0E0,2.1111698E1,1.1788594E1,6.919243E0,0E0,1.4721624E1,1.3065538E0,7.8536816E0,9.040058E0,0E0,3.9365463E0,1.590917E1,9.511235E0,0E0,0E0,3.2351294E0,5.840397E-2,1.3953748E1,7.2200356E0,2.6976852E0,1.3379842E0,0E0,0E0,0E0,0E0,0E0,0E0,0E0,0E0,0E0,0E0,0E0,0E0,0E0,0E0,0E0,0E0],"parents":[2147483647,0,0,1,1,2,2,3,3,4,4,7,7,8,8,9,9,11,11,12,12,13,13,14,14,16,16,17,17,18,18,21,21,22,22,23,23,24,24,25,25,26,26],"right_children":[2,4,6,8,10,-1,-1,12,14,16,-1,18,20,22,24,-1,26,28,30,-1,-1,32,34,36,38,40,42,-1,-1,-1,-1,-1,-1,-1,-1,-1,-1,-1,-1,-1,-1,-1,-1],"split_conditions":[1.1169593E-1,3.066733E-7,1.12862326E-1,7.629095E-7,1.18086115E-1,-8.953167E-2,-3.645322E-1,1.9124515E-1,8.092235E-2,2.7825679E-3,-2.2963993E-1,1.2225835E-1,1.7695937E-1,1.8405054E-2,5.4502293E-2,-1.8544601E-1,2.8508905E-1,2.6308477E-2,1.1000708E-1,4.066027E-1,3.3496138E-2,1.1018875E-1,1.120348E-4,2.4152625E-1,1.1313465E-1,9.795646E-3,2.3823106E-1,-2.4263854E-1,3.6635548E-1,-1.3757971E-1,3.6827332E-1,-1.7694932E-1,3.0588102E-1,-3.8081723E-1,-1.1838765E-1,-3.901928E-1,2.8712097E-1,2.9487112E-1,-2.9881826E-1,-8.554679E-2,3.3799398E-1,-2.1530707E-1,1.2737398E-1],"split_indices":[73,74,73,61,3,0,0,2,72,13,0,7,11,58,7,0,74,46,11,0,0,11,31,0,13,12,12,0,0,0,0,0,0,0,0,0,0,0,0,0,0,0,0],"split_type":[0,0,0,0,0,0,0,0,0,0,0,0,0,0,0,0,0,0,0,0,0,0,0,0,0,0,0,0,0,0,0,0,0,0,0,0,0,0,0,0,0,0,0],"sum_hessian":[2.8316843E2,2.1505626E2,6.811218E1,1.3651709E2,7.853917E1,1.679961E0,6.643222E1,7.97069E1,5.6810184E1,7.5598E1,2.9411695E0,7.230819E1,7.3987117E0,9.507343E0,4.730284E1,1.9161974E0,7.36818E1,6.045709E1,1.1851101E1,6.2270265E0,1.171685E0,3.8416567E0,5.6656866E0,8.976993E0,3.8325848E1,7.150022E1,2.1815822E0,5.7194733E1,3.2623575E0,5.236012E0,6.615089E0,1.0860853E0,2.7555714E0,4.378826E0,1.2868605E0,4.510378E0,4.4666147E0,3.7165165E1,1.160683E0,1.010562E0,7.0489655E1,1.0678171E0,1.1137651E0],"tree_param":{"num_deleted":"0","num_feature":"75","num_nodes":"43","size_leaf_vector":"0"}},{"base_weights":[-1.5650943E-2,2.9562396E-1,-1.1401628E0,1.832367E-2,8.304612E-1,-9.152493E-1,1.7606908E-1,9.0303636E-1,-6.574501E-1,-1.2097504E0,2.0661971E-1,5.1319942E-2,1.4614525E0,-5.0872153E-1,9.5443326E-1,-1.7162485E-1,-7.88563E-1,-8.1045604E-1,7.731853E-1,-5.8377177E-1,3.433993E-1,9.973333E-1,-1.5941778E-1,-1.1328422E0,1.0017511E0,6.589476E-1,-7.3244387E-1,2.9533154E-1,1.0668468E0,-6.796962E-1,4.291037E-1],"categories":[],"categories_nodes":[],"categories_segments":[],"categories_sizes":[],"default_left":[1,1,0,1,1,1,1,1,1,0,1,1,0,0,1,0,0,0,0,1,1,1,1,0,0,0,0,0,0,0,0],"id":4,"left_children":[1,3,-1,5,7,9,11,13,15,-1,17,19,-1,-1,21,-1,-1,-1,-1,23,25,27,29,-1,-1,-1,-1,-1,-1,-1,-1],"loss_changes":[8.553388E1,2.8374868E1,0E0,1.8876602E1,7.6492424E0,6.3724375E0,1.749209E1,5.036545E0,9.508562E-2,0E0,3.3391125E0,1.891692E1,0E0,0E0,3.067379E0,0E0,0E0,0E0,0E0,2.9128447E1,2.4159073E1,2.5516243E0,1.2468249E0,0E0,0E0,0E0,0E0,0E0,0E0,0E0,0E0],"parents":[2147483647,0,0,1,1,3,3,4,4,5,5,6,6,7,7,8,8,10,10,11,11,14,14,19,19,20,20,21,21,22,22],"right_children":[2,4,-1,6,8,10,12,14,16,-1,18,20,-1,-1,22,-1,-1,-1,-1,24,26,28,30,-1,-1,-1,-1,-1,-1,-1,-1],"split_conditions":[1.12862326E-1,3.066733E-7,-3.4204885E-1,5.2069888E-2,1.18086115E-1,9.013954E-3,2.509143E-1,2.7825679E-3,1.6025549E-1,-3.6292514E-1,2.1780148E-2,9.877815E-2,4.3843576E-1,-1.5261647E-1,2.8508905E-1,-5.1487457E-2,-2.3656891E-1,-2.4313682E-1,2.319556E-1,1.7119798E-1,1.5031636E-1,2.0092975E-2,1.4719391E-1,-3.3985266E-1,3.0052534E-1,1.9768429E-1,-2.1973316E-1,8.8599466E-2,3.2005405E-1,-2.0390888E-1,1.2873112E-1],"split_indices":[73,74,0,30,3,46,12,13,0,0,13,5,0,0,74,0,0,0,0,2,6,72,32,0,0,0,0,0,0,0,0],"split_type":[0,0,0,0,0,0,0,0,0,0,0,0,0,0,0,0,0,0,0,0,0,0,0,0,0,0,0,0,0,0,0],"sum_hessian":[2.4239702E2,1.9042326E2,5.1973743E1,1.2608531E2,6.433795E1,1.7530977E1,1.0855434E2,6.1720524E1,2.6174266E0,1.3823772E1,3.7072043E0,9.989887E1,8.655468E0,1.8555256E0,5.9864998E1,1.0469707E0,1.570456E0,1.1722881E0,2.5349162E0,3.1155745E1,6.8743126E1,5.7745533E1,2.1194649E0,2.3353783E1,7.801963E0,5.3452763E1,1.5290364E1,5.675763E0,5.206977E1,1.0427272E0,1.0767376E0],"tree_param":{"num_deleted":"0","num_feature":"75","num_nodes":"31","size_leaf_vector":"0"}},{"base_weights":[-1.707991E-2,2.4294323E-1,-1.0880044E0,-7.640073E-2,6.206755E-1,2.5500572E-1,-5.384315E-1,7.6044947E-1,-1.394322E-1,3.8796365E-1,-1.1388185E0,1.4995065E-1,-1.3295859E0,8.3722633E-1,-9.2086744E-1,-9.669472E-1,5.5610603E-1,-3.0284473E-1,6.458658E-1,-1.1164525E0,1.0574788E0,-3.4757942E-1,-1.5101335E0,9.0291655E-1,-4.5191985E-1,-1.5574541E0,2.3058511E-1,-7.361893E-2,-1.1717765E0,-9.336124E-1,1.2041686E0,-7.796453E-1,1.024486E0,7.9516345E-1,-8.4060067E-1,-1.5941249E0,8.7545075E-2,1.3337711E0,-7.7004665E-1,-9.261E-1,6.378973E-1,-4.3510902E-1,9.566633E-1,3.1133518E-1,-8.983159E-1],"categories":[],"categories_nodes":[],"categories_segments":[],"categories_sizes":[],"default_left":[1,1,0,1,1,1,1,1,1,1,0,1,1,1,1,1,1,1,1,1,1,1,0,1,1,0,0,0,0,0,0,0,0,0,0,0,0,0,0,0,0,0,0,0,0],"id":5,"left_children":[1,3,-1,5,7,9,11,13,15,17,-1,19,21,23,25,27,29,31,33,35,37,39,-1,41,43,-1,-1,-1,-1,-1,-1,-1,-1,-1,-1,-1,-1,-1,-1,-1,-1,-1,-1,-1,-1],"loss_changes":[5.8574818E1,2.0470375E1,0E0,1.4321543E1,8.358215E0,1.0564238E1,2.1446783E1,9.260071E0,7.9680414E0,9.212421E0,0E0,2.6189772E1,2.7113647E0,5.77829E0,2.8132932E0,1.0592918E0,8.50877E0,9.936777E0,8.917747E0,5.6437197E0,7.687046E0,2.947476E0,0E0,4.779579E0,1.5543413E0,0E0,0E0,0E0,0E0,0E0,0E0,0E0,0E0,0E0,0E0,0E0,0E0,0E0,0E0,0E0,0E0,0E0,0E0,0E0,0E0],"parents":[2147483647,0,0,1,1,3,3,4,4,5,5,6,6,7,7,8,8,9,9,11,11,12,12,13,13,14,14,15,15,16,16,17,17,18,18,19,19,20,20,21,21,23,23,24,24],"right_children":[2,4,-1,6,8,10,12,14,16,18,-1,20,22,24,26,28,30,32,34,36,38,40,-1,42,44,-1,-1,-1,-1,-1,-1,-1,-1,-1,-1,-1,-1,-1,-1,-1,-1,-1,-1,-1,-1],"split_conditions":[1.12862326E-1,3.4966686E-6,-3.2640132E-1,1.53843E-1,1.9192246E-1,1.7957401E-1,1.7790481E-2,2.560364E-1,1.7039523E-1,1.3457179E-1,-3.4164557E-1,8.13425E-3,3.3334766E-2,1.8149242E-1,4.859306E-3,3.8155974E-3,9.401743E-3,1.8704504E-1,3.387479E-1,6.866534E-4,1.7755076E-1,2.0856695E-2,-4.5304006E-1,5.4785628E-2,2.6249047E-2,-4.6723625E-1,6.9175534E-2,-2.2085682E-2,-3.5153297E-1,-2.8008375E-1,3.6125058E-1,-2.338936E-1,3.073458E-1,2.3854904E-1,-2.5218022E-1,-4.7823748E-1,2.6263524E-2,4.0013134E-1,-2.31014E-1,-2.7783E-1,1.913692E-1,-1.3053271E-1,2.8699902E-1,9.340055E-2,-2.6949477E-1],"split_indices":[73,46,0,9,10,11,43,29,12,12,0,58,17,3,1,46,3,2,12,31,10,59,0,0,13,0,0,0,0,0,0,0,0,0,0,0,0,0,0,0,0,0,0,0,0],"split_type":[0,0,0,0,0,0,0,0,0,0,0,0,0,0,0,0,0,0,0,0,0,0,0,0,0,0,0,0,0,0,0,0,0,0,0,0,0,0,0,0,0,0,0,0,0],"sum_hessian":[2.0839963E2,1.6830734E2,4.0092293E1,9.16348E1,7.667253E1,5.362129E1,3.801352E1,6.4763E1,1.1909529E1,4.9610554E1,4.0107327E0,2.0760397E1,1.7253122E1,6.2414886E1,2.3481169E0,5.260567E0,6.648962E0,1.3439005E1,3.617155E1,8.5705185E0,1.21898775E1,3.1337354E0,1.4119387E1,5.9673733E1,2.7411551E0,1.2850634E0,1.0630535E0,1.234765E0,4.025802E0,1.8820418E0,4.76692E0,1.0190883E1,3.248123E0,3.329276E1,2.8787923E0,5.9041047E0,2.6664138E0,1.0823688E1,1.3661903E0,2.0125353E0,1.1212E0,2.0304382E0,5.764329E1,1.1232178E0,1.6179373E0],"tree_param":{"num_deleted":"0","num_feature":"75","num_nodes":"45","size_leaf_vector":"0"}},{"base_weights":[-2.8480142E-2,1.9098324E-1,-1.0488728E0,-2.8299762E-2,6.704646E-1,-8.2293963E-1,2.1065663E-1,1.4476603E-1,9.604195E-1,-2.7050832E-1,-1.2691475E0,5.815198E-1,-2.7054888E-1,1.0268033E0,-2.5115332E-1,1.0731201E0,-2.2373481E-1,-1.1261808E0,2.4469648E-1,-1.56403E0,3.7912644E-2,7.273768E-1,-1.0484289E0,-1.1799009E0,1.3500078E-1,1.43971E-1,1.1885672E0,-7.242683E-1,7.0210135E-1,1.0919672E0,3.012992E-1,6.033019E-1,-8.3834124E-1,1.1303588E0,-7.3049194E-1,-6.3604575E-1,6.8709135E-1,-3.3801457E-1,9.194146E-1,-1.5578679E0,1.7085029E-1,-1.2652102E0,-2.0729823E-1,8.7526596E-1,-6.802856E-1,7.6363736E-1,-1.2181419E0,-1.1820274E-2,9.098193E-1],"categories":[],"categories_nodes":[],"categories_segments":[],"categories_sizes":[],"default_left":[1,1,0,1,1,1,1,1,1,1,1,1,1,1,1,1,1,0,1,0,1,1,1,1,1,0,0,1,1,0,0,0,0,0,0,0,0,0,0,0,0,0,0,0,0,0,0,0,0],"id":6,"left_children":[1,3,-1,5,7,9,11,13,15,17,19,21,23,25,27,29,31,-1,33,-1,35,37,39,41,43,-1,-1,45,47,-1,-1,-1,-1,-1,-1,-1,-1,-1,-1,-1,-1,-1,-1,-1,-1,-1,-1,-1,-1],"loss_changes":[4.0066597E1,1.551247E1,0E0,1.955562E1,6.915922E0,5.52392E0,1.4304289E1,6.414817E0,4.1974163E0,5.524335E0,5.029848E0,1.1481389E1,1.3135281E1,6.369939E-1,6.3589144E0,6.736374E-2,2.2362373E0,0E0,7.9537635E0,0E0,1.9028126E0,8.898352E0,2.8208184E0,6.4666843E-1,1.5822902E1,0E0,0E0,7.6624966E0,7.241256E-1,0E0,0E0,0E0,0E0,0E0,0E0,0E0,0E0,0E0,0E0,0E0,0E0,0E0,0E0,0E0,0E0,0E0,0E0,0E0,0E0],"parents":[2147483647,0,0,1,1,3,3,4,4,5,5,6,6,7,7,8,8,9,9,10,10,11,11,12,12,13,13,14,14,15,15,16,16,18,18,20,20,21,21,22,22,23,23,24,24,27,27,28,28],"right_children":[2,4,-1,6,8,10,12,14,16,18,20,22,24,26,28,30,32,-1,34,-1,36,38,40,42,44,-1,-1,46,48,-1,-1,-1,-1,-1,-1,-1,-1,-1,-1,-1,-1,-1,-1,-1,-1,-1,-1,-1,-1],"split_conditions":[1.12862326E-1,8.6052367E-4,-3.1466186E-1,6.988993E-2,1.3417518E-1,2.602705E-2,1.5379742E-1,2.701439E-2,2.565546E-1,9.419251E-3,1.8946695E-1,1.5112612E-1,5.0311964E-2,1.2903845E-1,1.4689225E-1,2.7990526E-1,1.302307E-1,-3.3785424E-1,2.154152E-1,-4.6920905E-1,9.412886E-2,5.2069888E-2,8.625115E-2,1.4773548E-1,6.802321E-2,4.31913E-2,3.5657015E-1,1.4232036E-1,1.4806682E-1,3.2759017E-1,9.0389766E-2,1.8099058E-1,-2.515024E-1,3.3910766E-1,-2.191476E-1,-1.9081374E-1,2.0612742E-1,-1.0140438E-1,2.758244E-1,-4.6736038E-1,5.125509E-2,-3.7956306E-1,-6.218947E-2,2.625798E-1,-2.0408568E-1,2.2909121E-1,-3.6544257E-1,-3.5460824E-3,2.729458E-1],"split_indices":[73,14,0,11,12,4,11,17,29,3,27,44,32,8,44,74,32,0,6,0,0,30,32,4,32,0,0,14,59,0,0,0,0,0,0,0,0,0,0,0,0,0,0,0,0,0,0,0,0],"split_type":[0,0,0,0,0,0,0,0,0,0,0,0,0,0,0,0,0,0,0,0,0,0,0,0,0,0,0,0,0,0,0,0,0,0,0,0,0,0,0,0,0,0,0,0,0,0,0,0,0],"sum_hessian":[1.7702307E2,1.4635768E2,3.066539E1,1.0107407E2,4.5283607E1,2.2802242E1,7.8271835E1,1.6630745E1,2.865286E1,1.0906097E1,1.1896145E1,4.4086266E1,3.418557E1,4.658648E0,1.1972097E1,2.6248459E1,2.404402E0,3.6530604E0,7.2530365E0,9.545915E0,2.3502305E0,4.097347E1,3.1127958E0,9.954809E0,2.4230759E1,1.0141102E0,3.644538E0,8.16159E0,3.8105078E0,2.5217869E1,1.030589E0,1.0328946E0,1.3715074E0,3.7176044E0,3.5354323E0,1.1630334E0,1.1871971E0,6.1414804E0,3.483199E1,1.9996195E0,1.1131763E0,8.87547E0,1.079339E0,1.2661122E1,1.1569637E1,1.8978045E0,6.2637854E0,1.0713608E0,2.739147E0],"tree_param":{"num_deleted":"0","num_feature":"75","num_nodes":"49","size_leaf_vector":"0"}},{"base_weights":[-2.7671305E-2,1.5954101E-1,-1.017079E0,-3.610853E-2,6.0712296E-1,-7.2229433E-1,1.6194437E-1,1.561022E-1,8.9239085E-1,-9.570499E-1,6.4634435E-2,-1.1361771E0,2.6646382E-1,4.6986422E-1,-6.978015E-1,1.0150461E0,-1.7884003E-1,-1.3915938E0,-6.199085E-1,7.819845E-1,-8.144487E-1,-8.1956875E-1,3.7648085E-1,-6.470972E-1,6.4310807E-1,-1.489363E0,4.3398806E-1,1.0507184E0,2.5918835E-1,3.91373E-1,-6.3661116E-1,1.0996408E-1,-9.851232E-1,3.103682E-1,-1.1689365E0,-3.3098865E-2,8.1580114E-1,8.0791336E-1,-1.6874033E-1],"categories":[],"categories_nodes":[],"categories_segments":[],"categories_sizes":[],"default_left":[1,1,0,1,1,1,1,1,1,1,1,0,1,1,1,1,1,0,1,0,0,1,1,0,1,0,0,0,0,0,0,0,0,0,0,0,0,0,0],"id":7,"left_children":[1,3,-1,5,7,9,11,13,15,17,19,-1,21,23,25,27,29,-1,31,-1,-1,33,35,-1,37,-1,-1,-1,-1,-1,-1,-1,-1,-1,-1,-1,-1,-1,-1],"loss_changes":[2.8344175E1,1.1301051E1,0E0,1.2425387E1,4.908554E0,3.8431978E0,9.949529E0,4.7251964E0,3.311407E0,1.4563246E0,4.19349E0,0E0,8.267487E0,2.8543463E0,4.957905E0,3.0800438E-1,1.1098812E0,0E0,2.9649897E0,0E0,0E0,2.9058604E0,1.1033727E1,0E0,1.6629109E0,0E0,0E0,0E0,0E0,0E0,0E0,0E0,0E0,0E0,0E0,0E0,0E0,0E0,0E0],"parents":[2147483647,0,0,1,1,3,3,4,4,5,5,6,6,7,7,8,8,9,9,10,10,12,12,13,13,14,14,15,15,16,16,18,18,21,21,22,22,24,24],"right_children":[2,4,-1,6,8,10,12,14,16,18,20,-1,22,24,26,28,30,-1,32,-1,-1,34,36,-1,38,-1,-1,-1,-1,-1,-1,-1,-1,-1,-1,-1,-1,-1,-1],"split_conditions":[1.12862326E-1,8.6052367E-4,-3.0512372E-1,6.988993E-2,1.3417518E-1,1.8074396E-1,3.0646143E-3,6.5667555E-2,2.565546E-1,1.4058276E-1,1.6820554E-2,-3.4085312E-1,3.608179E-2,1.2669685E-1,1.0561117E-1,3.124748E-1,1.3488543E-1,-4.1747817E-1,1.5683934E-1,2.3459536E-1,-2.4433462E-1,3.5151828E-2,9.877426E-2,-1.9412915E-1,6.052501E-2,-4.468089E-1,1.3019642E-1,3.1521553E-1,7.775651E-2,1.17411904E-1,-1.9098336E-1,3.2989226E-2,-2.9553697E-1,9.3110465E-2,-3.5068095E-1,-9.92966E-3,2.4474035E-1,2.4237402E-1,-5.0622102E-2],"split_indices":[73,14,0,11,12,0,13,47,29,6,73,0,12,8,11,14,32,0,30,0,0,17,5,0,32,0,0,0,0,0,0,0,0,0,0,0,0,0,0],"split_type":[0,0,0,0,0,0,0,0,0,0,0,0,0,0,0,0,0,0,0,0,0,0,0,0,0,0,0,0,0,0,0,0,0,0,0,0,0,0,0],"sum_hessian":[1.5114607E2,1.2780248E2,2.3343596E1,8.956893E1,3.823355E1,1.946889E1,7.0100044E1,1.5412671E1,2.282088E1,1.4828952E1,4.6399384E0,4.4880767E0,6.561196E1,1.1600046E1,3.812625E0,2.052341E1,2.2974694E0,5.1121893E0,9.716762E0,2.6158254E0,2.0241132E0,5.4419823E0,6.0169983E1,1.1903404E0,1.0409706E1,2.0576148E0,1.7550101E0,1.9225952E1,1.2974591E0,1.0876756E0,1.2097938E0,3.4736545E0,6.243108E0,1.3115976E0,4.130385E0,3.1617523E1,2.8552458E1,8.657151E0,1.7525551E0],"tree_param":{"num_deleted":"0","num_feature":"75","num_nodes":"39","size_leaf_vector":"0"}},{"base_weights":[-3.307706E-2,1.22083075E-1,-9.889362E-1,-1.2479458E-1,4.6623045E-1,6.2466194E-3,-1.2878233E0,9.3904686E-1,1.5258394E-1,2.830343E-1,-5.253736E-1,-1.5690514E0,-1.7073679E-1,2.1818124E-2,1.0058832E0,-6.3675237E-1,3.6170074E-1,3.9499342E-1,-9.310225E-1,-9.055896E-1,2.3537534E-1,5.0613296E-1,1.1090422E0,-9.921424E-1,2.4265964E-1,-2.7201718E-1,5.9604573E-1,9.875507E-2,7.90364E-1,2.2872363E-1,-1.0555202E0,7.722538E-1,-6.9436973E-1,-2.1221423E-1,8.2852024E-1,3.2146645E-1,1.1450824E0,4.1243774E-1,-1.1054279E0,-5.265207E-1,7.150958E-1],"categories":[],"categories_nodes":[],"categories_segments":[],"categories_sizes":[],"default_left":[1,1,0,1,1,1,1,1,1,1,1,0,0,0,1,1,1,1,0,1,1,1,1,0,0,1,1,0,0,0,0,0,0,0,0,0,0,0,0,0,0],"id":8,"left_children":[1,3,-1,5,7,9,11,13,15,17,19,-1,-1,-1,21,23,25,27,-1,29,31,33,35,-1,-1,37,39,-1,-1,-1,-1,-1,-1,-1,-1,-1,-1,-1,-1,-1,-1],"loss_changes":[1.9899452E1,9.88197E0,0E0,1.0389268E1,7.050481E0,9.30319E0,1.9005575E0,1.152134E0,5.2412057E0,6.0171165E0,6.475747E0,0E0,0E0,0E0,3.578186E-1,2.3410866E0,3.8209465E0,4.461128E0,0E0,2.731638E0,4.5338907E0,1.3082851E0,2.75383E-2,0E0,0E0,4.641597E0,2.8220615E0,0E0,0E0,0E0,0E0,0E0,0E0,0E0,0E0,0E0,0E0,0E0,0E0,0E0,0E0],"parents":[2147483647,0,0,1,1,3,3,4,4,5,5,6,6,7,7,8,8,9,9,10,10,14,14,15,15,16,16,17,17,19,19,20,20,21,21,22,22,25,25,26,26],"right_children":[2,4,-1,6,8,10,12,14,16,18,20,-1,-1,-1,22,24,26,28,-1,30,32,34,36,-1,-1,38,40,-1,-1,-1,-1,-1,-1,-1,-1,-1,-1,-1,-1,-1,-1],"split_conditions":[1.12862326E-1,6.5992984E-9,-2.9668087E-1,1.4661887E-1,2.9379292E-3,1.7176354E-1,3.1748712E-2,2.8523102E-2,8.015823E-2,1.7832877E-1,1.04026504E-1,-4.7071543E-1,-5.122104E-2,6.5454375E-3,9.7483546E-2,3.0561814E-2,6.992971E-2,1.0810475E-1,-2.7930677E-1,2.1738106E-2,2.1307781E-2,1.3054106E-4,4.7620725E-2,-2.9764274E-1,7.2797894E-2,6.478765E-2,3.9174438E-2,2.9626522E-2,2.3710921E-1,6.861709E-2,-3.1665605E-1,2.3167615E-1,-2.0831093E-1,-6.366427E-2,2.4855608E-1,9.6439935E-2,3.4352472E-1,1.2373132E-1,-3.3162838E-1,-1.5795623E-1,2.1452875E-1],"split_indices":[73,31,0,44,31,9,58,62,72,11,5,0,0,0,11,59,11,11,0,17,58,61,62,0,0,32,47,0,0,0,0,0,0,0,0,0,0,0,0,0,0],"split_type":[0,0,0,0,0,0,0,0,0,0,0,0,0,0,0,0,0,0,0,0,0,0,0,0,0,0,0,0,0,0,0,0,0,0,0,0,0,0,0,0,0],"sum_hessian":[1.3235956E2,1.1462526E2,1.7734303E1,6.7116165E1,4.750909E1,6.1213703E1,5.9024634E0,1.8151726E1,2.9357363E1,4.0562477E1,2.0651226E1,4.392143E0,1.5103204E0,1.3229308E0,1.6828796E1,5.7203307E0,2.3637033E1,3.7755367E1,2.807113E0,1.3642449E1,7.008776E0,3.8900254E0,1.293877E1,3.9826603E0,1.7376703E0,6.33773E0,1.7299303E1,2.2297987E1,1.5457378E1,1.5313501E0,1.2111099E1,4.550497E0,2.458279E0,1.3108704E0,2.5791552E0,1.0002507E0,1.19385195E1,3.757187E0,2.580543E0,1.3305337E0,1.5968769E1],"tree_param":{"num_deleted":"0","num_feature":"75","num_nodes":"41","size_leaf_vector":"0"}},{"base_weights":[-3.5314765E-2,9.36636E-2,-9.6184975E-1,-1.2856819E-1,3.8735235E-1,-5.090697E-1,2.0338833E-1,7.8083897E-1,1.3256519E-1,-1.9723904E-1,-1.1129102E0,3.7111205E-1,-7.1026886E-1,8.7667274E-1,-2.3072724E-1,-1.2070225E0,2.5792256E-1,-7.97966E-1,2.98899E-1,-1.249888E0,-1.7373516E-1,8.757191E-1,2.738594E-2,-9.524238E-1,1.11282215E-1,9.657206E-1,-1.1972291E-1,5.7789636E-1,-6.69298E-2,-1.0130954E0,2.877452E-1,-8.786313E-1,5.40086E-1,9.85854E-1,-1.3623813E-1,-1.0667173E0,3.4761944E-1,1.022209E0,1.113963E-1,7.3526937E-1,-6.887734E-1,-7.157242E-1,4.4419384E-1],"categories":[],"categories_nodes":[],"categories_segments":[],"categories_sizes":[],"default_left":[1,1,0,1,1,1,1,1,1,1,1,1,1,1,0,0,1,1,1,0,0,1,1,0,0,1,0,1,1,0,0,0,0,0,0,0,0,0,0,0,0,0,0],"id":9,"left_children":[1,3,-1,5,7,9,11,13,15,17,19,21,23,25,-1,-1,27,29,31,-1,-1,33,35,-1,-1,37,-1,39,41,-1,-1,-1,-1,-1,-1,-1,-1,-1,-1,-1,-1,-1,-1],"loss_changes":[1.41604E1,6.8548126E0,0E0,7.695198E0,4.424102E0,5.1072974E0,5.2920527E0,1.9031048E0,5.116728E0,6.1609263E0,9.9451256E-1,4.898644E0,1.1867764E0,1.5560846E0,0E0,0E0,2.844263E0,2.4545012E0,3.7719364E0,0E0,0E0,1.4123468E0,6.64733E0,0E0,0E0,6.1066246E-1,0E0,3.2376928E0,5.056596E0,0E0,0E0,0E0,0E0,0E0,0E0,0E0,0E0,0E0,0E0,0E0,0E0,0E0,0E0],"parents":[2147483647,0,0,1,1,3,3,4,4,5,5,6,6,7,7,8,8,9,9,10,10,11,11,12,12,13,13,16,16,17,17,18,18,21,21,22,22,25,25,27,27,28,28],"right_children":[2,4,-1,6,8,10,12,14,16,18,20,22,24,26,-1,-1,28,30,32,-1,-1,34,36,-1,-1,38,-1,40,42,-1,-1,-1,-1,-1,-1,-1,-1,-1,-1,-1,-1,-1,-1],"split_conditions":[1.12862326E-1,3.4966686E-6,-2.8855494E-1,1.6213723E-1,3.2801768E-3,5.3967424E-2,1.9430524E-1,1.4681786E-1,3.4978576E-3,1.2262055E-1,3.9645093E-3,1.5379742E-1,9.913307E-3,1.9164243E-1,-6.921817E-2,-3.6210677E-1,1.483793E-1,1.4054161E-1,2.0734011E-3,-3.7496638E-1,-5.2120548E-2,1.2217144E-1,5.213689E-2,-2.8572714E-1,3.3384666E-2,1.6228342E-1,-3.5916876E-2,8.252719E-2,1.8575877E-1,-3.039286E-1,8.632357E-2,-2.635894E-1,1.620258E-1,2.9575622E-1,-4.087144E-2,-3.200152E-1,1.04285836E-1,3.0666274E-1,3.341889E-2,2.2058082E-1,-2.0663203E-1,-2.1471725E-1,1.3325816E-1],"split_indices":[73,46,0,60,46,17,10,44,58,8,31,11,16,10,0,0,30,6,13,0,0,44,17,0,0,74,0,73,0,0,0,0,0,0,0,0,0,0,0,0,0,0,0],"split_type":[0,0,0,0,0,0,0,0,0,0,0,0,0,0,0,0,0,0,0,0,0,0,0,0,0,0,0,0,0,0,0,0,0,0,0,0,0,0,0,0,0,0,0],"sum_hessian":[1.1674024E2,1.03264244E2,1.3475997E1,5.9103416E1,4.4160828E1,2.728954E1,3.1813879E1,1.65448E1,2.761603E1,1.8870977E1,8.418563E0,2.7381216E1,4.4326625E0,1.5234833E1,1.3099667E0,1.6247762E0,2.5991253E1,8.260617E0,1.061036E1,7.058283E0,1.3602798E0,1.0467168E1,1.6914047E1,3.3005228E0,1.1321399E0,1.4013255E1,1.2215776E0,1.2701527E1,1.3289727E1,6.950321E0,1.3102957E0,1.3544886E0,9.255872E0,9.463064E0,1.0041041E0,3.3018734E0,1.3612174E1,1.295983E1,1.0534247E0,1.1671025E1,1.0305011E0,5.6797924E0,7.6099343E0],"tree_param":{"num_deleted":"0","num_feature":"75","num_nodes":"43","size_leaf_vector":"0"}},{"base_weights":[-4.4320606E-2,6.4426474E-2,-9.338997E-1,-1.316644E-1,3.510553E-1,-2.2509204E-2,-1.129831E0,5.5925167E-1,-3.2259166E-1,1.09474614E-1,-6.59906E-1,-1.2528895E0,-2.9927307E-1,6.396847E-1,-8.3220893E-1,-7.881037E-1,3.5679314E-1,-2.445786E-2,7.6815444E-1,-8.331946E-1,3.1800735E-1,7.44986E-1,-5.059429E-1,2.5535723E-2,-1.2888057E0,7.559109E-1,-3.382467E-1,2.279487E-1,-7.640156E-1,-2.3265778E-1,9.8722273E-1,1.21119596E-1,-1.0313455E0,-2.4409397E-1,8.3870286E-1,-4.0133372E-1,4.360568E-1],"categories":[],"categories_nodes":[],"categories_segments":[],"categories_sizes":[],"default_left":[1,1,0,1,1,1,1,1,1,1,1,0,0,1,0,1,1,1,1,1,0,1,0,1,0,0,0,0,0,0,0,0,0,0,0,0,0],"id":10,"left_children":[1,3,-1,5,7,9,11,13,15,17,19,-1,-1,21,-1,23,25,27,29,31,-1,33,-1,35,-1,-1,-1,-1,-1,-1,-1,-1,-1,-1,-1,-1,-1],"loss_changes":[1.0005373E1,5.24754E0,0E0,6.040794E0,5.4910116E0,4.3802023E0,1.8391514E-1,3.8106031E0,3.3090248E0,3.8370235E0,1.7777183E0,0E0,0E0,3.7856083E0,0E0,2.4743106E0,1.5264814E0,7.069181E0,1.8399167E0,1.6111054E0,0E0,2.6408806E0,0E0,7.469023E-1,0E0,0E0,0E0,0E0,0E0,0E0,0E0,0E0,0E0,0E0,0E0,0E0,0E0],"parents":[2147483647,0,0,1,1,3,3,4,4,5,5,6,6,7,7,8,8,9,9,10,10,13,13,15,15,16,16,17,17,18,18,19,19,21,21,23,23],"right_children":[2,4,-1,6,8,10,12,14,16,18,20,-1,-1,22,-1,24,26,28,30,32,-1,34,-1,36,-1,-1,-1,-1,-1,-1,-1,-1,-1,-1,-1,-1,-1],"split_conditions":[1.12862326E-1,6.5992984E-9,-2.8016993E-1,1.4676839E-1,8.726946E-3,1.7394245E-1,3.2750905E-2,1.1497717E-1,2.1674111E-1,2.4418148E-1,9.2752755E-2,-3.7586686E-1,-8.9781925E-2,1.545741E-1,-2.4966268E-1,1.3258506E-1,2.771246E-1,1.6312349E-1,6.2270656E-2,2.9638628E-3,9.540221E-2,4.6263166E-2,-1.5178287E-1,4.6441697E-2,-3.8664174E-1,2.2677328E-1,-1.0147402E-1,6.838461E-2,-2.292047E-1,-6.979734E-2,2.9616684E-1,3.633588E-2,-3.0940366E-1,-7.3228195E-2,2.5161088E-1,-1.2040012E-1,1.3081704E-1],"split_indices":[73,31,0,44,31,11,58,13,60,45,73,0,0,29,0,30,30,57,13,73,0,12,0,15,0,0,0,0,0,0,0,0,0,0,0,0,0],"split_type":[0,0,0,0,0,0,0,0,0,0,0,0,0,0,0,0,0,0,0,0,0,0,0,0,0,0,0,0,0,0,0,0,0,0,0,0,0],"sum_hessian":[1.01804375E2,9.154142E1,1.0262955E1,5.46764E1,3.686502E1,5.0208378E1,4.4680214E0,2.8291199E1,8.573823E0,4.228152E1,7.9268584E0,3.4485757E0,1.0194454E0,2.7255955E1,1.0352441E0,4.9927697E0,3.5810537E0,3.5937126E1,6.3443966E0,6.859352E0,1.0675062E0,2.5281864E1,1.9740905E0,2.2635336E0,2.729236E0,2.2191536E0,1.3619E0,2.7308632E1,8.628492E0,1.1281979E0,5.2161984E0,1.2462133E0,5.6131387E0,2.0492852E0,2.3232578E1,1.1206428E0,1.1428909E0],"tree_param":{"num_deleted":"0","num_feature":"75","num_nodes":"37","size_leaf_vector":"0"}},{"base_weights":[-5.0298817E-2,5.1846318E-2,-8.440593E-1,-9.477284E-2,3.9664826E-1,-9.729348E-1,2.3495735E-4,1.17864296E-1,-4.5098552E-1,8.4838325E-1,8.769416E-2,-1.4153072E-1,5.151729E-1,3.7346177E-2,-1.0097193E0,2.9497225E-2,9.4297534E-1,-2.3469146E-1,7.856178E-1,-7.000159E-1,2.3819155E-1,7.9893804E-1,-4.7573107E-1,-1.1132736E0,8.246135E-1,-1.1713253E0,2.1899919E-1,1.0104815E0,2.0891255E-1,6.0401726E-1,-6.553872E-1,-8.771089E-1,4.9031448E-2,-5.781494E-1,5.5272985E-1,-5.5109E-1,1.0020088E0,1.9929138E-1,-7.787839E-1,-1.0260259E-1,9.7368765E-1,7.3661035E-1,7.723002E-2,-9.7095096E-1,6.296638E-1],"categories":[],"categories_nodes":[],"categories_segments":[],"categories_sizes":[],"default_left":[1,1,1,1,1,0,0,1,1,1,1,1,1,1,1,0,1,1,0,1,1,1,1,0,1,0,0,0,0,1,1,0,0,0,0,0,0,0,0,0,0,0,0,0,0],"id":11,"left_children":[1,3,5,7,9,-1,-1,11,13,15,17,19,21,23,25,-1,27,29,-1,31,33,35,37,-1,39,-1,-1,-1,-1,41,43,-1,-1,-1,-1,-1,-1,-1,-1,-1,-1,-1,-1,-1,-1],"loss_changes":[7.5128393E0,4.2113934E0,1.1493487E0,4.5019803E0,3.39036E0,0E0,0E0,3.9451337E0,6.084674E0,7.442727E-1,3.7523932E0,5.153766E0,4.613727E0,1.2504352E1,2.3160343E0,0E0,2.300787E-1,4.494899E0,0E0,1.3392138E0,4.105506E0,3.863357E0,9.691051E-1,0E0,1.2290416E0,0E0,0E0,0E0,0E0,2.505176E-1,3.943156E0,0E0,0E0,0E0,0E0,0E0,0E0,0E0,0E0,0E0,0E0,0E0,0E0,0E0,0E0],"parents":[2147483647,0,0,1,1,2,2,3,3,4,4,7,7,8,8,9,9,10,10,11,11,12,12,13,13,14,14,16,16,17,17,19,19,20,20,21,21,22,22,24,24,29,29,30,30],"right_children":[2,4,6,8,10,-1,-1,12,14,16,18,20,22,24,26,-1,28,30,-1,32,34,36,38,-1,40,-1,-1,-1,-1,42,44,-1,-1,-1,-1,-1,-1,-1,-1,-1,-1,-1,-1,-1,-1],"split_conditions":[1.0911916E-1,8.6052367E-4,3.0253497E-1,1.1382286E-1,3.673572E-2,-2.9188046E-1,7.048721E-5,7.088087E-2,2.1307781E-2,1.0781108E-1,4.556888E-3,8.706516E-2,1.5312555E-1,1.2488261E-2,1.8946695E-1,8.849168E-3,2.059532E-1,1.3251406E-1,2.3568536E-1,5.843764E-2,3.9639995E-2,1.1547229E-1,7.472198E-2,-3.339821E-1,1.952279E-1,-3.513976E-1,6.569976E-2,3.0314445E-1,6.267377E-2,1.5260796E-1,1.7015524E-1,-2.6313266E-1,1.47094345E-2,-1.7344482E-1,1.6581896E-1,-1.6532701E-1,3.0060264E-1,5.9787415E-2,-2.3363519E-1,-3.078078E-2,2.921063E-1,2.2098312E-1,2.3169007E-2,-2.912853E-1,1.8889916E-1],"split_indices":[73,14,12,3,2,0,0,28,58,12,1,5,10,43,27,0,14,45,0,13,47,30,58,0,9,0,0,0,0,10,2,0,0,0,0,0,0,0,0,0,0,0,0,0,0],"split_type":[0,0,0,0,0,0,0,0,0,0,0,0,0,0,0,0,0,0,0,0,0,0,0,0,0,0,0,0,0,0,0,0,0,0,0,0,0,0,0,0,0,0,0,0,0],"sum_hessian":[9.112125E1,8.156033E1,9.560915E0,5.7734985E1,2.3825346E1,8.16259E0,1.3983253E0,3.657254E1,2.1162445E1,8.96754E0,1.4857806E1,2.2516037E1,1.4056504E1,1.17906275E1,9.371818E0,1.0644459E0,7.9030933E0,1.0617219E1,4.240587E0,8.7715645E0,1.37444725E1,1.1077865E1,2.9786394E0,4.621719E0,7.1689086E0,8.323752E0,1.0480644E0,6.892668E0,1.0104258E0,3.40105E0,7.216169E0,6.956025E0,1.815539E0,3.589731E0,1.0154741E1,1.224372E0,9.853493E0,1.0290072E0,1.9496323E0,1.0361241E0,6.1327844E0,2.398929E0,1.002121E0,5.989727E0,1.2264417E0],"tree_param":{"num_deleted":"0","num_feature":"75","num_nodes":"45","size_leaf_vector":"0"}},{"base_weights":[-4.171387E-2,4.6479277E-2,-8.015289E-1,-1.3906635E-1,2.8764656E-1,-9.335118E-1,-2.6167475E-2,-2.3342626E-1,7.204426E-1,8.7277395E-1,1.3764532E-1,-8.790892E-1,-1.2556812E-1,4.6285492E-1,-1.0099182E-1,-8.6613566E-2,-1.0480863E0,-5.4613286E-1,1.0246527E-1,5.9728384E-1,-4.2217594E-1,-2.5856793E-1,7.1039546E-1,1.0846529E-1,-8.5044533E-1,2.8353053E-1,-8.9364266E-1,-4.0791605E-2,8.2903683E-1,-6.601649E-1,1.8714908E-1],"categories":[],"categories_nodes":[],"categories_segments":[],"categories_sizes":[],"default_left":[1,1,1,1,1,0,0,1,0,0,1,1,1,1,1,0,0,1,1,1,0,1,0,0,0,0,0,0,0,0,0],"id":12,"left_children":[1,3,5,7,9,-1,-1,11,-1,-1,13,15,17,19,21,-1,-1,23,25,27,-1,29,-1,-1,-1,-1,-1,-1,-1,-1,-1],"loss_changes":[5.4041805E0,3.2934418E0,8.3357525E-1,3.5555265E0,2.6832855E0,0E0,0E0,2.56307E0,0E0,0E0,2.1119008E0,6.228347E-1,3.3225286E0,1.6133912E0,2.2509718E0,0E0,0E0,2.5092049E0,4.3886914E0,1.5638697E0,0E0,2.6783352E0,0E0,0E0,0E0,0E0,0E0,0E0,0E0,0E0,0E0],"parents":[2147483647,0,0,1,1,2,2,3,3,4,4,7,7,10,10,11,11,12,12,13,13,14,14,17,17,18,18,19,19,21,21],"right_children":[2,4,6,8,10,-1,-1,12,-1,-1,14,16,18,20,22,-1,-1,24,26,28,-1,30,-1,-1,-1,-1,-1,-1,-1,-1,-1],"split_conditions":[1.0991235E-1,3.4966686E-6,2.986579E-1,1.8509431E-1,1.7649722E-3,-2.8005356E-1,-7.850243E-3,3.0660046E-2,2.1613279E-1,2.618322E-1,1.3822594E-1,3.594943E-2,9.877815E-2,7.9181E-2,2.506811E-1,-2.5984071E-2,-3.144259E-1,1.5379742E-1,7.892917E-2,5.1025383E-2,-1.2665279E-1,1.8041879E-1,2.1311864E-1,3.2539587E-2,-2.551336E-1,8.5059166E-2,-2.680928E-1,-1.2237482E-2,2.4871106E-1,-1.9804947E-1,5.6144726E-2],"split_indices":[73,46,72,17,46,0,0,57,0,0,0,2,5,73,12,0,0,11,32,0,0,10,0,0,0,0,0,0,0,0,0],"split_type":[0,0,0,0,0,0,0,0,0,0,0,0,0,0,0,0,0,0,0,0,0,0,0,0,0,0,0,0,0,0,0],"sum_hessian":[7.909086E1,7.170657E1,7.3842874E0,4.0766006E1,3.0940567E1,6.1358633E0,1.248424E0,3.7389656E1,3.3763485E0,5.3301573E0,2.5610409E1,4.3284097E0,3.3061245E1,1.0441449E1,1.5168961E1,1.0266539E0,3.3017557E0,1.1133193E1,2.1928053E1,9.346864E0,1.0945857E0,1.3272659E1,1.896301E0,3.7373831E0,7.39581E0,1.916055E1,2.767504E0,2.7098734E0,6.63699E0,6.7287955E0,6.5438643E0],"tree_param":{"num_deleted":"0","num_feature":"75","num_nodes":"31","size_leaf_vector":"0"}},{"base_weights":[-3.8018104E-2,3.0401656E-2,-8.3726114E-1,-9.2588164E-2,3.2800034E-1,-4.868647E-1,9.298135E-2,-6.433521E-2,6.602204E-1,-7.711885E-2,-8.290449E-1,-2.6615837E-1,3.1927797E-1,-3.848628E-1,5.90666E-1,8.578423E-1,-2.7081266E-1,-8.2881546E-1,6.696105E-1,-9.8776436E-1,3.8333666E-3,1.00583464E-1,-8.4660435E-1,6.648682E-1,1.4500286E-2,-1.0626178E0,2.892528E-1,4.5036633E-2,8.011064E-1,9.2062753E-1,1.6774876E-1,2.5955155E-2,8.4080493E-1,-4.1014376E-1,5.917992E-1,-9.468819E-1,-2.0821777E-1,8.288707E-1,-1.952699E-1,-4.1764048E-1,5.7837164E-1,7.296751E-1,-4.0264395E-1],"categories":[],"categories_nodes":[],"categories_segments":[],"categories_sizes":[],"default_left":[1,1,0,1,1,1,1,1,1,1,1,1,1,1,1,1,0,0,1,0,0,1,1,1,1,0,1,0,0,0,0,0,0,0,0,0,0,0,0,0,0,0,0],"id":13,"left_children":[1,3,-1,5,7,9,11,13,15,17,19,21,23,25,27,29,-1,-1,31,-1,-1,33,35,37,39,-1,41,-1,-1,-1,-1,-1,-1,-1,-1,-1,-1,-1,-1,-1,-1,-1,-1],"loss_changes":[4.0221276E0,2.5298333E0,0E0,3.6376424E0,2.6739762E0,2.1616626E0,2.866554E0,2.3621166E0,2.2600875E0,5.2286053E0,1.133708E0,3.0174909E0,2.249698E0,3.7033007E0,3.928392E-1,2.4986458E-1,0E0,0E0,4.993801E-1,0E0,0E0,2.5847275E0,1.5107179E-1,1.5767193E0,3.2680936E0,0E0,1.6688604E0,0E0,0E0,0E0,0E0,0E0,0E0,0E0,0E0,0E0,0E0,0E0,0E0,0E0,0E0,0E0,0E0],"parents":[2147483647,0,0,1,1,3,3,4,4,5,5,6,6,7,7,8,8,9,9,10,10,11,11,12,12,13,13,14,14,15,15,18,18,21,21,22,22,23,23,24,24,26,26],"right_children":[2,4,-1,6,8,10,12,14,16,18,20,22,24,26,28,30,-1,-1,32,-1,-1,34,36,38,40,-1,42,-1,-1,-1,-1,-1,-1,-1,-1,-1,-1,-1,-1,-1,-1,-1,-1],"split_conditions":[1.12862326E-1,8.6052367E-4,-2.5117835E-1,9.13333E-2,1.3417518E-1,1.201103E-1,5.3100638E-2,1.635541E-1,2.565546E-1,1.1123535E-1,1.8694311E-1,1.5261215E-1,6.667076E-2,1.989433E-5,1.9902721E-2,2.6846826E-1,-8.12438E-2,-2.4864465E-1,1.6208205E-1,-2.9632932E-1,1.15001E-3,1.4160061E-1,1.4142257E-1,6.546135E-2,6.937257E-2,-3.1878534E-1,1.3468759E-1,1.351099E-2,2.4033193E-1,2.7618828E-1,5.032463E-2,7.786547E-3,2.522415E-1,-1.23043135E-1,1.7753977E-1,-2.840646E-1,-6.2465332E-2,2.4866122E-1,-5.8580972E-2,-1.2529215E-1,1.735115E-1,2.1890254E-1,-1.20793186E-1],"split_indices":[73,14,0,11,12,8,32,30,29,8,12,11,32,46,4,14,0,0,42,0,0,12,4,62,28,0,30,0,0,0,0,0,0,0,0,0,0,0,0,0,0,0,0],"split_type":[0,0,0,0,0,0,0,0,0,0,0,0,0,0,0,0,0,0,0,0,0,0,0,0,0,0,0,0,0,0,0,0,0,0,0,0,0,0,0,0,0,0,0],"sum_hessian":[7.2086685E1,6.7288376E1,4.7983065E0,4.8099133E1,1.9189243E1,1.4873669E1,3.3225464E1,9.16829E0,1.0020952E1,7.3262177E0,7.547451E0,1.2774999E1,2.0450466E1,6.4327974E0,2.7354925E0,8.331181E0,1.6897719E0,3.596184E0,3.7300336E0,6.1831746E0,1.3642768E0,8.335262E0,4.4397364E0,9.029897E0,1.1420569E1,2.9203587E0,3.5124388E0,1.0992838E0,1.6362087E0,7.3302107E0,1.0009699E0,1.0256008E0,2.7044327E0,4.167387E0,4.1678753E0,3.419379E0,1.0203571E0,7.614409E0,1.4154879E0,6.6123323E0,4.808237E0,2.1128907E0,1.399548E0],"tree_param":{"num_deleted":"0","num_feature":"75","num_nodes":"43","size_leaf_vector":"0"}},{"base_weights":[-3.434451E-2,-2.062893E-1,2.3890717E-1,1.2529273E-1,-4.0169635E-1,6.1342174E-1,-4.9779538E-2,-4.7038424E-1,4.1201103E-1,-4.7583255E-1,5.63201E-1,-1.949541E-1,7.619306E-1,-2.6591122E-1,4.0211284E-1,-6.898093E-1,2.6077095E-1,-4.3218797E-1,5.6731606E-1,-5.4717547E-1,5.3785866E-1,1.2296116E-1,9.15623E-1,-6.237832E-1,-2.3281788E-2,6.78803E-1,-3.8109577E-1,-8.0954397E-1,-1.3277698E-1,7.422408E-1,-1.8487586E-1,-6.156495E-1,4.563169E-1,-3.22455E-1,5.024958E-1,-8.495827E-1,5.4324884E-2,-3.5034665E-1,5.1699173E-1,8.716904E-1,1.7159773E-1,-7.0214313E-1,3.5850993E-1,1.436043E-1,-5.434917E-1,1.4785749E-1,6.179801E-1],"categories":[],"categories_nodes":[],"categories_segments":[],"categories_sizes":[],"default_left":[1,1,1,1,1,1,1,1,1,1,0,0,1,1,1,1,0,0,1,1,0,1,0,1,1,0,0,0,0,1,0,1,0,0,0,0,0,1,1,0,0,0,0,0,0,0,0],"id":14,"left_children":[1,3,5,7,9,11,13,15,17,19,-1,-1,21,23,25,27,-1,-1,29,31,-1,33,-1,35,37,-1,-1,-1,-1,39,-1,41,-1,-1,-1,-1,-1,43,45,-1,-1,-1,-1,-1,-1,-1,-1],"loss_changes":[3.104957E0,2.6715097E0,2.7963717E0,2.885938E0,2.1058145E0,1.4943876E0,1.6082008E0,1.0765027E0,1.7101885E0,2.0589461E0,0E0,0E0,8.3749294E-1,9.406047E-1,1.4226657E0,1.9751143E-1,0E0,0E0,1.4359052E0,1.8813949E0,0E0,6.744163E-1,0E0,7.207384E-1,1.5230628E0,0E0,0E0,0E0,0E0,4.566884E-1,0E0,2.124776E0,0E0,0E0,0E0,0E0,0E0,5.862269E-1,3.0439377E-2,0E0,0E0,0E0,0E0,0E0,0E0,0E0,0E0],"parents":[2147483647,0,0,1,1,2,2,3,3,4,4,5,5,6,6,7,7,8,8,9,9,12,12,13,13,14,14,15,15,18,18,19,19,21,21,23,23,24,24,29,29,31,31,37,37,38,38],"right_children":[2,4,6,8,10,12,14,16,18,20,-1,-1,22,24,26,28,-1,-1,30,32,-1,34,-1,36,38,-1,-1,-1,-1,40,-1,42,-1,-1,-1,-1,-1,44,46,-1,-1,-1,-1,-1,-1,-1,-1],"split_conditions":[6.5992984E-9,3.662093E-2,3.515384E-3,1.8918801E-2,2.571803E-1,3.800086E-2,2.4964395E-3,1.436387E-2,3.1821277E-2,2.3512262E-1,1.689603E-1,-5.848623E-2,9.7483546E-2,1.4632078E-1,3.5842E-3,3.9085972E-1,7.823129E-2,-1.296564E-1,1.6112947E-1,1.6040936E-1,1.6135761E-1,3.1336787E-4,2.746869E-1,7.369998E-2,2.7464125E-2,2.0364092E-1,-1.14328735E-1,-2.428632E-1,-3.9833095E-2,1.5817845E-1,-5.546276E-2,2.0455632E-1,1.3689508E-1,-9.67365E-2,1.5074876E-1,-2.5487483E-1,1.6297465E-2,6.2172342E-2,1.24070354E-1,2.6150712E-1,5.147932E-2,-2.1064295E-1,1.0755298E-1,4.308129E-2,-1.6304752E-1,4.4357248E-2,1.8539405E-1],"split_indices":[31,17,31,32,12,62,59,74,41,17,0,0,11,42,61,72,0,0,11,4,0,61,0,2,4,0,0,0,0,5,0,3,0,0,0,0,0,47,3,0,0,0,0,0,0,0,0],"split_type":[0,0,0,0,0,0,0,0,0,0,0,0,0,0,0,0,0,0,0,0,0,0,0,0,0,0,0,0,0,0,0,0,0,0,0,0,0,0,0,0,0,0,0,0,0,0,0],"sum_hessian":[6.403617E1,3.9454388E1,2.4581785E1,1.4762697E1,2.4691692E1,1.0210625E1,1.43711605E1,4.5887246E0,1.0173972E1,2.3400604E1,1.2910875E0,1.5361546E0,8.67447E0,9.999938E0,4.3712225E0,3.572992E0,1.0157328E0,1.3038329E0,8.870139E0,2.229193E1,1.1086757E0,2.0309463E0,6.643524E0,3.4056966E0,6.594241E0,3.3286052E0,1.0426172E0,2.5677385E0,1.0052536E0,7.207289E0,1.6628497E0,2.122979E1,1.0621377E0,1.0035678E0,1.0273784E0,2.365237E0,1.0404596E0,4.326594E0,2.2676475E0,5.444626E0,1.7626637E0,1.9755014E1,1.4747758E0,1.288322E0,3.0382717E0,1.0164411E0,1.2512065E0],"tree_param":{"num_deleted":"0","num_feature":"75","num_nodes":"47","size_leaf_vector":"0"}},{"base_weights":[-1.4988978E-2,7.710587E-2,-5.4015046E-1,-9.774073E-2,3.0461082E-1,-8.860188E-1,3.6492512E-1,-3.1969216E-1,2.412246E-1,3.855664E-1,-5.066859E-1,-1.959594E-1,-9.810861E-1,-6.5759845E-2,5.9326935E-1,8.0973186E-2,-5.475577E-1,-2.9724923E-1,6.0477895E-1,2.730361E-3,5.76747E-1,-5.9114593E-1,4.5391747E-1,-3.1266768E-2,-8.2198477E-1,-8.3461607E-1,2.7585754E-1,7.2452676E-1,-5.3190585E-2,-4.144543E-1,3.0050364E-1,-2.1699673E-1,6.756938E-1,6.4473385E-1,-1.6553362E-1,3.145244E-1,-6.069527E-1,-9.600367E-1,4.9853835E-2,6.0084516E-1,-2.169173E-1,8.502774E-1,1.9324361E-1,7.669885E-2,-6.354762E-1,6.3308495E-1,-2.7397293E-1,7.754243E-1,2.034311E-1],"categories":[],"categories_nodes":[],"categories_segments":[],"categories_sizes":[],"default_left":[1,1,1,1,1,1,1,1,1,1,0,0,0,0,0,1,1,1,1,1,1,0,1,1,1,0,1,1,0,1,1,0,1,0,0,0,0,0,0,0,0,0,0,0,0,0,0,0,0],"id":15,"left_children":[1,3,5,7,9,11,13,15,17,19,-1,-1,-1,-1,-1,21,23,25,27,29,31,-1,33,35,37,-1,39,41,-1,43,45,-1,47,-1,-1,-1,-1,-1,-1,-1,-1,-1,-1,-1,-1,-1,-1,-1,-1],"loss_changes":[2.9028726E0,2.0667431E0,3.1254866E0,2.3124623E0,1.6728694E0,2.5175905E-1,3.520681E-1,1.7228628E0,2.5929182E0,1.5370929E0,0E0,0E0,0E0,0E0,0E0,2.1574452E0,1.6530726E0,1.9667675E0,6.442883E-1,1.1191667E0,1.2474303E0,0E0,7.4650645E-1,1.2164472E0,9.7425747E-1,0E0,6.8767E-1,2.7480936E-1,0E0,4.5636106E-1,1.1768142E0,0E0,4.4067907E-1,0E0,0E0,0E0,0E0,0E0,0E0,0E0,0E0,0E0,0E0,0E0,0E0,0E0,0E0,0E0,0E0],"parents":[2147483647,0,0,1,1,2,2,3,3,4,4,5,5,6,6,7,7,8,8,9,9,15,15,16,16,17,17,18,18,19,19,20,20,22,22,23,23,24,24,26,26,27,27,29,29,30,30,32,32],"right_children":[2,4,6,8,10,12,14,16,18,20,-1,-1,-1,-1,-1,22,24,26,28,30,32,-1,34,36,38,-1,40,42,-1,44,46,-1,48,-1,-1,-1,-1,-1,-1,-1,-1,-1,-1,-1,-1,-1,-1,-1,-1],"split_conditions":[9.678383E-2,3.4966686E-6,2.3270983E-1,2.9543024E-5,2.560364E-1,1.1497717E-1,3.0358684E-1,3.6187675E-2,1.622853E-1,7.7214524E-2,-1.5200578E-1,-5.8787823E-2,-2.9432583E-1,-1.9727955E-2,1.7798081E-1,1.1867108E-1,5.375697E-2,1.3606179E-1,1.8954733E-1,1.6428688E-1,3.0574463E-3,-1.7734379E-1,1.9518432E-1,1.8675806E-2,3.047166E-1,-2.5038484E-1,1.5362832E-1,2.7896976E-1,-1.5957177E-2,3.4449182E-2,1.8540895E-1,-6.509902E-2,1.5364082E-1,1.9342016E-1,-4.9660087E-2,9.435733E-2,-1.8208583E-1,-2.88011E-1,1.4956151E-2,1.8025355E-1,-6.50752E-2,2.5508323E-1,5.7973083E-2,2.3009654E-2,-1.9064286E-1,1.8992549E-1,-8.2191885E-2,2.326273E-1,6.1029334E-2],"split_indices":[58,46,45,16,29,13,12,2,60,11,0,0,0,0,0,8,62,27,10,27,28,0,10,43,15,0,27,60,0,17,12,0,11,0,0,0,0,0,0,0,0,0,0,0,0,0,0,0,0],"split_type":[0,0,0,0,0,0,0,0,0,0,0,0,0,0,0,0,0,0,0,0,0,0,0,0,0,0,0,0,0,0,0,0,0,0,0,0,0,0,0,0,0,0,0,0,0,0,0,0,0],"sum_hessian":[5.8159374E1,5.020786E1,7.9515157E0,2.8711958E1,2.1495903E1,5.7682676E0,2.183248E0,1.7385166E1,1.1326791E1,2.0022684E1,1.473219E0,1.069127E0,4.6991405E0,1.0031673E0,1.1800808E0,6.536469E0,1.0848698E1,4.6386676E0,6.6881227E0,7.006521E0,1.3016162E1,2.12383E0,4.4126387E0,4.1517587E0,6.696939E0,2.1584868E0,2.480181E0,5.572749E0,1.1153735E0,2.7549505E0,4.2515707E0,1.3104852E0,1.1705677E1,3.3422682E0,1.0703706E0,2.8771966E0,1.2745622E0,5.6941338E0,1.0028049E0,1.3623766E0,1.1178044E0,4.020666E0,1.5520834E0,1.0576434E0,1.6973071E0,2.6280785E0,1.6234922E0,9.134712E0,2.570965E0],"tree_param":{"num_deleted":"0","num_feature":"75","num_nodes":"49","size_leaf_vector":"0"}},{"base_weights":[-1.9234348E-2,5.6042016E-2,-5.223455E-1,-2.360604E-1,1.827343E-1,-9.1534346E-1,2.7459148E-1,2.3935053E-2,-7.93343E-1,-7.050342E-2,4.0910167E-1,-2.1499416E-2,4.4556051E-1,-8.1555206E-1,2.5082383E-1,-3.8456425E-1,3.7522203E-1,5.286166E-1,-3.8538527E-1,6.5802956E-1,-1.3308676E-1,-6.838923E-1,2.2800292E-1,-3.754126E-1,6.8741983E-1,6.191018E-1,-3.1943992E-1,7.848991E-1,1.0987999E-1,5.452332E-1,-4.6845755E-1,-8.8794786E-1,2.0252159E-1,-3.7454307E-1,5.468106E-1,7.7551514E-1,1.466415E-1,7.1881616E-1,-1.6261706E-1],"categories":[],"categories_nodes":[],"categories_segments":[],"categories_sizes":[],"default_left":[1,1,1,1,1,0,1,1,0,1,1,0,0,0,1,1,1,1,0,1,1,1,1,0,1,1,0,0,0,0,0,0,0,0,0,0,0,0,0],"id":16,"left_children":[1,3,5,7,9,-1,11,13,-1,15,17,-1,-1,-1,19,21,23,25,-1,27,29,31,33,-1,35,37,-1,-1,-1,-1,-1,-1,-1,-1,-1,-1,-1,-1,-1],"loss_changes":[2.0441654E0,1.7891719E0,2.4503117E0,2.1502452E0,1.9475998E0,0E0,1.659053E-1,2.2998643E0,0E0,2.4752133E0,1.8958309E0,0E0,0E0,0E0,1.5609765E0,2.037593E0,1.9896498E0,1.4187927E0,0E0,2.4352503E-1,1.5482346E0,1.4719622E0,9.9595666E-1,0E0,1.5171623E-1,1.2641554E0,0E0,0E0,0E0,0E0,0E0,0E0,0E0,0E0,0E0,0E0,0E0,0E0,0E0],"parents":[2147483647,0,0,1,1,2,2,3,3,4,4,6,6,7,7,9,9,10,10,14,14,15,15,16,16,17,17,19,19,20,20,21,21,22,22,24,24,25,25],"right_children":[2,4,6,8,10,-1,12,14,-1,16,18,-1,-1,-1,20,22,24,26,-1,28,30,32,34,-1,36,38,-1,-1,-1,-1,-1,-1,-1,-1,-1,-1,-1,-1,-1],"split_conditions":[9.973155E-2,7.833759E-2,2.3270983E-1,1.7652088E-1,1.1298429E-1,-2.7460304E-1,1.4458373E-1,2.7404767E-3,-2.3800291E-1,2.1557784E-1,9.34307E-2,-6.449825E-3,1.3366815E-1,-2.4466562E-1,2.7051285E-2,1.946767E-1,1.4609225E-2,9.9589385E-2,-1.15615584E-1,1.7091712E-1,1.3266867E-1,1.7824804E-2,1.0912284E-2,-1.1262379E-1,2.3483473E-1,1.4661887E-1,-9.583198E-2,2.3546974E-1,3.2964E-2,1.6356996E-1,-1.4053728E-1,-2.6638436E-1,6.075648E-2,-1.1236293E-1,1.6404319E-1,2.3265456E-1,4.399245E-2,2.1564485E-1,-4.878512E-2],"split_indices":[73,72,45,10,8,0,12,13,0,60,17,0,0,0,73,9,43,62,0,60,15,46,58,0,29,44,0,0,0,0,0,0,0,0,0,0,0,0,0],"split_type":[0,0,0,0,0,0,0,0,0,0,0,0,0,0,0,0,0,0,0,0,0,0,0,0,0,0,0,0,0,0,0,0,0,0,0,0,0,0,0],"sum_hessian":[5.2202156E1,4.6181072E1,6.0210834E0,1.3709384E1,3.2471687E1,3.9330027E0,2.088081E0,1.0000695E1,3.7086885E0,1.5651198E1,1.6820488E1,1.0843723E0,1.0037086E0,1.5757879E0,8.424908E0,9.262208E0,6.3889904E0,1.4911926E1,1.9085622E0,3.7419178E0,4.6829896E0,6.1436877E0,3.1185207E0,1.8172327E0,4.571758E0,1.3718208E1,1.1937181E0,2.6878958E0,1.0540221E0,1.3422984E0,3.3406913E0,4.9926353E0,1.1510522E0,1.0185806E0,2.09994E0,3.5580604E0,1.0136973E0,1.2237666E1,1.4805422E0],"tree_param":{"num_deleted":"0","num_feature":"75","num_nodes":"39","size_leaf_vector":"0"}},{"base_weights":[-2.304975E-2,-8.0083154E-2,5.4488486E-1,-3.5709426E-1,4.7539163E-2,2.8230643E-2,6.9527346E-1,-1.1578389E-1,-8.677398E-1,-1.1528015E-1,3.5524967E-1,-7.6436096E-1,1.3524921E-1,-3.5113218E-1,2.2764838E-1,-3.9959213E-1,5.8370745E-1,3.8083377E-1,-6.284319E-1,-6.206505E-1,2.6024988E-1,4.5595562E-1,-1.7924441E-1,-2.0053463E-2,-5.6871533E-1,7.016006E-1,-1.24132216E-1,6.126115E-1,-4.5367372E-1,-1.9333148E-1,-8.243025E-1,-3.6031008E-1,7.0066553E-1,-2.3554668E-1,6.652003E-1,-6.437245E-1,2.6800674E-1,1.8207657E-1,8.3147883E-1],"categories":[],"categories_nodes":[],"categories_segments":[],"categories_sizes":[],"default_left":[1,1,1,1,1,0,0,1,0,1,1,0,1,1,1,1,1,1,0,1,1,1,1,0,0,1,0,0,0,0,0,0,0,0,0,0,0,0,0],"id":17,"left_children":[1,3,5,7,9,-1,-1,11,-1,13,15,-1,17,19,21,23,25,27,-1,29,31,33,35,-1,-1,37,-1,-1,-1,-1,-1,-1,-1,-1,-1,-1,-1,-1,-1],"loss_changes":[1.5810027E0,1.5726032E0,3.2686782E-1,1.6241878E0,1.5944328E0,0E0,0E0,1.8387512E0,0E0,1.7810442E0,2.1257775E0,0E0,1.8398671E0,2.2797644E0,9.342713E-1,1.9036603E-1,8.240354E-1,1.6473587E0,0E0,6.4277434E-1,1.519952E0,1.048134E0,1.006884E0,0E0,0E0,3.6954784E-1,0E0,0E0,0E0,0E0,0E0,0E0,0E0,0E0,0E0,0E0,0E0,0E0,0E0],"parents":[2147483647,0,0,1,1,2,2,3,3,4,4,7,7,9,9,10,10,12,12,13,13,14,14,15,15,16,16,17,17,19,19,20,20,21,21,22,22,25,25],"right_children":[2,4,6,8,10,-1,-1,12,-1,14,16,-1,18,20,22,24,26,28,-1,30,32,34,36,-1,-1,38,-1,-1,-1,-1,-1,-1,-1,-1,-1,-1,-1,-1,-1],"split_conditions":[1.6952737E-1,1.0174778E-1,1.8808652E-1,1.7216289E-1,1.8125567E-1,8.469193E-3,2.0858204E-1,3.7465654E-2,-2.6032194E-1,7.040481E-5,1.1123535E-1,-2.2930829E-1,4.4819783E-2,2.571803E-1,8.928261E-2,1.9504198E-1,4.800478E-3,1.8023239E-1,-1.8852958E-1,1.4440596E-1,1.3867824E-3,9.888349E-2,9.7437456E-2,-6.0160393E-3,-1.706146E-1,2.3144115E-2,-3.7239667E-2,1.8378344E-1,-1.3610213E-1,-5.7999447E-2,-2.4729076E-1,-1.0809303E-1,2.1019967E-1,-7.0664E-2,1.9956009E-1,-1.9311737E-1,8.0402024E-2,5.4622974E-2,2.4944367E-1],"split_indices":[2,27,17,60,10,0,0,47,0,16,8,0,13,12,47,10,31,10,0,72,32,5,17,0,0,47,0,0,0,0,0,0,0,0,0,0,0,0,0],"split_type":[0,0,0,0,0,0,0,0,0,0,0,0,0,0,0,0,0,0,0,0,0,0,0,0,0,0,0,0,0,0,0,0,0,0,0,0,0,0,0],"sum_hessian":[4.646241E1,4.300294E1,3.4594696E0,1.2996117E1,3.0006826E1,1.0477346E0,2.411735E0,9.658596E0,3.3375204E0,2.003241E1,9.974417E0,2.1245863E0,7.53401E0,1.1855064E1,8.177345E0,2.1433945E0,7.831022E0,6.080092E0,1.4539177E0,8.217394E0,3.63767E0,5.160957E0,3.0163882E0,1.0054908E0,1.1379038E0,6.720512E0,1.1105099E0,4.9665685E0,1.1135235E0,3.2814062E0,4.935988E0,1.5855148E0,2.0521555E0,1.1696966E0,3.99126E0,1.2641989E0,1.7521893E0,1.8244517E0,4.8960605E0],"tree_param":{"num_deleted":"0","num_feature":"75","num_nodes":"39","size_leaf_vector":"0"}},{"base_weights":[-2.878329E-2,-3.0183673E-1,8.329472E-2,2.0871859E-2,-6.254576E-1,-8.668944E-2,3.082427E-1,-2.1821927E-1,5.614303E-1,-7.366667E-1,-5.3749356E-2,5.8350945E-1,-2.3530486E-1,-1.7564575E-1,5.18733E-1,-4.894616E-1,3.7622914E-1,-8.3580464E-1,-1.6668671E-1,-6.721972E-1,-7.324833E-2,-5.422182E-1,2.8186527E-1,7.132317E-1,-6.031903E-2,-1.330211E-1,-6.8715864E-1,-4.065152E-1,2.896273E-1,-6.663164E-1,-1.4754766E-1,8.1835496E-1,1.7279007E-1,2.863221E-1,-3.958902E-1,-6.348554E-1,3.2245302E-1,6.33127E-1,-1.2654446E-2],"categories":[],"categories_nodes":[],"categories_segments":[],"categories_sizes":[],"default_left":[1,1,1,1,1,1,1,1,0,1,0,0,1,1,1,1,0,0,0,0,1,1,0,1,1,0,0,1,1,0,0,0,0,0,0,0,0,0,0],"id":18,"left_children":[1,3,5,7,9,11,13,15,-1,17,-1,-1,19,21,23,25,-1,-1,-1,-1,27,29,-1,31,33,-1,-1,35,37,-1,-1,-1,-1,-1,-1,-1,-1,-1,-1],"loss_changes":[1.3328768E0,1.3343455E0,1.2151492E0,1.066313E0,3.6408496E-1,1.978273E0,1.4759991E0,1.1166308E0,0E0,1.565857E-1,0E0,0E0,1.0723388E0,9.693681E-1,1.1386456E0,2.1905649E-1,0E0,0E0,0E0,0E0,1.6508671E0,5.0825298E-2,0E0,2.7674413E-1,5.051291E-1,0E0,0E0,1.3739293E0,6.9882077E-1,0E0,0E0,0E0,0E0,0E0,0E0,0E0,0E0,0E0,0E0],"parents":[2147483647,0,0,1,1,2,2,3,3,4,4,5,5,6,6,7,7,9,9,12,12,13,13,14,14,15,15,20,20,21,21,23,23,24,24,27,27,28,28],"right_children":[2,4,6,8,10,12,14,16,-1,18,-1,-1,20,22,24,26,-1,-1,-1,-1,28,30,-1,32,34,-1,-1,36,38,-1,-1,-1,-1,-1,-1,-1,-1,-1,-1],"split_conditions":[4.1610703E-2,1.020837E-1,6.5992984E-9,9.2925385E-2,1.618831E-1,2.7194355E-2,9.7483546E-2,1.970887E-3,1.6842909E-1,2.8899E-1,-1.6124807E-2,1.7505284E-1,1.2015119E-2,2.8231633E-3,6.297901E-2,3.174509E-2,1.1286875E-1,-2.507414E-1,-5.0006017E-2,-2.0165917E-1,1.6831926E-1,4.527689E-2,8.455958E-2,2.6619267E-1,6.446479E-2,-3.990633E-2,-2.061476E-1,7.2371257E-3,2.091794E-2,-1.9989492E-1,-4.42643E-2,2.455065E-1,5.1837023E-2,8.5896626E-2,-1.1876707E-1,-1.9045663E-1,9.673591E-2,1.899381E-1,-3.796334E-3],"split_indices":[47,41,31,41,4,17,11,14,0,72,0,0,43,61,13,11,0,0,0,0,0,43,0,60,2,0,0,61,43,0,0,0,0,0,0,0,0,0,0],"split_type":[0,0,0,0,0,0,0,0,0,0,0,0,0,0,0,0,0,0,0,0,0,0,0,0,0,0,0,0,0,0,0,0,0,0,0,0,0,0,0],"sum_hessian":[4.173186E1,1.1651775E1,3.0080086E1,6.3025236E0,5.3492517E0,1.748329E1,1.2596795E1,4.783202E0,1.5193216E0,4.2366076E0,1.112644E0,2.6421037E0,1.4841187E1,3.8687072E0,8.728088E0,3.4057817E0,1.3774204E0,3.2116268E0,1.024981E0,3.1638267E0,1.167736E1,2.045022E0,1.823685E0,6.360072E0,2.3680162E0,1.8118807E0,1.5939012E0,6.0243263E0,5.6530333E0,1.0321828E0,1.0128393E0,4.8939066E0,1.4661657E0,1.2369859E0,1.1310302E0,4.685695E0,1.3386314E0,2.1337926E0,3.5192404E0],"tree_param":{"num_deleted":"0","num_feature":"75","num_nodes":"39","size_leaf_vector":"0"}},{"base_weights":[-2.3937495E-2,-7.750623E-2,4.8358274E-1,-2.7124792E-1,9.285521E-2,5.303329E-2,6.169453E-1,5.2620288E-2,-6.484468E-1,-1.8587689E-1,3.652415E-1,-5.123474E-1,3.0154538E-1,-7.868705E-1,7.682986E-2,-5.214822E-1,2.814892E-1,7.5986135E-1,-9.7900294E-2,-7.071036E-1,-1.4142697E-2,4.4685468E-1,-3.369382E-1,-1.4762323E-1,-8.9067674E-1,-6.73268E-1,1.586142E-1,-3.965157E-1,6.2688917E-1,8.2994986E-1,2.136848E-1,-3.9870512E-1,5.642827E-1,5.7544345E-1,-1.4453535E-1,-8.55876E-1,6.462949E-2,-7.0260234E-2,-6.943919E-1],"categories":[],"categories_nodes":[],"categories_segments":[],"categories_sizes":[],"default_left":[1,1,1,1,1,0,0,1,1,1,1,1,1,1,0,1,1,1,1,0,0,1,0,0,0,1,0,0,0,0,0,1,0,0,0,0,0,0,0],"id":19,"left_children":[1,3,5,7,9,-1,-1,11,13,15,17,19,21,23,-1,25,27,29,31,-1,-1,33,-1,-1,-1,35,-1,-1,-1,-1,-1,37,-1,-1,-1,-1,-1,-1,-1],"loss_changes":[1.1101803E0,1.2315904E0,1.9150972E-1,2.154494E0,1.6010721E0,0E0,0E0,1.5979133E0,8.729918E-1,1.816222E0,2.0026546E0,3.305276E-1,8.699625E-1,3.2540226E-1,0E0,7.824786E-1,1.4424157E0,4.5093775E-2,1.3682629E0,0E0,0E0,5.9620726E-1,0E0,0E0,0E0,8.0206394E-1,0E0,0E0,0E0,0E0,0E0,3.9142197E-1,0E0,0E0,0E0,0E0,0E0,0E0,0E0],"parents":[2147483647,0,0,1,1,2,2,3,3,4,4,7,7,8,8,9,9,10,10,11,11,12,12,13,13,15,15,16,16,17,17,18,18,21,21,25,25,31,31],"right_children":[2,4,6,8,10,-1,-1,12,14,16,18,20,22,24,-1,26,28,30,32,-1,-1,34,-1,-1,-1,36,-1,-1,-1,-1,-1,38,-1,-1,-1,-1,-1,-1,-1],"split_conditions":[1.6952737E-1,1.4023024E-1,1.9433036E-1,1.7833652E-2,1.1335304E-1,1.5909987E-2,1.850836E-1,2.205823E-3,1.4682329E-1,2.1599083E-1,1.1357771E-1,1.6757257E-1,1.4758295E-1,3.4855515E-2,2.3048958E-2,1.7824804E-2,2.4220694E-2,2.1254101E-1,3.1160926E-3,-2.121311E-1,-4.242809E-3,1.2551026E-1,-1.0108147E-1,-4.428697E-2,-2.6720303E-1,1.8666533E-1,4.758426E-2,-1.1895471E-1,1.8806677E-1,2.4898496E-1,6.410544E-2,1.5271996E-1,1.6928482E-1,1.7263304E-1,-4.3360606E-2,-2.5676283E-1,1.9388847E-2,-2.107807E-2,-2.0831758E-1],"split_indices":[2,12,17,43,5,0,0,13,14,60,3,45,29,17,0,46,58,10,14,0,0,12,0,0,0,9,0,0,0,0,0,45,0,0,0,0,0,0,0],"split_type":[0,0,0,0,0,0,0,0,0,0,0,0,0,0,0,0,0,0,0,0,0,0,0,0,0,0,0,0,0,0,0,0,0,0,0,0,0,0,0],"sum_hessian":[3.8456028E1,3.5550915E1,2.9051127E0,1.6356955E1,1.919396E1,1.0175864E0,1.8875263E0,9.263597E0,7.093357E0,9.643447E0,9.550513E0,2.5095682E0,6.7540283E0,5.8852034E0,1.2081535E0,5.5455327E0,4.0979147E0,4.810803E0,4.7397103E0,1.5027971E0,1.0067712E0,5.7463717E0,1.0076567E0,1.1605495E0,4.724654E0,4.541899E0,1.0036335E0,1.3331028E0,2.7648118E0,3.8031924E0,1.0076107E0,3.5327897E0,1.2069206E0,4.742214E0,1.0041578E0,3.5127194E0,1.0291797E0,2.2600138E0,1.272776E0],"tree_param":{"num_deleted":"0","num_feature":"75","num_nodes":"39","size_leaf_vector":"0"}},{"base_weights":[-2.28669E-2,2.5475042E-2,-5.463979E-1,-3.14207E-2,5.434758E-1,-2.720222E-1,8.0485456E-2,-3.9527702E-1,3.0746442E-1,1.5968105E-1,-3.6175188E-1,4.968843E-2,-5.0858325E-1,5.8434803E-2,6.511793E-1,-5.3105474E-1,3.4436524E-2,-1.2513047E-1,-8.2190216E-1,-5.4076727E-2,5.385664E-1],"categories":[],"categories_nodes":[],"categories_segments":[],"categories_sizes":[],"default_left":[1,1,0,1,0,1,1,1,0,1,1,0,1,1,0,0,0,0,0,0,0],"id":20,"left_children":[1,3,-1,5,-1,7,9,11,-1,13,15,-1,17,19,-1,-1,-1,-1,-1,-1,-1],"loss_changes":[9.157737E-1,1.006677E0,0E0,8.61944E-1,0E0,8.4527516E-1,8.306204E-1,4.6860266E-1,0E0,9.2779356E-1,2.6363593E-1,0E0,7.4987936E-1,9.578671E-1,0E0,0E0,0E0,0E0,0E0,0E0,0E0],"parents":[2147483647,0,0,1,1,3,3,5,5,6,6,7,7,9,9,10,10,12,12,13,13],"right_children":[2,4,-1,6,-1,8,10,12,-1,14,16,-1,18,20,-1,-1,-1,-1,-1,-1,-1],"split_conditions":[1.0911916E-1,1.6952737E-1,-1.6391939E-1,8.661551E-2,1.6304275E-1,1.6215712E-1,1.2890705E-1,1.3202271E-1,9.223933E-2,1.55294E-1,3.4044385E-2,1.4906529E-2,1.7423045E-2,1.7980002E-1,1.953538E-1,-1.5931642E-1,1.0330957E-2,-3.7539143E-2,-2.4657066E-1,-1.6223019E-2,1.6156992E-1],"split_indices":[73,2,0,72,0,4,32,15,0,14,43,0,43,0,0,0,0,0,0,0,0],"split_type":[0,0,0,0,0,0,0,0,0,0,0,0,0,0,0,0,0,0,0,0,0],"sum_hessian":[3.4634426E1,3.257761E1,2.0568194E0,3.019988E1,2.3777273E0,9.132956E0,2.1066925E1,7.7932434E0,1.3397123E0,1.8409151E1,2.6577752E0,1.6956631E0,6.0975804E0,1.619247E1,2.216679E0,1.6235679E0,1.0342073E0,3.3711712E0,2.726409E0,1.3837285E1,2.3551862E0],"tree_param":{"num_deleted":"0","num_feature":"75","num_nodes":"21","size_leaf_vector":"0"}},{"base_weights":[-1.6968984E-2,-2.5014585E-1,8.346273E-2,-3.794319E-1,1.4162594E-1,1.3472903E-1,-5.356255E-1,-5.1877606E-1,3.188782E-2,-2.9257327E-1,5.0593346E-1,2.1871996E-1,-3.5224873E-1,-6.55996E-1,-4.3481708E-2,1.0210778E-1,5.8731204E-1,-6.176025E-1,5.214091E-2,-7.873456E-1,-9.06223E-2,-5.44637E-1,2.5313333E-1,6.48508E-1,1.7955436E-1,-6.492981E-1,-1.7164142E-1,4.9555743E-1,-3.9571334E-2],"categories":[],"categories_nodes":[],"categories_segments":[],"categories_sizes":[],"default_left":[1,1,1,1,1,1,0,1,0,0,0,1,1,1,0,1,1,0,0,0,0,1,1,0,0,0,0,0,0],"id":21,"left_children":[1,3,5,7,9,11,-1,13,-1,-1,-1,15,17,19,-1,21,23,-1,-1,-1,-1,25,27,-1,-1,-1,-1,-1,-1],"loss_changes":[8.150836E-1,5.8353364E-1,8.48294E-1,4.8287535E-1,6.737421E-1,1.0334431E0,0E0,3.7162292E-1,0E0,0E0,0E0,8.2375246E-1,4.424072E-1,2.7692628E-1,0E0,1.7816592E0,1.6082525E-3,0E0,0E0,0E0,0E0,2.5313139E-2,1.0361626E0,0E0,0E0,0E0,0E0,0E0,0E0],"parents":[2147483647,0,0,1,1,2,2,3,3,4,4,5,5,7,7,11,11,12,12,13,13,15,15,16,16,21,21,22,22],"right_children":[2,4,6,8,10,12,-1,14,-1,-1,-1,16,18,20,-1,22,24,-1,-1,-1,-1,26,28,-1,-1,-1,-1,-1,-1],"split_conditions":[4.1680418E-2,8.6052367E-4,1.0912416E-1,1.888439E-1,9.353405E-2,1.5260796E-1,-1.6068766E-1,5.845448E-4,9.566347E-3,-8.777198E-2,1.5178004E-1,1.4761564E-1,7.8266195E-4,1.5294704E-1,-1.3044513E-2,1.2216059E-2,4.678884E-2,-1.8528077E-1,1.5642274E-2,-2.3620369E-1,-2.718669E-2,1.7774318E-1,1.0274328E-1,1.945524E-1,5.386631E-2,-1.9478942E-1,-5.149243E-2,1.4866723E-1,-1.18714E-2],"split_indices":[62,14,73,12,57,29,0,74,0,0,0,4,16,7,0,43,13,0,0,0,0,60,8,0,0,0,0,0,0],"split_type":[0,0,0,0,0,0,0,0,0,0,0,0,0,0,0,0,0,0,0,0,0,0,0,0,0,0,0,0,0],"sum_hessian":[3.291382E1,9.459819E0,2.3453997E1,7.13631E0,2.3235092E0,2.2382862E1,1.071135E0,5.1353445E0,2.0009656E0,1.1499041E0,1.173605E0,1.9560116E1,2.822746E0,3.6898704E0,1.4454741E0,1.5829218E1,3.7308984E0,1.3860179E0,1.4367281E0,2.6756446E0,1.0142257E0,2.5032325E0,1.3325985E1,2.7306583E0,1.00024E0,1.3762863E0,1.1269463E0,6.9099727E0,6.416013E0],"tree_param":{"num_deleted":"0","num_feature":"75","num_nodes":"29","size_leaf_vector":"0"}},{"base_weights":[-2.564724E-2,-1.5407819E-1,1.442147E-1,-3.545751E-1,1.1667462E-1,2.6250172E-1,-2.352978E-1,-7.755087E-1,-1.06354445E-1,-1.2838098E-1,4.213545E-1,4.1779605E-1,-1.03798136E-1,-4.5961484E-1,1.9654214E-1,-4.0918025E-1,4.2021847E-1,2.693363E-1,-3.7969038E-1,5.3402025E-1,3.5790864E-2,5.2681625E-1,-1.8090726E-1,-3.284939E-1,2.7802253E-1,-7.354961E-1,-3.0060645E-2,6.051456E-1,-1.3481324E-2,-6.1305916E-1,1.4118743E-1,4.7198344E-2,7.277427E-1,-9.414784E-3,-4.8338047E-1,2.2475019E-1,-2.6358458E-1,-4.1866514E-1,5.0845295E-1],"categories":[],"categories_nodes":[],"categories_segments":[],"categories_sizes":[],"default_left":[1,1,1,1,1,1,1,0,1,1,1,1,1,0,0,1,1,0,1,0,0,1,0,1,0,0,1,0,0,0,0,1,0,0,0,0,0,0,0],"id":22,"left_children":[1,3,5,7,9,11,13,-1,15,17,19,21,23,-1,-1,25,27,-1,29,-1,-1,31,-1,33,-1,-1,35,-1,-1,-1,-1,37,-1,-1,-1,-1,-1,-1,-1],"loss_changes":[7.1921897E-1,1.055258E0,7.0248115E-1,1.064589E0,7.0357174E-1,6.892187E-1,4.6994096E-1,0E0,1.4579749E0,6.6074216E-1,1.5947527E-1,6.287255E-1,4.5006248E-1,0E0,0E0,6.7401564E-1,2.8389275E-1,0E0,5.532111E-1,0E0,0E0,6.565263E-1,0E0,1.4819428E-1,0E0,0E0,2.7616352E-1,0E0,0E0,0E0,0E0,8.974837E-1,0E0,0E0,0E0,0E0,0E0,0E0,0E0],"parents":[2147483647,0,0,1,1,2,2,3,3,4,4,5,5,6,6,8,8,9,9,10,10,11,11,12,12,15,15,16,16,18,18,21,21,23,23,26,26,31,31],"right_children":[2,4,6,8,10,12,14,-1,16,18,20,22,24,-1,-1,26,28,-1,30,-1,-1,32,-1,34,-1,-1,36,-1,-1,-1,-1,38,-1,-1,-1,-1,-1,-1,-1],"split_conditions":[3.4966686E-6,1.6738313E-1,3.49622E-3,1.1876616E-1,1.8672468E-4,1.5607134E-1,2.4964395E-3,-2.3265262E-1,1.3483612E-1,5.2171953E-2,4.137078E-2,8.2007945E-2,2.2683069E-1,-1.3788445E-1,5.8962647E-2,1.3619214E-1,1.3235155E-1,8.08009E-2,6.1390933E-2,1.6020608E-1,1.073726E-2,1.2411363E-2,-5.4272182E-2,2.3621347E-2,8.340676E-2,-2.2064884E-1,1.4356542E-1,1.8154368E-1,-4.0443973E-3,-1.8391776E-1,4.235623E-2,1.6355671E-1,2.1832281E-1,-2.8244352E-3,-1.4501415E-1,6.742506E-2,-7.907538E-2,-1.2559955E-1,1.5253589E-1],"split_indices":[46,15,16,68,16,15,59,0,12,62,73,73,60,0,0,30,0,0,43,0,0,73,0,73,0,0,15,0,0,0,0,10,0,0,0,0,0,0,0],"split_type":[0,0,0,0,0,0,0,0,0,0,0,0,0,0,0,0,0,0,0,0,0,0,0,0,0,0,0,0,0,0,0,0,0,0,0,0,0,0,0],"sum_hessian":[3.0949652E1,1.7677095E1,1.3272557E1,9.978363E0,7.6987314E0,1.0353791E1,2.9187665E0,2.9134502E0,7.0649133E0,4.5875654E0,3.111166E0,7.1724267E0,3.181364E0,1.878613E0,1.0401535E0,4.626948E0,2.4379654E0,1.7485744E0,2.8389912E0,2.1096625E0,1.0015033E0,6.169136E0,1.0032908E0,2.0906892E0,1.0906749E0,1.981457E0,2.6454906E0,1.4320412E0,1.0059241E0,1.8383723E0,1.0006188E0,2.185996E0,3.9831402E0,1.0298659E0,1.0608233E0,1.2830524E0,1.3624382E0,1.133502E0,1.052494E0],"tree_param":{"num_deleted":"0","num_feature":"75","num_nodes":"39","size_leaf_vector":"0"}},{"base_weights":[-2.4328968E-2,-1.3838118E-1,1.4372477E-1,-4.8361707E-2,-6.593308E-1,3.2074335E-1,-3.1142402E-1,-1.930442E-1,1.9977276E-1,4.641686E-1,-1.7108475E-1,-5.3092855E-1,1.3085675E-1,-2.9056862E-1,2.0302247E-1,3.764537E-1,-1.3175166E-1,5.527972E-1,4.500433E-2,-4.9434185E-1,2.9322663E-2,4.9114674E-1,-1.3508646E-2,2.1123976E-1,-4.1166016E-1,6.382236E-1,1.4612739E-1,-6.7380434E-1,-5.0268643E-2,-2.68666E-1,1.9290847E-1,1.3161899E-1,5.8687526E-1],"categories":[],"categories_nodes":[],"categories_segments":[],"categories_sizes":[],"default_left":[1,1,1,1,0,1,1,1,1,1,0,0,0,1,0,1,1,1,0,1,1,1,0,0,0,0,0,0,0,0,0,0,0],"id":23,"left_children":[1,3,5,7,-1,9,11,13,15,17,-1,-1,-1,19,-1,21,23,25,-1,27,29,31,-1,-1,-1,-1,-1,-1,-1,-1,-1,-1,-1],"loss_changes":[5.8316666E-1,8.129974E-1,1.096679E0,6.28806E-1,0E0,7.424995E-1,4.5505863E-1,4.7978398E-1,4.3308052E-1,2.554953E-1,0E0,0E0,0E0,6.111255E-1,0E0,2.0924866E-1,3.7659496E-1,1.20085955E-1,0E0,4.1617894E-1,2.7146322E-1,4.4156194E-2,0E0,0E0,0E0,0E0,0E0,0E0,0E0,0E0,0E0,0E0,0E0],"parents":[2147483647,0,0,1,1,2,2,3,3,5,5,6,6,7,7,8,8,9,9,13,13,15,15,16,16,17,17,19,19,20,20,21,21],"right_children":[2,4,6,8,-1,10,12,14,16,18,-1,-1,-1,20,-1,22,24,26,-1,28,30,32,-1,-1,-1,-1,-1,-1,-1,-1,-1,-1,-1],"split_conditions":[6.5992984E-9,1.4676839E-1,9.209359E-3,2.5390764E-5,-1.9779925E-1,1.5312555E-1,2.184177E-1,1.8532515E-1,9.7135585E-3,1.461673E-1,-5.1325426E-2,-1.5927857E-1,3.9257027E-2,1.737775E-1,6.090674E-2,2.9640612E-3,2.7685728E-2,1.850857E-1,1.35013E-2,1.3435282E-1,1.3810895E-2,1.10916376E-1,-4.052594E-3,6.337193E-2,-1.2349805E-1,1.9146709E-1,4.3838218E-2,-2.0214131E-1,-1.50805935E-2,-8.05998E-2,5.787254E-2,3.94857E-2,1.7606258E-1],"split_indices":[31,44,31,46,0,5,60,14,48,29,0,0,0,15,0,61,73,10,0,67,43,12,0,0,0,0,0,0,0,0,0,0,0],"split_type":[0,0,0,0,0,0,0,0,0,0,0,0,0,0,0,0,0,0,0,0,0,0,0,0,0,0,0,0,0,0,0,0,0],"sum_hessian":[2.8388048E1,1.7016266E1,1.1371782E1,1.5440926E1,1.5753403E0,8.400083E0,2.9716992E0,9.893962E0,5.546963E0,6.5470824E0,1.8530004E0,1.8520775E0,1.1196219E0,8.152835E0,1.7411271E0,3.5301175E0,2.016846E0,5.141211E0,1.4058715E0,4.6471934E0,3.505642E0,2.5273256E0,1.0027919E0,1.0165374E0,1.0003085E0,3.7781665E0,1.3630445E0,2.9412317E0,1.7059615E0,1.0147724E0,2.4908695E0,1.030814E0,1.4965115E0],"tree_param":{"num_deleted":"0","num_feature":"75","num_nodes":"33","size_leaf_vector":"0"}},{"base_weights":[-2.3983022E-2,2.9458916E-2,-3.6422202E-1,-2.4459845E-1,1.2987866E-1,-5.865056E-1,1.3405937E-1,-5.517328E-1,1.155211E-1,1.9900925E-1,-3.771887E-1,3.4358674E-1,-1.7900635E-1,-6.653825E-2,3.29217E-1,-4.9161756E-1,1.0754709E-1,4.7123292E-1,-4.3836404E-2,-3.9494377E-1,3.6758024E-1,6.1363226E-1,6.2122267E-2,4.6697092E-1,-4.392117E-1],"categories":[],"categories_nodes":[],"categories_segments":[],"categories_sizes":[],"default_left":[1,1,1,1,1,0,0,0,1,1,0,0,0,1,1,0,1,1,1,0,0,0,0,0,0],"id":24,"left_children":[1,3,5,7,9,-1,-1,-1,11,13,-1,-1,-1,15,17,-1,19,21,23,-1,-1,-1,-1,-1,-1],"loss_changes":[5.161473E-1,7.183558E-1,5.04845E-1,8.420508E-1,7.379718E-1,0E0,0E0,0E0,3.3461827E-1,6.199662E-1,0E0,0E0,0E0,5.3555316E-1,6.444442E-1,0E0,8.5704076E-1,4.6363866E-1,1.0455126E0,0E0,0E0,0E0,0E0,0E0,0E0],"parents":[2147483647,0,0,1,1,2,2,3,3,4,4,8,8,9,9,13,13,14,14,16,16,17,17,18,18],"right_children":[2,4,6,8,10,-1,-1,-1,12,14,-1,-1,-1,16,18,-1,20,22,24,-1,-1,-1,-1,-1,-1],"split_conditions":[9.678383E-2,8.38328E-3,1.936643E-1,1.7611155E-1,1.7394245E-1,-1.7595169E-1,4.0217813E-2,-1.6551983E-1,2.5367137E-2,9.13333E-2,-1.1315662E-1,1.03076026E-1,-5.3701907E-2,1.1123535E-1,1.461869E-1,-1.4748527E-1,1.4964008E-1,1.817114E-1,7.430349E-2,-1.1848313E-1,1.1027408E-1,1.8408969E-1,1.8636681E-2,1.4009129E-1,-1.3176352E-1],"split_indices":[58,58,12,10,11,0,0,0,17,11,0,0,0,8,29,0,72,3,47,0,0,0,0,0,0],"split_type":[0,0,0,0,0,0,0,0,0,0,0,0,0,0,0,0,0,0,0,0,0,0,0,0,0],"sum_hessian":[2.6796118E1,2.3947985E1,2.8481348E0,6.0368752E0,1.7911108E1,1.8470902E0,1.0010446E0,2.9709585E0,3.0659168E0,1.6296824E1,1.6142849E0,1.6340388E0,1.4318779E0,5.5227113E0,1.0774113E1,1.0746477E0,4.4480634E0,7.6128387E0,3.161274E0,1.3399358E0,3.1081276E0,5.2763715E0,2.3364668E0,1.3002832E0,1.8609909E0],"tree_param":{"num_deleted":"0","num_feature":"75","num_nodes":"25","size_leaf_vector":"0"}},{"base_weights":[-2.906169E-2,-2.4451344E-1,5.9323978E-2,3.843797E-2,-5.250385E-1,2.612137E-1,-8.682987E-2,-1.2997732E-1,3.1571588E-1,-6.512963E-1,-1.8892841E-1,3.8604745E-1,-3.0749598E-1,-3.3234307E-1,1.7321564E-1,1.6672705E-1,-3.5248113E-1,5.054571E-1,-1.7915851E-1,2.4770674E-1,-6.010984E-1,3.1819046E-1,-2.4849656E-1,1.6294596E-1,6.145372E-1,-7.050667E-1,-2.356414E-1,5.1329005E-1,3.5719994E-2,-3.726442E-1,4.1278988E-1],"categories":[],"categories_nodes":[],"categories_segments":[],"categories_sizes":[],"default_left":[1,1,1,1,1,1,1,1,0,0,0,1,0,1,1,0,0,1,0,0,1,1,0,0,0,0,0,0,1,0,0],"id":25,"left_children":[1,3,5,7,9,11,13,15,-1,-1,-1,17,-1,19,21,-1,-1,23,-1,-1,25,27,-1,-1,-1,-1,-1,-1,29,-1,-1],"loss_changes":[5.1112306E-1,6.3784266E-1,5.920886E-1,2.6545694E-1,4.566872E-2,7.117243E-1,8.2015026E-1,3.0291516E-1,0E0,0E0,0E0,5.827625E-1,0E0,1.1600822E0,4.7388944E-1,0E0,0E0,1.3458788E-1,0E0,0E0,1.3369083E-2,2.7067697E-1,0E0,0E0,0E0,0E0,0E0,0E0,6.492171E-1,0E0,0E0],"parents":[2147483647,0,0,1,1,2,2,3,3,4,4,5,5,6,6,7,7,11,11,13,13,14,14,17,17,20,20,21,21,28,28],"right_children":[2,4,6,8,10,12,14,16,-1,-1,-1,18,-1,20,22,-1,-1,24,-1,-1,26,28,-1,-1,-1,-1,-1,-1,30,-1,-1],"split_conditions":[4.0729046E-2,1.020837E-1,6.7083344E-2,1.970887E-3,3.7697285E-2,1.9201696E-1,1.8280089E-1,1.0064835E-2,9.471477E-2,-1.953889E-1,-5.6678526E-2,8.129038E-2,-9.22488E-2,1.2545583E-1,2.565546E-1,5.0018117E-2,-1.0574434E-1,1.0545991E-2,-5.3747553E-2,7.4312024E-2,4.614782E-4,2.7244198E-1,-7.4548975E-2,4.888379E-2,1.8436116E-1,-2.1152002E-1,-7.069243E-2,1.5398702E-1,1.9706148E-1,-1.1179326E-1,1.2383697E-1],"split_indices":[47,41,47,14,62,70,0,3,0,0,0,73,0,0,29,0,0,43,0,0,61,60,0,0,0,0,0,0,2,0,0],"split_type":[0,0,0,0,0,0,0,0,0,0,0,0,0,0,0,0,0,0,0,0,0,0,0,0,0,0,0,0,0,0,0],"sum_hessian":[2.5078957E1,6.7815633E0,1.8297394E1,3.8058121E0,2.9757512E0,7.3530297E0,1.0944364E1,2.6981974E0,1.1076146E0,1.4814907E0,1.4942604E0,6.292903E0,1.0601268E0,5.4864745E0,5.457889E0,1.2637243E0,1.4344732E0,5.2825775E0,1.0103253E0,1.7619685E0,3.7245064E0,4.244283E0,1.2136061E0,1.878358E0,3.4042194E0,2.1761446E0,1.5483617E0,2.027064E0,2.2172194E0,1.0700737E0,1.1471456E0],"tree_param":{"num_deleted":"0","num_feature":"75","num_nodes":"31","size_leaf_vector":"0"}},{"base_weights":[-3.1563208E-2,-1.2006371E-1,1.7543977E-1,-3.889958E-1,-2.0349326E-2,-8.254916E-2,4.2174444E-1,-5.630497E-1,-2.8253764E-2,2.1415776E-1,-1.9782595E-1,-4.281248E-1,1.6258311E-1,6.5904874E-1,-1.3039596E-1,-1.9009425E-1,5.7568794E-1,2.0073278E-1,-4.538912E-1,-9.244495E-2,3.5263985E-1,-5.9417486E-1,3.1961453E-1,-1.5057386E-1,4.1651076E-1,-5.996991E-1,4.1324135E-2,-6.8431085E-1,-1.6464962E-1],"categories":[],"categories_nodes":[],"categories_segments":[],"categories_sizes":[],"default_left":[1,1,1,1,1,1,1,0,0,1,1,0,1,0,0,1,0,1,1,0,0,0,0,0,0,1,0,0,0],"id":26,"left_children":[1,3,5,7,9,11,13,-1,-1,15,17,-1,19,-1,-1,21,-1,23,25,-1,-1,-1,-1,-1,-1,27,-1,-1,-1],"loss_changes":[4.7026196E-1,4.686114E-1,5.272623E-1,2.824232E-1,6.2581456E-1,4.6109197E-1,6.2685376E-1,0E0,0E0,1.0622116E0,9.5853716E-1,0E0,1.9877216E-1,0E0,0E0,9.786473E-1,0E0,3.6729932E-1,4.2057347E-1,0E0,0E0,0E0,0E0,0E0,0E0,4.5578122E-2,0E0,0E0,0E0],"parents":[2147483647,0,0,1,1,2,2,3,3,4,4,5,5,6,6,9,9,10,10,12,12,15,15,17,17,18,18,25,25],"right_children":[2,4,6,8,10,12,14,-1,-1,16,18,-1,20,-1,-1,22,-1,24,26,-1,-1,-1,-1,-1,-1,28,-1,-1,-1],"split_conditions":[8.6052367E-4,3.608849E-2,1.3417518E-1,6.599291E-2,2.1229416E-2,1.4689225E-1,1.2928334E-1,-1.6891491E-1,-8.47613E-3,1.2745638E-2,1.5312555E-1,-1.2843744E-1,8.6052367E-4,1.9771463E-1,-3.911879E-2,1.4774811E-1,1.727064E-1,1.3772887E-1,1.2253243E-1,-2.7733486E-2,1.0579196E-1,-1.7825246E-1,9.588436E-2,-4.5172162E-2,1.2495323E-1,1.4027777E-1,1.2397241E-2,-2.0529327E-1,-4.9394887E-2],"split_indices":[14,62,12,13,58,5,32,0,0,43,10,0,74,0,0,4,0,12,68,0,0,0,0,0,0,66,0,0,0],"split_type":[0,0,0,0,0,0,0,0,0,0,0,0,0,0,0,0,0,0,0,0,0,0,0,0,0,0,0,0,0],"sum_hessian":[2.3519722E1,1.6769995E1,6.749727E0,3.751367E0,1.3018627E1,3.6213918E0,3.128335E0,2.1521633E0,1.5992038E0,5.5192013E0,7.4994264E0,1.193022E0,2.4283698E0,2.0525463E0,1.0757886E0,2.8295171E0,2.6896842E0,3.0180302E0,4.481396E0,1.2562546E0,1.1721153E0,1.4858606E0,1.3436564E0,1.263354E0,1.7546761E0,3.2990572E0,1.1823391E0,2.2822402E0,1.016817E0],"tree_param":{"num_deleted":"0","num_feature":"75","num_nodes":"29","size_leaf_vector":"0"}},{"base_weights":[-2.9913347E-2,-7.569429E-2,3.9072484E-1,-3.031363E-1,2.5750598E-2,-7.598497E-2,-6.420404E-1,-2.2442113E-1,1.6904756E-1,-3.1396765E-1,2.819074E-1,-4.5964956E-1,1.823992E-1,2.4728005E-1,-2.8639796E-1,8.758123E-2,-5.061264E-1,-6.531188E-1,-2.6961196E-2,3.3427083E-1,-2.2267982E-1,4.207302E-1,-1.4883938E-1],"categories":[],"categories_nodes":[],"categories_segments":[],"categories_sizes":[],"default_left":[1,1,0,1,1,1,0,1,1,1,0,1,0,1,0,0,0,0,0,1,0,0,0],"id":27,"left_children":[1,3,-1,5,7,9,-1,11,13,15,-1,17,-1,19,-1,-1,-1,-1,-1,21,-1,-1,-1],"loss_changes":[4.6866563E-1,5.015874E-1,0E0,4.6541268E-1,6.015384E-1,5.2572256E-1,0E0,6.7287165E-1,4.4730517E-1,3.1872997E-1,0E0,3.3266157E-1,0E0,4.650252E-1,0E0,0E0,0E0,0E0,0E0,4.1605735E-1,0E0,0E0,0E0],"parents":[2147483647,0,0,1,1,3,3,4,4,5,5,7,7,8,8,9,9,11,11,13,13,19,19],"right_children":[2,4,-1,6,8,10,-1,12,14,16,-1,18,-1,20,-1,-1,-1,-1,-1,22,-1,-1,-1],"split_conditions":[1.8964833E-1,1.0174778E-1,1.1721746E-1,1.7216289E-1,5.4470047E-2,1.0992575E-1,-1.9261213E-1,2.5050712E-1,1.0756256E-1,1.3255042E-1,8.4572226E-2,1.3085492E-1,5.471976E-2,1.4661887E-1,-8.5919395E-2,2.627437E-2,-1.5183793E-1,-1.9593565E-1,-8.08836E-3,9.584603E-2,-6.680395E-2,1.2621906E-1,-4.4651818E-2],"split_indices":[17,27,0,60,7,41,0,12,62,15,0,62,0,44,0,0,0,0,0,43,0,0,0],"split_type":[0,0,0,0,0,0,0,0,0,0,0,0,0,0,0,0,0,0,0,0,0,0,0],"sum_hessian":[2.1801327E1,2.0400995E1,1.4003316E0,5.6794157E0,1.4721579E1,4.133281E0,1.5461344E0,5.1552596E0,9.5663185E0,2.5562315E0,1.5770499E0,3.1842368E0,1.9710231E0,8.554039E0,1.0122797E0,1.0034902E0,1.5527413E0,1.8483394E0,1.3358973E0,7.461602E0,1.092437E0,6.438469E0,1.0231329E0],"tree_param":{"num_deleted":"0","num_feature":"75","num_nodes":"23","size_leaf_vector":"0"}},{"base_weights":[-3.909617E-2,-3.6541614E-1,1.9244872E-2,-4.8320296E-1,-5.1574748E-2,3.0421922E-1,-6.47434E-2,-5.2726746E-2,5.8207655E-1,-1.3399844E-1,3.354763E-1,-1.9765377E-1,3.272739E-1,2.9813869E-2,-4.3428475E-1,-2.3541565E-1,3.0492732E-1,-5.5471534E-1,9.352776E-3],"categories":[],"categories_nodes":[],"categories_segments":[],"categories_sizes":[],"default_left":[1,1,1,0,0,1,1,0,0,1,0,1,0,1,1,0,0,0,0],"id":28,"left_children":[1,3,5,-1,-1,7,9,-1,-1,11,-1,13,-1,15,17,-1,-1,-1,-1],"loss_changes":[4.1896644E-1,9.824294E-2,4.8177224E-1,0E0,0E0,4.8395723E-1,4.8110393E-1,0E0,0E0,4.7954974E-1,0E0,7.1479076E-1,0E0,6.2517947E-1,3.5006738E-1,0E0,0E0,0E0,0E0],"parents":[2147483647,0,0,1,1,2,2,5,5,6,6,9,9,11,11,13,13,14,14],"right_children":[2,4,6,-1,-1,8,10,-1,-1,12,-1,14,-1,16,18,-1,-1,-1,-1],"split_conditions":[5.1038735E-2,5.970677E-3,1.3416022E-1,-1.449609E-1,-1.5472425E-2,1.4023024E-1,1.6952737E-1,-1.5818024E-2,1.7462297E-1,2.4221864E-1,1.006429E-1,2.1229416E-2,9.818218E-2,8.38328E-3,6.3316766E-3,-7.06247E-2,9.14782E-2,-1.664146E-1,2.805833E-3],"split_indices":[15,46,0,0,0,12,2,0,0,12,0,58,0,58,46,0,0,0,0],"split_type":[0,0,0,0,0,0,0,0,0,0,0,0,0,0,0,0,0,0,0],"sum_hessian":[2.063764E1,2.3317838E0,1.8305857E1,1.303086E0,1.0286978E0,3.5701346E0,1.4735722E1,1.9173163E0,1.6528183E0,1.3129028E1,1.6066928E0,1.2039137E1,1.0898912E0,6.584053E0,5.4550843E0,3.4257119E0,3.1583412E0,4.093481E0,1.361603E0],"tree_param":{"num_deleted":"0","num_feature":"75","num_nodes":"19","size_leaf_vector":"0"}},{"base_weights":[-2.6291598E-2,-1.4574994E-1,1.4050421E-1,8.48208E-2,-2.8224856E-1,2.865189E-1,-2.2488944E-1,-1.3116641E-1,3.382849E-1,-3.5097873E-1,1.0173985E-1,4.044215E-1,-8.23708E-2,-4.1450295E-1,8.752882E-2,4.6672758E-2,-2.7466044E-1,-4.9964428E-1,-9.95311E-2,4.822759E-1,8.001437E-2,-8.560595E-2,-6.138025E-1,2.0438193E-1,-2.8372934E-1,5.95353E-1,1.2966777E-1],"categories":[],"categories_nodes":[],"categories_segments":[],"categories_sizes":[],"default_left":[1,1,1,1,1,1,1,1,0,1,0,1,0,0,0,0,0,1,1,1,0,0,0,0,0,0,0],"id":29,"left_children":[1,3,5,7,9,11,13,15,-1,17,-1,19,-1,-1,-1,-1,-1,21,23,25,-1,-1,-1,-1,-1,-1,-1],"loss_changes":[4.3251178E-1,4.186129E-1,5.5201894E-1,3.417536E-1,2.4969345E-1,3.3642966E-1,2.2404008E-1,1.0605201E-1,0E0,2.1574879E-1,0E0,9.9072814E-2,0E0,0E0,0E0,0E0,0E0,1.4664948E-1,2.756133E-1,9.013325E-2,0E0,0E0,0E0,0E0,0E0,0E0,0E0],"parents":[2147483647,0,0,1,1,2,2,3,3,4,4,5,5,6,6,7,7,9,9,11,11,17,17,18,18,19,19],"right_children":[2,4,6,8,10,12,14,16,-1,18,-1,20,-1,-1,-1,-1,-1,22,24,26,-1,-1,-1,-1,-1,-1,-1],"split_conditions":[6.5992984E-9,3.7431516E-2,9.209359E-3,1.2791957E-1,6.1142547E-3,1.5312555E-1,1.0355442E-1,1.153474E-1,1.01485476E-1,1.7194177E-1,3.0521957E-2,8.860561E-2,-2.4711242E-2,-1.2435089E-1,2.6258646E-2,1.4001828E-2,-8.239813E-2,4.6285197E-2,1.7793359E-1,1.19292304E-1,2.4004312E-2,-2.5681786E-2,-1.8414076E-1,6.131458E-2,-8.511881E-2,1.7860591E-1,3.8900334E-2],"split_indices":[31,17,31,8,46,5,62,9,0,15,0,47,0,0,0,0,0,2,30,33,0,0,0,0,0,0,0],"split_type":[0,0,0,0,0,0,0,0,0,0,0,0,0,0,0,0,0,0,0,0,0,0,0,0,0,0,0],"sum_hessian":[1.9679054E1,1.1540198E1,8.138856E0,4.432129E0,7.108069E0,5.969322E0,2.1695337E0,2.653488E0,1.7786411E0,6.1018605E0,1.0062082E0,4.450542E0,1.5187804E0,1.1467746E0,1.0227591E0,1.4862484E0,1.1672394E0,3.2143447E0,2.887516E0,3.1967232E0,1.2538186E0,1.0729113E0,2.1414335E0,1.0483096E0,1.8392065E0,1.899235E0,1.2974882E0],"tree_param":{"num_deleted":"0","num_feature":"75","num_nodes":"27","size_leaf_vector":"0"}},{"base_weights":[-2.1796273E-2,-1.08340256E-1,1.7344476E-1,1.0751861E-2,-2.951712E-1,-6.67226E-2,4.3119782E-1,-2.4227329E-1,1.4414181E-1,-5.1677895E-1,5.554761E-3,3.00845E-1,-2.7865043E-1,1.2792237E-1,5.186909E-1,1.0836358E-1,-4.437777E-1,3.9510554E-1,-6.206388E-2,-2.4098946E-1,2.1919593E-1,-4.3927094E-1,2.3009947E-2,4.7323674E-1,1.1071312E-1,-2.634282E-1,1.9629253E-1,-4.5974085E-1,5.8827788E-2],"categories":[],"categories_nodes":[],"categories_segments":[],"categories_sizes":[],"default_left":[1,1,1,1,1,1,1,1,1,0,1,0,1,0,0,0,0,1,1,0,0,0,0,0,0,1,0,0,0],"id":30,"left_children":[1,3,5,7,9,11,13,15,17,-1,19,-1,21,-1,-1,-1,-1,23,25,-1,-1,-1,-1,-1,-1,27,-1,-1,-1],"loss_changes":[3.549418E-1,3.235672E-1,4.3080735E-1,3.642943E-1,3.787884E-1,4.1317874E-1,2.0324886E-2,3.1246436E-1,3.8765854E-1,0E0,2.3098892E-1,0E0,1.6519997E-1,0E0,0E0,0E0,0E0,2.0950377E-2,2.9706854E-1,0E0,0E0,0E0,0E0,0E0,0E0,2.2173545E-1,0E0,0E0,0E0],"parents":[2147483647,0,0,1,1,2,2,3,3,4,4,5,5,6,6,7,7,8,8,10,10,12,12,17,17,18,18,25,25],"right_children":[2,4,6,8,10,12,14,16,18,-1,20,-1,22,-1,-1,-1,-1,24,26,-1,-1,-1,-1,-1,-1,28,-1,-1,-1],"split_conditions":[8.6052367E-4,1.1304859E-1,2.1124287E-2,3.9639995E-2,1.946767E-1,3.3966497E-2,4.242145E-5,1.020837E-1,1.5801808E-1,-1.550337E-1,6.803401E-2,9.02535E-2,6.381655E-5,3.837671E-2,1.5560727E-1,3.2509077E-2,-1.3313332E-1,5.694762E-2,7.505214E-2,-7.229684E-2,6.575878E-2,-1.317813E-1,6.9029843E-3,1.4197102E-1,3.3213936E-2,7.3827145E-4,5.888776E-2,-1.3792226E-1,1.7648337E-2],"split_indices":[14,63,73,47,9,11,1,71,15,0,17,0,31,0,0,0,0,73,43,0,0,0,0,0,0,61,0,0,0],"split_type":[0,0,0,0,0,0,0,0,0,0,0,0,0,0,0,0,0,0,0,0,0,0,0,0,0,0,0,0,0],"sum_hessian":[1.889418E1,1.3399648E1,5.494532E0,8.758895E0,4.640753E0,3.2279515E0,2.2665806E0,2.74178E0,6.017115E0,2.2582152E0,2.3825376E0,1.0270582E0,2.2008932E0,1.0587484E0,1.2078323E0,1.1693052E0,1.5724748E0,2.3008177E0,3.7162974E0,1.0466648E0,1.3358729E0,1.1385106E0,1.0623826E0,1.2840289E0,1.0167888E0,2.077473E0,1.6388245E0,1.0258878E0,1.0515851E0],"tree_param":{"num_deleted":"0","num_feature":"75","num_nodes":"29","size_leaf_vector":"0"}},{"base_weights":[-1.5905993E-2,-3.1237006E-1,4.1569162E-2,-4.3239683E-1,-3.6447972E-2,2.861446E-1,-2.9710256E-2,1.1598247E-2,4.896454E-1,-8.971156E-2,3.1404522E-1,4.4753384E-2,-2.7506173E-1,1.4684503E-1,-2.682093E-1,-4.2565423E-1,1.090461E-1,-2.4570206E-1,2.922784E-1,-5.174542E-1,-7.2220065E-2],"categories":[],"categories_nodes":[],"categories_segments":[],"categories_sizes":[],"default_left":[1,1,1,0,0,1,1,0,0,1,0,1,1,1,0,1,0,0,0,0,0],"id":31,"left_children":[1,3,5,-1,-1,7,9,-1,-1,11,-1,13,15,17,-1,19,-1,-1,-1,-1,-1],"loss_changes":[3.3631903E-1,9.018016E-2,3.0097637E-1,0E0,0E0,2.1110529E-1,3.1480512E-1,0E0,0E0,3.2657558E-1,0E0,3.003568E-1,3.611733E-1,4.6030897E-1,0E0,9.607375E-2,0E0,0E0,0E0,0E0,0E0],"parents":[2147483647,0,0,1,1,2,2,5,5,6,6,9,9,11,11,12,12,13,13,15,15],"right_children":[2,4,6,-1,-1,8,10,-1,-1,12,-1,14,16,18,-1,20,-1,-1,-1,-1,-1],"split_conditions":[5.76624E-2,5.970677E-3,1.3416022E-1,-1.2971905E-1,-1.0934392E-2,1.4023024E-1,1.798841E-1,3.4794742E-3,1.4689362E-1,6.811176E-2,9.421357E-2,6.909408E-2,2.15399E-1,3.608849E-2,-8.04628E-2,2.9807389E-3,3.271383E-2,-7.371062E-2,8.768353E-2,-1.5523627E-1,-2.166602E-2],"split_indices":[0,46,0,0,0,12,17,0,0,32,0,47,42,62,0,61,0,0,0,0,0],"split_type":[0,0,0,0,0,0,0,0,0,0,0,0,0,0,0,0,0,0,0,0,0],"sum_hessian":[1.7975763E1,2.1988657E0,1.5776897E1,1.1371188E0,1.061747E0,2.880129E0,1.2896769E1,1.6760011E0,1.204128E0,1.1609411E1,1.2873566E0,7.1679015E0,4.44151E0,5.8050313E0,1.3628702E0,3.1129072E0,1.328603E0,1.3829064E0,4.422125E0,2.1026862E0,1.0102208E0],"tree_param":{"num_deleted":"0","num_feature":"75","num_nodes":"21","size_leaf_vector":"0"}},{"base_weights":[-1.7704284E-2,2.9617831E-2,-3.157299E-1,-2.267571E-2,3.839154E-1,-2.2386904E-1,1.11189015E-1,-3.3827338E-1,1.921139E-1,-8.117959E-2,3.3210206E-1,-4.7916528E-2,-5.086561E-1,7.9666056E-2,-4.5249355E-1,5.2251977E-1,3.6192056E-2,-2.5460058E-1,1.9496977E-1,2.4293728E-1,-2.7751374E-1],"categories":[],"categories_nodes":[],"categories_segments":[],"categories_sizes":[],"default_left":[1,1,0,1,0,1,1,1,0,1,1,1,0,1,0,0,0,0,0,0,0],"id":32,"left_children":[1,3,-1,5,-1,7,9,11,-1,13,15,17,-1,19,-1,-1,-1,-1,-1,-1,-1],"loss_changes":[2.6727372E-1,3.18049E-1,0E0,4.421678E-1,0E0,3.7536287E-1,4.5071414E-1,2.4659848E-1,0E0,4.0237615E-1,2.536822E-1,2.0674345E-1,0E0,3.6658844E-1,0E0,0E0,0E0,0E0,0E0,0E0,0E0],"parents":[2147483647,0,0,1,1,3,3,5,5,6,6,7,7,9,9,10,10,11,11,13,13],"right_children":[2,4,-1,6,-1,8,10,12,-1,14,16,18,-1,20,-1,-1,-1,-1,-1,-1,-1],"split_conditions":[1.0428992E-1,1.6952737E-1,-9.471897E-2,1.1073917E-1,1.1517462E-1,2.59566E-2,1.2794307E-1,1.77043E-2,5.7634175E-2,2.083798E-3,1.1382286E-1,9.584382E-3,-1.5259683E-1,1.9289498E-1,-1.3574807E-1,1.5675594E-1,1.08576175E-2,-7.638018E-2,5.8490936E-2,7.2881185E-2,-8.325413E-2],"split_indices":[58,2,0,5,0,46,72,43,0,16,3,28,0,10,0,0,0,0,0,0,0],"split_type":[0,0,0,0,0,0,0,0,0,0,0,0,0,0,0,0,0,0,0,0,0],"sum_hessian":[1.7288221E1,1.5696471E1,1.5917507E0,1.4493292E1,1.2031797E0,5.521837E0,8.971455E0,4.477294E0,1.0445434E0,5.1336536E0,3.8378007E0,2.129517E0,2.347777E0,4.1300488E0,1.0036048E0,1.8691796E0,1.9686213E0,1.124443E0,1.005074E0,3.0539136E0,1.0761352E0],"tree_param":{"num_deleted":"0","num_feature":"75","num_nodes":"21","size_leaf_vector":"0"}},{"base_weights":[-1.7125363E-2,-1.1472326E-1,1.1930408E-1,1.8261543E-1,-2.1582262E-1,2.5269544E-1,-1.9664906E-1,-1.5065393E-1,3.980569E-1,-4.7398168E-1,-8.7979354E-2,3.6299282E-1,-7.3435836E-2,1.9857326E-1,-2.1067874E-1,4.432793E-1,7.8178555E-2,-3.5344175E-1,1.5841551E-1,4.5074705E-2,-4.995289E-1],"categories":[],"categories_nodes":[],"categories_segments":[],"categories_sizes":[],"default_left":[1,1,1,1,1,1,0,0,0,0,1,1,0,0,1,0,0,1,0,0,0],"id":33,"left_children":[1,3,5,7,9,11,-1,-1,-1,-1,13,15,-1,-1,17,-1,-1,19,-1,-1,-1],"loss_changes":[2.4639986E-1,3.6101332E-1,3.775348E-1,2.9376882E-1,2.3692146E-1,2.3914948E-1,0E0,0E0,0E0,0E0,2.835243E-1,7.013434E-2,0E0,0E0,3.3517402E-1,0E0,0E0,2.6295894E-1,0E0,0E0,0E0],"parents":[2147483647,0,0,1,1,2,2,3,3,4,4,5,5,10,10,11,11,14,14,17,17],"right_children":[2,4,6,8,10,12,-1,-1,-1,-1,14,16,-1,-1,18,-1,-1,20,-1,-1,-1],"split_conditions":[6.5992984E-9,2.2824522E-2,9.209359E-3,2.989336E-3,8.38328E-3,1.5312555E-1,-5.899472E-2,-4.519618E-2,1.1941707E-1,-1.4219451E-1,1.7988719E-2,1.978076E-3,-2.2030752E-2,5.957198E-2,2.4418148E-1,1.3298379E-1,2.3453567E-2,1.329588E-1,4.7524657E-2,1.3522412E-2,-1.4985868E-1],"split_indices":[31,17,31,32,58,5,0,0,0,0,43,1,0,0,45,0,0,30,0,0,0],"split_type":[0,0,0,0,0,0,0,0,0,0,0,0,0,0,0,0,0,0,0,0,0],"sum_hessian":[1.6477201E1,9.698361E0,6.7788405E0,2.2562656E0,7.4420958E0,4.9072676E0,1.8715731E0,1.0039544E0,1.2523111E0,1.5680823E0,5.8740134E0,3.582606E0,1.3246615E0,1.5757135E0,4.2983E0,2.3607516E0,1.2218543E0,3.1300333E0,1.1682667E0,1.0250944E0,2.1049387E0],"tree_param":{"num_deleted":"0","num_feature":"75","num_nodes":"21","size_leaf_vector":"0"}},{"base_weights":[-1.4024264E-2,-1.8430446E-1,6.73229E-2,-2.5774382E-2,-4.4354236E-1,-1.27076665E-2,3.0158445E-1,1.8757392E-1,-2.855521E-1,-1.3377723E-1,2.7899593E-1,4.8846728E-1,-3.4078438E-2,-1.5767115E-1,4.4459975E-1,-2.9402262E-1,5.0129477E-2,4.7710857E-1,-7.37467E-2,1.7999051E-2,-4.313793E-1,-1.469514E-1,3.102212E-1,-3.1618604E-1,9.129108E-2],"categories":[],"categories_nodes":[],"categories_segments":[],"categories_sizes":[],"default_left":[1,1,1,1,0,1,1,1,0,1,1,0,0,0,0,1,1,0,0,0,0,1,0,0,0],"id":34,"left_children":[1,3,5,7,-1,9,11,13,-1,15,17,-1,-1,-1,-1,19,21,-1,-1,-1,-1,23,-1,-1,-1],"loss_changes":[2.4591388E-1,2.235316E-1,2.3143682E-1,3.0903235E-1,0E0,3.9078328E-1,2.1310082E-1,3.4824103E-1,0E0,2.4309625E-1,2.6297694E-1,0E0,0E0,0E0,0E0,1.9147238E-1,2.7432293E-1,0E0,0E0,0E0,0E0,1.5858088E-1,0E0,0E0,0E0],"parents":[2147483647,0,0,1,1,2,2,3,3,5,5,6,6,7,7,9,9,10,10,15,15,16,16,21,21],"right_children":[2,4,6,8,-1,10,12,14,-1,16,18,-1,-1,-1,-1,20,22,-1,-1,-1,-1,24,-1,-1,-1],"split_conditions":[1.0174778E-1,1.7652088E-1,1.55294E-1,5.590468E-2,-1.3306272E-1,1.7980002E-1,2.3103179E-1,3.6223777E-2,-8.5665636E-2,1.1125763E-6,1.1335556E-1,1.465402E-1,-1.0223532E-2,-4.730135E-2,1.3337994E-1,1.24885574E-1,1.1128402E-1,1.4313258E-1,-2.2124011E-2,5.3997156E-3,-1.294138E-1,4.9046148E-2,9.3066365E-2,-9.4855815E-2,2.7387325E-2],"split_indices":[27,70,14,42,0,0,14,12,0,31,17,0,0,0,0,0,7,0,0,0,0,28,0,0,0],"split_type":[0,0,0,0,0,0,0,0,0,0,0,0,0,0,0,0,0,0,0,0,0,0,0,0,0],"sum_hessian":[1.5857432E1,4.717293E0,1.114014E1,3.6094518E0,1.107841E0,9.008371E0,2.131768E0,2.1344397E0,1.4750121E0,6.748745E0,2.2596266E0,1.0769411E0,1.0548267E0,1.0758626E0,1.058577E0,3.2864063E0,3.4623384E0,1.2211933E0,1.0384333E0,1.2701268E0,2.0162795E0,2.2172499E0,1.2450886E0,1.1050916E0,1.1121583E0],"tree_param":{"num_deleted":"0","num_feature":"75","num_nodes":"25","size_leaf_vector":"0"}},{"base_weights":[-8.01278E-3,4.0354304E-2,-2.9994938E-1,-1.3617738E-1,1.2531087E-1,-4.0493816E-1,7.110496E-2,-1.741475E-1,1.966845E-1,-2.1321908E-1,2.4863806E-1,2.7624503E-1,-7.7736616E-2,-3.4316197E-2,3.547811E-1,8.508002E-2,4.2501718E-1],"categories":[],"categories_nodes":[],"categories_segments":[],"categories_sizes":[],"default_left":[1,1,0,1,1,0,1,0,1,0,0,1,0,0,1,0,0],"id":35,"left_children":[1,3,-1,5,7,-1,9,-1,11,-1,-1,13,-1,-1,15,-1,-1],"loss_changes":[2.3950945E-1,2.374901E-1,0E0,3.2151094E-1,2.5745678E-1,0E0,2.4569026E-1,0E0,2.1584857E-1,0E0,0E0,1.8586677E-1,0E0,0E0,7.318044E-2,0E0,0E0],"parents":[2147483647,0,0,1,1,3,3,4,4,6,6,8,8,11,11,14,14],"right_children":[2,4,-1,6,8,-1,10,-1,12,-1,-1,14,-1,-1,16,-1,-1],"split_conditions":[1.0428992E-1,1.2104832E-2,-8.998482E-2,1.17877826E-1,3.608849E-2,-1.21481456E-1,2.8557023E-3,-5.2244253E-2,1.461869E-1,-6.396572E-2,7.459142E-2,3.68045E-2,-2.3320986E-2,-1.0294859E-2,6.988993E-2,2.5524007E-2,1.2750515E-1],"split_indices":[58,43,0,8,62,0,13,0,29,0,0,2,0,0,11,0,0],"split_type":[0,0,0,0,0,0,0,0,0,0,0,0,0,0,0,0,0],"sum_hessian":[1.5105046E1,1.3697466E1,1.4075804E0,4.254374E0,9.443091E0,1.4372663E0,2.817108E0,1.5403574E0,7.9027343E0,1.0056009E0,1.811507E0,6.1213713E0,1.7813628E0,1.3491952E0,4.7721763E0,1.4428993E0,3.3292768E0],"tree_param":{"num_deleted":"0","num_feature":"75","num_nodes":"17","size_leaf_vector":"0"}},{"base_weights":[-1.3947101E-2,-1.3931789E-1,1.01058386E-1,-2.5132677E-2,-3.8908893E-1,-5.4202355E-2,2.528562E-1,-1.7230023E-1,2.2046542E-1,-2.0545901E-1,2.367613E-1,3.9199087E-1,-4.733469E-2,-3.887399E-1,1.9801669E-2,1.2822959E-1,-3.7013206E-1,4.9089998E-1,8.5549794E-2,1.827515E-1,-1.2430941E-1],"categories":[],"categories_nodes":[],"categories_segments":[],"categories_sizes":[],"default_left":[1,1,1,1,0,1,1,1,0,1,0,1,0,0,1,0,0,0,0,0,0],"id":36,"left_children":[1,3,5,7,-1,9,11,13,-1,15,-1,17,-1,-1,19,-1,-1,-1,-1,-1,-1],"loss_changes":[2.399813E-1,2.1599993E-1,2.1995667E-1,2.729899E-1,0E0,2.7528623E-1,2.1074492E-1,2.0007949E-1,0E0,2.630688E-1,0E0,5.656919E-2,0E0,0E0,1.0262593E-1,0E0,0E0,0E0,0E0,0E0,0E0],"parents":[2147483647,0,0,1,1,2,2,3,3,5,5,6,6,7,7,9,9,11,11,14,14],"right_children":[2,4,6,8,-1,10,12,14,-1,16,-1,18,-1,-1,20,-1,-1,-1,-1,-1,-1],"split_conditions":[1.411736E-1,7.00113E-2,2.5671263E-5,1.989433E-5,-1.1672668E-1,2.8173655E-1,3.428747E-3,1.3781098E-1,6.613963E-2,1.450609E-1,7.10284E-2,1.6492127E-1,-1.4200407E-2,-1.1662198E-1,1.5393089E-1,3.846888E-2,-1.1103962E-1,1.4727E-1,2.5664939E-2,5.4825455E-2,-3.7292827E-2],"split_indices":[12,73,16,46,0,12,46,45,0,0,0,72,0,0,0,0,0,0,0,0,0],"split_type":[0,0,0,0,0,0,0,0,0,0,0,0,0,0,0,0,0,0,0,0,0],"sum_hessian":[1.4667701E1,6.916463E0,7.7512374E0,5.5018587E0,1.4146044E0,4.1497507E0,3.601487E0,3.6269565E0,1.8749022E0,2.9237266E0,1.2260242E0,2.2519372E0,1.3495497E0,1.224128E0,2.4028285E0,1.0392101E0,1.8845164E0,1.2473837E0,1.0045536E0,1.0018656E0,1.4009627E0],"tree_param":{"num_deleted":"0","num_feature":"75","num_nodes":"21","size_leaf_vector":"0"}},{"base_weights":[-9.639146E-3,-8.69976E-2,1.5450197E-1,-1.4848632E-1,1.8432553E-1,-4.6515703E-2,3.7045032E-1,3.9696082E-2,-2.8613824E-1,1.9284001E-1,-2.7794454E-1,-2.0828317E-1,3.1730014E-1,-4.1187036E-1,3.128963E-2,2.47523E-2,-3.271515E-1,-5.2576035E-1,-6.3824266E-2],"categories":[],"categories_nodes":[],"categories_segments":[],"categories_sizes":[],"default_left":[1,1,1,1,0,1,0,1,1,0,0,1,0,1,0,0,0,0,0],"id":37,"left_children":[1,3,5,7,-1,9,-1,11,13,-1,-1,15,-1,17,-1,-1,-1,-1,-1],"loss_changes":[2.0615913E-1,2.1014279E-1,2.4391313E-1,2.5706023E-1,0E0,2.5262356E-1,0E0,4.0239188E-1,2.363849E-1,0E0,0E0,9.6297264E-2,0E0,1.2823927E-1,0E0,0E0,0E0,0E0,0E0],"parents":[2147483647,0,0,1,1,2,2,3,3,5,5,7,7,8,8,11,11,13,13],"right_children":[2,4,6,8,-1,10,-1,12,14,-1,-1,16,-1,18,-1,-1,-1,-1,-1],"split_conditions":[8.6052367E-4,2.571803E-1,2.4162669E-2,2.1229416E-2,5.529766E-2,1.4073415E-1,1.111351E-1,1.1149067E-2,1.2253539E-1,5.7852004E-2,-8.338337E-2,1.5530005E-1,9.519005E-2,1.04827926E-1,9.38689E-3,7.4256905E-3,-9.8145455E-2,-1.577281E-1,-1.914728E-2],"split_indices":[14,12,58,58,0,9,0,58,23,0,0,15,0,2,0,0,0,0,0],"split_type":[0,0,0,0,0,0,0,0,0,0,0,0,0,0,0,0,0,0,0],"sum_hessian":[1.4177376E1,9.955438E0,4.2219386E0,8.485207E0,1.4702308E0,2.592905E0,1.6290336E0,3.8852901E0,4.5999165E0,1.3565904E0,1.2363145E0,2.1840365E0,1.7012534E0,3.0817297E0,1.5181868E0,1.0051861E0,1.1788505E0,1.9372153E0,1.1445143E0],"tree_param":{"num_deleted":"0","num_feature":"75","num_nodes":"19","size_leaf_vector":"0"}},{"base_weights":[-9.160123E-3,-2.5981513E-1,4.6329338E-2,-8.367836E-2,1.7080295E-1,-3.1890252E-1,3.944591E-2,2.730097E-1,-7.128593E-2,-2.0928665E-1,2.8985634E-1,4.1022798E-1,-1.3857805E-2,-3.7445804E-1,8.220702E-2,4.196327E-1,1.6488634E-2,1.16038255E-1,5.08587E-1],"categories":[],"categories_nodes":[],"categories_segments":[],"categories_sizes":[],"default_left":[1,0,1,1,1,0,1,1,0,1,1,1,0,0,0,0,0,0,0],"id":38,"left_children":[1,-1,3,5,7,-1,9,11,-1,13,15,17,-1,-1,-1,-1,-1,-1,-1],"loss_changes":[2.1621652E-1,0E0,2.2252697E-1,2.1430397E-1,1.9025517E-1,0E0,4.0086243E-1,2.0488784E-1,0E0,1.9067095E-1,1.0451627E-1,4.0983856E-2,0E0,0E0,0E0,0E0,0E0,0E0,0E0],"parents":[2147483647,0,0,2,2,3,3,4,4,6,6,7,7,9,9,10,10,11,11],"right_children":[2,-1,4,6,8,-1,10,12,-1,14,16,18,-1,-1,-1,-1,-1,-1,-1],"split_conditions":[5.76624E-2,-7.794454E-2,1.4067252E-1,3.9639995E-2,1.2259565E-1,-9.567076E-2,1.5538013E-1,1.1186594E-1,-2.1385781E-2,8.5564636E-2,1.5077695E-1,1.1335304E-1,-4.1573416E-3,-1.1233742E-1,2.4662105E-2,1.2588982E-1,4.9465904E-3,3.4811478E-2,1.525761E-1],"split_indices":[0,0,12,47,3,0,24,32,0,2,15,5,0,0,0,0,0,0,0],"split_type":[0,0,0,0,0,0,0,0,0,0,0,0,0,0,0,0,0,0,0],"sum_hessian":[1.3679971E1,1.8121136E0,1.1867858E1,5.9651937E0,5.9026637E0,1.503235E0,4.461959E0,4.0606046E0,1.842059E0,2.3208678E0,2.141091E0,2.4558592E0,1.6047454E0,1.2997575E0,1.0211102E0,1.0890404E0,1.0520507E0,1.1615198E0,1.2943395E0],"tree_param":{"num_deleted":"0","num_feature":"75","num_nodes":"19","size_leaf_vector":"0"}},{"base_weights":[-3.6990563E-3,-1.7281644E-1,7.1934685E-2,-1.2586776E-2,-3.5233232E-1,1.6080895E-1,-1.0832683E-1,-1.7559479E-1,1.2328508E-1,1.1972559E-2,3.9791524E-1,-4.1551492E-1,1.4054412E-1,1.3367417E-1,-2.3699771E-1,-1.0594785E-1,3.1685993E-1,-1.0414607E-1,2.5951687E-1,3.5744736E-1,2.4131695E-2],"categories":[],"categories_nodes":[],"categories_segments":[],"categories_sizes":[],"default_left":[1,1,1,1,0,1,1,0,0,1,0,0,1,1,0,0,0,0,1,0,0],"id":39,"left_children":[1,3,5,7,-1,9,11,-1,-1,13,-1,-1,15,17,-1,-1,-1,-1,19,-1,-1],"loss_changes":[1.9459802E-1,1.3060981E-1,1.8638678E-1,9.9560775E-2,0E0,2.58731E-1,3.7033707E-1,0E0,0E0,2.0191073E-1,0E0,0E0,1.6401084E-1,1.5909754E-1,0E0,0E0,0E0,0E0,6.4498976E-2,0E0,0E0],"parents":[2147483647,0,0,1,1,2,2,3,3,5,5,6,6,9,9,12,12,13,13,18,18],"right_children":[2,4,6,8,-1,10,12,-1,-1,14,-1,-1,16,18,-1,-1,-1,-1,20,-1,-1],"split_conditions":[7.833759E-2,1.7419007E-1,3.253302E-3,4.5111455E-2,-1.056997E-1,1.4620136E-1,5.89532E-2,-5.267844E-2,3.6985524E-2,7.8362614E-2,1.1937458E-1,-1.2465448E-1,1.1590255E-1,1.3642275E-1,-7.109932E-2,-3.1784356E-2,9.505799E-2,-3.1243822E-2,1.1346071E-2,1.0723421E-1,7.239509E-3],"split_indices":[72,10,61,47,0,14,62,0,0,17,0,0,5,30,0,0,0,0,48,0,0],"split_type":[0,0,0,0,0,0,0,0,0,0,0,0,0,0,0,0,0,0,0,0,0],"sum_hessian":[1.3241796E1,3.694953E0,9.546843E0,2.5177824E0,1.1771704E0,6.466553E0,3.0802891E0,1.0116869E0,1.5060956E0,4.618145E0,1.8484081E0,1.0789331E0,2.001356E0,3.4129293E0,1.2052158E0,1.001019E0,1.0003369E0,1.2406787E0,2.1722507E0,1.167822E0,1.0044287E0],"tree_param":{"num_deleted":"0","num_feature":"75","num_nodes":"21","size_leaf_vector":"0"}},{"base_weights":[-6.1030574E-3,-5.1709097E-2,2.5842693E-1,-3.5606086E-1,6.993674E-3,7.0933715E-2,-2.5830007E-1,-5.259338E-2,2.2056477E-1,5.6105338E-2,-1.836641E-1,3.4227756E-1,-1.6433235E-2,-9.038093E-2,2.6170477E-1,-2.729939E-1,-9.1795605E-3],"categories":[],"categories_nodes":[],"categories_segments":[],"categories_sizes":[],"default_left":[1,1,0,0,1,1,0,1,1,1,1,0,0,0,0,0,0],"id":40,"left_children":[1,3,-1,-1,5,7,-1,9,11,13,15,-1,-1,-1,-1,-1,-1],"loss_changes":[1.7972519E-1,2.2752032E-1,0E0,0E0,2.1406431E-1,1.9796786E-1,0E0,1.0049946E-1,1.4270575E-1,1.509508E-1,4.5875072E-2,0E0,0E0,0E0,0E0,0E0,0E0],"parents":[2147483647,0,0,1,1,4,4,5,5,7,7,8,8,9,9,10,10],"right_children":[2,4,-1,-1,6,8,-1,10,12,14,16,-1,-1,-1,-1,-1,-1],"split_conditions":[2.4954222E-2,5.2069888E-2,7.752808E-2,-1.06818266E-1,1.5499121E-1,6.5992984E-9,-7.7490024E-2,1.5379742E-1,4.765365E-3,1.0810475E-1,7.6423846E-2,1.0268327E-1,-4.929971E-3,-2.711428E-2,7.851143E-2,-8.189817E-2,-2.7538682E-3],"split_indices":[46,30,0,0,29,31,0,71,31,11,2,0,0,0,0,0,0],"split_type":[0,0,0,0,0,0,0,0,0,0,0,0,0,0,0,0,0],"sum_hessian":[1.2789777E1,1.1595236E1,1.1945407E0,1.0558039E0,1.0539433E1,9.082924E0,1.456508E0,5.3307037E0,3.7522202E0,3.2267022E0,2.1040018E0,2.1855745E0,1.5666456E0,2.2114692E0,1.015233E0,1.0181645E0,1.0858371E0],"tree_param":{"num_deleted":"0","num_feature":"75","num_nodes":"17","size_leaf_vector":"0"}},{"base_weights":[-7.4073463E-3,3.9637726E-2,-2.4566115E-1,-1.7541762E-2,3.1780517E-1,-1.17467985E-1,1.4338522E-1,-3.033204E-1,-5.852201E-4,-2.5136078E-2,3.1584972E-1,-2.0249595E-1,1.9172357E-1,1.6965027E-1,-2.3410359E-1,-6.2521514E-3,-2.9046667E-1,-1.5492617E-1,4.2400283E-1],"categories":[],"categories_nodes":[],"categories_segments":[],"categories_sizes":[],"default_left":[1,1,0,1,0,1,1,0,1,1,0,1,1,0,0,0,0,0,0],"id":41,"left_children":[1,3,-1,5,-1,7,9,-1,11,13,-1,15,17,-1,-1,-1,-1,-1,-1],"loss_changes":[1.6081375E-1,1.9830173E-1,0E0,1.937106E-1,0E0,1.5916087E-1,1.434826E-1,0E0,2.5257748E-1,1.7343098E-1,0E0,5.294077E-2,3.340767E-1,0E0,0E0,0E0,0E0,0E0,0E0],"parents":[2147483647,0,0,1,1,3,3,5,5,6,6,8,8,9,9,11,11,12,12],"right_children":[2,4,-1,6,-1,8,10,-1,12,14,-1,16,18,-1,-1,-1,-1,-1,-1],"split_conditions":[9.678383E-2,8.199425E-2,-7.369835E-2,8.6052367E-4,9.5341556E-2,6.988993E-2,2.1124287E-2,-9.0996124E-2,9.877426E-2,1.4073415E-1,9.475492E-2,1.5941037E-1,5.4084912E-2,5.0895084E-2,-7.023108E-2,-1.8756455E-3,-8.714E-2,-4.647785E-2,1.2720086E-1],"split_indices":[58,43,0,14,0,11,73,0,5,9,0,15,32,0,0,0,0,0,0],"split_type":[0,0,0,0,0,0,0,0,0,0,0,0,0,0,0,0,0,0,0],