{"learner":{"attributes":{"best_iteration":"999","best_ntree_limit":"1000","scikit_learn":"{\"use_label_encoder\": null, \"n_estimators\": 1000, \"max_depth\": null, \"max_leaves\": null, \"max_bin\": null, \"grow_policy\": null, \"learning_rate\": null, \"verbosity\": null, \"booster\": null, \"tree_method\": null, \"gamma\": null, \"min_child_weight\": null, \"max_delta_step\": null, \"subsample\": null, \"sampling_method\": null, \"colsample_bytree\": null, \"colsample_bylevel\": null, \"colsample_bynode\": null, \"reg_alpha\": null, \"reg_lambda\": null, \"scale_pos_weight\": null, \"base_score\": null, \"missing\": NaN, \"num_parallel_tree\": null, \"random_state\": 4, \"n_jobs\": null, \"monotone_constraints\": null, \"interaction_constraints\": null, \"importance_type\": null, \"gpu_id\": null, \"validate_parameters\": null, \"predictor\": null, \"enable_categorical\": false, \"feature_types\": null, \"max_cat_to_onehot\": null, \"max_cat_threshold\": null, \"eval_metric\": null, \"early_stopping_rounds\": null, \"callbacks\": null, \"classes_\": [0.0, 1.0], \"n_classes_\": 2, \"_estimator_type\": \"classifier\"}"},"feature_names":["heart_rate(t-4)","steps(t-4)","stress_score(t-4)","awake(t-4)","deep(t-4)","light(t-4)","rem(t-4)","nonrem_total(t-4)","total(t-4)","nonrem_percentage(t-4)","sleep_efficiency(t-4)","timestamp_dayofweek(t-4)","timestamp_hour_sin(t-4)","timestamp_hour_cos(t-4)","wearing_off(t-4)","heart_rate(t-3)","steps(t-3)","stress_score(t-3)","awake(t-3)","deep(t-3)","light(t-3)","rem(t-3)","nonrem_total(t-3)","total(t-3)","nonrem_percentage(t-3)","sleep_efficiency(t-3)","timestamp_dayofweek(t-3)","timestamp_hour_sin(t-3)","timestamp_hour_cos(t-3)","wearing_off(t-3)","heart_rate(t-2)","steps(t-2)","stress_score(t-2)","awake(t-2)","deep(t-2)","light(t-2)","rem(t-2)","nonrem_total(t-2)","total(t-2)","nonrem_percentage(t-2)","sleep_efficiency(t-2)","timestamp_dayofweek(t-2)","timestamp_hour_sin(t-2)","timestamp_hour_cos(t-2)","wearing_off(t-2)","heart_rate(t-1)","steps(t-1)","stress_score(t-1)","awake(t-1)","deep(t-1)","light(t-1)","rem(t-1)","nonrem_total(t-1)","total(t-1)","nonrem_percentage(t-1)","sleep_efficiency(t-1)","timestamp_dayofweek(t-1)","timestamp_hour_sin(t-1)","timestamp_hour_cos(t-1)","wearing_off(t-1)","heart_rate(t)","steps(t)","stress_score(t)","awake(t)","deep(t)","light(t)","rem(t)","nonrem_total(t)","total(t)","nonrem_percentage(t)","sleep_efficiency(t)","timestamp_dayofweek(t)","timestamp_hour_sin(t)","timestamp_hour_cos(t)","wearing_off(t)"],"feature_types":["float","float","float","float","float","float","float","float","float","float","float","float","float","float","float","float","float","float","float","float","float","float","float","float","float","float","float","float","float","float","float","float","float","float","float","float","float","float","float","float","float","float","float","float","float","float","float","float","float","float","float","float","float","float","float","float","float","float","float","float","float","float","float","float","float","float","float","float","float","float","float","float","float","float","float"],"gradient_booster":{"model":{"gbtree_model_param":{"num_parallel_tree":"1","num_trees":"1000","size_leaf_vector":"0"},"tree_info":[0,0,0,0,0,0,0,0,0,0,0,0,0,0,0,0,0,0,0,0,0,0,0,0,0,0,0,0,0,0,0,0,0,0,0,0,0,0,0,0,0,0,0,0,0,0,0,0,0,0,0,0,0,0,0,0,0,0,0,0,0,0,0,0,0,0,0,0,0,0,0,0,0,0,0,0,0,0,0,0,0,0,0,0,0,0,0,0,0,0,0,0,0,0,0,0,0,0,0,0,0,0,0,0,0,0,0,0,0,0,0,0,0,0,0,0,0,0,0,0,0,0,0,0,0,0,0,0,0,0,0,0,0,0,0,0,0,0,0,0,0,0,0,0,0,0,0,0,0,0,0,0,0,0,0,0,0,0,0,0,0,0,0,0,0,0,0,0,0,0,0,0,0,0,0,0,0,0,0,0,0,0,0,0,0,0,0,0,0,0,0,0,0,0,0,0,0,0,0,0,0,0,0,0,0,0,0,0,0,0,0,0,0,0,0,0,0,0,0,0,0,0,0,0,0,0,0,0,0,0,0,0,0,0,0,0,0,0,0,0,0,0,0,0,0,0,0,0,0,0,0,0,0,0,0,0,0,0,0,0,0,0,0,0,0,0,0,0,0,0,0,0,0,0,0,0,0,0,0,0,0,0,0,0,0,0,0,0,0,0,0,0,0,0,0,0,0,0,0,0,0,0,0,0,0,0,0,0,0,0,0,0,0,0,0,0,0,0,0,0,0,0,0,0,0,0,0,0,0,0,0,0,0,0,0,0,0,0,0,0,0,0,0,0,0,0,0,0,0,0,0,0,0,0,0,0,0,0,0,0,0,0,0,0,0,0,0,0,0,0,0,0,0,0,0,0,0,0,0,0,0,0,0,0,0,0,0,0,0,0,0,0,0,0,0,0,0,0,0,0,0,0,0,0,0,0,0,0,0,0,0,0,0,0,0,0,0,0,0,0,0,0,0,0,0,0,0,0,0,0,0,0,0,0,0,0,0,0,0,0,0,0,0,0,0,0,0,0,0,0,0,0,0,0,0,0,0,0,0,0,0,0,0,0,0,0,0,0,0,0,0,0,0,0,0,0,0,0,0,0,0,0,0,0,0,0,0,0,0,0,0,0,0,0,0,0,0,0,0,0,0,0,0,0,0,0,0,0,0,0,0,0,0,0,0,0,0,0,0,0,0,0,0,0,0,0,0,0,0,0,0,0,0,0,0,0,0,0,0,0,0,0,0,0,0,0,0,0,0,0,0,0,0,0,0,0,0,0,0,0,0,0,0,0,0,0,0,0,0,0,0,0,0,0,0,0,0,0,0,0,0,0,0,0,0,0,0,0,0,0,0,0,0,0,0,0,0,0,0,0,0,0,0,0,0,0,0,0,0,0,0,0,0,0,0,0,0,0,0,0,0,0,0,0,0,0,0,0,0,0,0,0,0,0,0,0,0,0,0,0,0,0,0,0,0,0,0,0,0,0,0,0,0,0,0,0,0,0,0,0,0,0,0,0,0,0,0,0,0,0,0,0,0,0,0,0,0,0,0,0,0,0,0,0,0,0,0,0,0,0,0,0,0,0,0,0,0,0,0,0,0,0,0,0,0,0,0,0,0,0,0,0,0,0,0,0,0,0,0,0,0,0,0,0,0,0,0,0,0,0,0,0,0,0,0,0,0,0,0,0,0,0,0,0,0,0,0,0,0,0,0,0,0,0,0,0,0,0,0,0,0,0,0,0,0,0,0,0,0,0,0,0,0,0,0,0,0,0,0,0,0,0,0,0,0,0,0,0,0,0,0,0,0,0,0,0,0,0,0,0,0,0,0,0,0,0,0,0,0,0,0,0,0,0,0,0,0,0,0,0,0,0,0,0,0,0,0,0,0,0,0,0,0,0,0,0,0,0,0,0,0,0,0,0,0,0,0,0,0,0,0,0,0,0,0,0,0,0,0,0,0,0,0,0,0,0,0,0,0,0,0,0,0,0,0,0,0,0,0,0,0,0,0,0,0,0,0,0,0,0,0,0,0,0,0,0,0,0,0,0,0,0,0,0,0,0,0,0,0,0,0,0,0,0,0,0,0,0,0,0,0,0,0,0,0,0,0,0,0,0,0,0,0,0,0,0,0,0,0,0,0,0,0,0,0,0,0,0,0,0,0,0,0,0,0,0,0,0,0,0,0,0,0,0,0,0,0,0,0,0,0,0,0,0,0,0,0,0,0,0,0,0,0,0,0,0,0,0,0,0,0,0,0,0,0,0,0,0,0,0],"trees":[{"base_weights":[5.4807105E0,2.3643155E-1,5.989881E0,7.3849354E0,2.4947593E0,8.056583E0,9.6643317E-1,4.407044E0,-1.19050816E-1,8.776474E0,1.4664133E0,9.083336E-1,5.7652774E0,4.6645305E-1,-5.8966327E-1,9.634784E0,3.1069438E0],"categories":[],"categories_nodes":[],"categories_segments":[],"categories_sizes":[],"default_left":[1,0,1,1,1,1,0,1,1,1,0,0,0,0,0,0,0],"id":0,"left_children":[1,-1,3,5,7,9,-1,11,13,15,-1,-1,-1,-1,-1,-1,-1],"loss_changes":[3.8169037E1,0E0,4.7262238E1,3.1522522E1,2.728226E1,2.5644531E1,0E0,9.579273E0,1.1665697E0,4.7036133E0,0E0,0E0,0E0,0E0,0E0,0E0,0E0],"parents":[2147483647,0,0,2,2,3,3,4,4,5,5,7,7,8,8,9,9],"right_children":[2,-1,4,6,8,10,-1,12,14,16,-1,-1,-1,-1,-1,-1,-1],"split_conditions":[3.58829E-3,7.092947E-2,1.0714784E-1,1.3672213E-1,1.1364861E-1,2.1296303E-1,2.8992996E-1,4.164334E-2,1.2339476E-1,1.2843126E-1,4.39924E-1,2.725001E-1,1.7295833E0,1.3993593E-1,-1.7689899E-1,2.8904352E0,9.320832E-1],"split_indices":[2,0,34,6,15,74,0,3,0,28,0,0,0,0,0,0,0],"split_type":[0,0,0,0,0,0,0,0,0,0,0,0,0,0,0,0,0],"sum_hessian":[1.3824631E1,1.3530489E0,1.2471581E1,8.118294E0,4.353288E0,7.118214E0,1.0000796E0,2.1178157E0,2.2354722E0,6.1181345E0,1.0000796E0,1.0589079E0,1.0589079E0,1.0000796E0,1.2353926E0,4.7062573E0,1.4118772E0],"tree_param":{"num_deleted":"0","num_feature":"75","num_nodes":"17","size_leaf_vector":"0"}},{"base_weights":[1.0124989E0,1.7626038E0,2.4444853E-1,2.0369534E0,5.452365E-1,2.1700132E0,-1.4767852E-1,2.3462775E0,6.199351E-1,-6.1855525E-1,1.1092105E0,5.910642E-1,2.6912744E0,7.515005E-1,-7.190347E-1,2.88288E-1,2.5382903E0,1.1605196E0,-3.648976E-1,-5.8483785E-1,1.0849088E0,1.6860175E-1,-1.4997561E0,1.410459E0,3.351012E0,2.3322666E-1,1.4060358E0,7.411465E-1,-8.9998645E-1,4.0741024E0,3.4227443E-1,-2.4884254E-1,1.4215286E0],"categories":[],"categories_nodes":[],"categories_segments":[],"categories_sizes":[],"default_left":[1,1,1,1,1,1,1,1,1,0,0,0,0,1,1,0,1,0,0,0,1,1,0,0,1,0,0,1,0,0,0,0,0],"id":1,"left_children":[1,3,5,7,9,11,13,15,17,-1,-1,-1,-1,19,21,-1,23,-1,-1,-1,25,27,-1,-1,29,-1,-1,31,-1,-1,-1,-1,-1],"loss_changes":[1.9781433E1,4.7635384E0,1.4285755E1,4.676609E0,3.7054663E0,1.0372152E0,8.915798E0,3.663391E0,2.481373E0,0E0,0E0,0E0,0E0,3.6744943E0,7.5150795E0,0E0,4.4810486E0,0E0,0E0,0E0,1.261353E0,4.217308E0,0E0,0E0,9.725655E0,0E0,0E0,3.268151E0,0E0,0E0,0E0,0E0,0E0],"parents":[2147483647,0,0,1,1,2,2,3,3,4,4,5,5,6,6,7,7,8,8,13,13,14,14,16,16,20,20,21,21,24,24,27,27],"right_children":[2,4,6,8,10,12,14,16,18,-1,-1,-1,-1,20,22,-1,24,-1,-1,-1,26,28,-1,-1,30,-1,-1,32,-1,-1,-1,-1,-1],"split_conditions":[1.3232683E-1,1.7628059E-1,9.668829E-2,1.413452E-1,4.4292286E-2,1.7639172E-1,3.9486542E-2,3.789022E-4,7.67864E-2,-1.8556657E-1,3.3276317E-1,1.7731927E-1,8.0738235E-1,1.6696805E-1,2.536962E-3,8.64864E-2,9.527595E-2,3.481559E-1,-1.0946929E-1,-1.7545137E-1,5.4130065E-3,9.376753E-2,-4.4992685E-1,4.2313772E-1,9.356184E-3,6.9968E-2,4.2181075E-1,4.0972568E-4,-2.6999596E-1,1.2222308E0,1.0268233E-1,-7.465276E-2,4.264586E-1],"split_indices":[71,72,60,30,32,11,72,1,5,0,0,0,0,11,16,0,7,0,0,0,31,66,0,0,61,0,0,61,0,0,0,0,0],"split_type":[0,0,0,0,0,0,0,0,0,0,0,0,0,0,0,0,0,0,0,0,0,0,0,0,0,0,0,0,0,0,0,0,0],"sum_hessian":[3.408359E1,1.658813E1,1.7495459E1,1.2987894E1,3.6002376E0,2.192939E0,1.5302519E1,1.0122456E1,2.865438E0,1.143592E0,2.4566457E0,1.0739019E0,1.1190372E0,5.82308E0,9.479439E0,1.0773058E0,9.04515E0,1.7347978E0,1.1306403E0,1.0121498E0,4.8109303E0,4.802879E0,4.67656E0,4.9338365E0,4.1113133E0,1.7899531E0,3.0209773E0,3.3268125E0,1.4760666E0,3.029212E0,1.0821016E0,1.6134397E0,1.7133727E0],"tree_param":{"num_deleted":"0","num_feature":"75","num_nodes":"33","size_leaf_vector":"0"}},{"base_weights":[6.84123E-1,1.0713959E0,2.1462906E-2,1.6459495E0,5.7301176E-1,1.5232867E0,-3.5026506E-1,-2.1896735E-1,8.833963E-1,-7.80989E-1,7.4885243E-1,3.7773138E-1,-9.401461E-1,1.1013825E0,-2.9033172E-1,-1.0569656E0,2.3166752E-1,-9.01527E-2,1.1535408E0,-1.9141528E-1,8.5320914E-1,-3.0723602E-1,1.3409477E0,-1.1194128E-1,-1.1884853E0,8.379174E-2,1.7054045E0,-1.3140872E0,-2.3452853E-1],"categories":[],"categories_nodes":[],"categories_segments":[],"categories_sizes":[],"default_left":[1,1,1,0,1,0,1,1,1,1,1,1,0,1,0,1,0,0,0,0,0,0,1,0,1,0,0,0,0],"id":2,"left_children":[1,3,5,-1,7,-1,9,11,13,15,17,19,-1,21,-1,23,-1,-1,-1,-1,-1,-1,25,-1,27,-1,-1,-1,-1],"loss_changes":[9.6777935E0,5.8826084E0,8.887166E0,0E0,3.7083397E0,0E0,6.648162E0,2.4324706E0,2.99895E0,2.95324E0,1.501677E0,1.07125E0,0E0,3.462552E0,0E0,8.358469E-1,0E0,0E0,0E0,0E0,0E0,0E0,3.4823694E0,0E0,4.9927902E-1,0E0,0E0,0E0,0E0],"parents":[2147483647,0,0,1,1,2,2,4,4,6,6,7,7,8,8,9,9,10,10,11,11,13,13,15,15,22,22,24,24],"right_children":[2,4,6,-1,8,-1,10,12,14,16,18,20,-1,22,-1,24,-1,-1,-1,-1,-1,-1,26,-1,28,-1,-1,-1,-1],"split_conditions":[2.264881E-3,5.2891433E-2,7.673277E-4,4.9378487E-1,7.655948E-2,4.5698604E-1,3.951151E-2,9.458941E-2,1.8197161E-1,5.373057E-2,2.337905E-2,5.80411E-2,-2.8204384E-1,3.5337783E-2,-8.709952E-2,2.617645E-2,6.950026E-2,-2.7045812E-2,3.4606227E-1,-5.7424586E-2,2.5596276E-1,-9.2170805E-2,3.8399355E-4,-3.3582386E-2,8.446246E-2,2.5137523E-2,5.1162136E-1,-3.9422616E-1,-7.035856E-2],"split_indices":[16,73,57,0,73,0,3,6,73,46,2,6,0,11,0,17,0,0,0,0,0,0,1,0,74,0,0,0,0],"split_type":[0,0,0,0,0,0,0,0,0,0,0,0,0,0,0,0,0,0,0,0,0,0,0,0,0,0,0,0,0],"sum_hessian":[3.6800644E1,2.283725E1,1.3963393E1,9.538444E0,1.3298806E1,2.1558118E0,1.1807581E1,3.8273768E0,9.471429E0,8.691128E0,3.1164532E0,2.3550522E0,1.4723246E0,8.039888E0,1.4315404E0,6.7954316E0,1.8956965E0,1.2669744E0,1.8494786E0,1.3438681E0,1.0111841E0,1.1275487E0,6.9123397E0,1.0563376E0,5.739094E0,1.8299664E0,5.082373E0,4.7377853E0,1.0013083E0],"tree_param":{"num_deleted":"0","num_feature":"75","num_nodes":"29","size_leaf_vector":"0"}},{"base_weights":[5.174073E-1,8.922824E-1,1.04482286E-1,-2.619587E-2,1.0736755E0,1.0480597E0,-2.4521871E-1,-8.44323E-1,1.1854967E0,-7.4652806E-2,1.2637525E0,3.485261E-1,1.519904E0,-7.060865E-1,4.6089667E-1,5.759533E-1,-6.563769E-1,1.6257218E0,4.280102E-1,-2.5847688E-1,7.8553736E-1,-9.607886E-1,5.806836E-1,8.3199954E-1,-6.228088E-1,1.0103097E0,2.0677495E0,-3.7959293E-1,9.10418E-1,-1.240653E0,4.6838334E-1,-5.285813E-2,1.4459687E0,-6.715089E-1,6.0727644E-1],"categories":[],"categories_nodes":[],"categories_segments":[],"categories_sizes":[],"default_left":[1,1,1,1,1,1,1,0,0,1,1,1,0,1,1,0,0,1,1,0,0,1,0,1,0,0,0,0,0,0,0,1,0,0,0],"id":3,"left_children":[1,3,5,7,9,11,13,-1,-1,15,17,19,-1,21,23,-1,-1,25,27,-1,-1,29,-1,31,-1,-1,-1,-1,-1,-1,-1,33,-1,-1,-1],"loss_changes":[5.596985E0,3.2161064E0,6.4025946E0,5.097019E0,3.5873203E0,1.1951284E0,5.0112367E0,0E0,0E0,1.5955614E0,3.4746227E0,1.1056175E0,0E0,3.5428185E0,3.04842E0,0E0,0E0,4.305477E-1,2.4976013E0,0E0,0E0,3.7726212E0,0E0,2.855149E0,0E0,0E0,0E0,0E0,0E0,0E0,0E0,1.6574346E0,0E0,0E0,0E0],"parents":[2147483647,0,0,1,1,2,2,3,3,4,4,5,5,6,6,9,9,10,10,11,11,13,13,14,14,17,17,18,18,21,21,23,23,31,31],"right_children":[2,4,6,8,10,12,14,-1,-1,16,18,20,-1,22,24,-1,-1,26,28,-1,-1,30,-1,32,-1,-1,-1,-1,-1,-1,-1,34,-1,-1,-1],"split_conditions":[1.3232683E-1,3.3876978E-2,6.6463845E-3,1.568963E-1,1.0730787E-1,8.363584E-2,1.2340012E-1,-2.532969E-1,3.5564902E-1,1.0091975E-1,1.676226E-1,3.831087E-2,4.559712E-1,1.3990656E-1,1.793991E-1,1.72786E-1,-1.9691308E-1,2.9614829E-2,6.8871275E-2,-7.7543065E-2,2.3566122E-1,1.2190461E-1,1.7420508E-1,1.5992674E-1,-1.8684265E-1,3.0309293E-1,6.2032485E-1,-1.13877885E-1,2.731254E-1,-3.7219593E-1,1.4051501E-1,2.768116E-1,4.3379065E-1,-2.0145269E-1,1.8218294E-1],"split_indices":[71,12,57,3,60,14,73,0,0,0,72,3,0,7,73,0,0,73,62,0,0,2,0,12,0,0,0,0,0,0,0,0,0,0,0],"split_type":[0,0,0,0,0,0,0,0,0,0,0,0,0,0,0,0,0,0,0,0,0,0,0,0,0,0,0,0,0,0,0,0,0,0,0],"sum_hessian":[3.5759594E1,1.8134893E1,1.7624699E1,3.1319482E0,1.5002945E1,4.2257075E0,1.3398992E1,2.05059E0,1.0813582E0,2.2169218E0,1.2786023E1,2.4025097E0,1.823198E0,8.107454E0,5.2915373E0,1.0511855E0,1.1657362E0,8.262291E0,4.5237327E0,1.176668E0,1.2258416E0,6.9793096E0,1.128145E0,4.114751E0,1.1767864E0,4.827224E0,3.435067E0,1.7713792E0,2.7523532E0,5.946715E0,1.0325948E0,2.0599053E0,2.0548456E0,1.0544697E0,1.0054355E0],"tree_param":{"num_deleted":"0","num_feature":"75","num_nodes":"35","size_leaf_vector":"0"}},{"base_weights":[4.354519E-1,5.9057605E-1,-2.1227872E-1,3.7449235E-1,1.0536516E0,3.567505E-1,-5.662698E-1,-5.4178697E-1,4.9668822E-1,4.2114043E-1,1.1525335E0,-2.860894E-1,7.7901125E-1,1.9380948E-1,-8.147843E-1,5.959243E-1,-5.8208567E-1,9.4377524E-1,2.8066626E-1,1.2357048E0,-1.4680614E-1,-3.2456633E-1,5.720413E-1],"categories":[],"categories_nodes":[],"categories_segments":[],"categories_sizes":[],"default_left":[1,1,1,1,1,1,1,0,1,0,0,0,0,0,0,1,0,1,1,0,0,0,0],"id":4,"left_children":[1,3,5,7,9,11,13,-1,15,-1,-1,-1,-1,-1,-1,17,-1,19,21,-1,-1,-1,-1],"loss_changes":[3.5786667E0,2.4064188E0,1.6878E0,2.579802E0,3.7160873E-2,1.1572776E0,1.0898587E0,0E0,2.3520875E0,0E0,0E0,0E0,0E0,0E0,0E0,1.670352E0,0E0,2.7177677E0,2.0691733E0,0E0,0E0,0E0,0E0],"parents":[2147483647,0,0,1,1,2,2,3,3,4,4,5,5,6,6,8,8,15,15,17,17,18,18],"right_children":[2,4,6,8,10,12,14,-1,16,-1,-1,-1,-1,-1,-1,18,-1,20,22,-1,-1,-1,-1],"split_conditions":[1.3402943E-2,1.9015187E-1,2.9647078E-2,5.0337456E-2,7.478018E-2,7.363886E-2,2.8722081E-2,-1.625361E-1,1.812932E-1,1.2634213E-1,3.4576008E-1,-8.582682E-2,2.3370339E-1,5.8142845E-2,-2.444353E-1,6.3616276E-2,-1.7462571E-1,6.3273355E-2,4.341293E-2,3.7071145E-1,-4.4041842E-2,-9.73699E-2,1.7161238E-1],"split_indices":[61,14,17,13,2,73,13,0,73,0,0,0,0,0,0,6,0,62,62,0,0,0,0],"split_type":[0,0,0,0,0,0,0,0,0,0,0,0,0,0,0,0,0,0,0,0,0,0,0],"sum_hessian":[3.3368496E1,2.6992367E1,6.3761277E0,1.9637623E1,7.354744E0,2.4423442E0,3.9337838E0,1.9066856E0,1.7730938E1,1.70534E0,5.649404E0,1.0961194E0,1.3462248E0,1.0235113E0,2.9102726E0,1.6647161E1,1.0837765E0,6.966629E0,9.6805315E0,5.3905926E0,1.5760365E0,3.1089113E0,6.5716205E0],"tree_param":{"num_deleted":"0","num_feature":"75","num_nodes":"23","size_leaf_vector":"0"}},{"base_weights":[3.3529523E-1,-5.168806E-1,4.0591383E-1,-2.2291453E-1,5.249036E-1,2.5355956E-1,-8.1868035E-1,6.5943563E-1,-1.7745872E-1,-4.0729398E-1,7.0408016E-1,1.0999624E0,4.1807896E-1,-7.901689E-1,3.6834145E-1,1.4504443E-1,1.2441903E0,5.9368765E-1,-6.995005E-1,-2.5716224E-1,8.1244063E-1,-1.7279567E-2,8.827236E-1],"categories":[],"categories_nodes":[],"categories_segments":[],"categories_sizes":[],"default_left":[1,0,1,1,1,1,0,1,1,0,0,1,1,0,1,0,0,1,0,0,0,0,0],"id":5,"left_children":[1,-1,3,5,7,9,-1,11,13,-1,-1,15,17,-1,19,-1,-1,21,-1,-1,-1,-1,-1],"loss_changes":[2.1872342E0,0E0,2.429399E0,1.8027141E0,2.6007037E0,1.4436655E0,0E0,1.9081507E0,1.9675927E0,0E0,0E0,8.2081604E-1,3.555715E0,0E0,1.1349244E0,0E0,0E0,2.5528054E0,0E0,0E0,0E0,0E0,0E0],"parents":[2147483647,0,0,2,2,3,3,4,4,5,5,7,7,8,8,11,11,12,12,14,14,17,17],"right_children":[2,-1,4,6,8,10,-1,12,14,-1,-1,16,18,-1,20,-1,-1,22,-1,-1,-1,-1,-1],"split_conditions":[3.58829E-3,-1.5506418E-1,3.8053092E-4,1.6665623E-1,2.0791528E-1,3.1570613E-2,-2.4560411E-1,6.381896E-2,2.808475E-1,-1.22188196E-1,2.1122406E-1,5.7282865E-2,1.2881243E-1,-2.3705067E-1,6.277633E-2,4.351333E-2,3.732571E-1,4.4292286E-2,-2.0985016E-1,-7.7148676E-2,2.437322E-1,-5.1838704E-3,2.648171E-1],"split_indices":[17,0,31,10,60,2,0,66,30,0,0,13,64,0,62,0,0,32,0,0,0,0,0],"split_type":[0,0,0,0,0,0,0,0,0,0,0,0,0,0,0,0,0,0,0,0,0,0,0],"sum_hessian":[3.1858803E1,1.9544575E0,2.9904346E1,4.619286E0,2.5285059E1,2.8857527E0,1.7335336E0,2.127174E1,4.0133195E0,1.2086997E0,1.6770529E0,6.27009E0,1.500165E1,1.679831E0,2.3334885E0,1.0859293E0,5.1841607E0,1.3369616E1,1.6320348E0,1.143637E0,1.1898515E0,4.595602E0,8.7740135E0],"tree_param":{"num_deleted":"0","num_feature":"75","num_nodes":"23","size_leaf_vector":"0"}},{"base_weights":[2.5460833E-1,9.204358E-1,1.5542768E-1,1.0850616E0,3.1017894E-1,3.746766E-1,-3.5565895E-1,9.0607387E-1,5.3618066E-2,1.2908577E-3,-8.101238E-1,1.0714054E0,1.3392968E-1,1.758503E-1,-7.2303164E-1,-3.5171485E-1,6.639417E-1,-3.5673133E-1,3.9521515E-1,-7.088707E-1,2.6724288E-1,1.765262E-1,-5.8501416E-1,-6.629596E-2,5.8949107E-1],"categories":[],"categories_nodes":[],"categories_segments":[],"categories_sizes":[],"default_left":[1,1,1,0,0,1,1,1,1,1,0,0,0,1,0,1,0,1,1,0,0,0,0,0,0],"id":6,"left_children":[1,3,5,-1,-1,7,9,11,13,15,-1,-1,-1,17,-1,19,-1,21,23,-1,-1,-1,-1,-1,-1],"loss_changes":[1.8916924E0,4.4349194E-2,3.273123E0,0E0,0E0,3.3799536E0,1.4488567E0,8.1468725E-1,1.4172715E0,1.6363717E0,0E0,0E0,0E0,1.6067791E0,0E0,1.1989249E0,0E0,6.128163E-1,8.783629E-1,0E0,0E0,0E0,0E0,0E0,0E0],"parents":[2147483647,0,0,1,1,2,2,5,5,6,6,7,7,8,8,9,9,13,13,15,15,17,17,18,18],"right_children":[2,4,6,-1,-1,8,10,12,14,16,-1,-1,-1,18,-1,20,-1,22,24,-1,-1,-1,-1,-1,-1],"split_conditions":[7.441216E-4,3.9540865E-2,9.520019E-4,3.255185E-1,9.305368E-2,4.8537895E-2,3.5075147E-2,1.4454398E-1,2.1025291E-1,1.8162057E-1,-2.4303715E-1,3.2142162E-1,4.0178906E-2,3.8399355E-4,-2.169095E-1,1.4649403E-1,1.9918251E-1,1.3948682E-1,9.5671356E-2,-2.1266122E-1,8.017287E-2,5.2957863E-2,-1.7550425E-1,-1.9888788E-2,1.7684732E-1],"split_indices":[42,32,1,0,0,73,2,11,74,11,0,0,0,46,0,42,0,24,0,0,0,0,0,0,0],"split_type":[0,0,0,0,0,0,0,0,0,0,0,0,0,0,0,0,0,0,0,0,0,0,0,0,0],"sum_hessian":[2.981224E1,2.7915287E0,2.7020712E1,1.5857171E0,1.2058115E0,1.9095793E1,7.9249206E0,6.5057344E0,1.2590057E1,4.997164E0,2.927757E0,5.0391746E0,1.4665599E0,1.1546414E1,1.0436425E0,3.566472E0,1.4306916E0,3.185747E0,8.360668E0,2.1694016E0,1.3970704E0,1.0229374E0,2.1628096E0,2.6719897E0,5.6886783E0],"tree_param":{"num_deleted":"0","num_feature":"75","num_nodes":"25","size_leaf_vector":"0"}},{"base_weights":[2.0718966E-1,7.8424245E-1,1.182526E-1,9.349797E-1,2.5959313E-1,2.9246062E-1,-3.0254754E-1,7.0584905E-1,-5.2726734E-2,9.603105E-3,-7.1310395E-1,-6.273065E-2,8.8592744E-1,1.5969689E-1,-7.644018E-1,-2.995479E-1,5.7646126E-1,9.730708E-1,1.7725863E-1,3.2868057E-1,-4.6022815E-1,-6.255234E-1,2.2116299E-1,1.0519248E0,3.0452955E-1,5.641583E-1,-3.1679726E-1],"categories":[],"categories_nodes":[],"categories_segments":[],"categories_sizes":[],"default_left":[1,1,1,0,0,1,1,1,1,1,0,0,1,1,0,1,0,1,0,1,0,0,0,0,0,0,0],"id":7,"left_children":[1,3,5,-1,-1,7,9,11,13,15,-1,-1,17,19,-1,21,-1,23,-1,25,-1,-1,-1,-1,-1,-1,-1],"loss_changes":[1.386457E0,4.763484E-2,2.005515E0,0E0,0E0,2.7488487E0,1.051062E0,1.2620006E0,1.828271E0,1.1567569E0,0E0,0E0,2.6771975E-1,1.1484476E0,0E0,8.668228E-1,0E0,2.5429726E-3,0E0,1.4043223E0,0E0,0E0,0E0,0E0,0E0,0E0,0E0],"parents":[2147483647,0,0,1,1,2,2,5,5,6,6,7,7,8,8,9,9,12,12,13,13,15,15,17,17,19,19],"right_children":[2,4,6,-1,-1,8,10,12,14,16,-1,-1,18,20,-1,22,-1,24,-1,26,-1,-1,-1,-1,-1,-1,-1],"split_conditions":[7.441216E-4,3.9540865E-2,9.520019E-4,2.8049392E-1,7.787794E-2,6.309505E-2,3.5075147E-2,1.4424953E-1,1.2519166E-1,1.8162057E-1,-2.1393119E-1,-1.8819194E-2,9.9334374E-2,1.7222205E-1,-2.2932054E-1,1.4649403E-1,1.7293838E-1,1.7332911E-1,5.317759E-2,1.8567103E-1,-1.3806845E-1,-1.8765703E-1,6.63489E-2,3.1557745E-1,9.135887E-2,1.6924751E-1,-9.503918E-2],"split_indices":[42,32,1,0,0,73,2,9,67,11,0,0,6,74,0,42,0,42,0,10,0,0,0,0,0,0,0],"split_type":[0,0,0,0,0,0,0,0,0,0,0,0,0,0,0,0,0,0,0,0,0,0,0,0,0,0,0],"sum_hessian":[2.7822212E1,2.6713932E0,2.515082E1,1.4676249E0,1.2037683E0,1.8002792E1,7.1480274E0,7.7166634E0,1.0286128E1,4.6154547E0,2.5325727E0,1.588509E0,6.1281548E0,8.518959E0,1.767169E0,3.2917676E0,1.3236873E0,5.124865E0,1.0032893E0,7.0633783E0,1.4555811E0,1.900641E0,1.3911266E0,4.071206E0,1.0536591E0,5.267659E0,1.7957191E0],"tree_param":{"num_deleted":"0","num_feature":"75","num_nodes":"27","size_leaf_vector":"0"}},{"base_weights":[1.6968521E-1,7.021864E-1,8.362392E-2,8.7078416E-1,1.5110327E-1,2.3025039E-1,-4.0011588E-1,5.6939566E-1,-6.228827E-3,-8.584594E-1,4.7681186E-1,-1.2057864E-1,7.9280984E-1,-6.401649E-1,1.6400859E-1,8.949858E-1,1.4646696E-1,-3.819284E-2,6.0614914E-1,-6.3125736E-1,2.756245E-1,7.6044005E-1,1.424293E-1],"categories":[],"categories_nodes":[],"categories_segments":[],"categories_sizes":[],"default_left":[1,1,1,0,0,1,1,1,1,0,0,0,1,0,1,0,0,1,1,0,0,0,0],"id":8,"left_children":[1,3,5,-1,-1,7,9,11,13,-1,-1,-1,15,-1,17,-1,-1,19,21,-1,-1,-1,-1],"loss_changes":[1.1797681E0,2.0520782E-1,1.8227992E0,0E0,0E0,1.5561706E0,2.8373442E0,1.3232484E0,1.4426779E0,0E0,0E0,0E0,2.749343E-1,0E0,9.6788085E-1,0E0,0E0,1.6986132E0,1.3319337E-1,0E0,0E0,0E0,0E0],"parents":[2147483647,0,0,1,1,2,2,5,5,6,6,7,7,8,8,12,12,14,14,17,17,18,18],"right_children":[2,4,6,-1,-1,8,10,12,14,-1,-1,-1,16,-1,18,-1,-1,20,22,-1,-1,-1,-1],"split_conditions":[7.9296867E-4,3.6076605E-2,1.4986533E-1,2.6123527E-1,4.5330983E-2,6.410865E-2,1.4181077E-1,6.770885E-2,8.675956E-2,-2.5753784E-1,1.4304356E-1,-3.6173593E-2,9.9334374E-2,-1.9204949E-1,7.6412165E-4,2.6849574E-1,4.394009E-2,9.281546E-2,1.6078556E-1,-1.8937722E-1,8.2687356E-2,2.2813202E-1,4.2728793E-2],"split_indices":[57,6,68,0,0,73,5,5,28,0,0,0,6,0,1,0,0,66,73,0,0,0,0],"split_type":[0,0,0,0,0,0,0,0,0,0,0,0,0,0,0,0,0,0,0,0,0,0,0],"sum_hessian":[2.6024855E1,2.6248078E0,2.3400047E1,1.5656747E0,1.059133E0,1.8359205E1,5.040842E0,6.964009E0,1.1395197E1,3.3243601E0,1.7164819E0,1.8159785E0,5.1480303E0,1.8279155E0,9.567281E0,4.113123E0,1.0349076E0,7.1918807E0,2.3754003E0,2.1386435E0,5.0532374E0,1.3022428E0,1.0731575E0],"tree_param":{"num_deleted":"0","num_feature":"75","num_nodes":"23","size_leaf_vector":"0"}},{"base_weights":[1.461352E-1,5.724539E-1,6.1618604E-2,8.1340533E-1,6.147596E-2,-4.530976E-1,1.8423416E-1,-8.1236964E-1,1.8141776E-1,9.378556E-1,1.5433269E-2,2.797206E-1,-6.793093E-1,6.916945E-1,-4.901181E-2,-8.719532E-1,8.796179E-3,8.736557E-1,1.2733209E-1,-6.233899E-1,3.004123E-1],"categories":[],"categories_nodes":[],"categories_segments":[],"categories_sizes":[],"default_left":[1,1,1,0,0,1,1,0,0,0,1,1,1,1,1,0,0,0,0,0,0],"id":9,"left_children":[1,3,5,-1,-1,7,9,-1,-1,-1,11,13,15,17,19,-1,-1,-1,-1,-1,-1],"loss_changes":[8.7070966E-1,4.4734037E-1,1.4785756E0,0E0,0E0,1.1827526E0,2.34699E0,0E0,0E0,0E0,3.1613917E0,1.7175033E0,6.375029E-1,4.6212983E-1,1.7624146E0,0E0,0E0,0E0,0E0,0E0,0E0],"parents":[2147483647,0,0,1,1,2,2,5,5,6,6,10,10,11,11,12,12,13,13,14,14],"right_children":[2,4,6,-1,-1,8,10,-1,-1,-1,12,14,16,18,20,-1,-1,-1,-1,-1,-1],"split_conditions":[1.7528976E-3,1.06818125E-1,3.3876978E-2,2.4402161E-1,1.844279E-2,1.6696805E-1,6.8687975E-2,-2.437109E-1,5.4425333E-2,2.813567E-1,9.712466E-2,1.2516062E-1,1.0440433E-1,1.5020329E-1,1.6852468E-1,-2.6158598E-1,2.6388536E-3,2.620967E-1,3.819963E-2,-1.8701698E-1,9.012369E-2],"split_indices":[27,60,12,0,0,11,27,0,0,0,6,11,64,38,27,0,0,0,0,0,0],"split_type":[0,0,0,0,0,0,0,0,0,0,0,0,0,0,0,0,0,0,0,0,0],"sum_hessian":[2.4144552E1,3.039488E0,2.1105064E1,1.6632998E0,1.3761882E0,3.5418396E0,1.7563225E1,2.082435E0,1.4594048E0,2.3802905E0,1.5182934E1,1.1431606E1,3.7513273E0,4.5834327E0,6.8481736E0,2.7220697E0,1.0292577E0,3.0515232E0,1.5319092E0,2.2937284E0,4.5544453E0],"tree_param":{"num_deleted":"0","num_feature":"75","num_nodes":"21","size_leaf_vector":"0"}},{"base_weights":[1.2501834E-1,5.7987607E-1,4.7296625E-2,6.892057E-1,1.9096035E-1,4.9631348E-1,-5.3829845E-2,-8.154772E-3,6.9931495E-1,5.49852E-2,-4.8036185E-1,3.0543733E-1,-1.7209095E-1,-7.265488E-1,5.5808082E-2,5.327074E-2,7.9598904E-1,3.9812773E-1,-4.022075E-1,-5.9100395E-1,4.6126533E-1,-5.5222744E-1,5.6707907E-2],"categories":[],"categories_nodes":[],"categories_segments":[],"categories_sizes":[],"default_left":[1,1,1,0,0,1,1,0,0,1,1,1,1,0,0,1,0,0,1,0,0,0,0],"id":10,"left_children":[1,3,5,-1,-1,7,9,-1,-1,11,13,15,17,-1,-1,19,-1,-1,21,-1,-1,-1,-1],"loss_changes":[7.91037E-1,8.271933E-3,9.739984E-1,0E0,0E0,4.084347E-1,8.5856104E-1,0E0,0E0,9.159986E-1,5.351448E-1,8.9523154E-1,1.2888961E0,0E0,0E0,1.8702979E0,0E0,0E0,4.8751807E-1,0E0,0E0,0E0,0E0],"parents":[2147483647,0,0,1,1,2,2,5,5,6,6,9,9,10,10,11,11,12,12,15,15,18,18],"right_children":[2,4,6,-1,-1,8,10,-1,-1,12,14,16,18,-1,-1,20,-1,-1,22,-1,-1,-1,-1],"split_conditions":[7.9296867E-4,2.0017713E-2,3.4897074E-2,2.0676172E-1,5.7288107E-2,1.5843466E-1,1.4986533E-1,-2.4464317E-3,2.0979449E-1,1.1223681E-1,3.1663854E-2,7.6412165E-4,2.892161E-2,-2.1796465E-1,1.6742425E-2,9.5671356E-2,2.3879673E-1,1.1943833E-1,7.910567E-3,-1.773012E-1,1.383796E-1,-1.6566823E-1,1.7012373E-2],"split_indices":[57,6,41,0,0,12,68,0,0,60,16,46,13,0,0,0,0,0,1,0,0,0,0],"split_type":[0,0,0,0,0,0,0,0,0,0,0,0,0,0,0,0,0,0,0,0,0,0,0],"sum_hessian":[2.215161E1,2.2898118E0,1.98618E1,1.1846652E0,1.1051466E0,2.9326293E0,1.6929169E1,1.1169025E0,1.8157269E0,1.4182163E1,2.747006E0,6.579861E0,7.602302E0,1.6392558E0,1.10775E0,5.078082E0,1.5017791E0,1.9759275E0,5.6263747E0,1.7949973E0,3.2830846E0,4.086999E0,1.5393758E0],"tree_param":{"num_deleted":"0","num_feature":"75","num_nodes":"23","size_leaf_vector":"0"}},{"base_weights":[1.1273594E-1,-3.872072E-1,1.6359453E-1,4.6925375E-1,2.4077822E-2,6.231345E-1,-5.6920085E-2,-1.7705762E-1,3.1191435E-1,1.3606003E-1,8.241523E-1,4.0776274E-1,-3.4183893E-1,5.247166E-1,-3.3405468E-1,-5.601487E-1,3.1625605E-1,6.945061E-1,1.1959414E-1,-6.983079E-1,8.0939114E-2],"categories":[],"categories_nodes":[],"categories_segments":[],"categories_sizes":[],"default_left":[1,0,1,1,1,1,0,1,1,0,0,0,1,1,0,1,0,0,0,0,0],"id":11,"left_children":[1,-1,3,5,7,9,-1,11,13,-1,-1,-1,15,17,-1,19,-1,-1,-1,-1,-1],"loss_changes":[6.1862683E-1,0E0,8.6399305E-1,5.519209E-1,9.3213797E-1,3.7926626E-1,0E0,1.0600998E0,1.0815328E0,0E0,0E0,0E0,1.3261961E0,2.848053E-1,0E0,6.2041485E-1,0E0,0E0,0E0,0E0,0E0],"parents":[2147483647,0,0,2,2,3,3,4,4,5,5,7,7,8,8,12,12,13,13,15,15],"right_children":[2,-1,4,6,8,10,-1,12,14,-1,-1,-1,16,18,-1,20,-1,-1,-1,-1,-1],"split_conditions":[3.58829E-3,-1.16162166E-1,2.960489E-2,1.8538798E-1,6.691328E-2,9.864397E-2,-1.7076027E-2,5.093064E-3,2.563191E-3,4.081801E-2,2.472457E-1,1.22328825E-1,1.3990656E-1,1.2075849E-1,-1.0021641E-1,6.773123E-2,9.487682E-2,2.0835184E-1,3.5878245E-2,-2.0949237E-1,2.4281735E-2],"split_indices":[17,0,17,10,47,15,0,12,1,0,0,0,7,26,0,62,0,0,0,0,0],"split_type":[0,0,0,0,0,0,0,0,0,0,0,0,0,0,0,0,0,0,0,0,0],"sum_hessian":[2.0838785E1,1.3135082E0,1.9525276E1,5.37847E0,1.4146807E1,4.018868E0,1.3596022E0,8.554165E0,5.5926423E0,1.6639363E0,2.3549316E0,1.5562733E0,6.9978914E0,4.3479867E0,1.2446556E0,5.366497E0,1.6313943E0,2.5605373E0,1.7874494E0,4.341596E0,1.0249009E0],"tree_param":{"num_deleted":"0","num_feature":"75","num_nodes":"21","size_leaf_vector":"0"}},{"base_weights":[1.0102224E-1,4.900336E-1,3.244506E-2,-3.8958633E-1,1.5198755E-1,-6.859822E-1,2.6049545E-1,7.896699E-1,6.580147E-3,1.6938679E-1,-7.0543355E-1,-2.625299E-1,3.327351E-1,1.6360418E-1,-6.370603E-1,4.885178E-1,-1.6669267E-1],"categories":[],"categories_nodes":[],"categories_segments":[],"categories_sizes":[],"default_left":[1,0,1,1,1,0,0,0,1,1,0,1,1,0,0,0,0],"id":12,"left_children":[1,-1,3,5,7,-1,-1,-1,9,11,-1,13,15,-1,-1,-1,-1],"loss_changes":[5.3079945E-1,0E0,9.921822E-1,1.0192815E0,1.397727E0,0E0,0E0,0E0,1.66461E0,9.096397E-1,0E0,7.0387936E-1,7.736915E-1,0E0,0E0,0E0,0E0],"parents":[2147483647,0,0,2,2,3,3,4,4,8,8,9,9,11,11,12,12],"right_children":[2,-1,4,6,8,-1,-1,-1,10,12,-1,14,16,-1,-1,-1,-1],"split_conditions":[7.9296867E-4,1.4701009E-1,3.3876978E-2,1.03747144E-1,6.8687975E-2,-2.0579468E-1,7.814864E-2,2.3690097E-1,9.9273704E-2,1.5964577E-1,-2.1163008E-1,1.2992555E-1,2.1919009E-1,4.908126E-2,-1.9111809E-1,1.4655535E-1,-5.0007805E-2],"split_indices":[57,0,12,6,27,0,0,0,6,12,0,11,72,0,0,0,0],"split_type":[0,0,0,0,0,0,0,0,0,0,0,0,0,0,0,0,0],"sum_hessian":[1.9493023E1,2.000313E0,1.749271E1,3.3625667E0,1.4130143E1,2.2716255E0,1.0909411E0,1.801026E0,1.2329118E1,1.0654904E1,1.6742127E0,2.757224E0,7.8976808E0,1.553198E0,1.2040261E0,6.036581E0,1.8610997E0],"tree_param":{"num_deleted":"0","num_feature":"75","num_nodes":"17","size_leaf_vector":"0"}},{"base_weights":[7.42035E-2,3.753239E-1,-5.870033E-3,-5.9160344E-2,5.9452844E-1,-5.183537E-1,9.962412E-2,-1.6863428E-2,4.2655754E-1,-5.061036E-1,2.1857241E-1,7.047067E-1,-1.1159361E-1,-6.605516E-1,-3.0586472E-2,4.3355492E-1,-2.704924E-1,-2.1403383E-1,6.245454E-1,-4.8485005E-1,8.781846E-2],"categories":[],"categories_nodes":[],"categories_segments":[],"categories_sizes":[],"default_left":[1,1,1,0,0,0,1,1,1,1,1,0,0,0,0,1,1,0,0,0,0],"id":13,"left_children":[1,3,5,-1,-1,-1,7,9,11,13,15,-1,-1,-1,-1,17,19,-1,-1,-1,-1],"loss_changes":[4.6554247E-1,4.2108613E-1,9.2554957E-1,0E0,0E0,0E0,5.4964685E-1,1.4310796E0,6.4443797E-1,2.7547908E-1,1.0044278E0,0E0,0E0,0E0,0E0,9.061377E-1,2.8776938E-1,0E0,0E0,0E0,0E0],"parents":[2147483647,0,0,1,1,2,2,6,6,7,7,8,8,9,9,10,10,15,15,16,16],"right_children":[2,4,6,-1,-1,-1,8,10,12,14,16,-1,-1,-1,-1,18,20,-1,-1,-1,-1],"split_conditions":[9.74458E-2,7.572739E-4,3.3404533E-2,-1.7748104E-2,1.7835854E-1,-1.5550612E-1,3.8641177E-2,4.1624207E-2,2.9832048E-2,4.5062373E-3,2.2166201E-3,2.1141203E-1,-3.3478085E-2,-1.9816549E-1,-9.175942E-3,3.3876978E-2,1.8703975E-2,-6.4210154E-2,1.8736362E-1,-1.4545502E-1,2.6345538E-2],"split_indices":[60,16,62,0,0,0,3,2,17,61,16,0,0,0,0,12,16,0,0,0,0],"split_type":[0,0,0,0,0,0,0,0,0,0,0,0,0,0,0,0,0,0,0,0,0],"sum_hessian":[1.8216309E1,3.0519736E0,1.5164334E1,1.268265E0,1.7837085E0,1.9206014E0,1.3243733E1,1.0463846E1,2.7798865E0,3.0260375E0,7.437809E0,1.6286205E0,1.1512661E0,1.9904245E0,1.0356131E0,5.2455006E0,2.1923084E0,1.1672093E0,4.0782914E0,1.1507334E0,1.0415751E0],"tree_param":{"num_deleted":"0","num_feature":"75","num_nodes":"21","size_leaf_vector":"0"}},{"base_weights":[5.535084E-2,-2.3648953E-2,3.6651108E-1,1.2584214E-1,-5.6824195E-1,6.7171085E-1,-2.0066148E-1,1.948108E-1,-2.6034287E-1,3.4395862E-1,-6.1271146E-2,4.8212406E-1,-1.0458622E-1,3.6438903E-1,-3.5627687E-1,-2.103415E-2,6.184434E-1,-6.328753E-1,1.0134409E-1],"categories":[],"categories_nodes":[],"categories_segments":[],"categories_sizes":[],"default_left":[1,1,1,1,0,0,0,1,0,1,1,1,0,0,1,0,0,0,0],"id":14,"left_children":[1,3,5,7,-1,-1,-1,9,-1,11,13,15,-1,-1,17,-1,-1,-1,-1],"loss_changes":[4.5196685E-1,1.3188746E0,7.77355E-1,3.9271757E-1,0E0,0E0,0E0,4.5903513E-1,0E0,5.0887203E-1,7.6637495E-1,4.13144E-1,0E0,0E0,5.0712657E-1,0E0,0E0,0E0,0E0],"parents":[2147483647,0,0,1,1,2,2,3,3,7,7,9,9,10,10,11,11,14,14],"right_children":[2,4,6,8,-1,-1,-1,10,-1,12,14,16,-1,-1,18,-1,-1,-1,-1],"split_conditions":[1.4128724E-1,1.4986533E-1,1.4846224E-1,2.1268049E-1,-1.7047259E-1,2.0151326E-1,-6.0198445E-2,9.3795456E-2,-7.8102864E-2,2.1347283E-1,7.549728E-2,4.0972568E-4,-3.1375866E-2,1.09316714E-1,1.15125686E-1,-6.310245E-3,1.8553303E-1,-1.8986261E-1,3.0403228E-2],"split_indices":[5,68,5,74,0,0,0,6,0,72,42,31,0,0,30,0,0,0,0],"split_type":[0,0,0,0,0,0,0,0,0,0,0,0,0,0,0,0,0,0,0],"sum_hessian":[1.7033787E1,1.4321684E1,2.7121031E0,1.1840409E1,2.4812748E0,1.6434408E0,1.0686624E0,1.0466713E1,1.3736963E0,6.397505E0,4.0692077E0,4.833712E0,1.5637927E0,1.5694599E0,2.4997475E0,1.2106973E0,3.623015E0,1.3193368E0,1.1804109E0],"tree_param":{"num_deleted":"0","num_feature":"75","num_nodes":"19","size_leaf_vector":"0"}},{"base_weights":[4.085114E-2,3.2985914E-1,-3.924958E-2,-1.0947226E-1,5.3185624E-1,-4.6131486E-1,5.4199275E-2,-2.2508138E-1,1.4744732E-1,-5.490422E-1,2.8934693E-1,-1.5955715E-2,4.6900547E-1,-2.1815851E-1,3.6616945E-1,6.2689584E-1,5.3524174E-2,-4.983468E-1,5.435126E-2,5.4188454E-1,7.977507E-3],"categories":[],"categories_nodes":[],"categories_segments":[],"categories_sizes":[],"default_left":[1,1,1,0,0,0,1,1,1,0,0,1,1,1,1,0,0,0,0,0,0],"id":15,"left_children":[1,3,5,-1,-1,-1,7,9,11,-1,-1,13,15,17,19,-1,-1,-1,-1,-1,-1],"loss_changes":[4.0731207E-1,3.9573428E-1,5.863423E-1,0E0,0E0,0E0,3.5994503E-1,7.4823606E-1,5.3347886E-1,0E0,0E0,6.674781E-1,1.8987429E-1,4.5465565E-1,1.8480626E-1,0E0,0E0,0E0,0E0,0E0,0E0],"parents":[2147483647,0,0,1,1,2,2,6,6,7,7,8,8,11,11,12,12,13,13,14,14],"right_children":[2,4,6,-1,-1,-1,8,10,12,-1,-1,14,16,18,20,-1,-1,-1,-1,-1,-1],"split_conditions":[9.74458E-2,3.6207372E-3,3.3404533E-2,-3.284168E-2,1.5955688E-1,-1.3839446E-1,6.0674496E-2,1.9972633E-1,1.6135941E-1,-1.6471267E-1,8.6804084E-2,3.8960457E-2,1.0167354E-1,4.339675E-2,5.339209E-2,1.8806876E-1,1.6057253E-2,-1.4950405E-1,1.6305378E-2,1.6256537E-1,2.3932522E-3],"split_indices":[60,62,62,0,0,0,65,11,74,0,0,3,4,2,62,0,0,0,0,0,0],"split_type":[0,0,0,0,0,0,0,0,0,0,0,0,0,0,0,0,0,0,0,0,0],"sum_hessian":[1.6035402E1,2.8032088E0,1.3232193E1,1.0271878E0,1.7760209E0,1.6850502E0,1.1547143E1,2.5364895E0,9.0106535E0,1.5150818E0,1.0214077E0,6.6047583E0,2.405895E0,4.599833E0,2.0049253E0,1.3746578E0,1.0312371E0,1.8593558E0,2.7404768E0,1.0010273E0,1.003898E0],"tree_param":{"num_deleted":"0","num_feature":"75","num_nodes":"21","size_leaf_vector":"0"}},{"base_weights":[3.9556034E-2,-3.621039E-2,3.3512554E-1,8.63106E-2,-4.823577E-1,5.8098614E-1,-1.0699623E-1,1.955218E-1,-1.5112267E-1,-5.746376E-1,-1.4751312E-1,-1.7714733E-1,2.9816675E-1,-3.8711712E-1,2.7576947E-1,5.073815E-1,-2.3544919E-2,1.2943231E-2,-5.9310776E-1,5.6792283E-1,1.5692751E-1,-4.3314546E-1,3.8374242E-1],"categories":[],"categories_nodes":[],"categories_segments":[],"categories_sizes":[],"default_left":[1,1,1,1,1,0,0,1,1,0,0,0,1,1,0,1,1,0,0,0,0,0,0],"id":16,"left_children":[1,3,5,7,9,-1,-1,11,13,-1,-1,-1,15,17,-1,19,21,-1,-1,-1,-1,-1,-1],"loss_changes":[3.736689E-1,7.933801E-1,4.3082103E-1,3.3131903E-1,1.1478841E-2,0E0,0E0,3.7441698E-1,5.329578E-1,0E0,0E0,0E0,4.806947E-1,2.6647627E-1,0E0,1.3538599E-3,7.834689E-1,0E0,0E0,0E0,0E0,0E0,0E0],"parents":[2147483647,0,0,1,1,2,2,3,3,4,4,7,7,8,8,12,12,13,13,15,15,16,16],"right_children":[2,4,6,8,10,-1,-1,12,14,-1,-1,-1,16,18,-1,20,22,-1,-1,-1,-1,-1,-1],"split_conditions":[1.4128724E-1,1.4986533E-1,1.448013E-1,1.4124604E-1,3.985585E-2,1.7429584E-1,-3.209887E-2,3.8399355E-4,2.8390968E-1,-1.7239128E-1,-4.4253938E-2,-5.31442E-2,1.7884544E-1,8.0691185E-4,8.2730845E-2,1.667063E-1,2.0718181E-1,3.8829693E-3,-1.7793234E-1,1.7037685E-1,4.7078256E-2,-1.2994364E-1,1.1512273E-1],"split_indices":[5,68,5,45,17,0,0,16,30,0,0,0,12,1,0,13,12,0,0,0,0,0,0],"split_type":[0,0,0,0,0,0,0,0,0,0,0,0,0,0,0,0,0,0,0,0,0,0,0],"sum_hessian":[1.5144054E1,1.2752549E1,2.391505E0,1.0637752E1,2.1147976E0,1.3350228E0,1.0564822E0,7.407208E0,3.2305439E0,1.0964847E0,1.0183128E0,1.4428566E0,5.9643517E0,2.1404397E0,1.0901041E0,3.2643538E0,2.6999977E0,1.0460471E0,1.0943927E0,2.254373E0,1.0099807E0,1.3145216E0,1.3854761E0],"tree_param":{"num_deleted":"0","num_feature":"75","num_nodes":"23","size_leaf_vector":"0"}},{"base_weights":[2.7973987E-2,-4.05357E-2,2.9473025E-1,-1.3656126E-1,2.9176322E-1,4.0855017E-1,4.926708E-2,1.4394726E-1,-3.2459497E-1,5.1580936E-1,-9.070663E-2,-1.7957076E-1,6.270687E-1,-6.201469E-1,2.6954702E-1,-6.2492394E-1,2.9283258E-1,-8.0707806E-1,3.926755E-2],"categories":[],"categories_nodes":[],"categories_segments":[],"categories_sizes":[],"default_left":[1,1,1,1,1,0,0,1,1,0,0,1,0,1,0,0,0,0,0],"id":17,"left_children":[1,3,5,7,9,-1,-1,11,13,-1,-1,15,-1,17,-1,-1,-1,-1,-1],"loss_changes":[2.9251906E-1,4.576739E-1,7.089847E-2,6.1847687E-1,3.2566282E-1,0E0,0E0,9.0081894E-1,1.3606939E0,0E0,0E0,9.820039E-1,0E0,6.285386E-1,0E0,0E0,0E0,0E0,0E0],"parents":[2147483647,0,0,1,1,2,2,3,3,4,4,7,7,8,8,11,11,13,13],"right_children":[2,4,6,8,10,-1,-1,12,14,-1,-1,16,-1,18,-1,-1,-1,-1,-1],"split_conditions":[2.0718181E-1,1.4128724E-1,2.9339278E-1,7.147584E-2,1.448013E-1,1.2256505E-1,1.4780125E-2,3.3876978E-2,4.164334E-2,1.547428E-1,-2.721199E-2,1.6696805E-1,1.8812062E-1,1.8826772E-1,8.086411E-2,-1.8747719E-1,8.784978E-2,-2.4212343E-1,1.1780266E-2],"split_indices":[12,5,12,27,5,0,0,12,3,0,0,11,0,10,0,0,0,0,0],"split_type":[0,0,0,0,0,0,0,0,0,0,0,0,0,0,0,0,0,0,0],"sum_hessian":[1.435245E1,1.2094358E1,2.258092E0,9.839923E0,2.2544353E0,1.088811E0,1.1692809E0,4.0430155E0,5.796907E0,1.2018051E0,1.0526302E0,2.797803E0,1.2452129E0,3.8419743E0,1.9549328E0,1.2739444E0,1.5238584E0,2.8189306E0,1.0230436E0],"tree_param":{"num_deleted":"0","num_feature":"75","num_nodes":"19","size_leaf_vector":"0"}},{"base_weights":[3.1893633E-2,1.6056852E-1,-9.795843E-2,5.176874E-1,-7.4481457E-3,2.0666581E-1,-3.5162583E-1,-1.9950931E-1,3.32807E-1,5.329291E-1,-9.87016E-2,-5.754396E-1,2.2052139E-1,-4.7407034E-1,5.5465538E-2,3.5463798E-1,-2.663143E-1],"categories":[],"categories_nodes":[],"categories_segments":[],"categories_sizes":[],"default_left":[1,1,1,0,1,1,1,1,0,0,0,0,0,0,1,0,0],"id":18,"left_children":[1,3,5,-1,7,9,11,13,-1,-1,-1,-1,-1,-1,15,-1,-1],"loss_changes":[2.535028E-1,4.554648E-1,6.679789E-1,0E0,4.6531096E-1,4.640959E-1,7.125839E-1,3.4321517E-1,0E0,0E0,0E0,0E0,0E0,0E0,4.065928E-1,0E0,0E0],"parents":[2147483647,0,0,1,1,2,2,4,4,5,5,6,6,7,7,14,14],"right_children":[2,4,6,-1,8,10,12,14,-1,-1,-1,-1,-1,-1,16,-1,-1],"split_conditions":[1.1332999E-1,1.0327909E-2,1.2075849E-1,1.5530622E-1,7.572739E-4,4.919288E-2,4.3883167E-2,9.5671356E-2,9.984211E-2,1.5987875E-1,-2.9610483E-2,-1.7263187E-1,6.615642E-2,-1.4222111E-1,1.4607802E-1,1.063914E-1,-7.989429E-2],"split_indices":[60,12,71,0,61,73,46,0,0,0,0,0,0,0,68,0,0],"split_type":[0,0,0,0,0,0,0,0,0,0,0,0,0,0,0,0,0],"sum_hessian":[1.3230535E1,6.526576E0,6.703959E0,1.422305E0,5.104271E0,3.1302233E0,3.573736E0,3.5270388E0,1.577232E0,1.1530575E0,1.9771658E0,2.564712E0,1.0090238E0,1.2845412E0,2.2424974E0,1.109155E0,1.1333425E0],"tree_param":{"num_deleted":"0","num_feature":"75","num_nodes":"17","size_leaf_vector":"0"}},{"base_weights":[3.531399E-2,-3.7868872E-2,2.9132178E-1,4.643562E-2,-3.957171E-1,3.890188E-1,5.4212272E-2,-6.657168E-2,2.6271382E-1,-1.8925492E-1,2.9455912E-1,-7.09664E-2,4.2232838E-1,-3.800938E-1,1.9359484E-1,-6.0535985E-1,9.8205954E-2],"categories":[],"categories_nodes":[],"categories_segments":[],"categories_sizes":[],"default_left":[1,1,1,1,0,0,0,1,1,1,0,0,0,1,0,0,0],"id":19,"left_children":[1,3,5,7,-1,-1,-1,9,11,13,-1,-1,-1,15,-1,-1,-1],"loss_changes":[2.636106E-1,3.6136594E-1,5.1001877E-2,2.6425776E-1,0E0,0E0,0E0,3.8490015E-1,2.2528586E-1,5.2322984E-1,0E0,0E0,0E0,5.383189E-1,0E0,0E0,0E0],"parents":[2147483647,0,0,1,1,2,2,3,3,7,7,8,8,9,9,13,13],"right_children":[2,4,6,8,-1,-1,-1,10,12,14,-1,-1,-1,16,-1,-1,-1],"split_conditions":[2.0718181E-1,1.7907025E-1,2.9339278E-1,3.9359573E-2,-1.1871514E-1,1.1670565E-1,1.6263682E-2,1.6960867E-1,2.8435227E-2,8.363584E-2,8.836774E-2,-2.128992E-2,1.2669852E-1,1.4181077E-1,5.8078457E-2,-1.8160796E-1,2.9461788E-2],"split_indices":[12,12,12,3,0,0,0,73,47,74,0,0,0,5,0,0,0],"split_type":[0,0,0,0,0,0,0,0,0,0,0,0,0,0,0,0,0],"sum_hessian":[1.2481368E1,1.0369268E1,2.1120992E0,9.096489E0,1.2727803E0,1.0420631E0,1.070036E0,6.4293103E0,2.6671782E0,5.1542487E0,1.2750617E0,1.0427204E0,1.6244576E0,3.4444797E0,1.709769E0,2.1610398E0,1.2834398E0],"tree_param":{"num_deleted":"0","num_feature":"75","num_nodes":"17","size_leaf_vector":"0"}},{"base_weights":[3.3219904E-2,8.588251E-2,-2.8585798E-1,-1.8247277E-1,1.5314513E-1,-1.4514124E-1,2.3969531E-1,3.7032792E-1,-1.5519673E-1,5.9082806E-1,1.230906E-1,-2.133359E-1,5.235171E-1],"categories":[],"categories_nodes":[],"categories_segments":[],"categories_sizes":[],"default_left":[1,1,0,0,1,0,1,1,0,0,1,0,0],"id":20,"left_children":[1,3,-1,-1,5,-1,7,9,-1,-1,11,-1,-1],"loss_changes":[2.4212459E-1,2.4243362E-1,0E0,0E0,2.9412007E-1,0E0,4.7857115E-1,2.7777004E-1,0E0,0E0,6.901504E-1,0E0,0E0],"parents":[2147483647,0,0,1,1,4,4,6,6,7,7,10,10],"right_children":[2,4,-1,-1,6,-1,8,10,-1,-1,12,-1,-1],"split_conditions":[2.1268049E-1,3.8007906E-4,-8.57574E-2,-5.4741833E-2,5.0337456E-2,-4.3542374E-2,1.8567103E-1,6.971191E-2,-4.655902E-2,1.7724842E-1,1.2865385E-1,-6.400077E-2,1.5705512E-1],"split_indices":[74,1,0,0,13,0,70,27,0,0,4,0,0],"split_type":[0,0,0,0,0,0,0,0,0,0,0,0,0],"sum_hessian":[1.1948181E1,1.0882849E1,1.0653319E0,1.837801E0,9.045048E0,1.8819922E0,7.163056E0,5.429237E0,1.7338188E0,2.1352134E0,3.2940235E0,2.0439692E0,1.2500542E0],"tree_param":{"num_deleted":"0","num_feature":"75","num_nodes":"13","size_leaf_vector":"0"}},{"base_weights":[2.922144E-2,-4.9837586E-2,2.884969E-1,1.9000292E-1,-1.8793938E-1,3.5060152E-2,3.9626408E-1,4.0836817E-1,-1.7396207E-1,1.3131438E-2,-6.1869407E-1,2.959559E-1,-3.3409613E-1,5.065282E-1,-7.6204985E-2,-5.676001E-1,7.322295E-2],"categories":[],"categories_nodes":[],"categories_segments":[],"categories_sizes":[],"default_left":[1,1,1,1,1,0,0,0,0,1,0,1,1,0,0,0,0],"id":21,"left_children":[1,3,5,7,9,-1,-1,-1,-1,11,-1,13,15,-1,-1,-1,-1],"loss_changes":[2.705299E-1,3.8114408E-1,6.988287E-2,4.1343588E-1,6.2488586E-1,0E0,0E0,0E0,0E0,6.7180395E-1,0E0,3.3211854E-1,3.3531684E-1,0E0,0E0,0E0,0E0],"parents":[2147483647,0,0,1,1,2,2,3,3,4,4,9,9,11,11,12,12],"right_children":[2,4,6,8,10,-1,-1,-1,-1,12,-1,14,16,-1,-1,-1,-1],"split_conditions":[2.0718181E-1,6.290296E-2,1.0532609E-1,6.414574E-4,1.6227858E-1,1.0518046E-2,1.1887923E-1,1.22510456E-1,-5.2188624E-2,6.971191E-2,-1.8560822E-1,5.1739287E-2,1.464706E-1,1.5195847E-1,-2.2861496E-2,-1.7028002E-1,2.1966886E-2],"split_indices":[12,73,43,1,69,0,0,0,0,27,0,62,9,0,0,0,0],"split_type":[0,0,0,0,0,0,0,0,0,0,0,0,0,0,0,0,0],"sum_hessian":[1.1496395E1,9.429045E0,2.0673504E0,3.3080893E0,6.1209555E0,1.0122254E0,1.0551249E0,1.9913536E0,1.3167355E0,4.8340144E0,1.2869412E0,2.7454474E0,2.0885668E0,1.5227911E0,1.2226564E0,1.0774148E0,1.0111521E0],"tree_param":{"num_deleted":"0","num_feature":"75","num_nodes":"17","size_leaf_vector":"0"}},{"base_weights":[2.0233296E-2,-1.831617E-1,1.07873686E-1,2.3803635E-1,-4.795532E-1,2.9852214E-1,-8.1626885E-2,-4.694314E-2,5.5273515E-1,-2.8708175E-1,2.2908708E-1,-6.465307E-2,-4.2740625E-1],"categories":[],"categories_nodes":[],"categories_segments":[],"categories_sizes":[],"default_left":[1,1,1,0,0,1,1,0,0,1,0,0,0],"id":22,"left_children":[1,3,5,-1,-1,7,9,-1,-1,11,-1,-1,-1],"loss_changes":[2.3103043E-1,6.059855E-1,3.4635556E-1,0E0,0E0,4.349754E-1,4.012304E-1,0E0,0E0,8.4952384E-2,0E0,0E0,0E0],"parents":[2147483647,0,0,1,1,2,2,5,5,6,6,9,9],"right_children":[2,4,6,-1,-1,8,10,-1,-1,12,-1,-1,-1],"split_conditions":[3.3876978E-2,5.1674016E-2,1.3644175E-1,7.141091E-2,-1.4386596E-1,5.6883357E-2,1.3077378E-1,-1.4082942E-2,1.6582055E-1,2.5496178E-3,6.872613E-2,-1.9395921E-2,-1.2822188E-1],"split_indices":[12,62,71,0,0,62,73,0,0,31,0,0,0],"split_type":[0,0,0,0,0,0,0,0,0,0,0,0,0],"sum_hessian":[1.0852161E1,2.939733E0,7.9124284E0,1.2955415E0,1.6441916E0,3.657482E0,4.254946E0,1.8960991E0,1.7613828E0,2.6070995E0,1.6478468E0,1.5735701E0,1.0335294E0],"tree_param":{"num_deleted":"0","num_feature":"75","num_nodes":"13","size_leaf_vector":"0"}},{"base_weights":[1.5023279E-2,-5.8648564E-2,2.4584527E-1,-1.3943188E-1,2.0886768E-1,6.9703214E-2,-3.112419E-1,-2.4786344E-1,2.3855436E-1,-4.631828E-1,-2.1000987E-2,-5.5208422E-2,3.8907096E-1],"categories":[],"categories_nodes":[],"categories_segments":[],"categories_sizes":[],"default_left":[1,1,0,1,0,1,1,0,1,0,0,0,0],"id":23,"left_children":[1,3,-1,5,-1,7,9,-1,11,-1,-1,-1,-1],"loss_changes":[2.0821533E-1,2.332687E-1,0E0,3.0394217E-1,0E0,2.9290673E-1,1.8851647E-1,0E0,1.6986638E-1,0E0,0E0,0E0,0E0],"parents":[2147483647,0,0,1,1,3,3,5,5,6,6,8,8],"right_children":[2,4,-1,6,-1,8,10,-1,12,-1,-1,-1,-1],"split_conditions":[2.0718181E-1,1.4128724E-1,7.375359E-2,4.340401E-4,6.266031E-2,3.8399355E-4,1.3519768E-1,-7.435904E-2,7.09774E-2,-1.3895485E-1,-6.300296E-3,-1.6562527E-2,1.16721295E-1],"split_indices":[12,5,0,61,0,16,0,0,5,0,0,0,0],"split_type":[0,0,0,0,0,0,0,0,0,0,0,0,0],"sum_hessian":[1.0396409E1,8.446454E0,1.9499546E0,6.855157E0,1.5912975E0,3.359779E0,3.4953778E0,1.0038494E0,2.3559296E0,1.9031984E0,1.5921794E0,1.0126842E0,1.3432454E0],"tree_param":{"num_deleted":"0","num_feature":"75","num_nodes":"13","size_leaf_vector":"0"}},{"base_weights":[1.1846986E-2,1.085135E-1,-1.400756E-1,-2.6875135E-1,2.6607326E-1,-3.200421E-1,1.5624702E-1,4.5329726E-1,9.5826E-4,-4.9921522E-1,-6.205845E-3,1.2894526E-1,5.597238E-1,1.6416648E-1,-1.8070355E-1],"categories":[],"categories_nodes":[],"categories_segments":[],"categories_sizes":[],"default_left":[1,1,1,0,1,1,0,1,1,0,0,0,0,0,0],"id":24,"left_children":[1,3,5,-1,7,9,-1,11,13,-1,-1,-1,-1,-1,-1],"loss_changes":[1.7818768E-1,5.081718E-1,3.03432E-1,0E0,2.8171718E-1,1.8160012E-1,0E0,4.2759955E-2,1.291343E-1,0E0,0E0,0E0,0E0,0E0,0E0],"parents":[2147483647,0,0,1,1,2,2,4,4,5,5,7,7,8,8],"right_children":[2,4,6,-1,8,10,-1,12,14,-1,-1,-1,-1,-1,-1],"split_conditions":[2.264881E-3,9.5671356E-2,3.7786316E-2,-8.062541E-2,9.488937E-2,2.1438848E-2,4.6874106E-2,1.6050757E-1,7.549728E-2,-1.4976457E-1,-1.8617536E-3,3.868358E-2,1.6791715E-1,4.9249947E-2,-5.421107E-2],"split_indices":[16,0,3,0,6,16,0,11,42,0,0,0,0,0,0],"split_type":[0,0,0,0,0,0,0,0,0,0,0,0,0,0,0],"sum_hessian":[1.0098292E1,6.346086E0,3.7522066E0,1.661659E0,4.684427E0,2.2846296E0,1.4675771E0,2.3295128E0,2.3549142E0,1.0783174E0,1.2063121E0,1.1219078E0,1.2076051E0,1.2911917E0,1.0637225E0],"tree_param":{"num_deleted":"0","num_feature":"75","num_nodes":"15","size_leaf_vector":"0"}},{"base_weights":[1.0202221E-2,-6.4457126E-2,2.368371E-1,1.7597604E-1,-1.4745697E-1,8.7428726E-2,-3.5304052E-1,2.9859167E-1,-2.4287538E-1,1.22441515E-1,-5.5536276E-1],"categories":[],"categories_nodes":[],"categories_segments":[],"categories_sizes":[],"default_left":[1,1,0,0,1,1,1,0,0,0,0],"id":25,"left_children":[1,3,-1,-1,5,7,9,-1,-1,-1,-1],"loss_changes":[1.9723934E-1,2.030732E-1,0E0,0E0,3.7575072E-1,3.609299E-1,4.5348793E-1,0E0,0E0,0E0,0E0],"parents":[2147483647,0,0,1,1,4,4,5,5,6,6],"right_children":[2,4,-1,-1,6,8,10,-1,-1,-1,-1],"split_conditions":[2.0718181E-1,4.9126938E-2,7.1051136E-2,5.2792814E-2,1.0142352E-1,7.183175E-2,1.0372223E-1,8.95775E-2,-7.286262E-2,3.6732458E-2,-1.6660884E-1],"split_indices":[12,73,0,0,64,27,30,0,0,0,0],"split_type":[0,0,0,0,0,0,0,0,0,0,0],"sum_hessian":[9.754672E0,7.875779E0,1.8788933E0,1.7336272E0,6.142152E0,3.1350207E0,3.0071313E0,1.9709835E0,1.1640371E0,1.0154706E0,1.9916606E0],"tree_param":{"num_deleted":"0","num_feature":"75","num_nodes":"11","size_leaf_vector":"0"}},{"base_weights":[6.937019E-3,-1.6880897E-1,8.5206605E-2,1.5931949E-1,-4.5946112E-1,-3.1052098E-2,3.967091E-1,-1.6193056E-1,1.8289961E-1,1.3055892E-1,-3.864223E-1],"categories":[],"categories_nodes":[],"categories_segments":[],"categories_sizes":[],"default_left":[1,1,1,0,0,1,0,1,0,0,0],"id":26,"left_children":[1,3,5,-1,-1,7,-1,9,-1,-1,-1],"loss_changes":[1.5758629E-1,4.111228E-1,2.9723197E-1,0E0,0E0,2.1601018E-1,0E0,3.5646397E-1,0E0,0E0,0E0],"parents":[2147483647,0,0,1,1,2,2,5,5,7,7],"right_children":[2,4,6,-1,-1,8,-1,10,-1,-1,-1],"split_conditions":[3.3876978E-2,3.3723684E-3,1.6751309E-1,4.779585E-2,-1.3783835E-1,1.3077378E-1,1.19012736E-1,1.368266E-1,5.4869886E-2,3.916768E-2,-1.159267E-1],"split_indices":[12,27,9,0,0,73,0,11,0,0,0],"split_type":[0,0,0,0,0,0,0,0,0,0,0],"sum_hessian":[9.410524E0,2.5432239E0,6.8673005E0,1.4068414E0,1.1363825E0,5.6565013E0,1.2107995E0,3.6604662E0,1.996035E0,1.7712002E0,1.8892661E0],"tree_param":{"num_deleted":"0","num_feature":"75","num_nodes":"11","size_leaf_vector":"0"}},{"base_weights":[4.94012E-3,-7.3298685E-2,2.0325087E-1,-4.231234E-1,6.710878E-2,3.2957825E-1,-2.5822323E-2,2.718647E-1,-7.618791E-2,-3.915644E-1,1.3351957E-1,2.975095E-1,-8.537324E-2],"categories":[],"categories_nodes":[],"categories_segments":[],"categories_sizes":[],"default_left":[1,1,1,0,1,0,0,0,1,0,1,0,0],"id":27,"left_children":[1,3,5,-1,7,-1,-1,-1,9,-1,11,-1,-1],"loss_changes":[1.7152967E-1,4.200646E-1,9.882842E-2,0E0,2.1299243E-1,0E0,0E0,0E0,3.5891482E-1,0E0,1.521276E-1,0E0,0E0],"parents":[2147483647,0,0,1,1,2,2,4,4,8,8,10,10],"right_children":[2,4,6,-1,8,-1,-1,-1,10,-1,12,-1,-1],"split_conditions":[1.7904605E-1,2.836807E-2,9.520019E-4,-1.2693702E-1,1.7009886E-1,9.887348E-2,-7.746697E-3,8.155942E-2,1.8077868E-1,-1.17469326E-1,4.4466474E-4,8.925285E-2,-2.5611972E-2],"split_indices":[11,47,31,0,10,0,0,0,10,0,16,0,0],"split_type":[0,0,0,0,0,0,0,0,0,0,0,0,0],"sum_hessian":[9.095109E0,6.9740486E0,2.1210608E0,1.4207401E0,5.5533085E0,1.0843345E0,1.0367265E0,1.916959E0,3.6363492E0,1.1059426E0,2.5304067E0,1.2412969E0,1.2891098E0],"tree_param":{"num_deleted":"0","num_feature":"75","num_nodes":"13","size_leaf_vector":"0"}},{"base_weights":[2.197127E-3,-6.617913E-2,2.053134E-1,-1.8174386E-1,7.78678E-2,-3.8611266E-1,1.098175E-1,2.2584614E-1,-1.865897E-1,-4.8652947E-1,-9.401696E-2,-8.945587E-2,4.1576904E-1],"categories":[],"categories_nodes":[],"categories_segments":[],"categories_sizes":[],"default_left":[1,1,0,1,1,1,0,1,0,0,0,0,0],"id":28,"left_children":[1,3,-1,5,7,9,-1,11,-1,-1,-1,-1,-1],"loss_changes":[1.4966513E-1,1.4876711E-1,0E0,3.2762945E-1,2.1040708E-1,4.32975E-2,0E0,2.2938469E-1,0E0,0E0,0E0,0E0,0E0],"parents":[2147483647,0,0,1,1,3,3,4,4,5,5,7,7],"right_children":[2,4,-1,6,8,10,-1,12,-1,-1,-1,-1,-1],"split_conditions":[2.0718181E-1,2.9326327E-2,6.159402E-2,1.3205504E-1,5.1648468E-2,1.15604594E-1,3.294525E-2,3.1021062E-2,-5.5976912E-2,-1.4595884E-1,-2.820509E-2,-2.6836762E-2,1.2473071E-1],"split_indices":[12,3,0,15,62,30,0,47,0,0,0,0,0],"split_type":[0,0,0,0,0,0,0,0,0,0,0,0,0],"sum_hessian":[8.797987E0,7.0865726E0,1.7114143E0,3.7868178E0,3.2997549E0,2.0356464E0,1.7511714E0,2.2094498E0,1.090305E0,1.0195084E0,1.0161381E0,1.0294269E0,1.1800228E0],"tree_param":{"num_deleted":"0","num_feature":"75","num_nodes":"13","size_leaf_vector":"0"}},{"base_weights":[-2.7009945E-3,-1.0317551E-1,1.1119685E-1,9.162782E-2,-3.3700097E-1,-1.576529E-1,3.53383E-1,3.2268393E-1,-1.2323048E-1,-3.1497365E-1,7.778314E-2],"categories":[],"categories_nodes":[],"categories_segments":[],"categories_sizes":[],"default_left":[1,1,1,1,0,1,0,0,0,0,0],"id":29,"left_children":[1,3,5,7,-1,9,-1,-1,-1,-1,-1],"loss_changes":[1.2083815E-1,2.857886E-1,3.7869447E-1,2.3035431E-1,0E0,1.3718392E-1,0E0,0E0,0E0,0E0,0E0],"parents":[2147483647,0,0,1,1,2,2,3,3,5,5],"right_children":[2,4,6,8,-1,10,-1,-1,-1,-1,-1],"split_conditions":[1.6852468E-1,1.5359443E-1,1.5248226E-1,6.6463845E-3,-1.01100296E-1,7.6412165E-4,1.0601491E-1,9.6805185E-2,-3.6969144E-2,-9.44921E-2,2.3334943E-2],"split_indices":[27,69,9,57,0,16,0,0,0,0,0],"split_type":[0,0,0,0,0,0,0,0,0,0,0],"sum_hessian":[8.556709E0,4.596269E0,3.9604402E0,2.8391056E0,1.7571635E0,2.0423164E0,1.9181237E0,1.1261797E0,1.7129259E0,1.021745E0,1.0205715E0],"tree_param":{"num_deleted":"0","num_feature":"75","num_nodes":"11","size_leaf_vector":"0"}},{"base_weights":[-2.6144767E-3,-1.6918164E-1,7.2488524E-2,-3.9336848E-1,1.3703881E-1,2.4832252E-1,-9.573816E-2,-4.5742914E-2,4.613139E-1,-2.830675E-1,1.9081138E-1],"categories":[],"categories_nodes":[],"categories_segments":[],"categories_sizes":[],"default_left":[1,1,1,0,0,1,1,0,0,0,0],"id":30,"left_children":[1,3,5,-1,-1,7,9,-1,-1,-1,-1],"loss_changes":[1.2867984E-1,2.73037E-1,2.3420905E-1,0E0,0E0,2.5639457E-1,2.8791624E-1,0E0,0E0,0E0,0E0],"parents":[2147483647,0,0,1,1,2,2,5,5,6,6],"right_children":[2,4,6,-1,-1,8,10,-1,-1,-1,-1],"split_conditions":[3.3876978E-2,1.6696805E-1,1.3644175E-1,-1.1801055E-1,4.1111644E-2,5.6883357E-2,1.3077378E-1,-1.3722875E-2,1.3839418E-1,-8.492025E-2,5.7243418E-2],"split_indices":[12,11,71,0,0,62,73,0,0,0,0],"split_type":[0,0,0,0,0,0,0,0,0,0,0],"sum_hessian":[8.306072E0,2.1919641E0,6.114108E0,1.1011844E0,1.0907798E0,2.7566657E0,3.3574424E0,1.4877908E0,1.2688749E0,2.0375578E0,1.3198845E0],"tree_param":{"num_deleted":"0","num_feature":"75","num_nodes":"11","size_leaf_vector":"0"}},{"base_weights":[5.1257695E-4,-6.281529E-2,1.8175513E-1,-1.4339347E-1,1.926654E-1,5.1946715E-2,-2.583558E-1,-1.1419597E-1,2.034269E-1,-4.8374772E-1,1.5378064E-1],"categories":[],"categories_nodes":[],"categories_segments":[],"categories_sizes":[],"default_left":[1,1,0,1,0,1,1,0,0,0,0],"id":31,"left_children":[1,3,-1,5,-1,7,9,-1,-1,-1,-1],"loss_changes":[1.1504413E-1,1.8066265E-1,0E0,1.5320866E-1,0E0,1.0222501E-1,4.539476E-1,0E0,0E0,0E0,0E0],"parents":[2147483647,0,0,1,1,3,3,5,5,6,6],"right_children":[2,4,-1,6,-1,8,10,-1,-1,-1,-1],"split_conditions":[2.0718181E-1,1.4128724E-1,5.452654E-2,7.147584E-2,5.7799622E-2,9.961229E-2,4.164334E-2,-3.4258794E-2,6.102807E-2,-1.4512432E-1,4.6134192E-2],"split_indices":[12,5,0,27,0,6,3,0,0,0,0],"split_type":[0,0,0,0,0,0,0,0,0,0,0],"sum_hessian":[8.028559E0,6.4339085E0,1.59465E0,5.224759E0,1.2091495E0,2.1387713E0,3.0859876E0,1.1374044E0,1.0013669E0,1.8826405E0,1.2033472E0],"tree_param":{"num_deleted":"0","num_feature":"75","num_nodes":"11","size_leaf_vector":"0"}},{"base_weights":[3.7428725E-3,-1.619984E-1,7.954986E-2,1.1927696E-1,-3.6753362E-1,2.4838918E-1,-8.091277E-2,-1.5703531E-2,4.242343E-1,-2.6727504E-1,1.5695462E-1],"categories":[],"categories_nodes":[],"categories_segments":[],"categories_sizes":[],"default_left":[1,1,1,0,0,1,1,0,0,0,0],"id":32,"left_children":[1,3,5,-1,-1,7,9,-1,-1,-1,-1],"loss_changes":[1.23413175E-1,2.2248355E-1,2.0179869E-1,0E0,0E0,1.6983905E-1,2.2782128E-1,0E0,0E0,0E0,0E0],"parents":[2147483647,0,0,1,1,2,2,5,5,6,6],"right_children":[2,4,6,-1,-1,8,10,-1,-1,-1,-1],"split_conditions":[3.3876978E-2,5.410917E-2,1.3644175E-1,3.578309E-2,-1.1026009E-1,5.6883357E-2,1.78338E-1,-4.7110594E-3,1.272703E-1,-8.0182515E-2,4.7086388E-2],"split_indices":[12,62,71,0,0,62,11,0,0,0,0],"split_type":[0,0,0,0,0,0,0,0,0,0,0],"sum_hessian":[7.796815E0,2.0901065E0,5.7067084E0,1.0596498E0,1.0304567E0,2.5137622E0,3.1929462E0,1.3687716E0,1.1449907E0,1.7209785E0,1.4719677E0],"tree_param":{"num_deleted":"0","num_feature":"75","num_nodes":"11","size_leaf_vector":"0"}},{"base_weights":[4.533499E-3,9.134965E-2,-1.2378456E-1,-2.2808072E-1,2.3448648E-1,-2.8778082E-1,1.34487E-1,3.9521E-1,-2.329229E-2],"categories":[],"categories_nodes":[],"categories_segments":[],"categories_sizes":[],"default_left":[1,1,1,0,1,0,0,0,0],"id":33,"left_children":[1,3,5,-1,7,-1,-1,-1,-1],"loss_changes":[1.0673551E-1,3.134003E-1,2.031036E-1,0E0,1.9227782E-1,0E0,0E0,0E0,0E0],"parents":[2147483647,0,0,1,1,2,2,4,4],"right_children":[2,4,6,-1,8,-1,-1,-1,-1],"split_conditions":[2.264881E-3,9.5671356E-2,3.3926018E-2,-6.842422E-2,9.488937E-2,-8.633425E-2,4.03461E-2,1.18563004E-1,-6.987687E-3],"split_indices":[16,0,3,0,6,0,0,0,0],"split_type":[0,0,0,0,0,0,0,0,0],"sum_hessian":[7.5661716E0,4.684726E0,2.8814454E0,1.2660061E0,3.41872E0,1.692495E0,1.1889504E0,1.777391E0,1.641329E0],"tree_param":{"num_deleted":"0","num_feature":"75","num_nodes":"9","size_leaf_vector":"0"}},{"base_weights":[3.181798E-3,-7.31393E-2,1.7743322E-1,-3.1619155E-1,4.862608E-2,-1.8230654E-1,1.6999193E-1,3.0048606E-1,-3.877685E-2],"categories":[],"categories_nodes":[],"categories_segments":[],"categories_sizes":[],"default_left":[1,1,0,0,1,0,1,0,0],"id":34,"left_children":[1,3,-1,-1,5,-1,7,-1,-1],"loss_changes":[1.2441341E-1,2.0878512E-1,0E0,0E0,1.7731068E-1,0E0,1.1897903E-1,0E0,0E0],"parents":[2147483647,0,0,1,1,4,4,6,6],"right_children":[2,4,-1,-1,6,-1,8,-1,-1],"split_conditions":[1.7904605E-1,3.0514285E-2,5.322997E-2,-9.485747E-2,3.3876978E-2,-5.4691967E-2,1.6917773E-1,9.014582E-2,-1.1633055E-2],"split_indices":[11,47,0,0,12,0,42,0,0],"split_type":[0,0,0,0,0,0,0,0,0],"sum_hessian":[7.379243E0,5.5351467E0,1.8440961E0,1.3145283E0,4.2206187E0,1.2810111E0,2.9396074E0,1.5385736E0,1.4010339E0],"tree_param":{"num_deleted":"0","num_feature":"75","num_nodes":"9","size_leaf_vector":"0"}},{"base_weights":[4.7910755E-5,1.9043908E-1,-6.8545535E-2,8.348621E-2,-1.8716642E-1,2.4068072E-1,-7.92234E-2,-3.245555E-1,7.876605E-2],"categories":[],"categories_nodes":[],"categories_segments":[],"categories_sizes":[],"default_left":[1,0,1,1,1,0,0,0,0],"id":35,"left_children":[1,-1,3,5,7,-1,-1,-1,-1],"loss_changes":[1.20658316E-1,0E0,1.381238E-1,1.1289858E-1,1.7623925E-1,0E0,0E0,0E0,0E0],"parents":[2147483647,0,0,2,2,3,3,4,4],"right_children":[2,-1,4,6,8,-1,-1,-1,-1],"split_conditions":[9.74458E-2,5.7131726E-2,1.3232683E-1,8.0244765E-2,7.81741E-3,7.220422E-2,-2.3767022E-2,-9.736665E-2,2.3629816E-2],"split_indices":[60,0,71,35,46,0,0,0,0],"split_type":[0,0,0,0,0,0,0,0,0],"sum_hessian":[7.2395086E0,1.4469478E0,5.792561E0,2.6685624E0,3.1239986E0,1.1135511E0,1.5550112E0,1.9144768E0,1.209522E0],"tree_param":{"num_deleted":"0","num_feature":"75","num_nodes":"9","size_leaf_vector":"0"}},{"base_weights":[3.735694E-3,1.0705488E-1,-9.9006124E-2,-5.4320145E-2,2.5233978E-1,-2.874603E-1,4.2257052E-2,2.3948175E-1,-1.5740748E-1],"categories":[],"categories_nodes":[],"categories_segments":[],"categories_sizes":[],"default_left":[1,1,1,0,0,0,1,0,0],"id":36,"left_children":[1,3,5,-1,-1,-1,7,-1,-1],"loss_changes":[9.683751E-2,1.1994068E-1,1.344187E-1,0E0,0E0,0E0,1.754034E-1,0E0,0E0],"parents":[2147483647,0,0,1,1,2,2,6,6],"right_children":[2,4,6,-1,-1,-1,8,-1,-1],"split_conditions":[1.12310424E-1,7.572739E-4,3.3876978E-2,-1.6296044E-2,7.570194E-2,-8.623809E-2,1.2075849E-1,7.1844526E-2,-4.7222245E-2],"split_indices":[60,46,12,0,0,0,71,0,0],"split_type":[0,0,0,0,0,0,0,0,0],"sum_hessian":[7.1240497E0,3.5311131E0,3.5929363E0,1.9695504E0,1.5615629E0,1.0959463E0,2.49699E0,1.1558468E0,1.3411433E0],"tree_param":{"num_deleted":"0","num_feature":"75","num_nodes":"9","size_leaf_vector":"0"}},{"base_weights":[2.382262E-3,-5.3046364E-2,1.9003099E-1,5.24788E-2,-3.3642074E-1,1.3511518E-1,-1.7669101E-1,2.6778638E-1,-5.817146E-2,7.0977034E-3,3.8881427E-1],"categories":[],"categories_nodes":[],"categories_segments":[],"categories_sizes":[],"default_left":[1,1,0,1,0,1,0,1,0,0,0],"id":37,"left_children":[1,3,-1,5,-1,7,-1,9,-1,-1,-1],"loss_changes":[9.327587E-2,2.2567731E-1,0E0,1.3625014E-1,0E0,1.4194919E-1,0E0,9.5068455E-2,0E0,0E0,0E0],"parents":[2147483647,0,0,1,1,3,3,5,5,7,7],"right_children":[2,4,-1,6,-1,8,-1,10,-1,-1,-1],"split_conditions":[1.4128724E-1,1.4986533E-1,5.70093E-2,2.1919009E-1,-1.0092623E-1,9.3795456E-2,-5.3007305E-2,1.4648986E-1,-1.7451439E-2,2.1293112E-3,1.16644286E-1],"split_indices":[5,68,0,72,0,6,0,72,0,0,0],"split_type":[0,0,0,0,0,0,0,0,0,0,0],"sum_hessian":[6.9987044E0,5.9565415E0,1.0421629E0,4.933991E0,1.0225506E0,3.9280055E0,1.0059853E0,2.1006742E0,1.8273314E0,1.0017006E0,1.0989734E0],"tree_param":{"num_deleted":"0","num_feature":"75","num_nodes":"11","size_leaf_vector":"0"}},{"base_weights":[2.3860913E-3,-6.923602E-2,1.5073757E-1,6.2488075E-2,-2.5212407E-1,-6.572345E-2,2.3517464E-1,1.1547821E-1,-1.9970495E-1],"categories":[],"categories_nodes":[],"categories_segments":[],"categories_sizes":[],"default_left":[1,1,0,1,0,1,0,0,0],"id":38,"left_children":[1,3,-1,5,-1,7,-1,-1,-1],"loss_changes":[9.372783E-2,1.5962295E-1,0E0,1.10061035E-1,0E0,1.01571426E-1,0E0,0E0,0E0],"parents":[2147483647,0,0,1,1,3,3,5,5],"right_children":[2,4,-1,6,-1,8,-1,-1,-1],"split_conditions":[1.7769723E-1,4.6999502E-4,4.5221273E-2,1.19334936E-1,-7.563722E-2,1.01220354E-1,7.0552394E-2,3.4643464E-2,-5.9911486E-2],"split_indices":[11,61,0,45,0,45,0,0,0],"split_type":[0,0,0,0,0,0,0,0,0],"sum_hessian":[6.839005E0,4.971924E0,1.8670809E0,3.272936E0,1.6989877E0,2.23383E0,1.0391061E0,1.0082873E0,1.2255428E0],"tree_param":{"num_deleted":"0","num_feature":"75","num_nodes":"9","size_leaf_vector":"0"}},{"base_weights":[3.4800163E-3,1.0580094E-1,-9.939691E-2,-8.23687E-2,2.0936754E-1,8.559023E-2,-1.9085863E-1,3.5488656E-1,-3.9119784E-2,4.764684E-2,-3.3345345E-1],"categories":[],"categories_nodes":[],"categories_segments":[],"categories_sizes":[],"default_left":[1,1,1,0,1,0,1,0,0,0,0],"id":39,"left_children":[1,3,5,-1,7,-1,9,-1,-1,-1,-1],"loss_changes":[9.183393E-2,1.02162644E-1,9.0233356E-2,0E0,1.257196E-1,0E0,1.2581588E-1,0E0,0E0,0E0,0E0],"parents":[2147483647,0,0,1,1,2,2,4,4,6,6],"right_children":[2,4,6,-1,8,-1,10,-1,-1,-1,-1],"split_conditions":[1.12310424E-1,9.5671356E-2,4.9126938E-2,-2.4710612E-2,4.3272346E-2,2.567707E-2,1.0283512E-1,1.0646597E-1,-1.1735936E-2,1.42940525E-2,-1.0003604E-1],"split_indices":[60,0,73,0,32,0,64,0,0,0,0],"split_type":[0,0,0,0,0,0,0,0,0,0,0],"sum_hessian":[6.725068E0,3.3573954E0,3.367673E0,1.2645392E0,2.092856E0,1.1354167E0,2.2322562E0,1.0498536E0,1.0430025E0,1.0843763E0,1.1478798E0],"tree_param":{"num_deleted":"0","num_feature":"75","num_nodes":"11","size_leaf_vector":"0"}},{"base_weights":[3.7813403E-3,-1.589991E-1,6.7466244E-2,1.6320798E-1,-1.0594355E-1,-1.6605545E-2,3.564451E-1,-2.0786652E-1,2.0312662E-1],"categories":[],"categories_nodes":[],"categories_segments":[],"categories_sizes":[],"default_left":[1,0,1,1,0,1,0,0,0],"id":40,"left_children":[1,-1,3,5,-1,7,-1,-1,-1],"loss_changes":[8.947615E-2,0E0,1.19600326E-1,1.575488E-1,0E0,1.7737675E-1,0E0,0E0,0E0],"parents":[2147483647,0,0,2,2,3,3,5,5],"right_children":[2,-1,4,6,-1,8,-1,-1,-1],"split_conditions":[5.0337456E-2,-4.769973E-2,1.1555173E-1,7.572739E-4,-3.1783067E-2,1.0224445E-1,1.06933534E-1,-6.235996E-2,6.093799E-2],"split_indices":[13,0,60,1,0,0,0,0,0],"split_type":[0,0,0,0,0,0,0,0,0],"sum_hessian":[6.596382E0,1.434108E0,5.162274E0,3.3638697E0,1.7984042E0,2.2159355E0,1.1479343E0,1.2135918E0,1.0023435E0],"tree_param":{"num_deleted":"0","num_feature":"75","num_nodes":"9","size_leaf_vector":"0"}},{"base_weights":[6.5144687E-3,-5.0854832E-2,1.5738381E-1,1.029064E-1,-1.6514796E-1,2.2537328E-1,-7.906583E-2,7.88761E-2,-3.4099716E-1],"categories":[],"categories_nodes":[],"categories_segments":[],"categories_sizes":[],"default_left":[1,1,0,1,1,0,0,0,0],"id":41,"left_children":[1,3,-1,5,7,-1,-1,-1,-1],"loss_changes":[7.26923E-2,1.2543668E-1,0E0,9.018365E-2,1.9525957E-1,0E0,0E0,0E0,0E0],"parents":[2147483647,0,0,1,1,3,3,4,4],"right_children":[2,4,-1,6,8,-1,-1,-1,-1],"split_conditions":[2.0718181E-1,6.8687975E-2,4.7215145E-2,1.4447841E-1,6.309505E-2,6.7611985E-2,-2.371975E-2,2.3662832E-2,-1.02299154E-1],"split_indices":[12,27,0,9,73,0,0,0,0],"split_type":[0,0,0,0,0,0,0,0,0],"sum_hessian":[6.473895E0,5.170639E0,1.3032563E0,2.2471383E0,2.9235005E0,1.2006202E0,1.0465181E0,1.4553638E0,1.4681368E0],"tree_param":{"num_deleted":"0","num_feature":"75","num_nodes":"9","size_leaf_vector":"0"}},{"base_weights":[5.979737E-3,-1.404835E-1,6.4541675E-2,1.5161549E-1,-9.162653E-2,-6.0467247E-2,2.500561E-1,3.7742192E-1,-1.7657685E-3],"categories":[],"categories_nodes":[],"categories_segments":[],"categories_sizes":[],"default_left":[1,0,1,1,0,0,1,0,0],"id":42,"left_children":[1,-1,3,5,-1,-1,7,-1,-1],"loss_changes":[7.221463E-2,0E0,9.4727285E-2,1.0266548E-1,0E0,0E0,9.876865E-2,0E0,0E0],"parents":[2147483647,0,0,2,2,3,3,6,6],"right_children":[2,-1,4,6,-1,-1,8,-1,-1],"split_conditions":[5.0337456E-2,-4.214505E-2,1.1555173E-1,9.5671356E-2,-2.7487962E-2,-1.8140174E-2,9.407917E-2,1.1322658E-1,-5.297306E-4],"split_indices":[13,0,60,0,0,0,66,0,0],"split_type":[0,0,0,0,0,0,0,0,0],"sum_hessian":[6.3622856E0,1.41771E0,4.944576E0,3.1932735E0,1.7513022E0,1.1346043E0,2.058669E0,1.0359455E0,1.0227236E0],"tree_param":{"num_deleted":"0","num_feature":"75","num_nodes":"9","size_leaf_vector":"0"}},{"base_weights":[8.140423E-3,-4.6638984E-2,1.4718547E-1,1.4139767E-1,-1.2065549E-1,7.322756E-2,-2.7469838E-1],"categories":[],"categories_nodes":[],"categories_segments":[],"categories_sizes":[],"default_left":[1,1,0,0,1,0,0],"id":43,"left_children":[1,3,-1,-1,5,-1,-1],"loss_changes":[6.2278125E-2,1.0026679E-1,0E0,0E0,1.6435158E-1,0E0,0E0],"parents":[2147483647,0,0,1,1,4,4],"right_children":[2,4,-1,-1,6,-1,-1],"split_conditions":[2.0718181E-1,6.6463845E-3,4.4155642E-2,4.2419303E-2,1.291321E-1,2.196827E-2,-8.2409516E-2],"split_indices":[12,57,0,0,71,0,0],"split_type":[0,0,0,0,0,0,0],"sum_hessian":[6.275169E0,4.9784083E0,1.2967608E0,1.1490159E0,3.8293924E0,1.9277261E0,1.9016662E0],"tree_param":{"num_deleted":"0","num_feature":"75","num_nodes":"7","size_leaf_vector":"0"}},{"base_weights":[9.136322E-3,6.258391E-2,-1.574312E-1,1.5867774E-1,-1.1414529E-1,6.4973882E-3,2.6961124E-1],"categories":[],"categories_nodes":[],"categories_segments":[],"categories_sizes":[],"default_left":[1,1,0,1,0,0,0],"id":44,"left_children":[1,3,-1,5,-1,-1,-1],"loss_changes":[7.396301E-2,1.2285143E-1,0E0,7.275699E-2,0E0,0E0,0E0],"parents":[2147483647,0,0,1,1,3,3],"right_children":[2,4,-1,6,-1,-1,-1],"split_conditions":[2.1198206E-1,1.4697725E-1,-4.722936E-2,1.6537796E-1,-3.4243587E-2,1.9492166E-3,8.088338E-2],"split_indices":[72,68,0,42,0,0,0],"split_type":[0,0,0,0,0,0,0],"sum_hessian":[6.201279E0,5.167442E0,1.0338372E0,3.413529E0,1.753913E0,1.8855169E0,1.5280122E0],"tree_param":{"num_deleted":"0","num_feature":"75","num_nodes":"7","size_leaf_vector":"0"}},{"base_weights":[6.7895153E-3,-5.333537E-2,1.40532E-1,4.416944E-2,-2.1808201E-1,-1.2214444E-1,1.6596156E-1],"categories":[],"categories_nodes":[],"categories_segments":[],"categories_sizes":[],"default_left":[1,1,0,1,0,0,0],"id":45,"left_children":[1,3,-1,5,-1,-1,-1],"loss_changes":[6.494039E-2,1.00442424E-1,0E0,1.0904988E-1,0E0,0E0,0E0],"parents":[2147483647,0,0,1,1,3,3],"right_children":[2,4,-1,6,-1,-1,-1],"split_conditions":[1.1808247E-2,2.264881E-3,4.2159602E-2,1.0252224E-1,-6.5424606E-2,-3.6643334E-2,4.978847E-2],"split_indices":[46,16,0,0,0,0,0],"split_type":[0,0,0,0,0,0,0],"sum_hessian":[6.1437964E0,4.6531487E0,1.4906476E0,3.3828902E0,1.2702585E0,1.4288388E0,1.9540513E0],"tree_param":{"num_deleted":"0","num_feature":"75","num_nodes":"7","size_leaf_vector":"0"}},{"base_weights":[3.3139456E-3,1.1781416E-1,-6.6295356E-2,-6.650405E-2,2.42511E-1,-1.5136531E-1,1.1829708E-1,-2.6025566E-1,3.0244468E-2],"categories":[],"categories_nodes":[],"categories_segments":[],"categories_sizes":[],"default_left":[1,1,1,0,0,1,0,0,0],"id":46,"left_children":[1,3,5,-1,-1,7,-1,-1,-1],"loss_changes":[6.4264864E-2,8.595563E-2,9.712896E-2,0E0,0E0,8.484058E-2,0E0,0E0,0E0],"parents":[2147483647,0,0,1,1,2,2,5,5],"right_children":[2,4,6,-1,-1,8,-1,-1,-1],"split_conditions":[2.960489E-2,9.65796E-2,1.6696805E-1,-1.9951215E-2,7.27533E-2,5.5676848E-2,3.5489123E-2,-7.8076705E-2,9.07334E-3],"split_indices":[17,15,59,0,0,32,0,0,0],"split_type":[0,0,0,0,0,0,0,0,0],"sum_hessian":[6.083106E0,2.0381124E0,4.0449934E0,1.0107565E0,1.0273559E0,2.8921435E0,1.1528499E0,1.5373336E0,1.3548099E0],"tree_param":{"num_deleted":"0","num_feature":"75","num_nodes":"9","size_leaf_vector":"0"}},{"base_weights":[5.0094263E-3,-1.4524752E-1,6.5513566E-2,1.5491255E-1,-9.188007E-2,-4.5027277E-3,3.1441274E-1],"categories":[],"categories_nodes":[],"categories_segments":[],"categories_sizes":[],"default_left":[1,0,1,1,0,0,0],"id":47,"left_children":[1,-1,3,5,-1,-1,-1],"loss_changes":[7.319883E-2,0E0,9.4200194E-2,1.030407E-1,0E0,0E0,0E0],"parents":[2147483647,0,0,2,2,3,3],"right_children":[2,-1,4,6,-1,-1,-1],"split_conditions":[5.0337456E-2,-4.357426E-2,1.1555173E-1,7.572739E-4,-2.756402E-2,-1.3508183E-3,9.432383E-2],"split_indices":[13,0,60,1,0,0,0],"split_type":[0,0,0,0,0,0,0],"sum_hessian":[6.004947E0,1.3217847E0,4.683162E0,2.9967713E0,1.6863911E0,1.9847988E0,1.0119725E0],"tree_param":{"num_deleted":"0","num_feature":"75","num_nodes":"7","size_leaf_vector":"0"}},{"base_weights":[6.934356E-3,-5.379958E-2,1.2437869E-1,6.508099E-2,-2.1510999E-1,-5.7748925E-2,2.0296346E-1],"categories":[],"categories_nodes":[],"categories_segments":[],"categories_sizes":[],"default_left":[1,1,0,1,0,0,0],"id":48,"left_children":[1,3,-1,5,-1,-1,-1],"loss_changes":[5.621468E-2,1.15145765E-1,0E0,7.615098E-2,0E0,0E0,0E0],"parents":[2147483647,0,0,1,1,3,3],"right_children":[2,4,-1,6,-1,-1,-1],"split_conditions":[1.7769723E-1,4.6999502E-4,3.7313607E-2,1.1828923E-1,-6.4533E-2,-1.7324679E-2,6.088904E-2],"split_indices":[11,61,0,45,0,0,0],"split_type":[0,0,0,0,0,0,0],"sum_hessian":[5.942963E0,4.274439E0,1.6685243E0,2.8043046E0,1.470134E0,1.7904711E0,1.0138335E0],"tree_param":{"num_deleted":"0","num_feature":"75","num_nodes":"7","size_leaf_vector":"0"}},{"base_weights":[7.234785E-3,-1.3418789E-1,6.3899375E-2,-4.99016E-2,1.7262791E-1,-1.8066666E-1,7.846072E-2,2.1486479E-1,4.351667E-2],"categories":[],"categories_nodes":[],"categories_segments":[],"categories_sizes":[],"default_left":[1,0,1,1,1,0,0,0,0],"id":49,"left_children":[1,-1,3,5,7,-1,-1,-1,-1],"loss_changes":[6.370163E-2,0E0,7.7766E-2,7.303155E-2,7.4583814E-3,0E0,0E0,0E0,0E0],"parents":[2147483647,0,0,2,2,3,3,4,4],"right_children":[2,-1,4,6,8,-1,-1,-1,-1],"split_conditions":[5.0337456E-2,-4.025637E-2,7.572739E-4,7.821813E-2,3.708703E-2,-5.4199997E-2,2.3538219E-2,6.445944E-2,1.3055001E-2],"split_indices":[13,0,46,20,47,0,0,0,0],"split_type":[0,0,0,0,0,0,0,0,0],"sum_hessian":[5.879144E0,1.2904212E0,4.588723E0,2.5064187E0,2.0823045E0,1.0397412E0,1.4666774E0,1.068558E0,1.0137466E0],"tree_param":{"num_deleted":"0","num_feature":"75","num_nodes":"9","size_leaf_vector":"0"}},{"base_weights":[6.0748723E-3,-4.517454E-2,1.3722125E-1,-1.5042527E-1,8.770507E-2,-3.3436993E-1,1.10659555E-1,1.915276E-1,-5.5423193E-2],"categories":[],"categories_nodes":[],"categories_segments":[],"categories_sizes":[],"default_left":[1,1,0,1,1,0,0,0,0],"id":50,"left_children":[1,3,-1,5,7,-1,-1,-1,-1],"loss_changes":[5.208418E-2,9.2366844E-2,0E0,2.0639788E-1,5.7183363E-2,0E0,0E0,0E0,0E0],"parents":[2147483647,0,0,1,1,3,3,4,4],"right_children":[2,4,-1,6,8,-1,-1,-1,-1],"split_conditions":[2.0718181E-1,2.9326327E-2,4.1166376E-2,1.3205504E-1,7.952488E-2,-1.0031098E-1,3.319787E-2,5.7458285E-2,-1.6626958E-2],"split_indices":[12,3,0,15,28,0,0,0,0],"split_type":[0,0,0,0,0,0,0,0,0],"sum_hessian":[5.8269725E0,4.6610627E0,1.1659101E0,2.5272484E0,2.133814E0,1.3179827E0,1.2092658E0,1.0407327E0,1.0930815E0],"tree_param":{"num_deleted":"0","num_feature":"75","num_nodes":"9","size_leaf_vector":"0"}},{"base_weights":[6.1434787E-3,8.506968E-2,-1.0617952E-1,-1.4019993E-1,1.9463429E-1,-2.429464E-1,6.764035E-2,2.978042E-1,1.2193239E-2],"categories":[],"categories_nodes":[],"categories_segments":[],"categories_sizes":[],"default_left":[1,1,1,0,1,0,0,0,0],"id":51,"left_children":[1,3,5,-1,7,-1,-1,-1,-1],"loss_changes":[6.870388E-2,1.3856083E-1,9.304278E-2,0E0,6.134078E-2,0E0,0E0,0E0,0E0],"parents":[2147483647,0,0,1,1,2,2,4,4],"right_children":[2,4,6,-1,8,-1,-1,-1,-1],"split_conditions":[2.264881E-3,9.872161E-2,1.9271865E-2,-4.205998E-2,9.488937E-2,-7.288393E-2,2.0292105E-2,8.934127E-2,3.657972E-3],"split_indices":[16,0,16,0,6,0,0,0,0],"split_type":[0,0,0,0,0,0,0,0,0],"sum_hessian":[5.73093E0,3.508347E0,2.2225828E0,1.056509E0,2.451838E0,1.0213009E0,1.201282E0,1.1622548E0,1.2895831E0],"tree_param":{"num_deleted":"0","num_feature":"75","num_nodes":"9","size_leaf_vector":"0"}},{"base_weights":[4.2256135E-3,8.164884E-2,-9.96728E-2,-1.1190773E-1,1.7732331E-1,3.926595E-2,-1.9516374E-1,-4.0561203E-2,2.951234E-1],"categories":[],"categories_nodes":[],"categories_segments":[],"categories_sizes":[],"default_left":[1,1,1,0,1,0,0,0,0],"id":52,"left_children":[1,3,5,-1,7,-1,-1,-1,-1],"loss_changes":[6.1617546E-2,1.0056898E-1,5.130044E-2,0E0,9.6776925E-2,0E0,0E0,0E0,0E0],"parents":[2147483647,0,0,1,1,2,2,4,4],"right_children":[2,4,6,-1,8,-1,-1,-1,-1],"split_conditions":[5.27078E-2,3.0212404E-2,9.329018E-2,-3.357232E-2,2.9326327E-2,1.1779785E-2,-5.8549125E-2,-1.2168362E-2,8.853702E-2],"split_indices":[17,62,37,0,3,0,0,0,0],"split_type":[0,0,0,0,0,0,0,0,0],"sum_hessian":[5.6482325E0,3.3591797E0,2.2890527E0,1.0550544E0,2.3041253E0,1.172244E0,1.1168088E0,1.0386685E0,1.2654568E0],"tree_param":{"num_deleted":"0","num_feature":"75","num_nodes":"9","size_leaf_vector":"0"}},{"base_weights":[2.5912875E-3,-1.2969296E-1,6.6127665E-2,1.529727E-1,-1.4159238E-1,-5.5319224E-2,3.020251E-1],"categories":[],"categories_nodes":[],"categories_segments":[],"categories_sizes":[],"default_left":[1,0,1,1,0,0,0],"id":53,"left_children":[1,-1,3,5,-1,-1,-1],"loss_changes":[6.380763E-2,0E0,1.1368813E-1,1.4331937E-1,0E0,0E0,0E0],"parents":[2147483647,0,0,2,2,3,3],"right_children":[2,-1,4,6,-1,-1,-1],"split_conditions":[3.3876978E-2,-3.890789E-2,7.461455E-3,4.3998107E-2,-4.2477716E-2,-1.6595768E-2,9.060754E-2],"split_indices":[12,0,31,32,0,0,0],"split_type":[0,0,0,0,0,0,0],"sum_hessian":[5.571356E0,1.4698513E0,4.101505E0,3.0781384E0,1.0233663E0,1.5462315E0,1.5319068E0],"tree_param":{"num_deleted":"0","num_feature":"75","num_nodes":"7","size_leaf_vector":"0"}},{"base_weights":[9.93099E-4,1.260613E-1,-6.312544E-2,-1.3230875E-1,9.805977E-2,-2.337962E-1,3.6146317E-2],"categories":[],"categories_nodes":[],"categories_segments":[],"categories_sizes":[],"default_left":[1,0,1,1,0,0,0],"id":54,"left_children":[1,-1,3,5,-1,-1,-1],"loss_changes":[6.0072713E-2,0E0,6.831346E-2,7.508966E-2,0E0,0E0,0E0],"parents":[2147483647,0,0,2,2,3,3],"right_children":[2,-1,4,6,-1,-1,-1],"split_conditions":[2.9632099E-2,3.7818395E-2,1.6696805E-1,5.5676848E-2,2.9417934E-2,-7.0138864E-2,1.0843895E-2],"split_indices":[32,0,59,32,0,0,0],"split_type":[0,0,0,0,0,0,0],"sum_hessian":[5.4987903E0,1.5362157E0,3.9625745E0,2.8978996E0,1.0646749E0,1.5663512E0,1.3315485E0],"tree_param":{"num_deleted":"0","num_feature":"75","num_nodes":"7","size_leaf_vector":"0"}},{"base_weights":[1.7681352E-3,8.345655E-2,-1.0728153E-1,-9.500515E-2,1.7026134E-1,-1.7952618E-1,1.9381896E-2,-6.2125647E-3,2.567756E-1],"categories":[],"categories_nodes":[],"categories_segments":[],"categories_sizes":[],"default_left":[1,1,1,0,1,0,0,0,0],"id":55,"left_children":[1,3,5,-1,7,-1,-1,-1,-1],"loss_changes":[6.6429324E-2,8.203373E-2,3.2769505E-2,0E0,5.0730035E-2,0E0,0E0,0E0,0E0],"parents":[2147483647,0,0,1,1,2,2,4,4],"right_children":[2,4,6,-1,8,-1,-1,-1,-1],"split_conditions":[5.27078E-2,3.0212404E-2,8.271757E-2,-2.8501546E-2,2.9392324E-2,-5.3857855E-2,5.814569E-3,-1.8637695E-3,7.703268E-2],"split_indices":[17,62,17,0,3,0,0,0,0],"split_type":[0,0,0,0,0,0,0,0,0],"sum_hessian":[5.452107E0,3.2512832E0,2.2008238E0,1.0330237E0,2.2182596E0,1.1357061E0,1.0651176E0,1.0350763E0,1.1831833E0],"tree_param":{"num_deleted":"0","num_feature":"75","num_nodes":"9","size_leaf_vector":"0"}},{"base_weights":[1.1520018E-3,-1.3816677E-1,5.91355E-2,1.4598401E-1,-8.889128E-2,-1.28088305E-2,2.2052447E-1],"categories":[],"categories_nodes":[],"categories_segments":[],"categories_sizes":[],"default_left":[1,0,1,1,0,0,0],"id":56,"left_children":[1,-1,3,5,-1,-1,-1],"loss_changes":[5.9819136E-2,0E0,8.001904E-2,4.620637E-2,0E0,0E0,0E0],"parents":[2147483647,0,0,2,2,3,3],"right_children":[2,-1,4,6,-1,-1,-1],"split_conditions":[5.0337456E-2,-4.145003E-2,1.1555173E-1,3.0514285E-2,-2.6667386E-2,-3.8426493E-3,6.615735E-2],"split_indices":[13,0,60,47,0,0,0],"split_type":[0,0,0,0,0,0,0],"sum_hessian":[5.393583E0,1.1786764E0,4.2149067E0,2.6650817E0,1.549825E0,1.115949E0,1.5491326E0],"tree_param":{"num_deleted":"0","num_feature":"75","num_nodes":"7","size_leaf_vector":"0"}},{"base_weights":[9.614018E-7,-5.49076E-2,1.3627875E-1,7.694998E-2,-1.507141E-1,-2.970348E-1,6.05218E-2],"categories":[],"categories_nodes":[],"categories_segments":[],"categories_sizes":[],"default_left":[1,1,0,0,1,0,0],"id":57,"left_children":[1,3,-1,-1,5,-1,-1],"loss_changes":[5.4995727E-2,7.777841E-2,0E0,0E0,1.22205466E-1,0E0,0E0],"parents":[2147483647,0,0,1,1,4,4],"right_children":[2,4,-1,-1,6,-1,-1],"split_conditions":[2.0718181E-1,6.8687975E-2,4.0883627E-2,2.3084994E-2,1.2770624E-1,-8.911044E-2,1.8156542E-2],"split_indices":[12,27,0,0,4,0,0],"split_type":[0,0,0,0,0,0,0],"sum_hessian":[5.3496118E0,4.2388144E0,1.1107973E0,1.8666207E0,2.3721936E0,1.1614764E0,1.2107172E0],"tree_param":{"num_deleted":"0","num_feature":"75","num_nodes":"7","size_leaf_vector":"0"}},{"base_weights":[-1.4224962E-3,-1.2984115E-1,6.1722394E-2,1.3744038E-1,-1.0690595E-1,-4.331852E-2,2.786022E-1],"categories":[],"categories_nodes":[],"categories_segments":[],"categories_sizes":[],"default_left":[1,0,1,1,0,0,0],"id":58,"left_children":[1,-1,3,5,-1,-1,-1],"loss_changes":[5.901307E-2,0E0,7.717938E-2,1.09410375E-1,0E0,0E0,0E0],"parents":[2147483647,0,0,2,2,3,3],"right_children":[2,-1,4,6,-1,-1,-1],"split_conditions":[3.3876978E-2,-3.8952347E-2,5.26243E-3,4.3360926E-2,-3.2071788E-2,-1.2995557E-2,8.3580665E-2],"split_indices":[12,0,31,2,0,0,0],"split_type":[0,0,0,0,0,0,0],"sum_hessian":[5.2891946E0,1.3953038E0,3.8938909E0,2.814891E0,1.0789998E0,1.538262E0,1.2766291E0],"tree_param":{"num_deleted":"0","num_feature":"75","num_nodes":"7","size_leaf_vector":"0"}},{"base_weights":[-8.454119E-4,6.228089E-2,-1.1643207E-1,-6.5311335E-2,1.7366587E-1],"categories":[],"categories_nodes":[],"categories_segments":[],"categories_sizes":[],"default_left":[1,1,0,0,0],"id":59,"left_children":[1,3,-1,-1,-1],"loss_changes":[5.2715365E-2,7.7874534E-2,0E0,0E0,0E0],"parents":[2147483647,0,0,1,1],"right_children":[2,4,-1,-1,-1],"split_conditions":[6.552197E-2,7.572739E-4,-3.4929622E-2,-1.95934E-2,5.209976E-2],"split_indices":[17,31,0,0,0],"split_type":[0,0,0,0,0],"sum_hessian":[5.2308645E0,3.681456E0,1.5494084E0,1.9086863E0,1.7727698E0],"tree_param":{"num_deleted":"0","num_feature":"75","num_nodes":"5","size_leaf_vector":"0"}},{"base_weights":[-9.4674993E-4,7.306024E-2,-1.0259333E-1,-8.599636E-2,1.7373978E-1,6.513429E-2,-2.1854207E-1],"categories":[],"categories_nodes":[],"categories_segments":[],"categories_sizes":[],"default_left":[1,1,1,0,0,0,0],"id":60,"left_children":[1,3,5,-1,-1,-1,-1],"loss_changes":[5.4164797E-2,8.178438E-2,7.315734E-2,0E0,0E0,0E0,0E0],"parents":[2147483647,0,0,1,1,2,2],"right_children":[2,4,6,-1,-1,-1,-1],"split_conditions":[2.264881E-3,1.0252224E-1,3.5785336E-2,-2.579891E-2,5.2121934E-2,1.9540288E-2,-6.556262E-2],"split_indices":[16,0,2,0,0,0,0],"split_type":[0,0,0,0,0,0,0],"sum_hessian":[5.2039156E0,3.1741261E0,2.0297894E0,1.2868935E0,1.8872325E0,1.0087762E0,1.0210133E0],"tree_param":{"num_deleted":"0","num_feature":"75","num_nodes":"7","size_leaf_vector":"0"}},{"base_weights":[-3.9262474E-3,9.910967E-2,-7.1533546E-2,9.264199E-2,-1.8358481E-1],"categories":[],"categories_nodes":[],"categories_segments":[],"categories_sizes":[],"default_left":[1,0,1,0,0],"id":61,"left_children":[1,-1,3,-1,-1],"loss_changes":[4.994844E-2,0E0,9.603327E-2,0E0,0E0],"parents":[2147483647,0,0,2,2],"right_children":[2,-1,4,-1,-1],"split_conditions":[1.06171764E-1,2.9732903E-2,1.2137379E-1,2.7792597E-2,-5.5075444E-2],"split_indices":[45,0,71,0,0],"split_type":[0,0,0,0,0],"sum_hessian":[5.1525836E0,1.8567973E0,3.2957861E0,1.4071997E0,1.8885864E0],"tree_param":{"num_deleted":"0","num_feature":"75","num_nodes":"5","size_leaf_vector":"0"}},{"base_weights":[-2.46076E-3,-7.050243E-2,1.2632678E-1,-2.064069E-1,3.9178014E-2,1.7510231E-1,-1.15020774E-1],"categories":[],"categories_nodes":[],"categories_segments":[],"categories_sizes":[],"default_left":[1,1,0,0,1,0,0],"id":62,"left_children":[1,3,-1,-1,5,-1,-1],"loss_changes":[6.250455E-2,7.7308714E-2,0E0,0E0,9.1619305E-2,0E0,0E0],"parents":[2147483647,0,0,1,1,4,4],"right_children":[2,4,-1,-1,6,-1,-1],"split_conditions":[1.7769723E-1,3.0597836E-2,3.7898038E-2,-6.1922073E-2,5.396261E-2,5.2530695E-2,-3.4506235E-2],"split_indices":[11,2,0,0,2,0,0],"split_type":[0,0,0,0,0,0,0],"sum_hessian":[5.1164784E0,3.6438892E0,1.4725893E0,1.2335322E0,2.410357E0,1.2090406E0,1.2013164E0],"tree_param":{"num_deleted":"0","num_feature":"75","num_nodes":"7","size_leaf_vector":"0"}},{"base_weights":[-2.78809E-3,-5.951373E-2,1.0416849E-1,4.5731068E-2,-1.8547195E-1,1.5621431E-1,-9.715008E-2],"categories":[],"categories_nodes":[],"categories_segments":[],"categories_sizes":[],"default_left":[1,1,0,1,0,0,0],"id":63,"left_children":[1,3,-1,5,-1,-1,-1],"loss_changes":[4.297697E-2,6.9426715E-2,0E0,6.7377776E-2,0E0,0E0,0E0],"parents":[2147483647,0,0,1,1,3,3],"right_children":[2,4,-1,6,-1,-1,-1],"split_conditions":[1.7769723E-1,4.6088907E-4,3.1250548E-2,1.2516062E-1,-5.5641588E-2,4.6864294E-2,-2.9145025E-2],"split_indices":[11,1,0,71,0,0,0],"split_type":[0,0,0,0,0,0,0],"sum_hessian":[5.0617146E0,3.5973763E0,1.4643383E0,2.306831E0,1.2905453E0,1.2482792E0,1.0585518E0],"tree_param":{"num_deleted":"0","num_feature":"75","num_nodes":"7","size_leaf_vector":"0"}},{"base_weights":[-3.127397E-3,-6.5693095E-2,9.6234545E-2,1.06268875E-1,-1.6046356E-1,7.013091E-2,-3.2715768E-1],"categories":[],"categories_nodes":[],"categories_segments":[],"categories_sizes":[],"default_left":[1,1,0,0,1,0,0],"id":64,"left_children":[1,3,-1,-1,5,-1,-1],"loss_changes":[4.3713883E-2,8.688632E-2,0E0,0E0,1.4444917E-1,0E0,0E0],"parents":[2147483647,0,0,1,1,4,4],"right_children":[2,4,-1,-1,6,-1,-1],"split_conditions":[4.6240026E-3,1.011314E-1,2.8870365E-2,3.1880666E-2,1.3232683E-1,2.1039274E-2,-9.814731E-2],"split_indices":[46,30,0,0,71,0,0],"split_type":[0,0,0,0,0,0,0],"sum_hessian":[5.0148063E0,3.2851074E0,1.7296985E0,1.1240956E0,2.161012E0,1.1497717E0,1.0112402E0],"tree_param":{"num_deleted":"0","num_feature":"75","num_nodes":"7","size_leaf_vector":"0"}},{"base_weights":[-5.356579E-3,4.451981E-2,-1.1568752E-1,1.1702948E-1,-1.00611866E-1,2.0407383E-1,-2.956118E-2],"categories":[],"categories_nodes":[],"categories_segments":[],"categories_sizes":[],"default_left":[1,1,0,1,0,0,0],"id":65,"left_children":[1,3,-1,5,-1,-1,-1],"loss_changes":[3.7914313E-2,6.2523246E-2,0E0,5.296444E-2,0E0,0E0,0E0],"parents":[2147483647,0,0,1,1,3,3],"right_children":[2,4,-1,6,-1,-1,-1],"split_conditions":[1.4986533E-1,1.8804222E-1,-3.4706257E-2,1.698179E-1,-3.0183561E-2,6.122215E-2,-8.868354E-3],"split_indices":[68,72,0,10,0,0,0],"split_type":[0,0,0,0,0,0,0],"sum_hessian":[4.953928E0,3.8224387E0,1.1314894E0,2.6780715E0,1.144367E0,1.434276E0,1.2437956E0],"tree_param":{"num_deleted":"0","num_feature":"75","num_nodes":"7","size_leaf_vector":"0"}},{"base_weights":[-5.8130343E-3,9.1538005E-2,-6.5374635E-2,4.0254746E-2,-1.7394471E-1],"categories":[],"categories_nodes":[],"categories_segments":[],"categories_sizes":[],"default_left":[1,0,1,0,0],"id":66,"left_children":[1,-1,3,-1,-1],"loss_changes":[4.0302504E-2,0E0,5.5803284E-2,0E0,0E0],"parents":[2147483647,0,0,2,2],"right_children":[2,-1,4,-1,-1],"split_conditions":[2.960489E-2,2.7461402E-2,2.264881E-3,1.2076424E-2,-5.2183416E-2],"split_indices":[17,0,16,0,0],"split_type":[0,0,0,0,0],"sum_hessian":[4.9185867E0,1.6632344E0,3.2553523E0,1.9689553E0,1.286397E0],"tree_param":{"num_deleted":"0","num_feature":"75","num_nodes":"5","size_leaf_vector":"0"}},{"base_weights":[-6.3024866E-3,-5.3775188E-2,1.0830467E-1,-1.4736822E-1,6.895692E-2,-3.1519115E-1,9.086824E-2],"categories":[],"categories_nodes":[],"categories_segments":[],"categories_sizes":[],"default_left":[1,1,0,1,0,0,0],"id":67,"left_children":[1,3,-1,5,-1,-1,-1],"loss_changes":[3.7898436E-2,6.572133E-2,0E0,1.5110049E-1,0E0,0E0,0E0],"parents":[2147483647,0,0,1,1,3,3],"right_children":[2,4,-1,6,-1,-1,-1],"split_conditions":[1.9734383E-1,2.9326327E-2,3.2491405E-2,1.3205504E-1,2.0687077E-2,-9.455735E-2,2.7260473E-2],"split_indices":[12,3,0,15,0,0,0],"split_type":[0,0,0,0,0,0,0],"sum_hessian":[4.8952456E0,3.8367639E0,1.0584817E0,2.0629041E0,1.7738599E0,1.0207973E0,1.0421069E0],"tree_param":{"num_deleted":"0","num_feature":"75","num_nodes":"7","size_leaf_vector":"0"}},{"base_weights":[-7.2726873E-3,-1.061303E-1,4.4830278E-2,-9.2202544E-2,1.2500066E-1,2.2315766E-1,-4.9029022E-2],"categories":[],"categories_nodes":[],"categories_segments":[],"categories_sizes":[],"default_left":[1,0,1,0,1,0,0],"id":68,"left_children":[1,-1,3,-1,5,-1,-1],"loss_changes":[3.480484E-2,0E0,6.121642E-2,0E0,6.6939E-2,0E0,0E0],"parents":[2147483647,0,0,2,2,4,4],"right_children":[2,-1,4,-1,6,-1,-1],"split_conditions":[3.3876978E-2,-3.183909E-2,3.7900116E-2,-2.7660765E-2,1.7735484E-1,6.69473E-2,-1.4708707E-2],"split_indices":[12,0,62,0,12,0,0],"split_type":[0,0,0,0,0,0,0],"sum_hessian":[4.8334885E0,1.3103536E0,3.523135E0,1.2450042E0,2.2781308E0,1.2760888E0,1.0020419E0],"tree_param":{"num_deleted":"0","num_feature":"75","num_nodes":"7","size_leaf_vector":"0"}},{"base_weights":[-6.257749E-3,-5.8525544E-2,9.2114605E-2,4.3380797E-2,-1.8469645E-1,1.1246786E-1,-4.6643928E-2],"categories":[],"categories_nodes":[],"categories_segments":[],"categories_sizes":[],"default_left":[1,1,0,1,0,0,0],"id":69,"left_children":[1,3,-1,5,-1,-1,-1],"loss_changes":[3.5174288E-2,6.451049E-2,0E0,2.5401061E-2,0E0,0E0,0E0],"parents":[2147483647,0,0,1,1,3,3],"right_children":[2,4,-1,6,-1,-1,-1],"split_conditions":[1.7769723E-1,4.6999502E-4,2.7634382E-2,1.05211124E-1,-5.5408936E-2,3.374036E-2,-1.39931785E-2],"split_indices":[11,61,0,34,0,0,0],"split_type":[0,0,0,0,0,0,0],"sum_hessian":[4.79248E0,3.3941438E0,1.3983359E0,2.2406106E0,1.1535331E0,1.1266747E0,1.1139361E0],"tree_param":{"num_deleted":"0","num_feature":"75","num_nodes":"7","size_leaf_vector":"0"}},{"base_weights":[-5.873837E-3,-1.16473794E-1,4.2654768E-2,-6.856517E-2,1.537599E-1,-2.0449004E-1,9.796098E-2],"categories":[],"categories_nodes":[],"categories_segments":[],"categories_sizes":[],"default_left":[1,0,1,1,0,0,0],"id":70,"left_children":[1,-1,3,5,-1,-1,-1],"loss_changes":[3.5874903E-2,0E0,6.9043905E-2,8.923847E-2,0E0,0E0,0E0],"parents":[2147483647,0,0,2,2,3,3],"right_children":[2,-1,4,6,-1,-1,-1],"split_conditions":[5.0337456E-2,-3.494214E-2,7.572739E-4,1.517186E-1,4.612797E-2,-6.134701E-2,2.9388295E-2],"split_indices":[13,0,31,9,0,0,0],"split_type":[0,0,0,0,0,0,0],"sum_hessian":[4.758382E0,1.0241559E0,3.734226E0,2.05749E0,1.6767359E0,1.0073103E0,1.0501798E0],"tree_param":{"num_deleted":"0","num_feature":"75","num_nodes":"7","size_leaf_vector":"0"}},{"base_weights":[-7.855111E-3,6.8918936E-2,-7.811582E-2,-3.4150552E-2,1.5040784E-1,-1.6786398E-1,3.8901433E-2],"categories":[],"categories_nodes":[],"categories_segments":[],"categories_sizes":[],"default_left":[1,1,1,0,0,0,0],"id":71,"left_children":[1,3,5,-1,-1,-1,-1],"loss_changes":[3.620219E-2,3.2528795E-2,4.2782336E-2,0E0,0E0,0E0,0E0],"parents":[2147483647,0,0,1,1,2,2],"right_children":[2,4,6,-1,-1,-1,-1],"split_conditions":[1.12310424E-1,7.572739E-4,6.691328E-2,-1.0245166E-2,4.512235E-2,-5.0359197E-2,1.167043E-2],"split_indices":[60,46,47,0,0,0,0],"split_type":[0,0,0,0,0,0,0],"sum_hessian":[4.713272E0,2.2613673E0,2.4519045E0,1.254967E0,1.0064005E0,1.1417211E0,1.3101835E0],"tree_param":{"num_deleted":"0","num_feature":"75","num_nodes":"7","size_leaf_vector":"0"}},{"base_weights":[-6.2272726E-3,7.736914E-2,-5.9743583E-2,-1.9773151E-1,8.072201E-2],"categories":[],"categories_nodes":[],"categories_segments":[],"categories_sizes":[],"default_left":[1,0,1,0,0],"id":72,"left_children":[1,-1,3,-1,-1],"loss_changes":[3.0055452E-2,0E0,9.407946E-2,0E0,0E0],"parents":[2147483647,0,0,2,2],"right_children":[2,-1,4,-1,-1],"split_conditions":[6.8687975E-2,2.3210742E-2,1.4458047E-1,-5.9319455E-2,2.4216605E-2],"split_indices":[27,0,9,0,0],"split_type":[0,0,0,0,0],"sum_hessian":[4.684944E0,1.65461E0,3.030334E0,1.322992E0,1.707342E0],"tree_param":{"num_deleted":"0","num_feature":"75","num_nodes":"5","size_leaf_vector":"0"}},{"base_weights":[-6.604327E-3,-5.8532942E-2,1.1666026E-1,6.2999465E-2,-1.4664878E-1],"categories":[],"categories_nodes":[],"categories_segments":[],"categories_sizes":[],"default_left":[1,1,0,0,0],"id":73,"left_children":[1,3,-1,-1,-1],"loss_changes":[4.3014497E-2,5.8965243E-2,0E0,0E0,0E0],"parents":[2147483647,0,0,1,1],"right_children":[2,4,-1,-1,-1],"split_conditions":[1.9734383E-1,6.8687975E-2,3.4998078E-2,1.889984E-2,-4.3994635E-2],"split_indices":[12,27,0,0,0],"split_type":[0,0,0,0,0],"sum_hessian":[4.653219E0,3.6434565E0,1.009763E0,1.651159E0,1.9922974E0],"tree_param":{"num_deleted":"0","num_feature":"75","num_nodes":"5","size_leaf_vector":"0"}},{"base_weights":[-2.9315206E-3,-1.0709386E-1,5.241137E-2,1.2736496E-1,-9.303843E-2,2.2257826E-1,-4.4415373E-2],"categories":[],"categories_nodes":[],"categories_segments":[],"categories_sizes":[],"default_left":[1,0,1,1,0,0,0],"id":74,"left_children":[1,-1,3,5,-1,-1,-1],"loss_changes":[3.8058374E-2,0E0,5.9239857E-2,6.370896E-2,0E0,0E0,0E0],"parents":[2147483647,0,0,2,2,3,3],"right_children":[2,-1,4,6,-1,-1,-1],"split_conditions":[3.3876978E-2,-3.212816E-2,1.8804222E-1,1.369007E-1,-2.791153E-2,6.677348E-2,-1.3324613E-2],"split_indices":[12,0,72,68,0,0,0],"split_type":[0,0,0,0,0,0,0],"sum_hessian":[4.62835E0,1.281433E0,3.3469167E0,2.2907689E0,1.0561479E0,1.2835928E0,1.007176E0],"tree_param":{"num_deleted":"0","num_feature":"75","num_nodes":"7","size_leaf_vector":"0"}},{"base_weights":[-3.1247772E-3,7.2093196E-2,-7.366405E-2,1.3667473E-1,-3.234986E-2,3.5687666E-2,-1.515725E-1],"categories":[],"categories_nodes":[],"categories_segments":[],"categories_sizes":[],"default_left":[1,1,1,0,0,0,0],"id":75,"left_children":[1,3,5,-1,-1,-1,-1],"loss_changes":[3.4974396E-2,2.6080253E-2,3.4202665E-2,0E0,0E0,0E0,0E0],"parents":[2147483647,0,0,1,1,2,2],"right_children":[2,4,6,-1,-1,-1,-1],"split_conditions":[1.12310424E-1,1.011314E-1,2.5047061E-3,4.1002423E-2,-9.704958E-3,1.07063E-2,-4.547175E-2],"split_indices":[60,30,16,0,0,0,0],"split_type":[0,0,0,0,0,0,0],"sum_hessian":[4.590788E0,2.2110522E0,2.3797355E0,1.1755531E0,1.0354992E0,1.2155404E0,1.1641951E0],"tree_param":{"num_deleted":"0","num_feature":"75","num_nodes":"7","size_leaf_vector":"0"}},{"base_weights":[-2.8421339E-3,-6.187432E-2,8.8426165E-2,7.488798E-2,-1.3453908E-1],"categories":[],"categories_nodes":[],"categories_segments":[],"categories_sizes":[],"default_left":[1,1,0,0,0],"id":76,"left_children":[1,3,-1,-1,-1],"loss_changes":[3.5468582E-2,4.9520783E-2,0E0,0E0,0E0],"parents":[2147483647,0,0,1,1],"right_children":[2,4,-1,-1,-1],"split_conditions":[4.6240026E-3,1.011314E-1,2.652785E-2,2.2466395E-2,-4.0361725E-2],"split_indices":[46,30,0,0,0],"split_type":[0,0,0,0,0],"sum_hessian":[4.5676637E0,2.969231E0,1.5984325E0,1.0196162E0,1.9496148E0],"tree_param":{"num_deleted":"0","num_feature":"75","num_nodes":"5","size_leaf_vector":"0"}},{"base_weights":[-4.742714E-4,-4.387319E-2,9.833019E-2,7.413565E-2,-1.3421667E-1],"categories":[],"categories_nodes":[],"categories_segments":[],"categories_sizes":[],"default_left":[1,1,0,0,0],"id":77,"left_children":[1,3,-1,-1,-1],"loss_changes":[2.8114684E-2,5.8438282E-2,0E0,0E0,0E0],"parents":[2147483647,0,0,1,1],"right_children":[2,4,-1,-1,-1],"split_conditions":[1.9589598E-1,6.8687975E-2,2.949906E-2,2.2240696E-2,-4.0265E-2],"split_indices":[12,27,0,0,0],"split_type":[0,0,0,0,0],"sum_hessian":[4.55051E0,3.5480306E0,1.0024792E0,1.616249E0,1.9317816E0],"tree_param":{"num_deleted":"0","num_feature":"75","num_nodes":"5","size_leaf_vector":"0"}},{"base_weights":[1.7062163E-3,-9.462659E-2,5.2096672E-2,-8.6864255E-2,1.3077943E-1,2.1163249E-1,-1.4083606E-2],"categories":[],"categories_nodes":[],"categories_segments":[],"categories_sizes":[],"default_left":[1,0,1,0,1,0,0],"id":78,"left_children":[1,-1,3,-1,5,-1,-1],"loss_changes":[3.1771224E-2,0E0,5.8106262E-2,0E0,3.9627556E-2,0E0,0E0],"parents":[2147483647,0,0,2,2,4,4],"right_children":[2,-1,4,-1,6,-1,-1],"split_conditions":[3.3876978E-2,-2.8387979E-2,3.7900116E-2,-2.6059277E-2,1.7339043E-1,6.348975E-2,-4.225082E-3],"split_indices":[12,0,62,0,57,0,0],"split_type":[0,0,0,0,0,0,0],"sum_hessian":[4.5294776E0,1.2541046E0,3.2753732E0,1.1465248E0,2.1288483E0,1.0704685E0,1.0583798E0],"tree_param":{"num_deleted":"0","num_feature":"75","num_nodes":"7","size_leaf_vector":"0"}},{"base_weights":[2.184987E-3,6.3644014E-2,-6.670656E-2,-5.502898E-2,1.3630643E-1,2.810153E-2,-1.2778257E-1],"categories":[],"categories_nodes":[],"categories_segments":[],"categories_sizes":[],"default_left":[1,1,1,0,0,0,0],"id":79,"left_children":[1,3,5,-1,-1,-1,-1],"loss_changes":[2.7516266E-2,3.6961704E-2,2.1423534E-2,0E0,0E0,0E0,0E0],"parents":[2147483647,0,0,1,1,2,2],"right_children":[2,4,6,-1,-1,-1,-1],"split_conditions":[1.1555173E-1,3.0514285E-2,2.5047061E-3,-1.6508695E-2,4.089193E-2,8.43046E-3,-3.8334772E-2],"split_indices":[60,47,16,0,0,0,0],"split_type":[0,0,0,0,0,0,0],"sum_hessian":[4.4961615E0,2.416522E0,2.0796392E0,1.0098693E0,1.4066527E0,1.0263427E0,1.0532964E0],"tree_param":{"num_deleted":"0","num_feature":"75","num_nodes":"7","size_leaf_vector":"0"}},{"base_weights":[5.304634E-4,-5.1315635E-2,9.4110794E-2,3.5598043E-2,-1.5789497E-1,9.85117E-2,-4.4960335E-2],"categories":[],"categories_nodes":[],"categories_segments":[],"categories_sizes":[],"default_left":[1,1,0,1,0,0,0],"id":80,"left_children":[1,3,-1,5,-1,-1,-1],"loss_changes":[3.1390008E-2,4.424707E-2,0E0,2.0205786E-2,0E0,0E0,0E0],"parents":[2147483647,0,0,1,1,3,3],"right_children":[2,4,-1,6,-1,-1,-1],"split_conditions":[1.7769723E-1,4.6999502E-4,2.823324E-2,1.05211124E-1,-4.7368493E-2,2.9553512E-2,-1.3488101E-2],"split_indices":[11,61,0,34,0,0,0],"split_type":[0,0,0,0,0,0,0],"sum_hessian":[4.47442E0,3.1698668E0,1.3045534E0,2.1128597E0,1.0570072E0,1.0612187E0,1.0516409E0],"tree_param":{"num_deleted":"0","num_feature":"75","num_nodes":"7","size_leaf_vector":"0"}},{"base_weights":[-2.3202327E-4,-5.0886273E-2,1.00431405E-1,5.552933E-2,-1.8819948E-1,-1.1337126E-1,2.1112503E-1],"categories":[],"categories_nodes":[],"categories_segments":[],"categories_sizes":[],"default_left":[1,1,0,1,0,0,0],"id":81,"left_children":[1,3,-1,5,-1,-1,-1],"loss_changes":[3.2890927E-2,7.310914E-2,0E0,1.07717E-1,0E0,0E0,0E0],"parents":[2147483647,0,0,1,1,3,3],"right_children":[2,4,-1,6,-1,-1,-1],"split_conditions":[3.8641177E-2,2.264881E-3,3.0129423E-2,1.14612855E-1,-5.6459844E-2,-3.401138E-2,6.333751E-2],"split_indices":[3,16,0,0,0,0,0],"split_type":[0,0,0,0,0,0,0],"sum_hessian":[4.4481626E0,3.2880788E0,1.1600838E0,2.1880076E0,1.1000712E0,1.1792709E0,1.0087368E0],"tree_param":{"num_deleted":"0","num_feature":"75","num_nodes":"7","size_leaf_vector":"0"}},{"base_weights":[4.0263668E-4,-5.2777838E-2,9.582992E-2,7.2072305E-2,-1.2284055E-1],"categories":[],"categories_nodes":[],"categories_segments":[],"categories_sizes":[],"default_left":[1,1,0,0,0],"id":82,"left_children":[1,3,-1,-1,-1],"loss_changes":[3.243308E-2,4.4794135E-2,0E0,0E0,0E0],"parents":[2147483647,0,0,1,1],"right_children":[2,4,-1,-1,-1],"split_conditions":[1.7769723E-1,6.290296E-2,2.8748976E-2,2.1621693E-2,-3.6852166E-2],"split_indices":[11,73,0,0,0],"split_type":[0,0,0,0,0],"sum_hessian":[4.3943057E0,3.1087618E0,1.2855442E0,1.1071547E0,2.001607E0],"tree_param":{"num_deleted":"0","num_feature":"75","num_nodes":"5","size_leaf_vector":"0"}},{"base_weights":[2.7702863E-3,6.540055E-2,-8.03731E-2,-6.283094E-2,1.6300516E-1],"categories":[],"categories_nodes":[],"categories_segments":[],"categories_sizes":[],"default_left":[1,1,0,0,0],"id":83,"left_children":[1,3,-1,-1,-1],"loss_changes":[3.324332E-2,5.5509377E-2,0E0,0E0,0E0],"parents":[2147483647,0,0,1,1],"right_children":[2,4,-1,-1,-1],"split_conditions":[5.27078E-2,2.9326327E-2,-2.4111932E-2,-1.8849283E-2,4.890155E-2],"split_indices":[17,3,0,0,0],"split_type":[0,0,0,0,0],"sum_hessian":[4.374554E0,2.6167836E0,1.7577707E0,1.2849311E0,1.3318526E0],"tree_param":{"num_deleted":"0","num_feature":"75","num_nodes":"5","size_leaf_vector":"0"}},{"base_weights":[3.1087664E-3,-4.3682132E-2,9.633976E-2,1.0283321E-1,-1.2660457E-1,5.5347774E-2,-2.4722075E-1],"categories":[],"categories_nodes":[],"categories_segments":[],"categories_sizes":[],"default_left":[1,1,0,0,1,0,0],"id":84,"left_children":[1,3,-1,-1,5,-1,-1],"loss_changes":[2.7554294E-2,6.467056E-2,0E0,0E0,8.3100505E-2,0E0,0E0],"parents":[2147483647,0,0,1,1,4,4],"right_children":[2,4,-1,-1,6,-1,-1],"split_conditions":[1.1808247E-2,3.419362E-2,2.8901929E-2,3.0849965E-2,1.2137379E-1,1.6604332E-2,-7.416623E-2],"split_indices":[46,32,0,0,71,0,0],"split_type":[0,0,0,0,0,0,0],"sum_hessian":[4.35168E0,3.251351E0,1.1003289E0,1.088309E0,2.163042E0,1.0779915E0,1.0850506E0],"tree_param":{"num_deleted":"0","num_feature":"75","num_nodes":"7","size_leaf_vector":"0"}},{"base_weights":[2.407943E-3,6.102029E-2,-7.016019E-2,-9.487721E-2,1.6261882E-1],"categories":[],"categories_nodes":[],"categories_segments":[],"categories_sizes":[],"default_left":[1,1,0,0,0],"id":85,"left_children":[1,3,-1,-1,-1],"loss_changes":[2.687416E-2,7.044171E-2,0E0,0E0,0E0],"parents":[2147483647,0,0,1,1],"right_children":[2,4,-1,-1,-1],"split_conditions":[1.0295605E-1,1.0764176E-1,-2.1048058E-2,-2.8463164E-2,4.8785646E-2],"split_indices":[64,0,0,0,0],"split_type":[0,0,0,0,0],"sum_hessian":[4.3117566E0,2.473264E0,1.8384926E0,1.0019623E0,1.4713018E0],"tree_param":{"num_deleted":"0","num_feature":"75","num_nodes":"5","size_leaf_vector":"0"}},{"base_weights":[1.6039833E-3,7.6994866E-2,-7.162354E-2,1.2747237E-1,-1.105252E-2,-1.4621718E-1,3.131749E-2],"categories":[],"categories_nodes":[],"categories_segments":[],"categories_sizes":[],"default_left":[1,1,1,0,0,0,0],"id":86,"left_children":[1,3,5,-1,-1,-1,-1],"loss_changes":[3.4705814E-2,1.51298735E-2,2.915386E-2,0E0,0E0,0E0,0E0],"parents":[2147483647,0,0,1,1,2,2],"right_children":[2,4,6,-1,-1,-1,-1],"split_conditions":[1.12310424E-1,1.4607802E-1,6.691328E-2,3.8241714E-2,-3.315756E-3,-4.3865155E-2,9.395247E-3],"split_indices":[60,68,47,0,0,0,0],"split_type":[0,0,0,0,0,0,0],"sum_hessian":[4.2875967E0,2.087243E0,2.2003536E0,1.0420604E0,1.0451827E0,1.032083E0,1.1682706E0],"tree_param":{"num_deleted":"0","num_feature":"75","num_nodes":"7","size_leaf_vector":"0"}},{"base_weights":[1.1910455E-3,5.1813465E-2,-8.519081E-2,-6.031462E-2,1.6533329E-1],"categories":[],"categories_nodes":[],"categories_segments":[],"categories_sizes":[],"default_left":[1,1,0,0,0],"id":87,"left_children":[1,3,-1,-1,-1],"loss_changes":[2.7449736E-2,6.016454E-2,0E0,0E0,0E0],"parents":[2147483647,0,0,1,1],"right_children":[2,4,-1,-1,-1],"split_conditions":[6.543212E-2,1.6702652E-1,-2.5557244E-2,-1.8094387E-2,4.9599987E-2],"split_indices":[62,11,0,0,0],"split_type":[0,0,0,0,0],"sum_hessian":[4.2678833E0,2.9432373E0,1.3246462E0,1.7164838E0,1.2267535E0],"tree_param":{"num_deleted":"0","num_feature":"75","num_nodes":"5","size_leaf_vector":"0"}},{"base_weights":[2.0211258E-3,-8.539674E-2,4.398109E-2,1.1406593E-1,-6.50689E-2],"categories":[],"categories_nodes":[],"categories_segments":[],"categories_sizes":[],"default_left":[1,0,1,0,0],"id":88,"left_children":[1,-1,3,-1,-1],"loss_changes":[2.3001034E-2,0E0,3.956104E-2,0E0,0E0],"parents":[2147483647,0,0,2,2],"right_children":[2,-1,4,-1,-1],"split_conditions":[5.5644933E-2,-2.5619023E-2,1.12310424E-1,3.421978E-2,-1.952067E-2],"split_indices":[13,0,60,0,0],"split_type":[0,0,0,0,0],"sum_hessian":[4.2467093E0,1.0415618E0,3.2051475E0,1.9231623E0,1.281985E0],"tree_param":{"num_deleted":"0","num_feature":"75","num_nodes":"5","size_leaf_vector":"0"}},{"base_weights":[-6.5547094E-4,-5.1865395E-2,7.6276794E-2,-1.3053091E-1,5.84273E-2],"categories":[],"categories_nodes":[],"categories_segments":[],"categories_sizes":[],"default_left":[1,1,0,0,0],"id":89,"left_children":[1,3,-1,-1,-1],"loss_changes":[2.4563579E-2,4.0037513E-2,0E0,0E0,0E0],"parents":[2147483647,0,0,1,1],"right_children":[2,4,-1,-1,-1],"split_conditions":[4.6240026E-3,1.7868532E-1,2.2883039E-2,-3.9159276E-2,1.7528191E-2],"split_indices":[46,10,0,0,0],"split_type":[0,0,0,0,0],"sum_hessian":[4.230723E0,2.7356017E0,1.4951215E0,1.4896344E0,1.2459671E0],"tree_param":{"num_deleted":"0","num_feature":"75","num_nodes":"5","size_leaf_vector":"0"}},{"base_weights":[-2.5174062E-4,8.542943E-2,-4.3425888E-2,-1.6301925E-1,7.377218E-2],"categories":[],"categories_nodes":[],"categories_segments":[],"categories_sizes":[],"default_left":[1,0,1,0,0],"id":90,"left_children":[1,-1,3,-1,-1],"loss_changes":[2.3007447E-2,0E0,6.993763E-2,0E0,0E0],"parents":[2147483647,0,0,2,2],"right_children":[2,-1,4,-1,-1],"split_conditions":[4.9126938E-2,2.562883E-2,1.6050757E-1,-4.890578E-2,2.2131654E-2],"split_indices":[73,0,11,0,0],"split_type":[0,0,0,0,0],"sum_hessian":[4.2166786E0,1.0849086E0,3.1317704E0,1.3565366E0,1.7752336E0],"tree_param":{"num_deleted":"0","num_feature":"75","num_nodes":"5","size_leaf_vector":"0"}},{"base_weights":[-4.6318411E-4,7.6253526E-2,-5.0598346E-2,-1.8196882E-1,8.163765E-2],"categories":[],"categories_nodes":[],"categories_segments":[],"categories_sizes":[],"default_left":[1,0,1,0,0],"id":91,"left_children":[1,-1,3,-1,-1],