{"learner":{"attributes":{"best_iteration":"999","best_ntree_limit":"1000","scikit_learn":"{\"use_label_encoder\": null, \"n_estimators\": 1000, \"max_depth\": null, \"max_leaves\": null, \"max_bin\": null, \"grow_policy\": null, \"learning_rate\": null, \"verbosity\": null, \"booster\": null, \"tree_method\": null, \"gamma\": null, \"min_child_weight\": null, \"max_delta_step\": null, \"subsample\": null, \"sampling_method\": null, \"colsample_bytree\": null, \"colsample_bylevel\": null, \"colsample_bynode\": null, \"reg_alpha\": null, \"reg_lambda\": null, \"scale_pos_weight\": null, \"base_score\": null, \"missing\": NaN, \"num_parallel_tree\": null, \"random_state\": 4, \"n_jobs\": null, \"monotone_constraints\": null, \"interaction_constraints\": null, \"importance_type\": null, \"gpu_id\": null, \"validate_parameters\": null, \"predictor\": null, \"enable_categorical\": false, \"feature_types\": null, \"max_cat_to_onehot\": null, \"max_cat_threshold\": null, \"eval_metric\": null, \"early_stopping_rounds\": null, \"callbacks\": null, \"classes_\": [0.0, 1.0], \"n_classes_\": 2, \"_estimator_type\": \"classifier\"}"},"feature_names":["heart_rate(t-4)","steps(t-4)","stress_score(t-4)","awake(t-4)","deep(t-4)","light(t-4)","rem(t-4)","nonrem_total(t-4)","total(t-4)","nonrem_percentage(t-4)","sleep_efficiency(t-4)","timestamp_dayofweek(t-4)","timestamp_hour_sin(t-4)","timestamp_hour_cos(t-4)","wearing_off(t-4)","heart_rate(t-3)","steps(t-3)","stress_score(t-3)","awake(t-3)","deep(t-3)","light(t-3)","rem(t-3)","nonrem_total(t-3)","total(t-3)","nonrem_percentage(t-3)","sleep_efficiency(t-3)","timestamp_dayofweek(t-3)","timestamp_hour_sin(t-3)","timestamp_hour_cos(t-3)","wearing_off(t-3)","heart_rate(t-2)","steps(t-2)","stress_score(t-2)","awake(t-2)","deep(t-2)","light(t-2)","rem(t-2)","nonrem_total(t-2)","total(t-2)","nonrem_percentage(t-2)","sleep_efficiency(t-2)","timestamp_dayofweek(t-2)","timestamp_hour_sin(t-2)","timestamp_hour_cos(t-2)","wearing_off(t-2)","heart_rate(t-1)","steps(t-1)","stress_score(t-1)","awake(t-1)","deep(t-1)","light(t-1)","rem(t-1)","nonrem_total(t-1)","total(t-1)","nonrem_percentage(t-1)","sleep_efficiency(t-1)","timestamp_dayofweek(t-1)","timestamp_hour_sin(t-1)","timestamp_hour_cos(t-1)","wearing_off(t-1)","heart_rate(t)","steps(t)","stress_score(t)","awake(t)","deep(t)","light(t)","rem(t)","nonrem_total(t)","total(t)","nonrem_percentage(t)","sleep_efficiency(t)","timestamp_dayofweek(t)","timestamp_hour_sin(t)","timestamp_hour_cos(t)","wearing_off(t)"],"feature_types":["float","float","float","float","float","float","float","float","float","float","float","float","float","float","float","float","float","float","float","float","float","float","float","float","float","float","float","float","float","float","float","float","float","float","float","float","float","float","float","float","float","float","float","float","float","float","float","float","float","float","float","float","float","float","float","float","float","float","float","float","float","float","float","float","float","float","float","float","float","float","float","float","float","float","float"],"gradient_booster":{"model":{"gbtree_model_param":{"num_parallel_tree":"1","num_trees":"1000","size_leaf_vector":"0"},"tree_info":[0,0,0,0,0,0,0,0,0,0,0,0,0,0,0,0,0,0,0,0,0,0,0,0,0,0,0,0,0,0,0,0,0,0,0,0,0,0,0,0,0,0,0,0,0,0,0,0,0,0,0,0,0,0,0,0,0,0,0,0,0,0,0,0,0,0,0,0,0,0,0,0,0,0,0,0,0,0,0,0,0,0,0,0,0,0,0,0,0,0,0,0,0,0,0,0,0,0,0,0,0,0,0,0,0,0,0,0,0,0,0,0,0,0,0,0,0,0,0,0,0,0,0,0,0,0,0,0,0,0,0,0,0,0,0,0,0,0,0,0,0,0,0,0,0,0,0,0,0,0,0,0,0,0,0,0,0,0,0,0,0,0,0,0,0,0,0,0,0,0,0,0,0,0,0,0,0,0,0,0,0,0,0,0,0,0,0,0,0,0,0,0,0,0,0,0,0,0,0,0,0,0,0,0,0,0,0,0,0,0,0,0,0,0,0,0,0,0,0,0,0,0,0,0,0,0,0,0,0,0,0,0,0,0,0,0,0,0,0,0,0,0,0,0,0,0,0,0,0,0,0,0,0,0,0,0,0,0,0,0,0,0,0,0,0,0,0,0,0,0,0,0,0,0,0,0,0,0,0,0,0,0,0,0,0,0,0,0,0,0,0,0,0,0,0,0,0,0,0,0,0,0,0,0,0,0,0,0,0,0,0,0,0,0,0,0,0,0,0,0,0,0,0,0,0,0,0,0,0,0,0,0,0,0,0,0,0,0,0,0,0,0,0,0,0,0,0,0,0,0,0,0,0,0,0,0,0,0,0,0,0,0,0,0,0,0,0,0,0,0,0,0,0,0,0,0,0,0,0,0,0,0,0,0,0,0,0,0,0,0,0,0,0,0,0,0,0,0,0,0,0,0,0,0,0,0,0,0,0,0,0,0,0,0,0,0,0,0,0,0,0,0,0,0,0,0,0,0,0,0,0,0,0,0,0,0,0,0,0,0,0,0,0,0,0,0,0,0,0,0,0,0,0,0,0,0,0,0,0,0,0,0,0,0,0,0,0,0,0,0,0,0,0,0,0,0,0,0,0,0,0,0,0,0,0,0,0,0,0,0,0,0,0,0,0,0,0,0,0,0,0,0,0,0,0,0,0,0,0,0,0,0,0,0,0,0,0,0,0,0,0,0,0,0,0,0,0,0,0,0,0,0,0,0,0,0,0,0,0,0,0,0,0,0,0,0,0,0,0,0,0,0,0,0,0,0,0,0,0,0,0,0,0,0,0,0,0,0,0,0,0,0,0,0,0,0,0,0,0,0,0,0,0,0,0,0,0,0,0,0,0,0,0,0,0,0,0,0,0,0,0,0,0,0,0,0,0,0,0,0,0,0,0,0,0,0,0,0,0,0,0,0,0,0,0,0,0,0,0,0,0,0,0,0,0,0,0,0,0,0,0,0,0,0,0,0,0,0,0,0,0,0,0,0,0,0,0,0,0,0,0,0,0,0,0,0,0,0,0,0,0,0,0,0,0,0,0,0,0,0,0,0,0,0,0,0,0,0,0,0,0,0,0,0,0,0,0,0,0,0,0,0,0,0,0,0,0,0,0,0,0,0,0,0,0,0,0,0,0,0,0,0,0,0,0,0,0,0,0,0,0,0,0,0,0,0,0,0,0,0,0,0,0,0,0,0,0,0,0,0,0,0,0,0,0,0,0,0,0,0,0,0,0,0,0,0,0,0,0,0,0,0,0,0,0,0,0,0,0,0,0,0,0,0,0,0,0,0,0,0,0,0,0,0,0,0,0,0,0,0,0,0,0,0,0,0,0,0,0,0,0,0,0,0,0,0,0,0,0,0,0,0,0,0,0,0,0,0,0,0,0,0,0,0,0,0,0,0,0,0,0,0,0,0,0,0,0,0,0,0,0,0,0,0,0,0,0,0,0,0,0,0,0,0,0,0,0,0,0,0,0,0,0,0,0,0,0,0,0,0,0,0,0,0,0,0,0,0,0,0,0,0,0,0,0,0,0,0,0,0,0,0,0,0,0,0,0,0,0,0,0,0,0,0,0,0,0,0,0,0,0,0,0,0,0,0,0,0,0,0,0,0,0,0,0,0,0,0,0,0,0,0,0,0,0,0,0,0,0,0,0,0,0,0,0,0,0,0,0,0,0,0,0,0,0,0,0,0,0,0,0,0,0,0,0,0,0,0,0,0,0,0,0,0,0,0,0,0,0,0,0,0,0,0,0,0,0,0,0,0],"trees":[{"base_weights":[-1.3994966E0,-1.4428065E0,2.6533594E-2,-1.4887865E0,2.6533594E-2,-1.5351499E0,-4.7659853E-1,-7.946784E-1,-1.5855861E0,-1.1139696E0,2.6533594E-2],"categories":[],"categories_nodes":[],"categories_segments":[],"categories_sizes":[],"default_left":[1,1,0,1,0,1,0,1,0,0,0],"id":0,"left_children":[1,3,-1,5,-1,7,-1,9,-1,-1,-1],"loss_changes":[2.5647736E0,2.722969E0,0E0,1.0765915E0,0E0,9.915161E-2,0E0,1.1637561E0,0E0,0E0,0E0],"parents":[2147483647,0,0,1,1,3,3,5,5,7,7],"right_children":[2,4,-1,6,-1,8,-1,10,-1,-1,-1],"split_conditions":[1.7685193E-1,4.9454015E-1,7.960078E-3,5.932589E-2,7.960078E-3,7.820585E-2,-1.4297956E-1,8.362627E-3,-4.7567585E-1,-3.3419088E-1,7.960078E-3],"split_indices":[3,12,0,46,0,45,0,2,0,0,0],"split_type":[0,0,0,0,0,0,0,0,0,0,0],"sum_hessian":[3.9907272E1,3.8719555E1,1.1877165E0,3.7531837E1,1.1877165E0,3.5393948E1,2.1378896E0,3.3256059E0,3.2068344E1,2.1378896E0,1.1877165E0],"tree_param":{"num_deleted":"0","num_feature":"75","num_nodes":"11","size_leaf_vector":"0"}},{"base_weights":[-1.1698846E0,-1.213183E0,7.234924E-2,-1.2575747E0,2.2186873E-2,-1.3018373E0,-3.9046574E-1],"categories":[],"categories_nodes":[],"categories_segments":[],"categories_sizes":[],"default_left":[1,1,0,1,0,0,0],"id":1,"left_children":[1,3,-1,5,-1,-1,-1],"loss_changes":[2.0217094E0,1.9363708E0,0E0,7.8168106E-1,0E0,0E0,0E0],"parents":[2147483647,0,0,1,1,3,3],"right_children":[2,4,-1,6,-1,-1,-1],"split_conditions":[4.5696643E-1,1.7685193E-1,2.1704774E-2,5.932589E-2,6.6560623E-3,-3.905512E-1,-1.1713973E-1],"split_indices":[27,3,0,46,0,0,0],"split_type":[0,0,0,0,0,0,0],"sum_hessian":[3.4955418E1,3.3800667E1,1.1547482E0,3.261086E1,1.1898109E0,3.0550041E1,2.060817E0],"tree_param":{"num_deleted":"0","num_feature":"75","num_nodes":"7","size_leaf_vector":"0"}},{"base_weights":[-1.0146502E0,-3.1247094E-1,-1.10405E0,-8.549484E-1,3.012495E-1,-1.2346188E0,-3.5346183E-1,6.6421473E-1,-9.5702136E-1],"categories":[],"categories_nodes":[],"categories_segments":[],"categories_sizes":[],"default_left":[1,1,1,0,0,0,1,0,0],"id":2,"left_children":[1,3,5,-1,-1,-1,7,-1,-1],"loss_changes":[1.5704689E0,1.8692155E0,2.177578E0,0E0,0E0,0E0,3.9238741E0,0E0,0E0],"parents":[2147483647,0,0,1,1,2,2,6,6],"right_children":[2,4,6,-1,-1,-1,8,-1,-1],"split_conditions":[7.820585E-2,9.309185E-3,2.3074059E-2,-2.5648454E-1,9.037486E-2,-3.7038565E-1,1.7099265E-2,1.9926442E-1,-2.8710642E-1],"split_indices":[45,2,31,0,0,0,28,0,0],"split_type":[0,0,0,0,0,0,0,0,0],"sum_hessian":[2.9513117E1,3.8408525E0,2.5672266E1,1.8301206E0,2.0107317E0,2.131887E1,4.353394E0,1.583284E0,2.7701101E0],"tree_param":{"num_deleted":"0","num_feature":"75","num_nodes":"9","size_leaf_vector":"0"}},{"base_weights":[-9.033093E-1,-9.5803475E-1,8.661698E-2,-1.0767833E0,-2.4190038E-1,-5.369887E-1,-1.155661E0,5.1363105E-1,-8.297921E-1,-8.769493E-1,3.0694458E-1],"categories":[],"categories_nodes":[],"categories_segments":[],"categories_sizes":[],"default_left":[1,1,0,1,1,1,0,0,0,0,0],"id":3,"left_children":[1,3,-1,5,7,9,-1,-1,-1,-1,-1],"loss_changes":[1.4749088E0,1.8170967E0,0E0,2.5933075E-1,2.5424967E0,1.5610392E0,0E0,0E0,0E0,0E0,0E0],"parents":[2147483647,0,0,1,1,3,3,4,4,5,5],"right_children":[2,4,-1,6,8,10,-1,-1,-1,-1,-1],"split_conditions":[1.6974011E-1,2.3074059E-2,2.5985094E-2,8.169927E-3,1.7099265E-2,6.6894153E-3,-3.466983E-1,1.5408932E-1,-2.4893764E-1,-2.630848E-1,9.208338E-2],"split_indices":[73,31,0,32,28,32,0,0,0,0,0],"split_type":[0,0,0,0,0,0,0,0,0,0,0],"sum_hessian":[2.4693592E1,2.3430515E1,1.2630782E0,1.9665928E1,3.7645872E0,3.5027738E0,1.6163153E1,1.7026879E0,2.0618994E0,2.4690485E0,1.0337255E0],"tree_param":{"num_deleted":"0","num_feature":"75","num_nodes":"11","size_leaf_vector":"0"}},{"base_weights":[-8.0786717E-1,-8.651543E-1,1.5257174E-1,-9.2748505E-1,1.5079892E-1,-9.973258E-1,-9.35024E-2,-3.618905E-1,-1.0800929E0,-7.5917107E-1,3.1482616E-1],"categories":[],"categories_nodes":[],"categories_segments":[],"categories_sizes":[],"default_left":[1,1,0,1,0,1,0,1,0,0,0],"id":4,"left_children":[1,3,-1,5,-1,7,-1,9,-1,-1,-1],"loss_changes":[1.3264065E0,1.4466572E0,0E0,1.04739E0,0E0,5.540428E-1,0E0,1.1999671E0,0E0,0E0,0E0],"parents":[2147483647,0,0,1,1,3,3,5,5,7,7],"right_children":[2,4,-1,6,-1,8,-1,10,-1,-1,-1],"split_conditions":[4.5696643E-1,1.7685193E-1,4.5771524E-2,5.932589E-2,4.5239676E-2,7.948526E-2,-2.8050723E-2,7.733843E-2,-3.240279E-1,-2.2775133E-1,9.444785E-2],"split_indices":[27,3,0,46,0,15,0,45,0,0,0],"split_type":[0,0,0,0,0,0,0,0,0,0,0],"sum_hessian":[2.07083E1,1.9636269E1,1.0720315E0,1.858323E1,1.0530386E0,1.6966532E1,1.6166985E0,2.5743842E0,1.4392147E1,1.5453246E0,1.0290596E0],"tree_param":{"num_deleted":"0","num_feature":"75","num_nodes":"11","size_leaf_vector":"0"}},{"base_weights":[-7.1944934E-1,-1.1983753E-1,-8.393989E-1,-7.369392E-1,3.8934898E-1,-1.0272115E0,-1.3041708E-1,-7.483978E-1,5.693503E-1],"categories":[],"categories_nodes":[],"categories_segments":[],"categories_sizes":[],"default_left":[1,1,1,0,0,0,1,0,0],"id":5,"left_children":[1,3,5,-1,-1,-1,7,-1,-1],"loss_changes":[1.2216501E0,1.6164334E0,1.8837366E0,0E0,0E0,0E0,2.2937589E0,0E0,0E0],"parents":[2147483647,0,0,1,1,2,2,6,6],"right_children":[2,4,6,-1,-1,-1,8,-1,-1],"split_conditions":[7.820585E-2,1.0075916E-1,2.3074059E-2,-2.2108176E-1,1.168047E-1,-3.0816346E-1,9.6872345E-2,-2.2451936E-1,1.708051E-1],"split_indices":[45,43,31,0,0,0,5,0,0],"split_type":[0,0,0,0,0,0,0,0,0],"sum_hessian":[1.7384085E1,3.2311358E0,1.4152949E1,1.2585572E0,1.9725786E0,1.0834092E1,3.3188567E0,1.7255173E0,1.5933394E0],"tree_param":{"num_deleted":"0","num_feature":"75","num_nodes":"9","size_leaf_vector":"0"}},{"base_weights":[-6.4526886E-1,-7.138312E-1,1.6982129E-1,-8.6564994E-1,-1.1701969E-1,-2.8766006E-1,-9.758586E-1,-6.944953E-1,4.513761E-1,-6.657968E-1,2.79052E-1],"categories":[],"categories_nodes":[],"categories_segments":[],"categories_sizes":[],"default_left":[1,1,0,1,1,1,0,0,0,0,0],"id":6,"left_children":[1,3,-1,5,7,9,-1,-1,-1,-1,-1],"loss_changes":[1.0015907E0,1.2327332E0,0E0,4.5699596E-1,1.6730647E0,8.870925E-1,0E0,0E0,0E0,0E0,0E0],"parents":[2147483647,0,0,1,1,3,3,4,4,5,5],"right_children":[2,4,-1,6,8,10,-1,-1,-1,-1,-1],"split_conditions":[4.5696643E-1,2.3074059E-2,5.094639E-2,7.876929E-2,1.9556634E-2,5.5734754E-2,-2.927576E-1,-2.083486E-1,1.3541284E-1,-1.9973905E-1,8.37156E-2],"split_indices":[27,31,0,30,46,6,0,0,0,0,0],"split_type":[0,0,0,0,0,0,0,0,0,0,0],"sum_hessian":[1.4753348E1,1.3723232E1,1.030116E0,1.0581117E1,3.1421154E0,2.2725992E0,8.308517E0,1.4485619E0,1.6935534E0,1.2582169E0,1.0143825E0],"tree_param":{"num_deleted":"0","num_feature":"75","num_nodes":"11","size_leaf_vector":"0"}},{"base_weights":[-5.758867E-1,-2.4528618E-1,-8.341453E-1,-4.4918078E-1,4.950766E-1,-9.174481E-1,-1.7757893E-1,-8.626054E-1,1.471678E-1,9.747299E-1,-6.683609E-1],"categories":[],"categories_nodes":[],"categories_segments":[],"categories_sizes":[],"default_left":[1,1,1,1,0,0,0,0,1,0,0],"id":7,"left_children":[1,3,5,7,-1,-1,-1,-1,9,-1,-1],"loss_changes":[9.620848E-1,1.3408854E0,2.3388958E-1,1.6885282E0,0E0,0E0,0E0,0E0,2.9781795E0,0E0,0E0],"parents":[2147483647,0,0,1,1,2,2,3,3,8,8],"right_children":[2,4,6,8,-1,-1,-1,-1,10,-1,-1],"split_conditions":[3.449926E-2,2.4501175E-2,3.0907774E-2,1.0120107E-1,1.4852299E-1,-2.7523443E-1,-5.327368E-2,-2.5878164E-1,1.1580841E-1,2.92419E-1,-2.0050828E-1],"split_indices":[17,31,61,43,0,0,0,0,13,0,0],"split_type":[0,0,0,0,0,0,0,0,0,0,0],"sum_hessian":[1.2664595E1,6.4094877E0,6.255107E0,5.333851E0,1.0756367E0,5.1982317E0,1.0568752E0,2.8863685E0,2.4474823E0,1.1178876E0,1.3295946E0],"tree_param":{"num_deleted":"0","num_feature":"75","num_nodes":"11","size_leaf_vector":"0"}},{"base_weights":[-5.126993E-1,-6.5255594E-1,-2.0588107E-2,-9.0917164E-1,-6.712086E-2,-6.2309664E-1,5.4530466E-1,-7.035612E-1,6.709156E-1],"categories":[],"categories_nodes":[],"categories_segments":[],"categories_sizes":[],"default_left":[1,1,1,0,1,0,0,0,0],"id":8,"left_children":[1,3,5,-1,7,-1,-1,-1,-1],"loss_changes":[8.064072E-1,1.3276043E0,1.5906538E0,0E0,2.3023245E0,0E0,0E0,0E0,0E0],"parents":[2147483647,0,0,1,1,2,2,4,4],"right_children":[2,4,6,-1,8,-1,-1,-1,-1],"split_conditions":[2.180269E-2,1.5450044E-1,9.696114E-2,-2.727515E-1,1.0120107E-1,-1.86929E-1,1.635914E-1,-2.1106836E-1,2.012747E-1],"split_indices":[46,72,5,0,43,0,0,0,0],"split_type":[0,0,0,0,0,0,0,0,0],"sum_hessian":[1.0911982E1,8.243241E0,2.6687407E0,5.346645E0,2.8965967E0,1.2435943E0,1.4251463E0,1.5804336E0,1.3161631E0],"tree_param":{"num_deleted":"0","num_feature":"75","num_nodes":"9","size_leaf_vector":"0"}},{"base_weights":[-4.5879075E-1,-1.6777359E-1,-7.1547526E-1,-3.622039E-1,4.1842502E-1,-8.084296E-1,-1.7111045E-1,-7.428891E-1,1.1359154E-1,7.435917E-1,-5.8842146E-1],"categories":[],"categories_nodes":[],"categories_segments":[],"categories_sizes":[],"default_left":[1,1,1,1,0,0,0,0,1,0,0],"id":9,"left_children":[1,3,5,7,-1,-1,-1,-1,9,-1,-1],"loss_changes":[6.5985084E-1,8.5811466E-1,1.2687278E-1,1.0246644E0,0E0,0E0,0E0,0E0,1.8416374E0,0E0,0E0],"parents":[2147483647,0,0,1,1,2,2,3,3,8,8],"right_children":[2,4,6,8,-1,-1,-1,-1,10,-1,-1],"split_conditions":[3.449926E-2,2.4501175E-2,1.5744704E-1,1.0120107E-1,1.2552752E-1,-2.4252889E-1,-5.1333137E-2,-2.2286674E-1,1.1580841E-1,2.2307752E-1,-1.7652644E-1],"split_indices":[17,31,4,43,0,0,0,0,13,0,0],"split_type":[0,0,0,0,0,0,0,0,0,0,0],"sum_hessian":[9.44033E0,5.199262E0,4.241068E0,4.1912293E0,1.0080326E0,3.2081625E0,1.0329056E0,2.0164778E0,2.1747518E0,1.1149479E0,1.0598038E0],"tree_param":{"num_deleted":"0","num_feature":"75","num_nodes":"11","size_leaf_vector":"0"}},{"base_weights":[-4.1169196E-1,-5.6449455E-1,4.5359015E-2,-8.324535E-1,-2.799543E-2,3.9401624E-1,-2.9349715E-1,-5.805743E-1,4.998958E-1],"categories":[],"categories_nodes":[],"categories_segments":[],"categories_sizes":[],"default_left":[1,1,1,0,1,0,0,0,0],"id":10,"left_children":[1,3,5,-1,7,-1,-1,-1,-1],"loss_changes":[6.748487E-1,9.889746E-1,5.001894E-1,0E0,1.2762537E0,0E0,0E0,0E0,0E0],"parents":[2147483647,0,0,1,1,2,2,4,4],"right_children":[2,4,6,-1,8,-1,-1,-1,-1],"split_conditions":[2.180269E-2,1.5450044E-1,1.2938686E-1,-2.4973606E-1,1.0120107E-1,1.1820488E-1,-8.804914E-2,-1.7417228E-1,1.4996874E-1],"split_indices":[46,72,45,0,43,0,0,0,0],"split_type":[0,0,0,0,0,0,0,0,0],"sum_hessian":[8.296349E0,6.0414677E0,2.254881E0,3.6612074E0,2.3802602E0,1.0311366E0,1.2237444E0,1.1141776E0,1.2660828E0],"tree_param":{"num_deleted":"0","num_feature":"75","num_nodes":"9","size_leaf_vector":"0"}},{"base_weights":[-3.6342433E-1,-5.2549744E-1,8.245062E-2,-7.961158E-1,-1.5216286E-2,-2.8433168E-1,4.0511945E-1,5.3299224E-1,-5.722547E-1],"categories":[],"categories_nodes":[],"categories_segments":[],"categories_sizes":[],"default_left":[1,1,1,0,1,0,0,0,0],"id":11,"left_children":[1,3,5,-1,7,-1,-1,-1,-1],"loss_changes":[6.4689934E-1,8.5251224E-1,4.810075E-1,0E0,1.2789361E0,0E0,0E0,0E0,0E0],"parents":[2147483647,0,0,1,1,2,2,4,4],"right_children":[2,4,6,-1,8,-1,-1,-1,-1],"split_conditions":[2.3074059E-2,1.026496E-1,9.731154E-2,-2.3883475E-1,1.1580841E-1,-8.529951E-2,1.2153584E-1,1.5989769E-1,-1.7167643E-1],"split_indices":[31,43,5,0,13,0,0,0,0],"split_type":[0,0,0,0,0,0,0,0,0],"sum_hessian":[7.3522744E0,5.2612596E0,2.0910149E0,3.0719535E0,2.189306E0,1.0342176E0,1.0567974E0,1.1251547E0,1.0641514E0],"tree_param":{"num_deleted":"0","num_feature":"75","num_nodes":"9","size_leaf_vector":"0"}},{"base_weights":[-3.2104245E-1,-4.8483717E-1,8.524693E-2,-7.5643915E-1,6.382123E-3,-1.8696776E-1,3.1720886E-1],"categories":[],"categories_nodes":[],"categories_segments":[],"categories_sizes":[],"default_left":[1,1,1,0,0,0,0],"id":12,"left_children":[1,3,5,-1,-1,-1,-1],"loss_changes":[5.445119E-1,7.437196E-1,2.501852E-1,0E0,0E0,0E0,0E0],"parents":[2147483647,0,0,1,1,2,2],"right_children":[2,4,6,-1,-1,-1,-1],"split_conditions":[2.180269E-2,1.5450044E-1,2.5265899E-2,-2.2693175E-1,1.914637E-3,-5.609033E-2,9.516266E-2],"split_indices":[46,72,31,0,0,0,0],"split_type":[0,0,0,0,0,0,0],"sum_hessian":[6.561168E0,4.538252E0,2.0229166E0,2.5747278E0,1.9635242E0,1.0199476E0,1.0029688E0],"tree_param":{"num_deleted":"0","num_feature":"75","num_nodes":"7","size_leaf_vector":"0"}},{"base_weights":[-2.7564588E-1,-6.499985E-2,-6.2948185E-1,-3.003224E-1,3.78839E-1,-6.329226E-1,1.2412165E-1],"categories":[],"categories_nodes":[],"categories_segments":[],"categories_sizes":[],"default_left":[1,1,0,1,0,0,0],"id":13,"left_children":[1,3,-1,5,-1,-1,-1],"loss_changes":[4.8450357E-1,6.9176733E-1,0E0,6.6784394E-1,0E0,0E0,0E0],"parents":[2147483647,0,0,1,1,3,3],"right_children":[2,4,-1,6,-1,-1,-1],"split_conditions":[1.3301735E-1,1.9695412E-2,-1.8884456E-1,1.0120107E-1,1.136517E-1,-1.8987678E-1,3.7236497E-2],"split_indices":[45,46,0,43,0,0,0],"split_type":[0,0,0,0,0,0,0],"sum_hessian":[6.049382E0,4.533935E0,1.5154469E0,3.1742866E0,1.3596487E0,1.5043092E0,1.6699773E0],"tree_param":{"num_deleted":"0","num_feature":"75","num_nodes":"7","size_leaf_vector":"0"}},{"base_weights":[-2.4796616E-1,-4.4701415E-1,6.739862E-2,9.9571116E-2,-7.055024E-1,-3.2604998E-1,4.4363648E-1],"categories":[],"categories_nodes":[],"categories_segments":[],"categories_sizes":[],"default_left":[1,1,1,0,0,0,0],"id":14,"left_children":[1,3,5,-1,-1,-1,-1],"loss_changes":[4.4426277E-1,6.601991E-1,6.5117437E-1,0E0,0E0,0E0,0E0],"parents":[2147483647,0,0,1,1,2,2],"right_children":[2,4,6,-1,-1,-1,-1],"split_conditions":[9.696114E-2,7.70027E-2,2.2707634E-2,2.9871335E-2,-2.1165073E-1,-9.7815E-2,1.3309094E-1],"split_indices":[50,0,31,0,0,0,0],"split_type":[0,0,0,0,0,0,0],"sum_hessian":[5.5973654E0,3.175587E0,2.4217784E0,1.2169932E0,1.9585937E0,1.2490184E0,1.17276E0],"tree_param":{"num_deleted":"0","num_feature":"75","num_nodes":"7","size_leaf_vector":"0"}},{"base_weights":[-2.1558538E-1,6.78282E-3,-4.6474358E-1,-2.6917037E-1,2.6419672E-1],"categories":[],"categories_nodes":[],"categories_segments":[],"categories_sizes":[],"default_left":[1,1,0,0,0],"id":15,"left_children":[1,3,-1,-1,-1],"loss_changes":[3.455725E-1,3.7310508E-1,0E0,0E0,0E0],"parents":[2147483647,0,0,1,1],"right_children":[2,4,-1,-1,-1],"split_conditions":[3.449926E-2,1.0759991E-2,-1.3942309E-1,-8.075111E-2,7.925902E-2],"split_indices":[17,17,0,0,0],"split_type":[0,0,0,0,0],"sum_hessian":[5.1803293E0,3.2513492E0,1.9289801E0,1.5471258E0,1.7042234E0],"tree_param":{"num_deleted":"0","num_feature":"75","num_nodes":"5","size_leaf_vector":"0"}},{"base_weights":[-1.8384968E-1,-3.8737237E-1,1.0566393E-1,-6.4057297E-1,8.164592E-2,-2.5116518E-1,4.084142E-1],"categories":[],"categories_nodes":[],"categories_segments":[],"categories_sizes":[],"default_left":[1,1,1,0,0,0,0],"id":16,"left_children":[1,3,5,-1,-1,-1,-1],"loss_changes":[3.9054257E-1,4.9151075E-1,4.5205283E-1,0E0,0E0,0E0,0E0],"parents":[2147483647,0,0,1,1,2,2],"right_children":[2,4,6,-1,-1,-1,-1],"split_conditions":[9.696114E-2,1.650689E-1,2.2707634E-2,-1.921719E-1,2.4493778E-2,-7.5349554E-2,1.2252427E-1],"split_indices":[50,72,31,0,0,0,0],"split_type":[0,0,0,0,0,0,0],"sum_hessian":[4.9334E0,2.6984377E0,2.2349625E0,1.514862E0,1.1835757E0,1.1040682E0,1.1308943E0],"tree_param":{"num_deleted":"0","num_feature":"75","num_nodes":"7","size_leaf_vector":"0"}},{"base_weights":[-1.6128834E-1,-3.446443E-1,8.968638E-2,9.324909E-2,-5.972269E-1,-2.1944709E-1,3.4563708E-1],"categories":[],"categories_nodes":[],"categories_segments":[],"categories_sizes":[],"default_left":[1,1,1,0,0,0,0],"id":17,"left_children":[1,3,5,-1,-1,-1,-1],"loss_changes":[2.9041493E-1,4.3894407E-1,3.269975E-1,0E0,0E0,0E0,0E0],"parents":[2147483647,0,0,1,1,2,2],"right_children":[2,4,6,-1,-1,-1,-1],"split_conditions":[9.696114E-2,7.70027E-2,2.0073548E-2,2.7974728E-2,-1.7916808E-1,-6.583413E-2,1.0369113E-1],"split_indices":[50,0,46,0,0,0,0],"split_type":[0,0,0,0,0,0,0],"sum_hessian":[4.6392417E0,2.4650865E0,2.1741552E0,1.1325107E0,1.3325759E0,1.0493661E0,1.1247891E0],"tree_param":{"num_deleted":"0","num_feature":"75","num_nodes":"7","size_leaf_vector":"0"}},{"base_weights":[-1.4281666E-1,8.066376E-2,-3.42535E-1,-1.9813475E-1,2.9819912E-1,-5.3866446E-1,2.8453618E-2],"categories":[],"categories_nodes":[],"categories_segments":[],"categories_sizes":[],"default_left":[1,1,1,0,0,0,0],"id":18,"left_children":[1,3,5,-1,-1,-1,-1],"loss_changes":[2.6828364E-1,2.624945E-1,2.3636872E-1,0E0,0E0,0E0,0E0],"parents":[2147483647,0,0,1,1,2,2],"right_children":[2,4,6,-1,-1,-1,-1],"split_conditions":[2.506038E-2,1.0120107E-1,1.2997156E-1,-5.9440427E-2,8.945974E-2,-1.6159934E-1,8.5360855E-3],"split_indices":[62,43,15,0,0,0,0],"split_type":[0,0,0,0,0,0,0],"sum_hessian":[4.391811E0,2.3539288E0,2.037882E0,1.0707779E0,1.2831509E0,1.0374476E0,1.0004346E0],"tree_param":{"num_deleted":"0","num_feature":"75","num_nodes":"7","size_leaf_vector":"0"}},{"base_weights":[-1.2892997E-1,-2.7524194E-1,1.6183741E-1,-5.8943826E-1,1.1668892E-1],"categories":[],"categories_nodes":[],"categories_segments":[],"categories_sizes":[],"default_left":[1,1,0,0,0],"id":19,"left_children":[1,3,-1,-1,-1],"loss_changes":[2.6721492E-1,5.431557E-1,0E0,0E0,0E0],"parents":[2147483647,0,0,1,1],"right_children":[2,4,-1,-1,-1],"split_conditions":[2.3074059E-2,1.5450044E-1,4.8551228E-2,-1.7683148E-1,3.500668E-2],"split_indices":[31,72,0,0,0],"split_type":[0,0,0,0,0],"sum_hessian":[4.234041E0,2.85222E0,1.3818208E0,1.3033993E0,1.5488207E0],"tree_param":{"num_deleted":"0","num_feature":"75","num_nodes":"5","size_leaf_vector":"0"}},{"base_weights":[-1.1544754E-1,-3.0699623E-1,1.2731685E-1,6.84097E-2,-5.350827E-1],"categories":[],"categories_nodes":[],"categories_segments":[],"categories_sizes":[],"default_left":[1,1,0,0,0],"id":20,"left_children":[1,3,-1,-1,-1],"loss_changes":[2.743246E-1,3.0382362E-1,0E0,0E0,0E0],"parents":[2147483647,0,0,1,1],"right_children":[2,4,-1,-1,-1],"split_conditions":[9.696114E-2,7.70027E-2,3.8195055E-2,2.0522911E-2,-1.6052482E-1],"split_indices":[50,0,0,0,0],"split_type":[0,0,0,0,0],"sum_hessian":[4.0587683E0,2.1208034E0,1.9379652E0,1.0661334E0,1.05467E0],"tree_param":{"num_deleted":"0","num_feature":"75","num_nodes":"5","size_leaf_vector":"0"}},{"base_weights":[-1.0598623E-1,-3.176618E-1,8.010571E-2,2.700837E-1,-1.339012E-1],"categories":[],"categories_nodes":[],"categories_segments":[],"categories_sizes":[],"default_left":[1,0,1,0,0],"id":21,"left_children":[1,-1,3,-1,-1],"loss_changes":[2.198194E-1,0E0,1.7539367E-1,0E0,0E0],"parents":[2147483647,0,0,2,2],"right_children":[2,-1,4,-1,-1],"split_conditions":[1.5605731E-1,-9.529854E-2,1.2847457E-2,8.102511E-2,-4.017036E-2],"split_indices":[40,0,17,0,0],"split_type":[0,0,0,0,0],"sum_hessian":[3.9344344E0,1.5099189E0,2.4245155E0,1.1455532E0,1.2789621E0],"tree_param":{"num_deleted":"0","num_feature":"75","num_nodes":"5","size_leaf_vector":"0"}},{"base_weights":[-8.79177E-2,1.5921931E-1,-2.2379325E-1,-5.486633E-1,1.5139079E-1],"categories":[],"categories_nodes":[],"categories_segments":[],"categories_sizes":[],"default_left":[1,0,1,0,0],"id":22,"left_children":[1,-1,3,-1,-1],"loss_changes":[1.9790545E-1,0E0,5.137861E-1,0E0,0E0],"parents":[2147483647,0,0,2,2],"right_children":[2,-1,4,-1,-1],"split_conditions":[1.6621707E-2,4.7765795E-2,1.5450044E-1,-1.64599E-1,4.5417238E-2],"split_indices":[28,0,72,0,0],"split_type":[0,0,0,0,0],"sum_hessian":[3.8324547E0,1.298634E0,2.5338206E0,1.1101568E0,1.423664E0],"tree_param":{"num_deleted":"0","num_feature":"75","num_nodes":"5","size_leaf_vector":"0"}},{"base_weights":[-8.148041E-2,-2.1683328E-1,1.6257331E-1,-5.3990614E-1,1.5688291E-1],"categories":[],"categories_nodes":[],"categories_segments":[],"categories_sizes":[],"default_left":[1,1,0,0,0],"id":23,"left_children":[1,3,-1,-1,-1],"loss_changes":[1.9031593E-1,5.01009E-1,0E0,0E0,0E0],"parents":[2147483647,0,0,1,1],"right_children":[2,4,-1,-1,-1],"split_conditions":[2.3074059E-2,1.026496E-1,4.8771996E-2,-1.6197185E-1,4.7064874E-2],"split_indices":[31,43,0,0,0],"split_type":[0,0,0,0,0],"sum_hessian":[3.6941817E0,2.4480314E0,1.2461503E0,1.0744702E0,1.3735613E0],"tree_param":{"num_deleted":"0","num_feature":"75","num_nodes":"5","size_leaf_vector":"0"}},{"base_weights":[-7.602047E-2,-2.3921658E-1,1.153341E-1],"categories":[],"categories_nodes":[],"categories_segments":[],"categories_sizes":[],"default_left":[1,0,0],"id":24,"left_children":[1,-1,-1],"loss_changes":[1.699967E-1,0E0,0E0],"parents":[2147483647,0,0],"right_children":[2,-1,-1],"split_conditions":[9.696114E-2,-7.1764976E-2,3.460023E-2],"split_indices":[50,0,0],"split_type":[0,0,0],"sum_hessian":[3.560183E0,1.7864733E0,1.7737098E0],"tree_param":{"num_deleted":"0","num_feature":"75","num_nodes":"3","size_leaf_vector":"0"}},{"base_weights":[-6.2508576E-2,1.20225586E-1,-2.503155E-1],"categories":[],"categories_nodes":[],"categories_segments":[],"categories_sizes":[],"default_left":[1,0,0],"id":25,"left_children":[1,-1,-1],"loss_changes":[1.8501967E-1,0E0,0E0],"parents":[2147483647,0,0],"right_children":[2,-1,-1],"split_conditions":[2.506038E-2,3.6067676E-2,-7.509465E-2],"split_indices":[62,0,0],"split_type":[0,0,0],"sum_hessian":[3.514308E0,1.9635953E0,1.5507128E0],"tree_param":{"num_deleted":"0","num_feature":"75","num_nodes":"3","size_leaf_vector":"0"}},{"base_weights":[-5.362972E-2,-1.8443269E-1,1.66433E-1,1.2665117E-1,-3.848895E-1],"categories":[],"categories_nodes":[],"categories_segments":[],"categories_sizes":[],"default_left":[1,1,0,0,0],"id":26,"left_children":[1,3,-1,-1,-1],"loss_changes":[1.5907812E-1,2.5276637E-1,0E0,0E0,0E0],"parents":[2147483647,0,0,1,1],"right_children":[2,4,-1,-1,-1],"split_conditions":[2.180269E-2,7.723419E-2,4.9929906E-2,3.7995353E-2,-1.15466855E-1],"split_indices":[46,60,0,0,0],"split_type":[0,0,0,0,0],"sum_hessian":[3.460069E0,2.2717018E0,1.1883671E0,1.0344903E0,1.2372116E0],"tree_param":{"num_deleted":"0","num_feature":"75","num_nodes":"5","size_leaf_vector":"0"}},{"base_weights":[-4.590188E-2,-1.9572717E-1,1.3122208E-1],"categories":[],"categories_nodes":[],"categories_segments":[],"categories_sizes":[],"default_left":[1,0,0],"id":27,"left_children":[1,-1,-1],"loss_changes":[1.4180759E-1,0E0,0E0],"parents":[2147483647,0,0],"right_children":[2,-1,-1],"split_conditions":[1.605071E-1,-5.8718152E-2,3.9366625E-2],"split_indices":[10,0,0],"split_type":[0,0,0],"sum_hessian":[3.3758154E0,1.7719404E0,1.603875E0],"tree_param":{"num_deleted":"0","num_feature":"75","num_nodes":"3","size_leaf_vector":"0"}},{"base_weights":[-3.723767E-2,-1.794924E-1,1.5632057E-1],"categories":[],"categories_nodes":[],"categories_segments":[],"categories_sizes":[],"default_left":[1,0,0],"id":28,"left_children":[1,-1,-1],"loss_changes":[1.4750798E-1,0E0,0E0],"parents":[2147483647,0,0],"right_children":[2,-1,-1],"split_conditions":[1.5450044E-1,-5.3847723E-2,4.6896175E-2],"split_indices":[72,0,0],"split_type":[0,0,0],"sum_hessian":[3.3381681E0,1.9659628E0,1.3722054E0],"tree_param":{"num_deleted":"0","num_feature":"75","num_nodes":"3","size_leaf_vector":"0"}},{"base_weights":[-2.8234893E-2,1.2800074E-1,-2.0090768E-1],"categories":[],"categories_nodes":[],"categories_segments":[],"categories_sizes":[],"default_left":[1,0,0],"id":29,"left_children":[1,-1,-1],"loss_changes":[1.4176308E-1,0E0,0E0],"parents":[2147483647,0,0],"right_children":[2,-1,-1],"split_conditions":[1.0794602E-1,3.840022E-2,-6.0272306E-2],"split_indices":[56,0,0],"split_type":[0,0,0],"sum_hessian":[3.3015895E0,1.8691121E0,1.4324774E0],"tree_param":{"num_deleted":"0","num_feature":"75","num_nodes":"3","size_leaf_vector":"0"}},{"base_weights":[-2.5298478E-2,-1.5663145E-1,1.7881295E-1,-3.6674252E-1,1.3978554E-1],"categories":[],"categories_nodes":[],"categories_segments":[],"categories_sizes":[],"default_left":[1,1,0,0,0],"id":30,"left_children":[1,3,-1,-1,-1],"loss_changes":[1.4274193E-1,2.4666461E-1,0E0,0E0,0E0],"parents":[2147483647,0,0,1,1],"right_children":[2,4,-1,-1,-1],"split_conditions":[2.3074059E-2,1.0715787E-1,5.3643886E-2,-1.1002276E-1,4.1935664E-2],"split_indices":[31,28,0,0,0],"split_type":[0,0,0,0,0],"sum_hessian":[3.2800791E0,2.1374083E0,1.142671E0,1.1119592E0,1.0254489E0],"tree_param":{"num_deleted":"0","num_feature":"75","num_nodes":"5","size_leaf_vector":"0"}},{"base_weights":[-2.2554943E-2,-2.0041607E-1,1.1119386E-1,2.4076542E-1,-6.98829E-2],"categories":[],"categories_nodes":[],"categories_segments":[],"categories_sizes":[],"default_left":[1,0,1,0,0],"id":31,"left_children":[1,-1,3,-1,-1],"loss_changes":[1.2243851E-1,0E0,8.8297114E-2,0E0,0E0],"parents":[2147483647,0,0,2,2],"right_children":[2,-1,4,-1,-1],"split_conditions":[9.068107E-2,-6.0124826E-2,2.506038E-2,7.222963E-2,-2.096487E-2],"split_indices":[50,0,62,0,0],"split_type":[0,0,0,0,0],"sum_hessian":[3.2101257E0,1.1639012E0,2.0462246E0,1.000601E0,1.0456234E0],"tree_param":{"num_deleted":"0","num_feature":"75","num_nodes":"5","size_leaf_vector":"0"}},{"base_weights":[-1.830465E-2,1.2163702E-1,-1.8104365E-1],"categories":[],"categories_nodes":[],"categories_segments":[],"categories_sizes":[],"default_left":[1,0,0],"id":32,"left_children":[1,-1,-1],"loss_changes":[1.1694439E-1,0E0,0E0],"parents":[2147483647,0,0],"right_children":[2,-1,-1],"split_conditions":[1.0794602E-1,3.6491107E-2,-5.4313097E-2],"split_indices":[56,0,0],"split_type":[0,0,0],"sum_hessian":[3.1680384E0,1.8391179E0,1.3289206E0],"tree_param":{"num_deleted":"0","num_feature":"75","num_nodes":"3","size_leaf_vector":"0"}},{"base_weights":[-1.7403273E-2,-1.6691831E-1,1.4739121E-1],"categories":[],"categories_nodes":[],"categories_segments":[],"categories_sizes":[],"default_left":[1,0,0],"id":33,"left_children":[1,-1,-1],"loss_changes":[1.2691097E-1,0E0,0E0],"parents":[2147483647,0,0],"right_children":[2,-1,-1],"split_conditions":[1.605071E-1,-5.0075494E-2,4.4217367E-2],"split_indices":[10,0,0],"split_type":[0,0,0],"sum_hessian":[3.152264E0,1.6459951E0,1.506269E0],"tree_param":{"num_deleted":"0","num_feature":"75","num_nodes":"3","size_leaf_vector":"0"}},{"base_weights":[-1.39401E-2,-1.5516542E-1,1.6552965E-1],"categories":[],"categories_nodes":[],"categories_segments":[],"categories_sizes":[],"default_left":[1,0,0],"id":34,"left_children":[1,-1,-1],"loss_changes":[1.30226E-1,0E0,0E0],"parents":[2147483647,0,0],"right_children":[2,-1,-1],"split_conditions":[1.5450044E-1,-4.6549626E-2,4.96589E-2],"split_indices":[72,0,0],"split_type":[0,0,0],"sum_hessian":[3.1246293E0,1.8244147E0,1.3002145E0],"tree_param":{"num_deleted":"0","num_feature":"75","num_nodes":"3","size_leaf_vector":"0"}},{"base_weights":[-9.29618E-3,1.7300558E-1,-1.3384636E-1],"categories":[],"categories_nodes":[],"categories_segments":[],"categories_sizes":[],"default_left":[1,0,0],"id":35,"left_children":[1,-1,-1],"loss_changes":[1.1618632E-1,0E0,0E0],"parents":[2147483647,0,0],"right_children":[2,-1,-1],"split_conditions":[1.6621707E-2,5.1901676E-2,-4.015391E-2],"split_indices":[28,0,0],"split_type":[0,0,0],"sum_hessian":[3.0972126E0,1.0992368E0,1.9979757E0],"tree_param":{"num_deleted":"0","num_feature":"75","num_nodes":"3","size_leaf_vector":"0"}},{"base_weights":[-3.838568E-3,-1.3971113E-1,1.6086484E-1],"categories":[],"categories_nodes":[],"categories_segments":[],"categories_sizes":[],"default_left":[1,0,0],"id":36,"left_children":[1,-1,-1],"loss_changes":[1.1356135E-1,0E0,0E0],"parents":[2147483647,0,0],"right_children":[2,-1,-1],"split_conditions":[1.026496E-1,-4.1913338E-2,4.8259456E-2],"split_indices":[43,0,0],"split_type":[0,0,0],"sum_hessian":[3.0702477E0,1.7655189E0,1.3047289E0],"tree_param":{"num_deleted":"0","num_feature":"75","num_nodes":"3","size_leaf_vector":"0"}},{"base_weights":[-1.3211375E-3,-1.254396E-1,1.7605028E-1],"categories":[],"categories_nodes":[],"categories_segments":[],"categories_sizes":[],"default_left":[1,0,0],"id":37,"left_children":[1,-1,-1],"loss_changes":[1.1122777E-1,0E0,0E0],"parents":[2147483647,0,0],"right_children":[2,-1,-1],"split_conditions":[2.180269E-2,-3.763188E-2,5.2815083E-2],"split_indices":[46,0,0],"split_type":[0,0,0],"sum_hessian":[3.0492318E0,1.9661634E0,1.0830683E0],"tree_param":{"num_deleted":"0","num_feature":"75","num_nodes":"3","size_leaf_vector":"0"}},{"base_weights":[2.6933094E-3,-1.3463601E-1,1.6687833E-1],"categories":[],"categories_nodes":[],"categories_segments":[],"categories_sizes":[],"default_left":[1,0,0],"id":38,"left_children":[1,-1,-1],"loss_changes":[1.1319819E-1,0E0,0E0],"parents":[2147483647,0,0],"right_children":[2,-1,-1],"split_conditions":[1.5450044E-1,-4.0390804E-2,5.0063502E-2],"split_indices":[72,0,0],"split_type":[0,0,0],"sum_hessian":[3.0239804E0,1.7446643E0,1.2793161E0],"tree_param":{"num_deleted":"0","num_feature":"75","num_nodes":"3","size_leaf_vector":"0"}},{"base_weights":[4.1397335E-3,-1.2012457E-1,1.7822257E-1],"categories":[],"categories_nodes":[],"categories_segments":[],"categories_sizes":[],"default_left":[1,0,0],"id":39,"left_children":[1,-1,-1],"loss_changes":[1.0800142E-1,0E0,0E0],"parents":[2147483647,0,0],"right_children":[2,-1,-1],"split_conditions":[2.3074059E-2,-3.6037374E-2,5.346677E-2],"split_indices":[31,0,0],"split_type":[0,0,0],"sum_hessian":[3.0029302E0,1.9330397E0,1.0698905E0],"tree_param":{"num_deleted":"0","num_feature":"75","num_nodes":"3","size_leaf_vector":"0"}},{"base_weights":[7.1612047E-3,1.4073552E-1,-1.5792961E-1],"categories":[],"categories_nodes":[],"categories_segments":[],"categories_sizes":[],"default_left":[1,0,0],"id":40,"left_children":[1,-1,-1],"loss_changes":[1.0998239E-1,0E0,0E0],"parents":[2147483647,0,0],"right_children":[2,-1,-1],"split_conditions":[1.0794602E-1,4.222066E-2,-4.7378886E-2],"split_indices":[56,0,0],"split_type":[0,0,0],"sum_hessian":[2.9795263E0,1.7285168E0,1.2510095E0],"tree_param":{"num_deleted":"0","num_feature":"75","num_nodes":"3","size_leaf_vector":"0"}},{"base_weights":[3.5295112E-3,1.3395828E-1,-1.6418277E-1],"categories":[],"categories_nodes":[],"categories_segments":[],"categories_sizes":[],"default_left":[1,0,0],"id":41,"left_children":[1,-1,-1],"loss_changes":[1.0881469E-1,0E0,0E0],"parents":[2147483647,0,0],"right_children":[2,-1,-1],"split_conditions":[2.506038E-2,4.0187486E-2,-4.925483E-2],"split_indices":[62,0,0],"split_type":[0,0,0],"sum_hessian":[2.9690516E0,1.7833855E0,1.1856662E0],"tree_param":{"num_deleted":"0","num_feature":"75","num_nodes":"3","size_leaf_vector":"0"}},{"base_weights":[-2.3427187E-5,-1.4142121E-1,1.459001E-1],"categories":[],"categories_nodes":[],"categories_segments":[],"categories_sizes":[],"default_left":[1,0,0],"id":42,"left_children":[1,-1,-1],"loss_changes":[1.0210824E-1,0E0,0E0],"parents":[2147483647,0,0],"right_children":[2,-1,-1],"split_conditions":[1.605071E-1,-4.2426366E-2,4.377003E-2],"split_indices":[10,0,0],"split_type":[0,0,0],"sum_hessian":[2.948715E0,1.5132508E0,1.4354641E0],"tree_param":{"num_deleted":"0","num_feature":"75","num_nodes":"3","size_leaf_vector":"0"}},{"base_weights":[1.5452164E-4,-1.277002E-1,1.5056223E-1],"categories":[],"categories_nodes":[],"categories_segments":[],"categories_sizes":[],"default_left":[1,0,0],"id":43,"left_children":[1,-1,-1],"loss_changes":[9.477818E-2,0E0,0E0],"parents":[2147483647,0,0],"right_children":[2,-1,-1],"split_conditions":[1.026496E-1,-3.831006E-2,4.5168668E-2],"split_indices":[43,0,0],"split_type":[0,0,0],"sum_hessian":[2.928759E0,1.6646713E0,1.2640879E0],"tree_param":{"num_deleted":"0","num_feature":"75","num_nodes":"3","size_leaf_vector":"0"}},{"base_weights":[1.7168736E-3,1.7014883E-1,-1.1894691E-1],"categories":[],"categories_nodes":[],"categories_segments":[],"categories_sizes":[],"default_left":[1,0,0],"id":44,"left_children":[1,-1,-1],"loss_changes":[9.973255E-2,0E0,0E0],"parents":[2147483647,0,0],"right_children":[2,-1,-1],"split_conditions":[2.7715072E-2,5.1044654E-2,-3.5684075E-2],"split_indices":[73,0,0],"split_type":[0,0,0],"sum_hessian":[2.9113996E0,1.0439982E0,1.8674014E0],"tree_param":{"num_deleted":"0","num_feature":"75","num_nodes":"3","size_leaf_vector":"0"}},{"base_weights":[5.033134E-3,1.3377453E-1,-1.5432806E-1],"categories":[],"categories_nodes":[],"categories_segments":[],"categories_sizes":[],"default_left":[1,0,0],"id":45,"left_children":[1,-1,-1],"loss_changes":[1.0045349E-1,0E0,0E0],"parents":[2147483647,0,0],"right_children":[2,-1,-1],"split_conditions":[1.0794602E-1,4.0132362E-2,-4.6298422E-2],"split_indices":[56,0,0],"split_type":[0,0,0],"sum_hessian":[2.8899806E0,1.687376E0,1.2026045E0],"tree_param":{"num_deleted":"0","num_feature":"75","num_nodes":"3","size_leaf_vector":"0"}},{"base_weights":[1.7666084E-3,-1.2633772E-1,1.5323383E-1],"categories":[],"categories_nodes":[],"categories_segments":[],"categories_sizes":[],"default_left":[1,0,0],"id":46,"left_children":[1,-1,-1],"loss_changes":[9.464729E-2,0E0,0E0],"parents":[2147483647,0,0],"right_children":[2,-1,-1],"split_conditions":[1.5450044E-1,-3.790132E-2,4.597015E-2],"split_indices":[72,0,0],"split_type":[0,0,0],"sum_hessian":[2.8801072E0,1.6502798E0,1.2298273E0],"tree_param":{"num_deleted":"0","num_feature":"75","num_nodes":"3","size_leaf_vector":"0"}},{"base_weights":[3.1953764E-3,-1.2012272E-1,1.7501856E-1],"categories":[],"categories_nodes":[],"categories_segments":[],"categories_sizes":[],"default_left":[1,0,0],"id":47,"left_children":[1,-1,-1],"loss_changes":[1.0285154E-1,0E0,0E0],"parents":[2147483647,0,0],"right_children":[2,-1,-1],"split_conditions":[2.180269E-2,-3.603682E-2,5.250557E-2],"split_indices":[46,0,0],"split_type":[0,0,0],"sum_hessian":[2.8618238E0,1.8412474E0,1.0205762E0],"tree_param":{"num_deleted":"0","num_feature":"75","num_nodes":"3","size_leaf_vector":"0"}},{"base_weights":[6.4227288E-3,-1.17604226E-1,1.4813238E-1],"categories":[],"categories_nodes":[],"categories_segments":[],"categories_sizes":[],"default_left":[1,0,0],"id":48,"left_children":[1,-1,-1],"loss_changes":[8.489557E-2,0E0,0E0],"parents":[2147483647,0,0],"right_children":[2,-1,-1],"split_conditions":[1.026496E-1,-3.528127E-2,4.4439718E-2],"split_indices":[43,0,0],"split_type":[0,0,0],"sum_hessian":[2.8390582E0,1.6046994E0,1.2343588E0],"tree_param":{"num_deleted":"0","num_feature":"75","num_nodes":"3","size_leaf_vector":"0"}},{"base_weights":[6.7894985E-3,-1.142618E-1,1.7281376E-1],"categories":[],"categories_nodes":[],"categories_segments":[],"categories_sizes":[],"default_left":[1,0,0],"id":49,"left_children":[1,-1,-1],"loss_changes":[9.66082E-2,0E0,0E0],"parents":[2147483647,0,0],"right_children":[2,-1,-1],"split_conditions":[2.3074059E-2,-3.427854E-2,5.184413E-2],"split_indices":[31,0,0],"split_type":[0,0,0],"sum_hessian":[2.8244739E0,1.813786E0,1.0106878E0],"tree_param":{"num_deleted":"0","num_feature":"75","num_nodes":"3","size_leaf_vector":"0"}},{"base_weights":[9.294094E-3,-1.1802025E-1,1.5459493E-1],"categories":[],"categories_nodes":[],"categories_segments":[],"categories_sizes":[],"default_left":[1,0,0],"id":50,"left_children":[1,-1,-1],"loss_changes":[8.860476E-2,0E0,0E0],"parents":[2147483647,0,0],"right_children":[2,-1,-1],"split_conditions":[1.5450044E-1,-3.5406075E-2,4.637848E-2],"split_indices":[72,0,0],"split_type":[0,0,0],"sum_hessian":[2.8034427E0,1.5942736E0,1.2091691E0],"tree_param":{"num_deleted":"0","num_feature":"75","num_nodes":"3","size_leaf_vector":"0"}},{"base_weights":[9.314972E-3,1.7187153E-1,-1.1085015E-1],"categories":[],"categories_nodes":[],"categories_segments":[],"categories_sizes":[],"default_left":[1,0,0],"id":51,"left_children":[1,-1,-1],"loss_changes":[9.303515E-2,0E0,0E0],"parents":[2147483647,0,0],"right_children":[2,-1,-1],"split_conditions":[2.7715072E-2,5.156146E-2,-3.3255044E-2],"split_indices":[73,0,0],"split_type":[0,0,0],"sum_hessian":[2.7874773E0,1.0018727E0,1.7856046E0],"tree_param":{"num_deleted":"0","num_feature":"75","num_nodes":"3","size_leaf_vector":"0"}},{"base_weights":[1.1316272E-2,1.2465605E-1,-1.4173372E-1],"categories":[],"categories_nodes":[],"categories_segments":[],"categories_sizes":[],"default_left":[1,0,0],"id":52,"left_children":[1,-1,-1],"loss_changes":[8.303418E-2,0E0,0E0],"parents":[2147483647,0,0],"right_children":[2,-1,-1],"split_conditions":[1.8678617E-2,3.739682E-2,-4.2520117E-2],"split_indices":[47,0,0],"split_type":[0,0,0],"sum_hessian":[2.768232E0,1.6970315E0,1.0712005E0],"tree_param":{"num_deleted":"0","num_feature":"75","num_nodes":"3","size_leaf_vector":"0"}},{"base_weights":[6.4444435E-3,-1.1565743E-1,1.4331083E-1],"categories":[],"categories_nodes":[],"categories_segments":[],"categories_sizes":[],"default_left":[1,0,0],"id":53,"left_children":[1,-1,-1],"loss_changes":[7.931278E-2,0E0,0E0],"parents":[2147483647,0,0],"right_children":[2,-1,-1],"split_conditions":[1.7046817E-2,-3.469723E-2,4.299325E-2],"split_indices":[32,0,0],"split_type":[0,0,0],"sum_hessian":[2.7541382E0,1.5374777E0,1.2166605E0],"tree_param":{"num_deleted":"0","num_feature":"75","num_nodes":"3","size_leaf_vector":"0"}},{"base_weights":[6.627011E-3,-1.2047067E-1,1.3163838E-1],"categories":[],"categories_nodes":[],"categories_segments":[],"categories_sizes":[],"default_left":[1,0,0],"id":54,"left_children":[1,-1,-1],"loss_changes":[7.534361E-2,0E0,0E0],"parents":[2147483647,0,0],"right_children":[2,-1,-1],"split_conditions":[1.605071E-1,-3.61412E-2,3.9491516E-2],"split_indices":[10,0,0],"split_type":[0,0,0],"sum_hessian":[2.7438693E0,1.3785921E0,1.3652772E0],"tree_param":{"num_deleted":"0","num_feature":"75","num_nodes":"3","size_leaf_vector":"0"}},{"base_weights":[5.444061E-3,1.2673748E-1,-1.4301157E-1],"categories":[],"categories_nodes":[],"categories_segments":[],"categories_sizes":[],"default_left":[1,0,0],"id":55,"left_children":[1,-1,-1],"loss_changes":[8.52751E-2,0E0,0E0],"parents":[2147483647,0,0],"right_children":[2,-1,-1],"split_conditions":[1.0794602E-1,3.8021244E-2,-4.290347E-2],"split_indices":[56,0,0],"split_type":[0,0,0],"sum_hessian":[2.7291791E0,1.5825086E0,1.1466707E0],"tree_param":{"num_deleted":"0","num_feature":"75","num_nodes":"3","size_leaf_vector":"0"}},{"base_weights":[2.3674145E-3,1.1620427E-1,-1.479198E-1],"categories":[],"categories_nodes":[],"categories_segments":[],"categories_sizes":[],"default_left":[1,0,0],"id":56,"left_children":[1,-1,-1],"loss_changes":[8.0828734E-2,0E0,0E0],"parents":[2147483647,0,0],"right_children":[2,-1,-1],"split_conditions":[2.506038E-2,3.486128E-2,-4.437594E-2],"split_indices":[62,0,0],"split_type":[0,0,0],"sum_hessian":[2.719838E0,1.6766356E0,1.0432022E0],"tree_param":{"num_deleted":"0","num_feature":"75","num_nodes":"3","size_leaf_vector":"0"}},{"base_weights":[-1.0512305E-3,-1.24634266E-1,1.19096585E-1],"categories":[],"categories_nodes":[],"categories_segments":[],"categories_sizes":[],"default_left":[1,0,0],"id":57,"left_children":[1,-1,-1],"loss_changes":[6.9849096E-2,0E0,0E0],"parents":[2147483647,0,0],"right_children":[2,-1,-1],"split_conditions":[9.696114E-2,-3.739028E-2,3.5728976E-2],"split_indices":[50,0,0],"split_type":[0,0,0],"sum_hessian":[2.7045202E0,1.3147935E0,1.3897266E0],"tree_param":{"num_deleted":"0","num_feature":"75","num_nodes":"3","size_leaf_vector":"0"}},{"base_weights":[-1.3002832E-3,-1.2296124E-1,1.3991892E-1],"categories":[],"categories_nodes":[],"categories_segments":[],"categories_sizes":[],"default_left":[1,0,0],"id":58,"left_children":[1,-1,-1],"loss_changes":[8.064076E-2,0E0,0E0],"parents":[2147483647,0,0],"right_children":[2,-1,-1],"split_conditions":[1.026496E-1,-3.6888372E-2,4.1975677E-2],"split_indices":[43,0,0],"split_type":[0,0,0],"sum_hessian":[2.692257E0,1.5157338E0,1.1765231E0],"tree_param":{"num_deleted":"0","num_feature":"75","num_nodes":"3","size_leaf_vector":"0"}},{"base_weights":[3.5477485E-4,-1.2542062E-1,1.2554315E-1],"categories":[],"categories_nodes":[],"categories_segments":[],"categories_sizes":[],"default_left":[1,0,0],"id":59,"left_children":[1,-1,-1],"loss_changes":[7.364255E-2,0E0,0E0],"parents":[2147483647,0,0],"right_children":[2,-1,-1],"split_conditions":[1.605071E-1,-3.7626185E-2,3.7662946E-2],"split_indices":[10,0,0],"split_type":[0,0,0],"sum_hessian":[2.6770136E0,1.3344506E0,1.3425632E0],"tree_param":{"num_deleted":"0","num_feature":"75","num_nodes":"3","size_leaf_vector":"0"}},{"base_weights":[1.462139E-4,-1.18266575E-1,1.3802211E-1],"categories":[],"categories_nodes":[],"categories_segments":[],"categories_sizes":[],"default_left":[1,0,0],"id":60,"left_children":[1,-1,-1],"loss_changes":[7.6108776E-2,0E0,0E0],"parents":[2147483647,0,0],"right_children":[2,-1,-1],"split_conditions":[1.5450044E-1,-3.5479974E-2,4.1406635E-2],"split_indices":[72,0,0],"split_type":[0,0,0],"sum_hessian":[2.6619124E0,1.5085446E0,1.153368E0],"tree_param":{"num_deleted":"0","num_feature":"75","num_nodes":"3","size_leaf_vector":"0"}},{"base_weights":[1.625381E-3,-1.1423473E-1,1.3416727E-1],"categories":[],"categories_nodes":[],"categories_segments":[],"categories_sizes":[],"default_left":[1,0,0],"id":61,"left_children":[1,-1,-1],"loss_changes":[7.1317695E-2,0E0,0E0],"parents":[2147483647,0,0],"right_children":[2,-1,-1],"split_conditions":[1.7046817E-2,-3.427042E-2,4.0250182E-2],"split_indices":[32,0,0],"split_type":[0,0,0],"sum_hessian":[2.6461303E0,1.4856172E0,1.1605132E0],"tree_param":{"num_deleted":"0","num_feature":"75","num_nodes":"3","size_leaf_vector":"0"}},{"base_weights":[2.687043E-3,-1.18619785E-1,1.16895035E-1],"categories":[],"categories_nodes":[],"categories_segments":[],"categories_sizes":[],"default_left":[1,0,0],"id":62,"left_children":[1,-1,-1],"loss_changes":[6.4239085E-2,0E0,0E0],"parents":[2147483647,0,0],"right_children":[2,-1,-1],"split_conditions":[9.696114E-2,-3.5585936E-2,3.5068512E-2],"split_indices":[50,0,0],"split_type":[0,0,0],"sum_hessian":[2.6359365E0,1.2595098E0,1.3764267E0],"tree_param":{"num_deleted":"0","num_feature":"75","num_nodes":"3","size_leaf_vector":"0"}},{"base_weights":[1.6464865E-3,1.09696575E-1,-1.4049871E-1],"categories":[],"categories_nodes":[],"categories_segments":[],"categories_sizes":[],"default_left":[1,0,0],"id":63,"left_children":[1,-1,-1],"loss_changes":[7.109353E-2,0E0,0E0],"parents":[2147483647,0,0],"right_children":[2,-1,-1],"split_conditions":[1.8678617E-2,3.2908972E-2,-4.2149615E-2],"split_indices":[47,0,0],"split_type":[0,0,0],"sum_hessian":[2.6253676E0,1.6212616E0,1.004106E0],"tree_param":{"num_deleted":"0","num_feature":"75","num_nodes":"3","size_leaf_vector":"0"}},{"base_weights":[-1.5263838E-3,-1.1843293E-1,1.1391869E-1],"categories":[],"categories_nodes":[],"categories_segments":[],"categories_sizes":[],"default_left":[1,0,0],"id":64,"left_children":[1,-1,-1],"loss_changes":[6.2237997E-2,0E0,0E0],"parents":[2147483647,0,0],"right_children":[2,-1,-1],"split_conditions":[1.605071E-1,-3.552988E-2,3.417561E-2],"split_indices":[10,0,0],"split_type":[0,0,0],"sum_hessian":[2.6118288E0,1.2848411E0,1.3269879E0],"tree_param":{"num_deleted":"0","num_feature":"75","num_nodes":"3","size_leaf_vector":"0"}},{"base_weights":[-1.5449137E-3,1.1001099E-1,-1.3596411E-1],"categories":[],"categories_nodes":[],"categories_segments":[],"categories_sizes":[],"default_left":[1,0,0],"id":65,"left_children":[1,-1,-1],"loss_changes":[6.89193E-2,0E0,0E0],"parents":[2147483647,0,0],"right_children":[2,-1,-1],"split_conditions":[1.0794602E-1,3.3003297E-2,-4.0789235E-2],"split_indices":[56,0,0],"split_type":[0,0,0],"sum_hessian":[2.5985887E0,1.5192937E0,1.079295E0],"tree_param":{"num_deleted":"0","num_feature":"75","num_nodes":"3","size_leaf_vector":"0"}},{"base_weights":[-3.3649115E-3,-1.1275327E-1,1.2474417E-1],"categories":[],"categories_nodes":[],"categories_segments":[],"categories_sizes":[],"default_left":[1,0,0],"id":66,"left_children":[1,-1,-1],"loss_changes":[6.43777E-2,0E0,0E0],"parents":[2147483647,0,0],"right_children":[2,-1,-1],"split_conditions":[1.5450044E-1,-3.3825982E-2,3.7423253E-2],"split_indices":[72,0,0],"split_type":[0,0,0],"sum_hessian":[2.5902436E0,1.4618664E0,1.1283771E0],"tree_param":{"num_deleted":"0","num_feature":"75","num_nodes":"3","size_leaf_vector":"0"}},{"base_weights":[-1.4474656E-3,-1.200003E-1,1.1485223E-1],"categories":[],"categories_nodes":[],"categories_segments":[],"categories_sizes":[],"default_left":[1,0,0],"id":67,"left_children":[1,-1,-1],"loss_changes":[6.308749E-2,0E0,0E0],"parents":[2147483647,0,0],"right_children":[2,-1,-1],"split_conditions":[1.605071E-1,-3.600009E-2,3.445567E-2],"split_indices":[10,0,0],"split_type":[0,0,0],"sum_hessian":[2.5760386E0,1.2599051E0,1.3161336E0],"tree_param":{"num_deleted":"0","num_feature":"75","num_nodes":"3","size_leaf_vector":"0"}},{"base_weights":[-1.5458465E-3,-1.0769177E-1,1.21558495E-1],"categories":[],"categories_nodes":[],"categories_segments":[],"categories_sizes":[],"default_left":[1,0,0],"id":68,"left_children":[1,-1,-1],"loss_changes":[5.964418E-2,0E0,0E0],"parents":[2147483647,0,0],"right_children":[2,-1,-1],"split_conditions":[1.026496E-1,-3.230753E-2,3.646755E-2],"split_indices":[43,0,0],"split_type":[0,0,0],"sum_hessian":[2.5626576E0,1.4433434E0,1.1193142E0],"tree_param":{"num_deleted":"0","num_feature":"75","num_nodes":"3","size_leaf_vector":"0"}},{"base_weights":[6.8383706E-6,-1.0905677E-1,1.2560973E-1],"categories":[],"categories_nodes":[],"categories_segments":[],"categories_sizes":[],"default_left":[1,0,0],"id":69,"left_children":[1,-1,-1],"loss_changes":[6.2329836E-2,0E0,0E0],"parents":[2147483647,0,0],"right_children":[2,-1,-1],"split_conditions":[1.7046817E-2,-3.2717034E-2,3.768292E-2],"split_indices":[32,0,0],"split_type":[0,0,0],"sum_hessian":[2.5500622E0,1.4354043E0,1.1146579E0],"tree_param":{"num_deleted":"0","num_feature":"75","num_nodes":"3","size_leaf_vector":"0"}},{"base_weights":[1.3245358E-3,-1.1676954E-1,1.1152041E-1],"categories":[],"categories_nodes":[],"categories_segments":[],"categories_sizes":[],"default_left":[1,0,0],"id":70,"left_children":[1,-1,-1],"loss_changes":[5.9099656E-2,0E0,0E0],"parents":[2147483647,0,0],"right_children":[2,-1,-1],"split_conditions":[9.696114E-2,-3.5030864E-2,3.3456124E-2],"split_indices":[50,0,0],"split_type":[0,0,0],"sum_hessian":[2.5407493E0,1.197628E0,1.3431213E0],"tree_param":{"num_deleted":"0","num_feature":"75","num_nodes":"3","size_leaf_vector":"0"}},{"base_weights":[3.969077E-4,-1.0478796E-1,1.22240305E-1],"categories":[],"categories_nodes":[],"categories_segments":[],"categories_sizes":[],"default_left":[1,0,0],"id":71,"left_children":[1,-1,-1],"loss_changes":[5.806438E-2,0E0,0E0],"parents":[2147483647,0,0],"right_children":[2,-1,-1],"split_conditions":[1.5450044E-1,-3.143639E-2,3.6672093E-2],"split_indices":[72,0,0],"split_type":[0,0,0],"sum_hessian":[2.531116E0,1.4335448E0,1.0975711E0],"tree_param":{"num_deleted":"0","num_feature":"75","num_nodes":"3","size_leaf_vector":"0"}},{"base_weights":[1.694041E-3,-1.1168388E-1,1.0953226E-1],"categories":[],"categories_nodes":[],"categories_segments":[],"categories_sizes":[],"default_left":[1,0,0],"id":72,"left_children":[1,-1,-1],"loss_changes":[5.5249117E-2,0E0,0E0],"parents":[2147483647,0,0],"right_children":[2,-1,-1],"split_conditions":[1.605071E-1,-3.3505168E-2,3.285968E-2],"split_indices":[10,0,0],"split_type":[0,0,0],"sum_hessian":[2.5182774E0,1.2102232E0,1.3080543E0],"tree_param":{"num_deleted":"0","num_feature":"75","num_nodes":"3","size_leaf_vector":"0"}},{"base_weights":[9.268861E-4,1.03324674E-1,-1.216584E-1],"categories":[],"categories_nodes":[],"categories_segments":[],"categories_sizes":[],"default_left":[1,0,0],"id":73,"left_children":[1,-1,-1],"loss_changes":[5.6588292E-2,0E0,0E0],"parents":[2147483647,0,0],"right_children":[2,-1,-1],"split_conditions":[1.0794602E-1,3.0997403E-2,-3.6497522E-2],"split_indices":[56,0,0],"split_type":[0,0,0],"sum_hessian":[2.5067208E0,1.4514322E0,1.0552884E0],"tree_param":{"num_deleted":"0","num_feature":"75","num_nodes":"3","size_leaf_vector":"0"}},{"base_weights":[-1.0061123E-3,-9.8707035E-2,1.1223085E-1],"categories":[],"categories_nodes":[],"categories_segments":[],"categories_sizes":[],"default_left":[1,0,0],"id":74,"left_children":[1,-1,-1],"loss_changes":[4.979922E-2,0E0,0E0],"parents":[2147483647,0,0],"right_children":[2,-1,-1],"split_conditions":[1.026496E-1,-2.961211E-2,3.3669256E-2],"split_indices":[43,0,0],"split_type":[0,0,0],"sum_hessian":[2.4999542E0,1.4109232E0,1.0890311E0],"tree_param":{"num_deleted":"0","num_feature":"75","num_nodes":"3","size_leaf_vector":"0"}},{"base_weights":[3.9318705E-4,-1.120712E-1,1.0706266E-1],"categories":[],"categories_nodes":[],"categories_segments":[],"categories_sizes":[],"default_left":[1,0,0],"id":75,"left_children":[1,-1,-1],"loss_changes":[5.3855818E-2,0E0,0E0],"parents":[2147483647,0,0],"right_children":[2,-1,-1],"split_conditions":[1.605071E-1,-3.3621363E-2,3.21188E-2],"split_indices":[10,0,0],"split_type":[0,0,0],"sum_hessian":[2.489111E0,1.1869932E0,1.3021176E0],"tree_param":{"num_deleted":"0","num_feature":"75","num_nodes":"3","size_leaf_vector":"0"}},{"base_weights":[-2.327249E-4,9.500072E-2,-1.13578774E-1],"categories":[],"categories_nodes":[],"categories_segments":[],"categories_sizes":[],"default_left":[1,0,0],"id":76,"left_children":[1,-1,-1],"loss_changes":[4.832882E-2,0E0,0E0],"parents":[2147483647,0,0],"right_children":[2,-1,-1],"split_conditions":[1.0794602E-1,2.8500218E-2,-3.4073632E-2],"split_indices":[56,0,0],"split_type":[0,0,0],"sum_hessian":[2.4776351E0,1.4343475E0,1.0432875E0],"tree_param":{"num_deleted":"0","num_feature":"75","num_nodes":"3","size_leaf_vector":"0"}},{"base_weights":[-1.8395851E-3,-1.0581522E-1,9.7551E-2],"categories":[],"categories_nodes":[],"categories_segments":[],"categories_sizes":[],"default_left":[1,0,0],"id":77,"left_children":[1,-1,-1],"loss_changes":[4.620058E-2,0E0,0E0],"parents":[2147483647,0,0],"right_children":[2,-1,-1],"split_conditions":[1.605071E-1,-3.1744566E-2,2.9265301E-2],"split_indices":[10,0,0],"split_type":[0,0,0],"sum_hessian":[2.4717932E0,1.1764411E0,1.2953522E0],"tree_param":{"num_deleted":"0","num_feature":"75","num_nodes":"3","size_leaf_vector":"0"}},{"base_weights":[-2.0749571E-3,-1.0124362E-1,1.1351172E-1],"categories":[],"categories_nodes":[],"categories_segments":[],"categories_sizes":[],"default_left":[1,0,0],"id":78,"left_children":[1,-1,-1],"loss_changes":[5.11678E-2,0E0,0E0],"parents":[2147483647,0,0],"right_children":[2,-1,-1],"split_conditions":[1.5450044E-1,-3.0373087E-2,3.4053516E-2],"split_indices":[72,0,0],"split_type":[0,0,0],"sum_hessian":[2.4613037E0,1.391523E0,1.0697808E0],"tree_param":{"num_deleted":"0","num_feature":"75","num_nodes":"3","size_leaf_vector":"0"}},{"base_weights":[-4.5343605E-4,-1.10706806E-1,1.01828285E-1],"categories":[],"categories_nodes":[],"categories_segments":[],"categories_sizes":[],"default_left":[1,0,0],"id":79,"left_children":[1,-1,-1],"loss_changes":[5.01706E-2,0E0,0E0],"parents":[2147483647,0,0],"right_children":[2,-1,-1],"split_conditions":[9.696114E-2,-3.3212043E-2,3.0548487E-2],"split_indices":[50,0,0],"split_type":[0,0,0],"sum_hessian":[2.4493077E0,1.1390793E0,1.3102285E0],"tree_param":{"num_deleted":"0","num_feature":"75","num_nodes":"3","size_leaf_vector":"0"}},{"base_weights":[-1.1626743E-3,-9.491446E-2,1.0674058E-1],"categories":[],"categories_nodes":[],"categories_segments":[],"categories_sizes":[],"default_left":[1,0,0],"id":80,"left_children":[1,-1,-1],"loss_changes":[4.4941384E-2,0E0,0E0],"parents":[2147483647,0,0],"right_children":[2,-1,-1],"split_conditions":[1.026496E-1,-2.8474338E-2,3.2022174E-2],"split_indices":[43,0,0],"split_type":[0,0,0],"sum_hessian":[2.4410574E0,1.3705922E0,1.0704652E0],"tree_param":{"num_deleted":"0","num_feature":"75","num_nodes":"3","size_leaf_vector":"0"}},{"base_weights":[1.630543E-4,-9.549389E-2,1.107589E-1],"categories":[],"categories_nodes":[],"categories_segments":[],"categories_sizes":[],"default_left":[1,0,0],"id":81,"left_children":[1,-1,-1],"loss_changes":[4.687472E-2,0E0,0E0],"parents":[2147483647,0,0],"right_children":[2,-1,-1],"split_conditions":[1.7046817E-2,-2.8648168E-2,3.322767E-2],"split_indices":[32,0,0],"split_type":[0,0,0],"sum_hessian":[2.431045E0,1.3767836E0,1.0542616E0],"tree_param":{"num_deleted":"0","num_feature":"75","num_nodes":"3","size_leaf_vector":"0"}},{"base_weights":[1.3950631E-3,-9.909953E-2,9.45517E-2],"categories":[],"categories_nodes":[],"categories_segments":[],"categories_sizes":[],"default_left":[1,0,0],"id":82,"left_children":[1,-1,-1],"loss_changes":[4.1422002E-2,0E0,0E0],"parents":[2147483647,0,0],"right_children":[2,-1,-1],"split_conditions":[1.605071E-1,-2.972986E-2,2.836551E-2],"split_indices":[10,0,0],"split_type":[0,0,0],"sum_hessian":[2.4237204E0,1.1352509E0,1.2884696E0],"tree_param":{"num_deleted":"0","num_feature":"75","num_nodes":"3","size_leaf_vector":"0"}},{"base_weights":[5.231559E-4,9.793025E-2,-1.0623582E-1],"categories":[],"categories_nodes":[],"categories_segments":[],"categories_sizes":[],"default_left":[1,0,0],"id":83,"left_children":[1,-1,-1],"loss_changes":[4.5911957E-2,0E0,0E0],"parents":[2147483647,0,0],"right_children":[2,-1,-1],"split_conditions":[1.8702997E-2,2.9379077E-2,-3.1870745E-2],"split_indices":[62,0,0],"split_type":[0,0,0],"sum_hessian":[2.4145567E0,1.3058208E0,1.1087359E0],"tree_param":{"num_deleted":"0","num_feature":"75","num_nodes":"3","size_leaf_vector":"0"}},{"base_weights":[-4.2821674E-4,-1.06296696E-1,9.668266E-2],"categories":[],"categories_nodes":[],"categories_segments":[],"categories_sizes":[],"default_left":[1,0,0],"id":84,"left_children":[1,-1,-1],"loss_changes":[4.528288E-2,0E0,0E0],"parents":[2147483647,0,0],"right_children":[2,-1,-1],"split_conditions":[9.696114E-2,-3.188901E-2,2.90048E-2],"split_indices":[50,0,0],"split_type":[0,0,0],"sum_hessian":[2.4049122E0,1.1053209E0,1.2995914E0],"tree_param":{"num_deleted":"0","num_feature":"75","num_nodes":"3","size_leaf_vector":"0"}},{"base_weights":[-1.2117043E-3,-9.414443E-2,1.06912486E-1],"categories":[],"categories_nodes":[],"categories_segments":[],"categories_sizes":[],"default_left":[1,0,0],"id":85,"left_children":[1,-1,-1],"loss_changes":[4.420573E-2,0E0,0E0],"parents":[2147483647,0,0],"right_children":[2,-1,-1],"split_conditions":[1.5450044E-1,-2.824333E-2,3.2073747E-2],"split_indices":[72,0,0],"split_type":[0,0,0],"sum_hessian":[2.3976488E0,1.3589367E0,1.0387123E0],"tree_param":{"num_deleted":"0","num_feature":"75","num_nodes":"3","size_leaf_vector":"0"}},{"base_weights":[2.2873476E-4,-9.0567715E-2,1.0469723E-1],"categories":[],"categories_nodes":[],"categories_segments":[],"categories_sizes":[],"default_left":[1,0,0],"id":86,"left_children":[1,-1,-1],"loss_changes":[4.1607253E-2,0E0,0E0],"parents":[2147483647,0,0],"right_children":[2,-1,-1],"split_conditions":[1.7046817E-2,-2.7170315E-2,3.140917E-2],"split_indices":[32,0,0],"split_type":[0,0,0],"sum_hessian":[2.3868024E0,1.34815E0,1.0386524E0],"tree_param":{"num_deleted":"0","num_feature":"75","num_nodes":"3","size_leaf_vector":"0"}},{"base_weights":[1.3651123E-3,-9.6757546E-2,8.92838E-2],"categories":[],"categories_nodes":[],"categories_segments":[],"categories_sizes":[],"default_left":[1,0,0],"id":87,"left_children":[1,-1,-1],"loss_changes":[3.7800454E-2,0E0,0E0],"parents":[2147483647,0,0],"right_children":[2,-1,-1],"split_conditions":[9.696114E-2,-2.9027265E-2,2.678514E-2],"split_indices":[50,0,0],"split_type":[0,0,0],"sum_hessian":[2.38034E0,1.0773816E0,1.3029585E0],"tree_param":{"num_deleted":"0","num_feature":"75","num_nodes":"3","size_leaf_vector":"0"}},{"base_weights":[2.4214116E-4,-8.9640856E-2,1.0401356E-1],"categories":[],"categories_nodes":[],"categories_segments":[],"categories_sizes":[],"default_left":[1,0,0],"id":88,"left_children":[1,-1,-1],"loss_changes":[4.0798504E-2,0E0,0E0],"parents":[2147483647,0,0],"right_children":[2,-1,-1],"split_conditions":[1.5450044E-1,-2.6892258E-2,3.1204069E-2],"split_indices":[72,0,0],"split_type":[0,0,0],"sum_hessian":[2.3744688E0,1.345348E0,1.0291208E0],"tree_param":{"num_deleted":"0","num_feature":"75","num_nodes":"3","size_leaf_vector":"0"}},{"base_weights":[1.4057057E-3,-9.898746E-2,9.342175E-2],"categories":[],"categories_nodes":[],"categories_segments":[],"categories_sizes":[],"default_left":[1,0,0],"id":89,"left_children":[1,-1,-1],"loss_changes":[4.03282E-2,0E0,0E0],"parents":[2147483647,0,0],"right_children":[2,-1,-1],"split_conditions":[1.605071E-1,-2.969624E-2,2.8026527E-2],"split_indices":[10,0,0],"split_type":[0,0,0],"sum_hessian":[2.3645113E0,1.0945503E0,1.2699609E0],"tree_param":{"num_deleted":"0","num_feature":"75","num_nodes":"3","size_leaf_vector":"0"}},{"base_weights":[4.357223E-4,-8.6341426E-2,1.0024458E-1],"categories":[],"categories_nodes":[],"categories_segments":[],"categories_sizes":[],"default_left":[1,0,0],"id":90,"left_children":[1,-1,-1],"loss_changes":[3.771914E-2,0E0,0E0],"parents":[2147483647,0,0],"right_children":[2,-1,-1],"split_conditions":[1.026496E-1,-2.590243E-2,3.0073376E-2],"split_indices":[43,0,0],"split_type":[0,0,0],"sum_hessian":[2.3556693E0,1.3322761E0,1.023393E0],"tree_param":{"num_deleted":"0","num_feature":"75","num_nodes":"3","size_leaf_vector":"0"}},{"base_weights":[1.5104176E-3,-9.597523E-2,8.8364795E-2],"categories":[],"categories_nodes":[],"categories_segments":[],"categories_sizes":[],"default_left":[1,0,0],"id":91,"left_children":[1,-1,-1],"loss_changes":[3.6817543E-2,0E0,0E0],"parents":[2147483647,0,0],"right_children":[2,-1,-1],"split_conditions":[9.696114E-2,-2.879257E-2,2.650944E-2],"split_indices":[50,0,0],"split_type":[0,0,0],"sum_hessian":[2.3467026E0,1.0562034E0,1.2904992E0],"tree_param":{"num_deleted":"0","num_feature":"75","num_nodes":"3","size_leaf_vector":"0"}},{"base_weights":[3.2787398E-4,8.786042E-2,-9.52975E-2],"categories":[],"categories_nodes":[],"categories_segments":[],"categories_sizes":[],"default_left":[1,0,0],"id":92,"left_children":[1,-1,-1],"loss_changes":[3.633996E-2,0E0,0E0],"parents":[2147483647,0,0],"right_children":[2,-1,-1],"split_conditions":[1.8702997E-2,2.6358128E-2,-2.858925E-2],"split_indices":[62,0,0],"split_type":[0,0,0],"sum_hessian":[2.341215E0,1.2647256E0,1.0764894E0],"tree_param":{"num_deleted":"0","num_feature":"75","num_nodes":"3","size_leaf_vector":"0"}},{"base_weights":[-4.8743462E-4,-8.759182E-2,9.928832E-2],"categories":[],"categories_nodes":[],"categories_segments":[],"categories_sizes":[],"default_left":[1,0,0],"id":93,"left_children":[1,-1,-1],"loss_changes":[3.7663866E-2,0E0,0E0],"parents":[2147483647,0,0],"right_children":[2,-1,-1],"split_conditions":[1.7046817E-2,-2.6277548E-2,2.9786497E-2],"split_indices":[32,0,0],"split_type":[0,0,0],"sum_hessian":[2.3330271E0,1.3108053E0,1.0222217E0],"tree_param":{"num_deleted":"0","num_feature":"75","num_nodes":"3","size_leaf_vector":"0"}},{"base_weights":[6.690541E-4,-9.342996E-2,8.610401E-2],"categories":[],"categories_nodes":[],"categories_segments":[],"categories_sizes":[],"default_left":[1,0,0],"id":94,"left_children":[1,-1,-1],"loss_changes":[3.479348E-2,0E0,0E0],"parents":[2147483647,0,0],"right_children":[2,-1,-1],"split_conditions":[1.605071E-1,-2.802899E-2,2.5831206E-2],"split_indices":[10,0,0],"split_type":[0,0,0],"sum_hessian":[2.3272343E0,1.0629307E0,1.2643037E0],"tree_param":{"num_deleted":"0","num_feature":"75","num_nodes":"3","size_leaf_vector":"0"}},{"base_weights":[-2.3851963E-4,-8.30243E-2,9.5567435E-2],"categories":[],"categories_nodes":[],"categories_segments":[],"categories_sizes":[],"default_left":[1,0,0],"id":95,"left_children":[1,-1,-1],"loss_changes":[3.426196E-2,0E0,0E0],"parents":[2147483647,0,0],"right_children":[2,-1,-1],"split_conditions":[1.5450044E-1,-2.4907291E-2,2.867023E-2],"split_indices":[72,0,0],"split_type":[0,0,0],"sum_hessian":[2.3194184E0,1.3158265E0,1.0035918E0],"tree_param":{"num_deleted":"0","num_feature":"75","num_nodes":"3","size_leaf_vector":"0"}},{"base_weights":[9.3235524E-4,-9.330885E-2,8.4381886E-2],"categories":[],"categories_nodes":[],"categories_segments":[],"categories_sizes":[],"default_left":[1,0,0],"id":96,"left_children":[1,-1,-1],"loss_changes":[3.3907756E-2,0E0,0E0],"parents":[2147483647,0,0],"right_children":[2,-1,-1],"split_conditions":[9.696114E-2,-2.7992656E-2,2.5314568E-2],"split_indices":[50,0,0],"split_type":[0,0,0],"sum_hessian":[2.3103902E0,1.0295509E0,1.2808392E0],"tree_param":{"num_deleted":"0","num_feature":"75","num_nodes":"3","size_leaf_vector":"0"}},{"base_weights":[-1.9987409E-4,8.1635475E-2,-8.9552075E-2],"categories":[],"categories_nodes":[],"categories_segments":[],"categories_sizes":[],"default_left":[1,0,0],"id":97,"left_children":[1,-1,-1],"loss_changes":[3.148076E-2,0E0,0E0],"parents":[2147483647,0,0],"right_children":[2,-1,-1],"split_conditions":[1.8702997E-2,2.4490643E-2,-2.6865624E-2],"split_indices":[62,0,0],"split_type":[0,0,0],"sum_hessian":[2.305467E0,1.2484276E0,1.0570394E0],"tree_param":{"num_deleted":"0","num_feature":"75","num_nodes":"3","size_leaf_vector":"0"}},{"base_weights":[-9.014226E-4,-8.3229735E-2,9.327181E-2],"categories":[],"categories_nodes":[],"categories_segments":[],"categories_sizes":[],"default_left":[1,0,0],"id":98,"left_children":[1,-1,-1],"loss_changes":[3.333353E-2,0E0,0E0],"parents":[2147483647,0,0],"right_children":[2,-1,-1],"split_conditions":[1.7046817E-2,-2.4968922E-2,2.7981544E-2],"split_indices":[32,0,0],"split_type":[0,0,0],"sum_hessian":[2.298096E0,1.2881621E0,1.0099337E0],"tree_param":{"num_deleted":"0","num_feature":"75","num_nodes":"3","size_leaf_vector":"0"}},{"base_weights":[2.4467034E-4,-8.926666E-2,8.088022E-2],"categories":[],"categories_nodes":[],"categories_segments":[],"categories_sizes":[],"default_left":[1,0,0],"id":99,"left_children":[1,-1,-1],"loss_changes":[3.098789E-2,0E0,0E0],"parents":[2147483647,0,0],"right_children":[2,-1,-1],"split_conditions":[1.605071E-1,-2.6779998E-2,2.4264066E-2],"split_indices":[10,0,0],"split_type":[0,0,0],"sum_hessian":[2.2929704E0,1.0359509E0,1.2570194E0],"tree_param":{"num_deleted":"0","num_feature":"75","num_nodes":"3","size_leaf_vector":"0"}},{"base_weights":[-6.3440594E-4,7.8332506E-2,-8.682737E-2],"categories":[],"categories_nodes":[],"categories_segments":[],"categories_sizes":[],"default_left":[1,0,0],"id":100,"left_children":[1,-1,-1],"loss_changes":[2.9166501E-2,0E0,0E0],"parents":[2147483647,0,0],"right_children":[2,-1,-1],"split_conditions":[1.8702997E-2,2.3499753E-2,-2.6048211E-2],"split_indices":[62,0,0],"split_type":[0,0,0],"sum_hessian":[2.2858958E0,1.240547E0,1.0453488E0],"tree_param":{"num_deleted":"0","num_feature":"75","num_nodes":"3","size_leaf_vector":"0"}},{"base_weights":[-1.2601566E-3,-9.155302E-2,7.9429306E-2],"categories":[],"categories_nodes":[],"categories_segments":[],"categories_sizes":[],"default_left":[1,0,0],"id":101,"left_children":[1,-1,-1],"loss_changes":[3.1161223E-2,0E0,0E0],"parents":[2147483647,0,0],"right_children":[2,-1,-1],"split_conditions":[1.2032825E-2,-2.7465906E-2,2.3828793E-2],"split_indices":[2,0,0],"split_type":[0,0,0],"sum_hessian":[2.2789283E0,1.0119289E0,1.2669995E0],"tree_param":{"num_deleted":"0","num_feature":"75","num_nodes":"3","size_leaf_vector":"0"}},{"base_weights":[-2.0335496E-3,-8.988811E-2,7.638741E-2],"categories":[],"categories_nodes":[],"categories_segments":[],"categories_sizes":[],"default_left":[1,0,0],"id":102,"left_children":[1,-1,-1],"loss_changes":[2.9429711E-2,0E0,0E0],"parents":[2147483647,0,0],"right_children":[2,-1,-1],"split_conditions":[9.696114E-2,-2.6966434E-2,2.2916224E-2],"split_indices":[50,0,0],"split_type":[0,0,0],"sum_hessian":[2.2749746E0,1.0039876E0,1.2709872E0],"tree_param":{"num_deleted":"0","num_feature":"75","num_nodes":"3","size_leaf_vector":"0"}},{"base_weights":[-2.7023484E-3,7.552498E-2,-8.7544754E-2],"categories":[],"categories_nodes":[],"categories_segments":[],"categories_sizes":[],"default_left":[1,0,0],"id":103,"left_children":[1,-1,-1],"loss_changes":[2.8318401E-2,0E0,0E0],"parents":[2147483647,0,0],"right_children":[2,-1,-1],"split_conditions":[1.8702997E-2,2.2657495E-2,-2.6263427E-2],"split_indices":[62,0,0],"split_type":[0,0,0],"sum_hessian":[2.2705445E0,1.2384634E0,1.0320811E0],"tree_param":{"num_deleted":"0","num_feature":"75","num_nodes":"3","size_leaf_vector":"0"}},{"base_weights":[-3.0385072E-3,-8.584809E-2,7.269132E-2],"categories":[],"categories_nodes":[],"categories_segments":[],"categories_sizes":[],"default_left":[1,0,0],"id":104,"left_children":[1,-1,-1],"loss_changes":[2.6707778E-2,0E0,0E0],"parents":[2147483647,0,0],"right_children":[2,-1,-1],"split_conditions":[1.605071E-1,-2.575443E-2,2.1807397E-2],"split_indices":[10,0,0],"split_type":[0,0,0],"sum_hessian":[2.263731E0,1.017499E0,1.246232E0],"tree_param":{"num_deleted":"0","num_feature":"75","num_nodes":"3","size_leaf_vector":"0"}},{"base_weights":[-3.3791652E-3,-7.330072E-2,7.696344E-2],"categories":[],"categories_nodes":[],"categories_segments":[],"categories_sizes":[],"default_left":[1,0,0],"id":105,"left_children":[1,-1,-1],"loss_changes":[2.3939475E-2,0E0,0E0],"parents":[2147483647,0,0],"right_children":[2,-1,-1],"split_conditions":[1.688848E-2,-2.1990217E-2,2.3089033E-2],"split_indices":[32,0,0],"split_type":[0,0,0],"sum_hessian":[2.257217E0,1.2537427E0,1.0034744E0],"tree_param":{"num_deleted":"0","num_feature":"75","num_nodes":"3","size_leaf_vector":"0"}},{"base_weights":[-2.0586217E-3,7.2530806E-2,-8.344517E-2],"categories":[],"categories_nodes":[],"categories_segments":[],"categories_sizes":[],"default_left":[1,0,0],"id":106,"left_children":[1,-1,-1],"loss_changes":[2.5802277E-2,0E0,0E0],"parents":[2147483647,0,0],"right_children":[2,-1,-1],"split_conditions":[1.8702997E-2,2.1759242E-2,-2.5033552E-2],"split_indices":[62,0,0],"split_type":[0,0,0],"sum_hessian":[2.2533867E0,1.2325686E0,1.020818E0],"tree_param":{"num_deleted":"0","num_feature":"75","num_nodes":"3","size_leaf_vector":"0"}},{"base_weights":[-2.486279E-3,-7.835735E-2,6.615258E-2],"categories":[],"categories_nodes":[],"categories_segments":[],"categories_sizes":[],"default_left":[1,0,0],"id":107,"left_children":[1,-1,-1],"loss_changes":[2.2093572E-2,0E0,0E0],"parents":[2147483647,0,0],"right_children":[2,-1,-1],"split_conditions":[1.605071E-1,-2.3507206E-2,1.9845774E-2],"split_indices":[10,0,0],"split_type":[0,0,0],"sum_hessian":[2.247119E0,1.000078E0,1.247041E0],"tree_param":{"num_deleted":"0","num_feature":"75","num_nodes":"3","size_leaf_vector":"0"}},{"base_weights":[-2.9024393E-3,-6.938407E-2,7.3053755E-2],"categories":[],"categories_nodes":[],"categories_segments":[],"categories_sizes":[],"default_left":[1,0,0],"id":108,"left_children":[1,-1,-1],"loss_changes":[2.1437777E-2,0E0,0E0],"parents":[2147483647,0,0],"right_children":[2,-1,-1],"split_conditions":[1.4592266E-1,-2.0815222E-2,2.1916127E-2],"split_indices":[12,0,0],"split_type":[0,0,0],"sum_hessian":[2.241587E0,1.2414858E0,1.0001011E0],"tree_param":{"num_deleted":"0","num_feature":"75","num_nodes":"3","size_leaf_vector":"0"}},{"base_weights":[-1.7197037E-3,5.7762027E-2,-6.6993736E-2],"categories":[],"categories_nodes":[],"categories_segments":[],"categories_sizes":[],"default_left":[1,0,0],"id":109,"left_children":[1,-1,-1],"loss_changes":[1.6431244E-2,0E0,0E0],"parents":[2147483647,0,0],"right_children":[2,-1,-1],"split_conditions":[1.8702997E-2,1.7328609E-2,-2.0098122E-2],"split_indices":[62,0,0],"split_type":[0,0,0],"sum_hessian":[2.2353354E0,1.2297736E0,1.0055616E0],"tree_param":{"num_deleted":"0","num_feature":"75","num_nodes":"3","size_leaf_vector":"0"}},{"base_weights":[-2.0837444E-3,-6.4186394E-2,6.785362E-2],"categories":[],"categories_nodes":[],"categories_segments":[],"categories_sizes":[],"default_left":[1,0,0],"id":110,"left_children":[1,-1,-1],"loss_changes":[1.838769E-2,0E0,0E0],"parents":[2147483647,0,0],"right_children":[2,-1,-1],"split_conditions":[1.7005375E-2,-1.925592E-2,2.0356087E-2],"split_indices":[2,0,0],"split_type":[0,0,0],"sum_hessian":[2.230821E0,1.2251492E0,1.0056717E0],"tree_param":{"num_deleted":"0","num_feature":"75","num_nodes":"3","size_leaf_vector":"0"}},{"base_weights":[-1.140127E-3,-5.5786386E-2,6.030396E-2],"categories":[],"categories_nodes":[],"categories_segments":[],"categories_sizes":[],"default_left":[1,0,0],"id":111,"left_children":[1,-1,-1],"loss_changes":[1.4203318E-2,0E0,0E0],"parents":[2147483647,0,0],"right_children":[2,-1,-1],"split_conditions":[1.1941999E-1,-1.6735917E-2,1.8091189E-2],"split_indices":[30,0,0],"split_type":[0,0,0],"sum_hessian":[2.228166E0,1.228055E0,1.0001111E0],"tree_param":{"num_deleted":"0","num_feature":"75","num_nodes":"3","size_leaf_vector":"0"}},{"base_weights":[-3.946432E-4,5.8983557E-2,-6.6259E-2],"categories":[],"categories_nodes":[],"categories_segments":[],"categories_sizes":[],"default_left":[1,0,0],"id":112,"left_children":[1,-1,-1],"loss_changes":[1.6523961E-2,0E0,0E0],"parents":[2147483647,0,0],"right_children":[2,-1,-1],"split_conditions":[1.8702997E-2,1.7695067E-2,-1.98777E-2],"split_indices":[62,0,0],"split_type":[0,0,0],"sum_hessian":[2.2257915E0,1.225471E0,1.0003206E0],"tree_param":{"num_deleted":"0","num_feature":"75","num_nodes":"3","size_leaf_vector":"0"}},{"base_weights":[-9.7485643E-4,-5.4141242E-2,5.816497E-2],"categories":[],"categories_nodes":[],"categories_segments":[],"categories_sizes":[],"default_left":[1,0,0],"id":113,"left_children":[1,-1,-1],"loss_changes":[1.32781295E-2,0E0,0E0],"parents":[2147483647,0,0],"right_children":[2,-1,-1],"split_conditions":[1.7005375E-2,-1.6242374E-2,1.744949E-2],"split_indices":[2,0,0],"split_type":[0,0,0],"sum_hessian":[2.221437E0,1.2143049E0,1.0071322E0],"tree_param":{"num_deleted":"0","num_feature":"75","num_nodes":"3","size_leaf_vector":"0"}},{"base_weights":[-3.2306532E-4,-5.4384448E-2,5.7633877E-2],"categories":[],"categories_nodes":[],"categories_segments":[],"categories_sizes":[],"default_left":[1,0,0],"id":114,"left_children":[1,-1,-1],"loss_changes":[1.3222049E-2,0E0,0E0],"parents":[2147483647,0,0],"right_children":[2,-1,-1],"split_conditions":[1.617415E-1,-1.6315335E-2,1.7290164E-2],"split_indices":[10,0,0],"split_type":[0,0,0],"sum_hessian":[2.2195704E0,1.1802713E0,1.0392991E0],"tree_param":{"num_deleted":"0","num_feature":"75","num_nodes":"3","size_leaf_vector":"0"}},{"base_weights":[6.179751E-5,-5.258612E-2,5.836555E-2],"categories":[],"categories_nodes":[],"categories_segments":[],"categories_sizes":[],"default_left":[1,0,0],"id":115,"left_children":[1,-1,-1],"loss_changes":[1.2941294E-2,0E0,0E0],"parents":[2147483647,0,0],"right_children":[2,-1,-1],"split_conditions":[1.432009E-1,-1.5775837E-2,1.7509665E-2],"split_indices":[57,0,0],"split_type":[0,0,0],"sum_hessian":[2.216109E0,1.216071E0,1.0000381E0],"tree_param":{"num_deleted":"0","num_feature":"75","num_nodes":"3","size_leaf_vector":"0"}},{"base_weights":[5.6933664E-4,-5.313616E-2,5.9672013E-2],"categories":[],"categories_nodes":[],"categories_segments":[],"categories_sizes":[],"default_left":[1,0,0],"id":116,"left_children":[1,-1,-1],"loss_changes":[1.336626E-2,0E0,0E0],"parents":[2147483647,0,0],"right_children":[2,-1,-1],"split_conditions":[1.1931926E-1,-1.5940849E-2,1.7901605E-2],"split_indices":[30,0,0],"split_type":[0,0,0],"sum_hessian":[2.212058E0,1.2118367E0,1.0002215E0],"tree_param":{"num_deleted":"0","num_feature":"75","num_nodes":"3","size_leaf_vector":"0"}},{"base_weights":[9.949029E-4,-5.0654E-2,5.7561148E-2],"categories":[],"categories_nodes":[],"categories_segments":[],"categories_sizes":[],"default_left":[1,0,0],"id":117,"left_children":[1,-1,-1],"loss_changes":[1.2294142E-2,0E0,0E0],"parents":[2147483647,0,0],"right_children":[2,-1,-1],"split_conditions":[1.4313735E-1,-1.5196201E-2,1.7268345E-2],"split_indices":[12,0,0],"split_type":[0,0,0],"sum_hessian":[2.210052E0,1.2098731E0,1.000179E0],"tree_param":{"num_deleted":"0","num_feature":"75","num_nodes":"3","size_leaf_vector":"0"}},{"base_weights":[1.3307295E-3,-5.0972145E-2,5.8340047E-2],"categories":[],"categories_nodes":[],"categories_segments":[],"categories_sizes":[],"default_left":[1,0,0],"id":118,"left_children":[1,-1,-1],"loss_changes":[1.2533955E-2,0E0,0E0],"parents":[2147483647,0,0],"right_children":[2,-1,-1],"split_conditions":[1.1959572E-1,-1.5291644E-2,1.7502015E-2],"split_indices":[30,0,0],"split_type":[0,0,0],"sum_hessian":[2.2062492E0,1.2058483E0,1.0004008E0],"tree_param":{"num_deleted":"0","num_feature":"75","num_nodes":"3","size_leaf_vector":"0"}},{"base_weights":[1.6082246E-3,-4.9071778E-2,5.6663845E-2],"categories":[],"categories_nodes":[],"categories_segments":[],"categories_sizes":[],"default_left":[1,0,0],"id":119,"left_children":[1,-1,-1],"loss_changes":[1.1721708E-2,0E0,0E0],"parents":[2147483647,0,0],"right_children":[2,-1,-1],"split_conditions":[1.4374833E-1,-1.4721534E-2,1.6999153E-2],"split_indices":[42,0,0],"split_type":[0,0,0],"sum_hessian":[2.2044485E0,1.2044296E0,1.0000187E0],"tree_param":{"num_deleted":"0","num_feature":"75","num_nodes":"3","size_leaf_vector":"0"}},{"base_weights":[1.8265704E-3,-4.9215727E-2,5.705869E-2],"categories":[],"categories_nodes":[],"categories_segments":[],"categories_sizes":[],"default_left":[1,0,0],"id":120,"left_children":[1,-1,-1],"loss_changes":[1.1831897E-2,0E0,0E0],"parents":[2147483647,0,0],"right_children":[2,-1,-1],"split_conditions":[1.2120682E-1,-1.4764719E-2,1.7117606E-2],"split_indices":[30,0,0],"split_type":[0,0,0],"sum_hessian":[2.2008352E0,1.2004129E0,1.0004224E0],"tree_param":{"num_deleted":"0","num_feature":"75","num_nodes":"3","size_leaf_vector":"0"}},{"base_weights":[2.002019E-3,-4.7271848E-2,5.513947E-2],"categories":[],"categories_nodes":[],"categories_segments":[],"categories_sizes":[],"default_left":[1,0,0],"id":121,"left_children":[1,-1,-1],"loss_changes":[1.0982959E-2,0E0,0E0],"parents":[2147483647,0,0],"right_children":[2,-1,-1],"split_conditions":[1.4508677E-1,-1.4181555E-2,1.6541842E-2],"split_indices":[42,0,0],"split_type":[0,0,0],"sum_hessian":[2.1991954E0,1.1983564E0,1.0008391E0],"tree_param":{"num_deleted":"0","num_feature":"75","num_nodes":"3","size_leaf_vector":"0"}},{"base_weights":[2.1303198E-3,-4.90419E-2,5.586971E-2],"categories":[],"categories_nodes":[],"categories_segments":[],"categories_sizes":[],"default_left":[1,0,0],"id":122,"left_children":[1,-1,-1],"loss_changes":[1.1528309E-2,0E0,0E0],"parents":[2147483647,0,0],"right_children":[2,-1,-1],"split_conditions":[1.617415E-1,-1.4712571E-2,1.6760914E-2],"split_indices":[10,0,0],"split_type":[0,0,0],"sum_hessian":[2.1958067E0,1.1695446E0,1.0262622E0],"tree_param":{"num_deleted":"0","num_feature":"75","num_nodes":"3","size_leaf_vector":"0"}},{"base_weights":[2.1222518E-3,-4.860473E-2,5.667204E-2],"categories":[],"categories_nodes":[],"categories_segments":[],"categories_sizes":[],"default_left":[1,0,0],"id":123,"left_children":[1,-1,-1],"loss_changes":[1.15894275E-2,0E0,0E0],"parents":[2147483647,0,0],"right_children":[2,-1,-1],"split_conditions":[1.660461E-2,-1.45814195E-2,1.7001612E-2],"split_indices":[2,0,0],"split_type":[0,0,0],"sum_hessian":[2.1927834E0,1.1926746E0,1.0001088E0],"tree_param":{"num_deleted":"0","num_feature":"75","num_nodes":"3","size_leaf_vector":"0"}},{"base_weights":[2.2321292E-3,-4.347618E-2,5.116781E-2],"categories":[],"categories_nodes":[],"categories_segments":[],"categories_sizes":[],"default_left":[1,0,0],"id":124,"left_children":[1,-1,-1],"loss_changes":[9.363165E-3,0E0,0E0],"parents":[2147483647,0,0],"right_children":[2,-1,-1],"split_conditions":[9.814146E-2,-1.3042854E-2,1.5350343E-2],"split_indices":[58,0,0],"split_type":[0,0,0],"sum_hessian":[2.191474E0,1.1907864E0,1.0006877E0],"tree_param":{"num_deleted":"0","num_feature":"75","num_nodes":"3","size_leaf_vector":"0"}},{"base_weights":[2.278166E-3,-4.7857568E-2,5.592547E-2],"categories":[],"categories_nodes":[],"categories_segments":[],"categories_sizes":[],"default_left":[1,0,0],"id":125,"left_children":[1,-1,-1],"loss_changes":[1.1252725E-2,0E0,0E0],"parents":[2147483647,0,0],"right_children":[2,-1,-1],"split_conditions":[1.21735334E-1,-1.4357271E-2,1.6777642E-2],"split_indices":[30,0,0],"split_type":[0,0,0],"sum_hessian":[2.188622E0,1.1871246E0,1.0014974E0],"tree_param":{"num_deleted":"0","num_feature":"75","num_nodes":"3","size_leaf_vector":"0"}},{"base_weights":[2.3429608E-3,-4.274971E-2,5.042823E-2],"categories":[],"categories_nodes":[],"categories_segments":[],"categories_sizes":[],"default_left":[1,0,0],"id":126,"left_children":[1,-1,-1],"loss_changes":[9.066499E-3,0E0,0E0],"parents":[2147483647,0,0],"right_children":[2,-1,-1],"split_conditions":[9.313689E-2,-1.28249135E-2,1.512847E-2],"split_indices":[73,0,0],"split_type":[0,0,0],"sum_hessian":[2.187164E0,1.1859667E0,1.0011973E0],"tree_param":{"num_deleted":"0","num_feature":"75","num_nodes":"3","size_leaf_vector":"0"}},{"base_weights":[2.3558394E-3,5.411925E-2,-4.6138838E-2],"categories":[],"categories_nodes":[],"categories_segments":[],"categories_sizes":[],"default_left":[1,0,0],"id":127,"left_children":[1,-1,-1],"loss_changes":[1.049066E-2,0E0,0E0],"parents":[2147483647,0,0],"right_children":[2,-1,-1],"split_conditions":[6.30622E-2,1.6235776E-2,-1.3841652E-2],"split_indices":[73,0,0],"split_type":[0,0,0],"sum_hessian":[2.184408E0,1.0004936E0,1.1839143E0],"tree_param":{"num_deleted":"0","num_feature":"75","num_nodes":"3","size_leaf_vector":"0"}},{"base_weights":[2.3908562E-3,-4.2176887E-2,4.9782738E-2],"categories":[],"categories_nodes":[],"categories_segments":[],"categories_sizes":[],"default_left":[1,0,0],"id":128,"left_children":[1,-1,-1],"loss_changes":[8.822618E-3,0E0,0E0],"parents":[2147483647,0,0],"right_children":[2,-1,-1],"split_conditions":[9.313689E-2,-1.2653067E-2,1.4934822E-2],"split_indices":[73,0,0],"split_type":[0,0,0],"sum_hessian":[2.1829836E0,1.1817218E0,1.0012617E0],"tree_param":{"num_deleted":"0","num_feature":"75","num_nodes":"3","size_leaf_vector":"0"}},{"base_weights":[2.383721E-3,5.2317612E-2,-4.455215E-2],"categories":[],"categories_nodes":[],"categories_segments":[],"categories_sizes":[],"default_left":[1,0,0],"id":129,"left_children":[1,-1,-1],"loss_changes":[9.784508E-3,0E0,0E0],"parents":[2147483647,0,0],"right_children":[2,-1,-1],"split_conditions":[6.30622E-2,1.5695285E-2,-1.3365646E-2],"split_indices":[73,0,0],"split_type":[0,0,0],"sum_hessian":[2.1803021E0,1.0008556E0,1.1794465E0],"tree_param":{"num_deleted":"0","num_feature":"75","num_nodes":"3","size_leaf_vector":"0"}},{"base_weights":[2.3918068E-3,-4.164196E-2,4.9167216E-2],"categories":[],"categories_nodes":[],"categories_segments":[],"categories_sizes":[],"default_left":[1,0,0],"id":130,"left_children":[1,-1,-1],"loss_changes":[8.595201E-3,0E0,0E0],"parents":[2147483647,0,0],"right_children":[2,-1,-1],"split_conditions":[1.3604453E-1,-1.2492589E-2,1.4750165E-2],"split_indices":[12,0,0],"split_type":[0,0,0],"sum_hessian":[2.1790013E0,1.1789241E0,1.0000772E0],"tree_param":{"num_deleted":"0","num_feature":"75","num_nodes":"3","size_leaf_vector":"0"}},{"base_weights":[2.3778202E-3,5.1249895E-2,-4.3632943E-2],"categories":[],"categories_nodes":[],"categories_segments":[],"categories_sizes":[],"default_left":[1,0,0],"id":131,"left_children":[1,-1,-1],"loss_changes":[9.378561E-3,0E0,0E0],"parents":[2147483647,0,0],"right_children":[2,-1,-1],"split_conditions":[6.059313E-2,1.5374969E-2,-1.3089883E-2],"split_indices":[73,0,0],"split_type":[0,0,0],"sum_hessian":[2.1763074E0,1.0001223E0,1.1761853E0],"tree_param":{"num_deleted":"0","num_feature":"75","num_nodes":"3","size_leaf_vector":"0"}},{"base_weights":[2.375038E-3,-4.0888265E-2,4.8224356E-2],"categories":[],"categories_nodes":[],"categories_segments":[],"categories_sizes":[],"default_left":[1,0,0],"id":132,"left_children":[1,-1,-1],"loss_changes":[8.269858E-3,0E0,0E0],"parents":[2147483647,0,0],"right_children":[2,-1,-1],"split_conditions":[1.3659433E-1,-1.226648E-2,1.4467307E-2],"split_indices":[42,0,0],"split_type":[0,0,0],"sum_hessian":[2.1750708E0,1.174767E0,1.0003037E0],"tree_param":{"num_deleted":"0","num_feature":"75","num_nodes":"3","size_leaf_vector":"0"}},{"base_weights":[2.3495185E-3,-4.339632E-2,4.98179E-2],"categories":[],"categories_nodes":[],"categories_segments":[],"categories_sizes":[],"default_left":[1,0,0],"id":133,"left_children":[1,-1,-1],"loss_changes":[9.050861E-3,0E0,0E0],"parents":[2147483647,0,0],"right_children":[2,-1,-1],"split_conditions":[1.617415E-1,-1.3018897E-2,1.4945371E-2],"split_indices":[10,0,0],"split_type":[0,0,0],"sum_hessian":[2.1724648E0,1.1499903E0,1.0224744E0],"tree_param":{"num_deleted":"0","num_feature":"75","num_nodes":"3","size_leaf_vector":"0"}},{"base_weights":[2.2444923E-3,-3.9794605E-2,4.671554E-2],"categories":[],"categories_nodes":[],"categories_segments":[],"categories_sizes":[],"default_left":[1,0,0],"id":134,"left_children":[1,-1,-1],"loss_changes":[7.785365E-3,0E0,0E0],"parents":[2147483647,0,0],"right_children":[2,-1,-1],"split_conditions":[1.1959572E-1,-1.1938382E-2,1.4014662E-2],"split_indices":[30,0,0],"split_type":[0,0,0],"sum_hessian":[2.169974E0,1.1695445E0,1.0004296E0],"tree_param":{"num_deleted":"0","num_feature":"75","num_nodes":"3","size_leaf_vector":"0"}},{"base_weights":[2.2185633E-3,-4.2556345E-2,4.9637366E-2],"categories":[],"categories_nodes":[],"categories_segments":[],"categories_sizes":[],"default_left":[1,0,0],"id":135,"left_children":[1,-1,-1],"loss_changes":[8.8409E-3,0E0,0E0],"parents":[2147483647,0,0],"right_children":[2,-1,-1],"split_conditions":[9.7979695E-2,-1.2766904E-2,1.489121E-2],"split_indices":[58,0,0],"split_type":[0,0,0],"sum_hessian":[2.169086E0,1.1683868E0,1.0006992E0],"tree_param":{"num_deleted":"0","num_feature":"75","num_nodes":"3","size_leaf_vector":"0"}},{"base_weights":[2.2164236E-3,4.618644E-2,-3.940324E-2],"categories":[],"categories_nodes":[],"categories_segments":[],"categories_sizes":[],"default_left":[1,0,0],"id":136,"left_children":[1,-1,-1],"loss_changes":[7.6144896E-3,0E0,0E0],"parents":[2147483647,0,0],"right_children":[2,-1,-1],"split_conditions":[8.2657866E-2,1.3855932E-2,-1.1820973E-2],"split_indices":[42,0,0],"split_type":[0,0,0],"sum_hessian":[2.166415E0,1.0001053E0,1.1663097E0],"tree_param":{"num_deleted":"0","num_feature":"75","num_nodes":"3","size_leaf_vector":"0"}},{"base_weights":[2.1868038E-3,-4.1803487E-2,4.8700858E-2],"categories":[],"categories_nodes":[],"categories_segments":[],"categories_sizes":[],"default_left":[1,0,0],"id":137,"left_children":[1,-1,-1],"loss_changes":[8.51309E-3,0E0,0E0],"parents":[2147483647,0,0],"right_children":[2,-1,-1],"split_conditions":[9.788303E-2,-1.2541046E-2,1.4610258E-2],"split_indices":[43,0,0],"split_type":[0,0,0],"sum_hessian":[2.1655407E0,1.165012E0,1.0005287E0],"tree_param":{"num_deleted":"0","num_feature":"75","num_nodes":"3","size_leaf_vector":"0"}},{"base_weights":[2.1777307E-3,-3.8857434E-2,4.5445E-2],"categories":[],"categories_nodes":[],"categories_segments":[],"categories_sizes":[],"default_left":[1,0,0],"id":138,"left_children":[1,-1,-1],"loss_changes":[7.381722E-3,0E0,0E0],"parents":[2147483647,0,0],"right_children":[2,-1,-1],"split_conditions":[1.21735334E-1,-1.1657231E-2,1.36335E-2],"split_indices":[30,0,0],"split_type":[0,0,0],"sum_hessian":[2.1630025E0,1.1624461E0,1.0005562E0],"tree_param":{"num_deleted":"0","num_feature":"75","num_nodes":"3","size_leaf_vector":"0"}},{"base_weights":[2.1420019E-3,-4.038944E-2,4.7041338E-2],"categories":[],"categories_nodes":[],"categories_segments":[],"categories_sizes":[],"default_left":[1,0,0],"id":139,"left_children":[1,-1,-1],"loss_changes":[7.938586E-3,0E0,0E0],"parents":[2147483647,0,0],"right_children":[2,-1,-1],"split_conditions":[9.294525E-2,-1.2116833E-2,1.4112402E-2],"split_indices":[73,0,0],"split_type":[0,0,0],"sum_hessian":[2.1621845E0,1.1619539E0,1.0002304E0],"tree_param":{"num_deleted":"0","num_feature":"75","num_nodes":"3","size_leaf_vector":"0"}},{"base_weights":[2.1243303E-3,-3.782612E-2,4.418926E-2],"categories":[],"categories_nodes":[],"categories_segments":[],"categories_sizes":[],"default_left":[1,0,0],"id":140,"left_children":[1,-1,-1],"loss_changes":[6.9814674E-3,0E0,0E0],"parents":[2147483647,0,0],"right_children":[2,-1,-1],"split_conditions":[4.1654874E-3,-1.1347837E-2,1.3256778E-2],"split_indices":[31,0,0],"split_type":[0,0,0],"sum_hessian":[2.1597252E0,1.1593862E0,1.000339E0],"tree_param":{"num_deleted":"0","num_feature":"75","num_nodes":"3","size_leaf_vector":"0"}},{"base_weights":[2.0844797E-3,-3.8947888E-2,4.5322563E-2],"categories":[],"categories_nodes":[],"categories_segments":[],"categories_sizes":[],"default_left":[1,0,0],"id":141,"left_children":[1,-1,-1],"loss_changes":[7.3695895E-3,0E0,0E0],"parents":[2147483647,0,0],"right_children":[2,-1,-1],"split_conditions":[1.3398242E-1,-1.16843665E-2,1.3596769E-2],"split_indices":[57,0,0],"split_type":[0,0,0],"sum_hessian":[2.1588852E0,1.1586062E0,1.0002792E0],"tree_param":{"num_deleted":"0","num_feature":"75","num_nodes":"3","size_leaf_vector":"0"}},{"base_weights":[2.05887E-3,-3.7162192E-2,4.3291524E-2],"categories":[],"categories_nodes":[],"categories_segments":[],"categories_sizes":[],"default_left":[1,0,0],"id":142,"left_children":[1,-1,-1],"loss_changes":[6.713493E-3,0E0,0E0],"parents":[2147483647,0,0],"right_children":[2,-1,-1],"split_conditions":[4.2310916E-3,-1.1148658E-2,1.2987458E-2],"split_indices":[31,0,0],"split_type":[0,0,0],"sum_hessian":[2.1565185E0,1.1558129E0,1.0007055E0],"tree_param":{"num_deleted":"0","num_feature":"75","num_nodes":"3","size_leaf_vector":"0"}},{"base_weights":[2.0172973E-3,-3.8599983E-2,4.47576E-2],"categories":[],"categories_nodes":[],"categories_segments":[],"categories_sizes":[],"default_left":[1,0,0],"id":143,"left_children":[1,-1,-1],"loss_changes":[7.205972E-3,0E0,0E0],"parents":[2147483647,0,0],"right_children":[2,-1,-1],"split_conditions":[9.788303E-2,-1.1579995E-2,1.3427281E-2],"split_indices":[43,0,0],"split_type":[0,0,0],"sum_hessian":[2.1557286E0,1.1549857E0,1.0007429E0],"tree_param":{"num_deleted":"0","num_feature":"75","num_nodes":"3","size_leaf_vector":"0"}},{"base_weights":[1.9917474E-3,4.3036256E-2,-3.7069295E-2],"categories":[],"categories_nodes":[],"categories_segments":[],"categories_sizes":[],"default_left":[1,0,0],"id":144,"left_children":[1,-1,-1],"loss_changes":[6.65116E-3,0E0,0E0],"parents":[2147483647,0,0],"right_children":[2,-1,-1],"split_conditions":[5.876835E-2,1.2910877E-2,-1.1120789E-2],"split_indices":[58,0,0],"split_type":[0,0,0],"sum_hessian":[2.1535087E0,1.0004685E0,1.1530403E0],"tree_param":{"num_deleted":"0","num_feature":"75","num_nodes":"3","size_leaf_vector":"0"}},{"base_weights":[1.955409E-3,-3.767624E-2,4.3601118E-2],"categories":[],"categories_nodes":[],"categories_segments":[],"categories_sizes":[],"default_left":[1,0,0],"id":145,"left_children":[1,-1,-1],"loss_changes":[6.846321E-3,0E0,0E0],"parents":[2147483647,0,0],"right_children":[2,-1,-1],"split_conditions":[9.788303E-2,-1.1302873E-2,1.3080336E-2],"split_indices":[43,0,0],"split_type":[0,0,0],"sum_hessian":[2.152761E0,1.1518918E0,1.0008692E0],"tree_param":{"num_deleted":"0","num_feature":"75","num_nodes":"3","size_leaf_vector":"0"}},{"base_weights":[1.9271247E-3,4.222826E-2,-3.6471125E-2],"categories":[],"categories_nodes":[],"categories_segments":[],"categories_sizes":[],"default_left":[1,0,0],"id":146,"left_children":[1,-1,-1],"loss_changes":[6.415688E-3,0E0,0E0],"parents":[2147483647,0,0],"right_children":[2,-1,-1],"split_conditions":[5.876835E-2,1.2668478E-2,-1.0941338E-2],"split_indices":[58,0,0],"split_type":[0,0,0],"sum_hessian":[2.1506283E0,1.0006477E0,1.1499807E0],"tree_param":{"num_deleted":"0","num_feature":"75","num_nodes":"3","size_leaf_vector":"0"}},{"base_weights":[1.8909156E-3,-3.682893E-2,4.2528532E-2],"categories":[],"categories_nodes":[],"categories_segments":[],"categories_sizes":[],"default_left":[1,0,0],"id":147,"left_children":[1,-1,-1],"loss_changes":[6.5226234E-3,0E0,0E0],"parents":[2147483647,0,0],"right_children":[2,-1,-1],"split_conditions":[9.788303E-2,-1.104868E-2,1.27585605E-2],"split_indices":[43,0,0],"split_type":[0,0,0],"sum_hessian":[2.14992E0,1.1489319E0,1.0009882E0],"tree_param":{"num_deleted":"0","num_feature":"75","num_nodes":"3","size_leaf_vector":"0"}},{"base_weights":[1.8613313E-3,-3.793511E-2,3.9824758E-2],"categories":[],"categories_nodes":[],"categories_segments":[],"categories_sizes":[],"default_left":[1,0,0],"id":148,"left_children":[1,-1,-1],"loss_changes":[6.2665828E-3,0E0,0E0],"parents":[2147483647,0,0],"right_children":[2,-1,-1],"split_conditions":[9.731154E-2,-1.1380534E-2,1.1947428E-2],"split_indices":[50,0,0],"split_type":[0,0,0],"sum_hessian":[2.1478662E0,1.0489817E0,1.0988846E0],"tree_param":{"num_deleted":"0","num_feature":"75","num_nodes":"3","size_leaf_vector":"0"}},{"base_weights":[1.476221E-3,-3.529932E-2,3.95864E-2],"categories":[],"categories_nodes":[],"categories_segments":[],"categories_sizes":[],"default_left":[1,0,0],"id":149,"left_children":[1,-1,-1],"loss_changes":[5.8091884E-3,0E0,0E0],"parents":[2147483647,0,0],"right_children":[2,-1,-1],"split_conditions":[1.617415E-1,-1.0589796E-2,1.187592E-2],"split_indices":[10,0,0],"split_type":[0,0,0],"sum_hessian":[2.1478739E0,1.1306123E0,1.0172616E0],"tree_param":{"num_deleted":"0","num_feature":"75","num_nodes":"3","size_leaf_vector":"0"}},{"base_weights":[1.4369201E-3,-3.5785805E-2,4.0650412E-2],"categories":[],"categories_nodes":[],"categories_segments":[],"categories_sizes":[],"default_left":[1,0,0],"id":150,"left_children":[1,-1,-1],"loss_changes":[6.0467827E-3,0E0,0E0],"parents":[2147483647,0,0],"right_children":[2,-1,-1],"split_conditions":[1.3048631E-1,-1.0735742E-2,1.2195124E-2],"split_indices":[57,0,0],"split_type":[0,0,0],"sum_hessian":[2.1460478E0,1.1458144E0,1.0002334E0],"tree_param":{"num_deleted":"0","num_feature":"75","num_nodes":"3","size_leaf_vector":"0"}},{"base_weights":[1.4647234E-3,-3.6091935E-2,4.0981233E-2],"categories":[],"categories_nodes":[],"categories_segments":[],"categories_sizes":[],"default_left":[1,0,0],"id":151,"left_children":[1,-1,-1],"loss_changes":[6.1451313E-3,0E0,0E0],"parents":[2147483647,0,0],"right_children":[2,-1,-1],"split_conditions":[1.2168901E-1,-1.08275805E-2,1.2294371E-2],"split_indices":[30,0,0],"split_type":[0,0,0],"sum_hessian":[2.1440022E0,1.1436932E0,1.000309E0],"tree_param":{"num_deleted":"0","num_feature":"75","num_nodes":"3","size_leaf_vector":"0"}},{"base_weights":[1.4857758E-3,-3.509843E-2,3.9892595E-2],"categories":[],"categories_nodes":[],"categories_segments":[],"categories_sizes":[],"default_left":[1,0,0],"id":152,"left_children":[1,-1,-1],"loss_changes":[5.816882E-3,0E0,0E0],"parents":[2147483647,0,0],"right_children":[2,-1,-1],"split_conditions":[9.788303E-2,-1.0529529E-2,1.1967779E-2],"split_indices":[43,0,0],"split_type":[0,0,0],"sum_hessian":[2.1433837E0,1.1418558E0,1.0015279E0],"tree_param":{"num_deleted":"0","num_feature":"75","num_nodes":"3","size_leaf_vector":"0"}},{"base_weights":[1.4926647E-3,-3.582381E-2,4.058449E-2],"categories":[],"categories_nodes":[],"categories_segments":[],"categories_sizes":[],"default_left":[1,0,0],"id":153,"left_children":[1,-1,-1],"loss_changes":[6.03658E-3,0E0,0E0],"parents":[2147483647,0,0],"right_children":[2,-1,-1],"split_conditions":[1.5263634E-2,-1.0747144E-2,1.2175348E-2],"split_indices":[32,0,0],"split_type":[0,0,0],"sum_hessian":[2.1414766E0,1.1383873E0,1.0030893E0],"tree_param":{"num_deleted":"0","num_feature":"75","num_nodes":"3","size_leaf_vector":"0"}},{"base_weights":[1.4934028E-3,3.8787108E-2,-3.408121E-2],"categories":[],"categories_nodes":[],"categories_segments":[],"categories_sizes":[],"default_left":[1,0,0],"id":154,"left_children":[1,-1,-1],"loss_changes":[5.4892553E-3,0E0,0E0],"parents":[2147483647,0,0],"right_children":[2,-1,-1],"split_conditions":[6.3329875E-2,1.1636132E-2,-1.0224363E-2],"split_indices":[58,0,0],"split_type":[0,0,0],"sum_hessian":[2.1411133E0,1.001214E0,1.1398993E0],"tree_param":{"num_deleted":"0","num_feature":"75","num_nodes":"3","size_leaf_vector":"0"}},{"base_weights":[1.4893769E-3,-3.5099383E-2,3.9879777E-2],"categories":[],"categories_nodes":[],"categories_segments":[],"categories_sizes":[],"default_left":[1,0,0],"id":155,"left_children":[1,-1,-1],"loss_changes":[5.8111288E-3,0E0,0E0],"parents":[2147483647,0,0],"right_children":[2,-1,-1],"split_conditions":[9.571091E-2,-1.0529815E-2,1.1963934E-2],"split_indices":[43,0,0],"split_type":[0,0,0],"sum_hessian":[2.1405334E0,1.139876E0,1.0006573E0],"tree_param":{"num_deleted":"0","num_feature":"75","num_nodes":"3","size_leaf_vector":"0"}},{"base_weights":[1.4943441E-3,3.829633E-2,-3.364849E-2],"categories":[],"categories_nodes":[],"categories_segments":[],"categories_sizes":[],"default_left":[1,0,0],"id":156,"left_children":[1,-1,-1],"loss_changes":[5.3479145E-3,0E0,0E0],"parents":[2147483647,0,0],"right_children":[2,-1,-1],"split_conditions":[4.3962914E-2,1.14889E-2,-1.0094548E-2],"split_indices":[28,0,0],"split_type":[0,0,0],"sum_hessian":[2.1386516E0,1.0008335E0,1.1378181E0],"tree_param":{"num_deleted":"0","num_feature":"75","num_nodes":"3","size_leaf_vector":"0"}},{"base_weights":[1.4850118E-3,-3.4274496E-2,3.8942676E-2],"categories":[],"categories_nodes":[],"categories_segments":[],"categories_sizes":[],"default_left":[1,0,0],"id":157,"left_children":[1,-1,-1],"loss_changes":[5.5380897E-3,0E0,0E0],"parents":[2147483647,0,0],"right_children":[2,-1,-1],"split_conditions":[9.571091E-2,-1.0282349E-2,1.1682803E-2],"split_indices":[43,0,0],"split_type":[0,0,0],"sum_hessian":[2.1380742E0,1.1373074E0,1.0007668E0],"tree_param":{"num_deleted":"0","num_feature":"75","num_nodes":"3","size_leaf_vector":"0"}},{"base_weights":[1.4812523E-3,3.7889183E-2,-3.334652E-2],"categories":[],"categories_nodes":[],"categories_segments":[],"categories_sizes":[],"default_left":[1,0,0],"id":158,"left_children":[1,-1,-1],"loss_changes":[5.2402774E-3,0E0,0E0],"parents":[2147483647,0,0],"right_children":[2,-1,-1],"split_conditions":[8.1468366E-2,1.1366755E-2,-1.0003956E-2],"split_indices":[42,0,0],"split_type":[0,0,0],"sum_hessian":[2.1362643E0,1.0014629E0,1.1348014E0],"tree_param":{"num_deleted":"0","num_feature":"75","num_nodes":"3","size_leaf_vector":"0"}},{"base_weights":[1.4661703E-3,-3.3475623E-2,3.8034346E-2],"categories":[],"categories_nodes":[],"categories_segments":[],"categories_sizes":[],"default_left":[1,0,0],"id":159,"left_children":[1,-1,-1],"loss_changes":[5.2799652E-3,0E0,0E0],"parents":[2147483647,0,0],"right_children":[2,-1,-1],"split_conditions":[1.2683849E-1,-1.0042687E-2,1.1410304E-2],"split_indices":[12,0,0],"split_type":[0,0,0],"sum_hessian":[2.1357603E0,1.1354139E0,1.0003464E0],"tree_param":{"num_deleted":"0","num_feature":"75","num_nodes":"3","size_leaf_vector":"0"}},{"base_weights":[1.4580718E-3,-3.4958217E-2,3.625368E-2],"categories":[],"categories_nodes":[],"categories_segments":[],"categories_sizes":[],"default_left":[1,0,0],"id":160,"left_children":[1,-1,-1],"loss_changes":[5.2385125E-3,0E0,0E0],"parents":[2147483647,0,0],"right_children":[2,-1,-1],"split_conditions":[9.731154E-2,-1.0487465E-2,1.0876104E-2],"split_indices":[50,0,0],"split_type":[0,0,0],"sum_hessian":[2.1339781E0,1.0404224E0,1.0935558E0],"tree_param":{"num_deleted":"0","num_feature":"75","num_nodes":"3","size_leaf_vector":"0"}},{"base_weights":[1.139027E-3,-3.298288E-2,3.645275E-2],"categories":[],"categories_nodes":[],"categories_segments":[],"categories_sizes":[],"default_left":[1,0,0],"id":161,"left_children":[1,-1,-1],"loss_changes":[4.9787518E-3,0E0,0E0],"parents":[2147483647,0,0],"right_children":[2,-1,-1],