{"learner":{"attributes":{"best_iteration":"999","best_ntree_limit":"1000","scikit_learn":"{\"use_label_encoder\": null, \"n_estimators\": 1000, \"max_depth\": null, \"max_leaves\": null, \"max_bin\": null, \"grow_policy\": null, \"learning_rate\": null, \"verbosity\": null, \"booster\": null, \"tree_method\": null, \"gamma\": null, \"min_child_weight\": null, \"max_delta_step\": null, \"subsample\": null, \"sampling_method\": null, \"colsample_bytree\": null, \"colsample_bylevel\": null, \"colsample_bynode\": null, \"reg_alpha\": null, \"reg_lambda\": null, \"scale_pos_weight\": null, \"base_score\": null, \"missing\": NaN, \"num_parallel_tree\": null, \"random_state\": 4, \"n_jobs\": null, \"monotone_constraints\": null, \"interaction_constraints\": null, \"importance_type\": null, \"gpu_id\": null, \"validate_parameters\": null, \"predictor\": null, \"enable_categorical\": false, \"feature_types\": null, \"max_cat_to_onehot\": null, \"max_cat_threshold\": null, \"eval_metric\": null, \"early_stopping_rounds\": null, \"callbacks\": null, \"classes_\": [0.0, 1.0], \"n_classes_\": 2, \"_estimator_type\": \"classifier\"}"},"feature_names":["heart_rate(t-4)","steps(t-4)","stress_score(t-4)","awake(t-4)","deep(t-4)","light(t-4)","rem(t-4)","nonrem_total(t-4)","total(t-4)","nonrem_percentage(t-4)","sleep_efficiency(t-4)","timestamp_dayofweek(t-4)","timestamp_hour_sin(t-4)","timestamp_hour_cos(t-4)","wearing_off(t-4)","heart_rate(t-3)","steps(t-3)","stress_score(t-3)","awake(t-3)","deep(t-3)","light(t-3)","rem(t-3)","nonrem_total(t-3)","total(t-3)","nonrem_percentage(t-3)","sleep_efficiency(t-3)","timestamp_dayofweek(t-3)","timestamp_hour_sin(t-3)","timestamp_hour_cos(t-3)","wearing_off(t-3)","heart_rate(t-2)","steps(t-2)","stress_score(t-2)","awake(t-2)","deep(t-2)","light(t-2)","rem(t-2)","nonrem_total(t-2)","total(t-2)","nonrem_percentage(t-2)","sleep_efficiency(t-2)","timestamp_dayofweek(t-2)","timestamp_hour_sin(t-2)","timestamp_hour_cos(t-2)","wearing_off(t-2)","heart_rate(t-1)","steps(t-1)","stress_score(t-1)","awake(t-1)","deep(t-1)","light(t-1)","rem(t-1)","nonrem_total(t-1)","total(t-1)","nonrem_percentage(t-1)","sleep_efficiency(t-1)","timestamp_dayofweek(t-1)","timestamp_hour_sin(t-1)","timestamp_hour_cos(t-1)","wearing_off(t-1)","heart_rate(t)","steps(t)","stress_score(t)","awake(t)","deep(t)","light(t)","rem(t)","nonrem_total(t)","total(t)","nonrem_percentage(t)","sleep_efficiency(t)","timestamp_dayofweek(t)","timestamp_hour_sin(t)","timestamp_hour_cos(t)","wearing_off(t)"],"feature_types":["float","float","float","float","float","float","float","float","float","float","float","float","float","float","float","float","float","float","float","float","float","float","float","float","float","float","float","float","float","float","float","float","float","float","float","float","float","float","float","float","float","float","float","float","float","float","float","float","float","float","float","float","float","float","float","float","float","float","float","float","float","float","float","float","float","float","float","float","float","float","float","float","float","float","float"],"gradient_booster":{"model":{"gbtree_model_param":{"num_parallel_tree":"1","num_trees":"1000","size_leaf_vector":"0"},"tree_info":[0,0,0,0,0,0,0,0,0,0,0,0,0,0,0,0,0,0,0,0,0,0,0,0,0,0,0,0,0,0,0,0,0,0,0,0,0,0,0,0,0,0,0,0,0,0,0,0,0,0,0,0,0,0,0,0,0,0,0,0,0,0,0,0,0,0,0,0,0,0,0,0,0,0,0,0,0,0,0,0,0,0,0,0,0,0,0,0,0,0,0,0,0,0,0,0,0,0,0,0,0,0,0,0,0,0,0,0,0,0,0,0,0,0,0,0,0,0,0,0,0,0,0,0,0,0,0,0,0,0,0,0,0,0,0,0,0,0,0,0,0,0,0,0,0,0,0,0,0,0,0,0,0,0,0,0,0,0,0,0,0,0,0,0,0,0,0,0,0,0,0,0,0,0,0,0,0,0,0,0,0,0,0,0,0,0,0,0,0,0,0,0,0,0,0,0,0,0,0,0,0,0,0,0,0,0,0,0,0,0,0,0,0,0,0,0,0,0,0,0,0,0,0,0,0,0,0,0,0,0,0,0,0,0,0,0,0,0,0,0,0,0,0,0,0,0,0,0,0,0,0,0,0,0,0,0,0,0,0,0,0,0,0,0,0,0,0,0,0,0,0,0,0,0,0,0,0,0,0,0,0,0,0,0,0,0,0,0,0,0,0,0,0,0,0,0,0,0,0,0,0,0,0,0,0,0,0,0,0,0,0,0,0,0,0,0,0,0,0,0,0,0,0,0,0,0,0,0,0,0,0,0,0,0,0,0,0,0,0,0,0,0,0,0,0,0,0,0,0,0,0,0,0,0,0,0,0,0,0,0,0,0,0,0,0,0,0,0,0,0,0,0,0,0,0,0,0,0,0,0,0,0,0,0,0,0,0,0,0,0,0,0,0,0,0,0,0,0,0,0,0,0,0,0,0,0,0,0,0,0,0,0,0,0,0,0,0,0,0,0,0,0,0,0,0,0,0,0,0,0,0,0,0,0,0,0,0,0,0,0,0,0,0,0,0,0,0,0,0,0,0,0,0,0,0,0,0,0,0,0,0,0,0,0,0,0,0,0,0,0,0,0,0,0,0,0,0,0,0,0,0,0,0,0,0,0,0,0,0,0,0,0,0,0,0,0,0,0,0,0,0,0,0,0,0,0,0,0,0,0,0,0,0,0,0,0,0,0,0,0,0,0,0,0,0,0,0,0,0,0,0,0,0,0,0,0,0,0,0,0,0,0,0,0,0,0,0,0,0,0,0,0,0,0,0,0,0,0,0,0,0,0,0,0,0,0,0,0,0,0,0,0,0,0,0,0,0,0,0,0,0,0,0,0,0,0,0,0,0,0,0,0,0,0,0,0,0,0,0,0,0,0,0,0,0,0,0,0,0,0,0,0,0,0,0,0,0,0,0,0,0,0,0,0,0,0,0,0,0,0,0,0,0,0,0,0,0,0,0,0,0,0,0,0,0,0,0,0,0,0,0,0,0,0,0,0,0,0,0,0,0,0,0,0,0,0,0,0,0,0,0,0,0,0,0,0,0,0,0,0,0,0,0,0,0,0,0,0,0,0,0,0,0,0,0,0,0,0,0,0,0,0,0,0,0,0,0,0,0,0,0,0,0,0,0,0,0,0,0,0,0,0,0,0,0,0,0,0,0,0,0,0,0,0,0,0,0,0,0,0,0,0,0,0,0,0,0,0,0,0,0,0,0,0,0,0,0,0,0,0,0,0,0,0,0,0,0,0,0,0,0,0,0,0,0,0,0,0,0,0,0,0,0,0,0,0,0,0,0,0,0,0,0,0,0,0,0,0,0,0,0,0,0,0,0,0,0,0,0,0,0,0,0,0,0,0,0,0,0,0,0,0,0,0,0,0,0,0,0,0,0,0,0,0,0,0,0,0,0,0,0,0,0,0,0,0,0,0,0,0,0,0,0,0,0,0,0,0,0,0,0,0,0,0,0,0,0,0,0,0,0,0,0,0,0,0,0,0,0,0,0,0,0,0,0,0,0,0,0,0,0,0,0,0,0,0,0,0,0,0,0,0,0,0,0,0,0,0,0,0,0,0,0,0,0,0,0,0,0,0,0,0,0,0,0,0,0,0,0,0,0,0,0,0,0,0,0,0,0,0,0,0,0,0,0,0,0,0,0,0,0,0,0,0,0,0,0,0,0,0,0,0,0,0,0,0,0,0,0,0,0,0,0,0,0,0,0,0,0,0,0,0,0,0,0,0,0,0,0,0,0,0,0,0,0,0,0,0,0,0],"trees":[{"base_weights":[-2.1075451E0,-1.5213382E0,-2.4935462E0,-1.7441263E0,9.040071E-1,-2.6315641E0,-6.314543E-1,1.3584773E-1,-2.1349514E0,-2.7072167E0,-1.0396103E0,3.1813884E-1,-1.2409168E0,1.0527039E0,-1.7732247E0,-2.4443185E0,-8.290079E-2,-1.1952074E0,-2.7887845E0,2.0925613E-1,-1.7732247E0,-2.694817E0,-3.8070717E-1,8.2115686E-1,-1.0324771E0,-1.9328878E0,2.0925613E-1,-7.8198427E-1,-2.8375735E0,-7.8198427E-1,-2.7766635E0,7.048763E-1,-1.2776045E0,-2.8903646E0,-7.8198427E-1],"categories":[],"categories_nodes":[],"categories_segments":[],"categories_sizes":[],"default_left":[1,1,1,1,0,1,1,1,1,1,1,0,0,0,0,1,1,1,1,0,0,1,1,0,0,0,0,0,1,0,0,0,0,0,0],"id":0,"left_children":[1,3,5,7,-1,9,11,13,15,17,19,-1,-1,-1,-1,21,23,25,27,-1,-1,29,31,-1,-1,-1,-1,-1,33,-1,-1,-1,-1,-1,-1],"loss_changes":[9.466339E0,1.5534306E1,7.017029E0,1.7923393E1,0E0,9.3388367E-1,2.504847E0,1.0742147E1,1.2448868E1,2.5427246E-1,3.1520035E0,0E0,0E0,0E0,0E0,7.908081E0,3.9777725E0,3.7600975E0,4.0982056E-1,0E0,0E0,2.1579742E-1,3.8559408E0,0E0,0E0,0E0,0E0,0E0,5.42923E-1,0E0,0E0,0E0,0E0,0E0,0E0],"parents":[2147483647,0,0,1,1,2,2,3,3,5,5,6,6,7,7,8,8,9,9,10,10,15,15,16,16,17,17,18,18,21,21,22,22,28,28],"right_children":[2,4,6,8,-1,10,12,14,16,18,20,-1,-1,-1,-1,22,24,26,28,-1,-1,30,32,-1,-1,-1,-1,-1,34,-1,-1,-1,-1,-1,-1],"split_conditions":[7.728641E-2,1.5813923E-1,1.1740655E-2,1.08686596E-1,2.7120215E-1,1.7560358E-1,4.6095032E-2,2.1404397E-1,1.5742262E-1,6.851737E-2,7.038285E-2,9.5441654E-2,-3.7227505E-1,3.1581116E-1,-5.3196746E-1,6.549168E-3,1.2591293E-1,4.2453337E-2,1.7861935E-4,6.277684E-2,-5.3196746E-1,5.298906E-3,6.42014E-2,2.4634707E-1,-3.0974317E-1,-5.7986635E-1,6.277684E-2,-2.3459528E-1,2.1188186E-2,-2.3459528E-1,-8.329991E-1,2.114629E-1,-3.8328135E-1,-8.671094E-1,-2.3459528E-1],"split_indices":[2,74,31,4,0,9,12,13,72,17,12,0,0,0,0,61,5,73,28,0,0,12,47,0,0,0,0,0,46,0,0,0,0,0,0],"split_type":[0,0,0,0,0,0,0,0,0,0,0,0,0,0,0,0,0,0,0,0,0,0,0,0,0,0,0,0,0,0,0,0,0,0,0],"sum_hessian":[5.7600346E1,2.4831245E1,3.2769104E1,2.2999432E1,1.8318132E0,3.012315E1,2.6459525E0,4.070696E0,1.8928736E1,2.8087803E1,2.035348E0,1.2212088E0,1.4247435E0,3.053022E0,1.017674E0,1.6282784E1,2.6459525E0,2.2388828E0,2.5848919E1,1.017674E0,1.017674E0,1.4247436E1,2.035348E0,1.4247435E0,1.2212088E0,1.2212088E0,1.017674E0,1.017674E0,2.4831245E1,1.017674E0,1.3229762E1,1.017674E0,1.017674E0,2.3813572E1,1.017674E0],"tree_param":{"num_deleted":"0","num_feature":"75","num_nodes":"35","size_leaf_vector":"0"}},{"base_weights":[-1.267361E0,-9.263362E-1,-1.4986408E0,-1.1581377E0,1.0725293E-1,-1.5640278E0,-3.2085446E-1,-1.2381757E-1,-1.3035684E0,7.518615E-1,-9.450249E-1,-1.6820793E0,-5.189954E-1,-8.354086E-1,3.786194E-1,8.4759307E-1,-1.3533336E0,2.2511466E-1,-1.4438847E0,1.0683882E0,-3.971824E-2,-3.3844793E-1,-1.7677692E0,8.010513E-1,-1.1256629E0,-1.5493029E0,-1.982365E-1,-1.8395797E0,-6.871463E-1,-1.624406E0,-4.3344498E-1,-1.8853688E0,-4.3453637E-1],"categories":[],"categories_nodes":[],"categories_segments":[],"categories_sizes":[],"default_left":[1,1,1,1,1,1,1,1,1,1,0,1,1,0,0,0,0,0,1,0,0,0,1,0,0,1,0,1,0,0,0,0,0],"id":1,"left_children":[1,3,5,7,9,11,13,15,17,19,-1,21,23,-1,-1,-1,-1,-1,25,-1,-1,-1,27,-1,-1,29,-1,31,-1,-1,-1,-1,-1],"loss_changes":[3.9244843E0,7.273411E0,2.4645996E0,3.5176468E0,5.039101E0,3.5972443E0,1.4982982E0,6.067828E0,4.902073E0,1.1734924E0,0E0,3.0988235E0,5.005192E0,0E0,0E0,0E0,0E0,0E0,2.2770157E0,0E0,0E0,0E0,1.0599899E0,0E0,0E0,8.0413437E-1,0E0,9.4911957E-1,0E0,0E0,0E0,0E0,0E0],"parents":[2147483647,0,0,1,1,2,2,3,3,4,4,5,5,6,6,7,7,8,8,9,9,11,11,12,12,18,18,22,22,25,25,27,27],"right_children":[2,4,6,8,10,12,14,16,18,20,-1,22,24,-1,-1,-1,-1,-1,26,-1,-1,-1,28,-1,-1,30,-1,32,-1,-1,-1,-1,-1],"split_conditions":[1.2563726E-1,3.8052804E-3,2.5053596E-1,1.08686596E-1,1.0116379E-1,1.5878242E-1,2.3758984E-1,2.1404397E-1,3.1052165E-2,1.5698601E-1,-2.835075E-1,1.1814386E-1,9.931457E-2,-2.506226E-1,1.1358582E-1,2.5427794E-1,-4.060001E-1,6.75344E-2,1.620374E-1,3.2051647E-1,-1.1915472E-2,-1.0153438E-1,3.1672645E-1,2.4031541E-1,-3.3769888E-1,1.1103886E-1,-5.947095E-2,2.6776713E-1,-2.061439E-1,-4.8732182E-1,-1.300335E-1,-5.6561065E-1,-1.3036092E-1],"split_indices":[0,46,12,4,11,74,60,13,6,4,0,60,17,0,0,0,0,0,27,0,0,0,62,0,0,2,0,13,0,0,0,0,0],"split_type":[0,0,0,0,0,0,0,0,0,0,0,0,0,0,0,0,0,0,0,0,0,0,0,0,0,0,0,0,0,0,0,0,0],"sum_hessian":[6.635876E1,2.8839626E1,3.751913E1,2.3458193E1,5.381433E0,3.5235054E1,2.2840776E0,3.119974E0,2.0338219E1,3.5141888E0,1.8672444E0,3.111102E1,4.124035E0,1.2040231E0,1.0800545E0,1.9164568E0,1.2035172E0,1.6590698E0,1.867915E1,2.2605698E0,1.253619E0,2.1618927E0,2.8949127E1,1.1976526E0,2.926382E0,1.699694E1,1.6822084E0,2.648668E1,2.4624481E0,1.5498092E1,1.4988487E0,2.5319674E1,1.1670047E0],"tree_param":{"num_deleted":"0","num_feature":"75","num_nodes":"33","size_leaf_vector":"0"}},{"base_weights":[-9.3130946E-1,-9.881211E-1,-9.7074635E-2,-1.2721293E0,-7.8177226E-1,7.547032E-1,-9.029321E-1,-1.35769E0,-2.7679268E-1,-8.9928013E-1,7.059651E-1,-1.3681641E-1,-1.4198055E0,-1.6049581E-4,-4.103345E-1,-1.0069411E0,8.0804455E-1,-4.8313168E-1,-1.5416356E0,7.829168E-1,-1.1242054E0,-9.353507E-1,1.5296908E-1,-1.6133008E0,-2.3605454E-1,-1.3799944E0,-5.5270904E-1],"categories":[],"categories_nodes":[],"categories_segments":[],"categories_sizes":[],"default_left":[1,1,1,1,1,0,0,1,1,1,0,0,1,0,0,1,0,1,1,0,1,0,0,0,0,0,0],"id":2,"left_children":[1,3,5,7,9,-1,-1,11,13,15,-1,-1,17,-1,-1,19,-1,21,23,-1,25,-1,-1,-1,-1,-1,-1],"loss_changes":[3.0364037E0,2.625393E0,4.3350697E0,1.7020226E0,7.342659E0,0E0,0E0,1.490139E0,1.17682874E-1,7.430998E0,0E0,0E0,1.6549377E0,0E0,0E0,8.081432E0,0E0,1.2582719E0,1.3175888E0,0E0,4.004448E0,0E0,0E0,0E0,0E0,0E0,0E0],"parents":[2147483647,0,0,1,1,2,2,3,3,4,4,7,7,8,8,9,9,12,12,15,15,17,17,18,18,20,20],"right_children":[2,4,6,8,10,-1,-1,12,14,16,-1,-1,18,-1,-1,20,-1,22,24,-1,26,-1,-1,-1,-1,-1,-1],"split_conditions":[1.1708411E-2,5.353386E-2,1.9720267E-3,1.0006178E-2,1.5742262E-1,2.2641097E-1,-2.7087966E-1,2.9521165E-3,1.5958127E-2,1.6571754E-1,2.1178953E-1,-4.1044924E-2,5.718905E-3,-4.8148744E-5,-1.23100355E-1,1.08686596E-1,2.4241337E-1,2.6102704E-1,9.716707E-3,2.3487504E-1,1.2625097E-1,-2.8060523E-1,4.5890726E-2,-4.8399025E-1,-7.081637E-2,-4.1399834E-1,-1.6581272E-1],"split_indices":[31,11,16,46,72,0,0,73,46,74,0,0,57,0,0,4,0,0,61,0,27,0,0,0,0,0,0],"split_type":[0,0,0,0,0,0,0,0,0,0,0,0,0,0,0,0,0,0,0,0,0,0,0,0,0,0,0],"sum_hessian":[6.5090904E1,6.076812E1,4.3227882E0,2.3398565E1,3.7369553E1,2.132378E0,2.19041E0,2.1211168E1,2.1873972E0,3.5000595E1,2.3689585E0,1.1819867E0,2.002918E1,1.0381236E0,1.1492736E0,3.331033E1,1.6902684E0,2.8768141E0,1.7152367E1,1.6991358E0,3.1611193E1,1.4064741E0,1.4703399E0,1.6036411E1,1.1159565E0,2.0860008E1,1.07511835E1],"tree_param":{"num_deleted":"0","num_feature":"75","num_nodes":"27","size_leaf_vector":"0"}},{"base_weights":[-7.234613E-1,-5.503491E-1,-1.0494518E0,-6.458438E-1,7.6922876E-1,-1.1521995E0,-1.272788E-1,-9.915723E-2,-7.9527444E-1,1.0748337E-2,-1.2265941E0,-7.1492046E-1,4.8842213E-1,-5.937457E-1,7.4887884E-1,4.5368817E-1,-8.717352E-1,-1.3287743E0,-4.2180324E-1,-1.1853067E0,3.6269066E-1,9.3994176E-1,1.7382853E-1,-9.5666736E-1,-5.8593424E-3,-6.015441E-1,-5.1952258E-2,8.021504E-1,-2.5799236E-1,-1.0283856E0,1.23238295E-1,7.0007044E-1,-6.7171496E-1],"categories":[],"categories_nodes":[],"categories_segments":[],"categories_sizes":[],"default_left":[1,1,1,1,0,1,1,1,1,0,1,0,0,1,1,0,1,0,1,0,1,0,0,1,1,0,0,0,0,0,0,0,0],"id":3,"left_children":[1,3,5,7,-1,9,11,13,15,-1,17,-1,-1,19,21,-1,23,-1,25,-1,27,-1,-1,29,31,-1,-1,-1,-1,-1,-1,-1,-1],"loss_changes":[2.8973007E0,5.8297453E0,1.7724838E0,3.1894932E0,0E0,1.5791225E0,1.4905839E0,4.526004E0,3.3824005E0,0E0,8.391571E-1,0E0,0E0,4.2229395E0,2.7903795E-1,0E0,2.1870518E0,0E0,1.9361365E-1,0E0,1.1146015E0,0E0,0E0,2.2291737E0,2.1950743E0,0E0,0E0,0E0,0E0,0E0,0E0,0E0,0E0],"parents":[2147483647,0,0,1,1,2,2,3,3,5,5,6,6,7,7,8,8,10,10,13,13,14,14,16,16,18,18,20,20,23,23,24,24],"right_children":[2,4,6,8,-1,10,12,14,16,-1,18,-1,-1,20,22,-1,24,-1,26,-1,28,-1,-1,30,32,-1,-1,-1,-1,-1,-1,-1,-1],"split_conditions":[1.2546849E-1,1.6008337E-1,2.6147693E-1,1.4111361E-1,2.3076864E-1,1.2521634E-1,2.482203E-1,1.14403084E-1,2.7460769E-2,3.2245012E-3,3.1672645E-1,-2.1447615E-1,1.4652665E-1,1.2000936E-1,1.4009224E-1,1.3610646E-1,1.5742262E-1,-3.9863232E-1,2.93234E-1,-3.55592E-1,1.252095E-1,2.8198254E-1,5.2148562E-2,1.6060159E-1,1.2591293E-1,-1.8046322E-1,-1.5585678E-2,2.4064514E-1,-7.739771E-2,-3.085157E-1,3.697149E-2,2.1002114E-1,-2.015145E-1],"split_indices":[32,74,29,9,0,45,47,5,71,0,62,0,0,30,9,0,72,0,17,0,72,0,0,44,5,0,0,0,0,0,0,0,0],"split_type":[0,0,0,0,0,0,0,0,0,0,0,0,0,0,0,0,0,0,0,0,0,0,0,0,0,0,0,0,0,0,0,0,0],"sum_hessian":[6.0575184E1,4.1320713E1,1.9254473E1,3.900834E1,2.312371E0,1.709979E1,2.1546834E0,8.730757E0,3.0277584E1,1.0795535E0,1.6020237E1,1.0200096E0,1.1346736E0,5.703967E0,3.0267892E0,1.4620382E0,2.8815546E1,1.3637651E1,2.3825853E0,3.37637E0,2.3275974E0,1.7956414E0,1.2311478E0,2.614607E1,2.6694744E0,1.1818016E0,1.2007838E0,1.1915685E0,1.136029E0,2.456254E1,1.5835316E0,1.2708036E0,1.3986709E0],"tree_param":{"num_deleted":"0","num_feature":"75","num_nodes":"33","size_leaf_vector":"0"}},{"base_weights":[-5.7251257E-1,-6.689753E-1,-5.2134115E-2,-3.1182015E-1,-8.307223E-1,5.514384E-1,-4.5110148E-1,4.2559558E-1,-8.191356E-1,-9.196609E-1,6.676878E-2,1.1148129E0,-6.585471E-1,-8.2322705E-1,1.1662352E-1,-4.339899E-1,1.7656193E0,-9.714712E-1,2.7383002E-2,-1.0779768E0,-1.2492157E-1,-3.4632567E-1,5.3122324E-1,-1.8691526E-1,-9.733277E-1,-2.707285E-1,5.3004044E-1,7.1229744E-1,-1.0227405E0,-1.1436775E0,1.0700971E-1,-1.8269107E-1,-1.1998758E0,7.6218367E-1,-8.21624E-1,-1.2231433E0,-3.5495377E-1,-6.40381E-1,5.4118943E-1,-1.2475461E0,-3.0623373E-1],"categories":[],"categories_nodes":[],"categories_segments":[],"categories_sizes":[],"default_left":[1,1,1,1,1,1,1,1,1,1,1,0,0,1,1,1,0,1,0,1,1,0,0,0,0,0,0,0,0,1,0,1,1,0,0,0,0,0,0,0,0],"id":4,"left_children":[1,3,5,7,9,11,13,15,17,19,21,-1,-1,23,25,27,-1,29,-1,31,33,-1,-1,-1,-1,-1,-1,-1,-1,35,-1,37,39,-1,-1,-1,-1,-1,-1,-1,-1],"loss_changes":[2.7956734E0,2.484169E0,2.6333761E0,6.4849386E0,2.6223373E0,3.727251E0,1.4717407E0,9.224829E0,1.323812E0,3.5465984E0,9.178546E-1,0E0,0E0,2.056191E-1,6.9665104E-1,4.2893834E0,0E0,1.7107954E0,0E0,2.4291534E0,4.3291254E0,0E0,0E0,0E0,0E0,0E0,0E0,0E0,0E0,3.3446312E-2,0E0,1.7008889E0,5.20195E-1,0E0,0E0,0E0,0E0,0E0,0E0,0E0,0E0],"parents":[2147483647,0,0,1,1,2,2,3,3,4,4,5,5,6,6,7,7,8,8,9,9,10,10,13,13,14,14,15,15,17,17,19,19,20,20,29,29,31,31,32,32],"right_children":[2,4,6,8,10,12,14,16,18,20,22,-1,-1,24,26,28,-1,30,-1,32,34,-1,-1,-1,-1,-1,-1,-1,-1,36,-1,38,40,-1,-1,-1,-1,-1,-1,-1,-1],"split_conditions":[5.677483E-3,1.2018016E-1,8.416118E-2,2.7164178E-2,1.1803661E-2,1.01031125E-1,7.307752E-2,1.2811595E-1,2.1413174E-3,1.5875018E-1,1.155386E-1,3.3444387E-1,-1.9756414E-1,1.3027532E-1,1.5762624E-1,9.371345E-2,5.296858E-1,1.6078225E-1,8.214901E-3,5.4890187E-3,1.007303E-1,-1.03897706E-1,1.5936698E-1,-5.6074582E-2,-2.9199833E-1,-8.1218556E-2,1.5901214E-1,2.1368924E-1,-3.0682215E-1,1.1374347E-1,3.2102913E-2,2.3168137E-3,1.1948191E-2,2.2865511E-1,-2.464872E-1,-3.66943E-1,-1.06486134E-1,-1.9211431E-1,1.6235684E-1,-3.7426382E-1,-9.187012E-2],"split_indices":[61,60,47,73,46,11,13,12,46,74,2,0,0,45,47,3,0,10,0,57,2,0,0,0,0,0,0,0,0,30,0,42,31,0,0,0,0,0,0,0,0],"split_type":[0,0,0,0,0,0,0,0,0,0,0,0,0,0,0,0,0,0,0,0,0,0,0,0,0,0,0,0,0,0,0,0,0,0,0,0,0,0,0,0,0],"sum_hessian":[5.5388645E1,4.648597E1,8.902677E0,1.5402777E1,3.1083193E1,3.3907943E0,5.511883E0,6.343367E0,9.05941E0,2.825819E1,2.825002E0,2.367249E0,1.0235453E0,3.0576472E0,2.4542356E0,4.2763486E0,2.0670183E0,7.5526605E0,1.5067493E0,2.3266918E1,4.991274E0,1.6297821E0,1.1952199E0,1.0121542E0,2.045493E0,1.4452494E0,1.008986E0,1.3798866E0,2.8964622E0,6.460611E0,1.0920498E0,3.0877423E0,2.0179174E1,2.1542711E0,2.8370025E0,5.3688936E0,1.0917172E0,1.9623511E0,1.1253911E0,1.8781286E1,1.3978883E0],"tree_param":{"num_deleted":"0","num_feature":"75","num_nodes":"41","size_leaf_vector":"0"}},{"base_weights":[-4.7357038E-1,-7.629366E-1,-3.029947E-1,-9.405082E-1,1.1361634E-1,7.7137774E-1,-4.3570405E-1,-1.1024797E0,-1.6260862E-1,6.6121733E-1,-6.6666913E-1,1.274629E0,-2.6785922E-1,-6.289943E-1,3.2790905E-1,-1.1925018E-1,-1.2071573E0,5.922748E-1,-6.896342E-1,-7.850576E-1,4.4970664E-1,1.0012839E0,-1.15788594E-1,3.440723E-1,-8.626539E-1,9.071838E-1,-3.75124E-1,-7.200256E-1,2.160808E-1,-9.253486E-1,1.4243937E-1,6.153746E-1,-4.83494E-1],"categories":[],"categories_nodes":[],"categories_segments":[],"categories_sizes":[],"default_left":[1,1,1,1,1,1,1,1,1,0,0,0,0,1,1,0,0,0,0,1,1,0,1,0,1,0,0,0,1,0,0,0,0],"id":5,"left_children":[1,3,5,7,9,11,13,15,17,-1,-1,-1,-1,19,21,-1,-1,-1,-1,23,25,-1,27,-1,29,-1,-1,-1,31,-1,-1,-1,-1],"loss_changes":[2.2741423E0,2.9342794E0,5.125594E0,1.7375212E0,2.1295347E0,2.4617164E0,4.713591E0,1.1341591E0,1.9181533E0,0E0,0E0,0E0,0E0,4.5131903E0,2.1553173E0,0E0,0E0,0E0,0E0,2.220234E0,1.7587945E0,0E0,1.1604214E0,0E0,1.4441519E0,0E0,0E0,0E0,1.4158914E0,0E0,0E0,0E0,0E0],"parents":[2147483647,0,0,1,1,2,2,3,3,4,4,5,5,6,6,7,7,8,8,13,13,14,14,19,19,20,20,22,22,24,24,28,28],"right_children":[2,4,6,8,10,12,14,16,18,-1,-1,-1,-1,20,22,-1,-1,-1,-1,24,26,-1,28,-1,30,-1,-1,-1,32,-1,-1,-1,-1],"split_conditions":[2.383306E-2,1.7493182E-1,3.322292E-2,7.157163E-2,8.905318E-2,1.2250587E-1,3.8052804E-3,1.8306286E-4,1.08709894E-1,1.9836521E-1,-2.0000075E-1,3.823887E-1,-8.035777E-2,5.3070914E-3,6.5480694E-2,-3.5775054E-2,-3.6214718E-1,1.7768244E-1,-2.0689027E-1,2.277499E-3,4.380727E-3,3.0038518E-1,9.040442E-2,1.032217E-1,3.0016217E-1,2.7215517E-1,-1.12537205E-1,-2.160077E-1,1.5256035E-1,-2.7760458E-1,4.273181E-2,1.846124E-1,-1.4504822E-1],"split_indices":[13,9,28,74,12,60,46,43,4,0,0,0,0,31,32,0,0,0,0,17,16,0,47,0,17,0,0,0,17,0,0,0,0],"split_type":[0,0,0,0,0,0,0,0,0,0,0,0,0,0,0,0,0,0,0,0,0,0,0,0,0,0,0,0,0,0,0,0,0],"sum_hessian":[4.9757015E1,1.7165157E1,3.2591854E1,1.4212946E1,2.952212E0,3.0541224E0,2.9537733E1,1.141823E1,2.7947156E0,1.8244303E0,1.1277817E0,1.9050809E0,1.1490414E0,2.3711924E1,5.8258095E0,1.3044872E0,1.0113743E1,1.098079E0,1.6966366E0,2.0952759E1,2.7591655E0,1.8148437E0,4.010966E0,1.1265023E0,1.9826256E1,1.7105807E0,1.0485848E0,1.0073221E0,3.0036438E0,1.8736849E1,1.0894072E0,1.9888397E0,1.014804E0],"tree_param":{"num_deleted":"0","num_feature":"75","num_nodes":"33","size_leaf_vector":"0"}},{"base_weights":[-3.8225967E-1,-6.6722924E-1,-2.2438252E-1,-8.331459E-1,8.086388E-2,-5.119519E-2,-8.486654E-1,-9.853048E-1,-1.3428876E-1,-3.012511E-1,5.6882334E-1,8.6172676E-1,-1.9036812E-1,-1.0427339E0,1.1537811E-1,-5.000059E-2,-1.097415E0,4.289247E-1,-5.722351E-1,1.1575527E0,1.0727243E-1,-3.9667866E-1,5.613462E-1,-5.824095E-1,3.530727E-1,9.318752E-1,-3.2634214E-1,-2.1515065E-1,-1.0793399E0,6.937949E-1,-3.4903544E-1],"categories":[],"categories_nodes":[],"categories_segments":[],"categories_sizes":[],"default_left":[1,1,1,1,1,1,1,1,1,0,0,1,1,0,0,0,0,0,0,0,0,1,1,1,1,0,0,0,0,0,0],"id":6,"left_children":[1,3,5,7,9,11,13,15,17,-1,-1,19,21,-1,-1,-1,-1,-1,-1,-1,-1,23,25,27,29,-1,-1,-1,-1,-1,-1],"loss_changes":[1.8988075E0,2.0192928E0,3.2873082E0,1.2457905E0,8.735915E-1,3.3633394E0,1.359993E0,1.0445328E0,1.1025695E0,0E0,0E0,6.596315E-1,3.7382872E0,0E0,0E0,0E0,0E0,0E0,0E0,0E0,0E0,2.7641006E0,2.0459623E0,2.5240364E0,1.2637274E0,0E0,0E0,0E0,0E0,0E0,0E0],"parents":[2147483647,0,0,1,1,2,2,3,3,4,4,5,5,6,6,7,7,8,8,11,11,12,12,21,21,22,22,23,23,24,24],"right_children":[2,4,6,8,10,12,14,16,18,-1,-1,20,22,-1,-1,-1,-1,-1,-1,-1,-1,24,26,28,30,-1,-1,-1,-1,-1,-1],"split_conditions":[2.383306E-2,1.7493182E-1,7.0074044E-2,7.157163E-2,5.7786414E-3,3.4062058E-2,1.5367137E-1,1.7861935E-4,1.08941704E-1,-9.0375334E-2,1.7064701E-1,1.0257028E-1,4.228548E-3,-3.128202E-1,3.4613434E-2,-1.5000178E-2,-3.292245E-1,1.2867741E-1,-1.7167054E-1,3.4726584E-1,3.2181732E-2,3.9739553E-3,2.1071425E-1,4.37139E-2,1.6286224E-1,2.795626E-1,-9.790265E-2,-6.45452E-2,-3.2380196E-1,2.0813848E-1,-1.0471064E-1],"split_indices":[13,9,59,74,28,43,7,28,4,0,0,62,31,0,0,0,0,0,0,0,0,46,47,3,9,0,0,0,0,0,0],"split_type":[0,0,0,0,0,0,0,0,0,0,0,0,0,0,0,0,0,0,0,0,0,0,0,0,0,0,0,0,0,0,0],"sum_hessian":[4.453265E1,1.47259445E1,2.9806704E1,1.1959745E1,2.766199E0,2.4180582E1,5.6261225E0,9.484788E0,2.4749577E0,1.7659423E0,1.0002567E0,2.5118725E0,2.1668709E1,4.6153884E0,1.010734E0,1.1699784E0,8.31481E0,1.0916542E0,1.3833034E0,1.4205682E0,1.0913043E0,1.7372946E1,4.295763E0,1.4102601E1,3.2703452E0,2.9955966E0,1.3001664E0,8.933335E0,5.1692653E0,2.2098026E0,1.0605427E0],"tree_param":{"num_deleted":"0","num_feature":"75","num_nodes":"31","size_leaf_vector":"0"}},{"base_weights":[-3.1614456E-1,-5.218785E-1,-1.0797535E-1,-3.4919634E-1,-9.194937E-1,5.4998785E-1,-2.075116E-1,-5.168693E-1,5.1163197E-1,-2.5796655E-1,-1.0091481E0,1.7415613E-2,8.0977416E-1,-3.1621855E-1,4.4021437E-1,2.2213592E-1,-6.3030076E-1,-5.5200654E-1,8.391147E-2,3.0484721E-2,6.251625E-1,-7.4926907E-1,1.4668244E-1,1.2961605E-1,-7.2416914E-1,9.027912E-1,-3.0211696E-1,-8.696123E-1,3.7059065E-2,-5.8368134E-1,7.625265E-1,-8.2132274E-1,-1.9003049E-2,-8.236961E-1,1.9614418E-1],"categories":[],"categories_nodes":[],"categories_segments":[],"categories_sizes":[],"default_left":[1,1,1,1,1,1,1,1,0,0,0,0,0,1,1,0,1,1,1,0,0,1,0,1,1,0,1,0,0,0,0,0,0,0,0],"id":7,"left_children":[1,3,5,7,9,11,13,15,-1,-1,-1,-1,-1,17,19,-1,21,23,25,-1,-1,27,-1,29,31,-1,33,-1,-1,-1,-1,-1,-1,-1,-1],"loss_changes":[1.7069178E0,1.0827565E0,1.5369551E0,2.5547051E0,7.053375E-2,4.1876727E-1,1.5190578E0,1.2949746E0,0E0,0E0,0E0,0E0,0E0,1.6843977E0,2.260325E-1,0E0,1.2381096E0,1.3913674E0,2.5821817E0,0E0,0E0,1.0493274E0,0E0,1.8345242E0,5.995369E-1,0E0,1.6466386E0,0E0,0E0,0E0,0E0,0E0,0E0,0E0,0E0],"parents":[2147483647,0,0,1,1,2,2,3,3,4,4,5,5,6,6,7,7,13,13,14,14,16,16,17,17,18,18,21,21,23,23,24,24,26,26],"right_children":[2,4,6,8,10,12,14,16,-1,-1,-1,-1,-1,18,20,-1,22,24,26,-1,-1,28,-1,30,32,-1,34,-1,-1,-1,-1,-1,-1,-1,-1],"split_conditions":[1.4816898E-1,1.4108291E-1,1.4898537E-1,1.14403084E-1,1.8162925E-2,1.18069604E-1,1.5836933E-1,5.718905E-3,1.5348959E-1,-7.738997E-2,-3.0274445E-1,5.2246843E-3,2.4293226E-1,6.692855E-2,5.5866934E-2,6.664078E-2,1.0142624E-2,1.115436E-3,4.6920832E-2,9.145416E-3,1.8754876E-1,1.07217245E-2,4.4004735E-2,1.6740942E-2,1.5398598E-1,2.7083737E-1,5.6444397E-3,-2.608837E-1,1.111772E-2,-1.7510441E-1,2.2875796E-1,-2.4639682E-1,-5.7009147E-3,-2.4710883E-1,5.8843255E-2],"split_indices":[67,9,7,5,2,45,74,57,0,0,0,0,0,58,11,0,61,13,32,0,0,46,0,3,44,0,12,0,0,0,0,0,0,0,0],"split_type":[0,0,0,0,0,0,0,0,0,0,0,0,0,0,0,0,0,0,0,0,0,0,0,0,0,0,0,0,0,0,0,0,0,0,0],"sum_hessian":[4.0171417E1,1.9445957E1,2.072546E1,1.4867367E1,4.57859E0,2.128692E0,1.8596767E1,1.2778019E1,2.0893474E0,1.0092263E0,3.5693636E0,1.0477667E0,1.0809252E0,1.6362478E1,2.2342901E0,1.5728145E0,1.1205205E1,1.0056708E1,6.30577E0,1.057145E0,1.1771452E0,9.748262E0,1.4569428E0,2.07773E0,7.9789786E0,1.5913608E0,4.714409E0,8.362511E0,1.3857514E0,1.0133994E0,1.0643306E0,6.8680205E0,1.1109579E0,1.9842048E0,2.730204E0],"tree_param":{"num_deleted":"0","num_feature":"75","num_nodes":"35","size_leaf_vector":"0"}},{"base_weights":[-2.529712E-1,-5.331063E-1,-1.1393742E-1,-8.008712E-1,-2.95537E-2,2.7766395E-2,-7.0389074E-1,-7.9288766E-2,-9.8194313E-1,5.197252E-1,-4.3211794E-1,8.501032E-1,-9.188885E-2,-8.8220525E-1,1.1042158E-2,1.0640798E-1,-6.970887E-1,-2.5113437E-1,4.5865402E-1,-4.6682993E-1,1.8076299E-1,7.4526346E-1,-2.2161876E-1,1.9011563E-1,-5.972131E-1,-2.6301757E-1,5.234847E-1,2.3513308E-1,8.7928516E-1],"categories":[],"categories_nodes":[],"categories_segments":[],"categories_sizes":[],"default_left":[1,1,1,1,1,1,1,0,0,0,1,0,1,0,0,0,0,1,1,1,1,1,0,0,0,0,0,0,0],"id":8,"left_children":[1,3,5,7,9,11,13,-1,-1,-1,15,-1,17,-1,-1,-1,-1,19,21,23,25,27,-1,-1,-1,-1,-1,-1,-1],"loss_changes":[1.403202E0,1.6206751E0,2.2258408E0,9.5739985E-1,1.390319E0,2.2666793E0,6.6619396E-1,0E0,0E0,0E0,5.862039E-1,0E0,1.8966132E0,0E0,0E0,0E0,0E0,1.6128135E0,1.122986E0,1.074692E0,1.0784613E0,4.5228958E-2,0E0,0E0,0E0,0E0,0E0,0E0,0E0],"parents":[2147483647,0,0,1,1,2,2,3,3,4,4,5,5,6,6,10,10,12,12,17,17,18,18,19,19,20,20,21,21],"right_children":[2,4,6,8,10,12,14,-1,-1,-1,16,-1,18,-1,-1,-1,-1,20,22,24,26,28,-1,-1,-1,-1,-1,-1,-1],"split_conditions":[2.383306E-2,1.5818381E-1,7.0074044E-2,1.11984715E-1,1.6335815E-1,3.0299542E-2,1.5291008E-1,-2.378663E-2,-2.9458296E-1,1.5591757E-1,5.935227E-2,2.5503096E-1,4.228548E-3,-2.6466158E-1,3.3126476E-3,3.1922396E-2,-2.0912662E-1,1.4915273E-1,2.1071425E-1,1.5407508E-3,4.0723674E-2,6.020759E-2,-6.648563E-2,5.703469E-2,-1.7916393E-1,-7.890527E-2,1.5704542E-1,7.053993E-2,2.6378557E-1],"split_indices":[13,4,59,60,7,43,7,0,0,0,2,0,31,0,0,0,0,27,47,27,11,2,0,0,0,0,0,0,0],"split_type":[0,0,0,0,0,0,0,0,0,0,0,0,0,0,0,0,0,0,0,0,0,0,0,0,0,0,0,0,0],"sum_hessian":[3.6586884E1,1.1195345E1,2.5391539E1,6.9233828E0,4.271962E0,2.1242203E1,4.1493354E0,1.6772655E0,5.246117E0,1.6836578E0,2.5883043E0,1.9228327E0,1.931937E1,3.1337612E0,1.0155745E0,1.0508914E0,1.5374128E0,1.54067745E1,3.912595E0,1.0221255E1,5.1855187E0,2.6855817E0,1.2270133E0,1.6167921E0,8.604464E0,2.360952E0,2.824567E0,1.1318461E0,1.5537356E0],"tree_param":{"num_deleted":"0","num_feature":"75","num_nodes":"29","size_leaf_vector":"0"}},{"base_weights":[-2.0466761E-1,-2.9677612E-1,1.7650819E-1,-3.5578322E-1,3.1006676E-1,3.843384E-1,-4.850765E-1,-1.9343263E-2,-5.337505E-1,4.6815407E-1,-4.702917E-4,7.6251817E-1,-7.875909E-3,-6.489216E-1,3.5677904E-1,-8.601883E-1,-2.062487E-1,-3.9467233E-1,4.0738583E-1,-2.1698023E-1,-7.4500024E-1,-3.8105768E-1,7.31928E-1,-9.2682105E-1,-2.036876E-1,4.47967E-1,-4.241169E-1,9.9914944E-1,-5.8460195E-2,-6.3090914E-1,4.8829487E-1],"categories":[],"categories_nodes":[],"categories_segments":[],"categories_sizes":[],"default_left":[1,1,1,1,1,1,0,1,1,0,0,0,1,1,1,1,1,0,0,0,0,0,1,0,0,0,1,0,0,0,0],"id":9,"left_children":[1,3,5,7,9,11,-1,13,15,-1,-1,-1,17,19,21,23,25,-1,-1,-1,-1,-1,27,-1,-1,-1,29,-1,-1,-1,-1],"loss_changes":[1.263349E0,1.1183672E0,1.195603E0,1.5537639E0,1.4892435E-1,9.171816E-1,0E0,2.6172822E0,1.6451025E0,0E0,0E0,0E0,8.041259E-1,9.444475E-3,2.2033033E0,1.7089176E-1,1.5904043E0,0E0,0E0,0E0,0E0,0E0,1.1041715E0,0E0,0E0,0E0,1.7956766E0,0E0,0E0,0E0,0E0],"parents":[2147483647,0,0,1,1,2,2,3,3,4,4,5,5,7,7,8,8,12,12,13,13,14,14,15,15,16,16,22,22,26,26],"right_children":[2,4,6,8,10,12,-1,14,16,-1,-1,-1,18,20,22,24,26,-1,-1,-1,-1,-1,28,-1,-1,-1,30,-1,-1,-1,-1],"split_conditions":[5.677483E-3,1.6956644E-1,2.2893116E-2,1.2018016E-1,5.00948E-2,8.416118E-2,-1.4552295E-1,1.0581966E-1,5.5545107E-2,1.4044623E-1,-1.4108751E-4,2.2875546E-1,1.4065373E-1,9.369336E-2,7.976475E-2,1.574092E-1,6.629212E-2,-1.18401706E-1,1.22215755E-1,-6.5094076E-2,-2.2350009E-1,-1.14317305E-1,7.013402E-2,-2.7804634E-1,-6.110628E-2,1.343901E-1,2.878333E-1,2.9974484E-1,-1.753806E-2,-1.8927275E-1,1.4648847E-1],"split_indices":[61,29,61,60,58,47,0,30,28,0,0,0,2,3,12,74,43,0,0,0,0,0,59,0,0,0,60,0,0,0,0],"split_type":[0,0,0,0,0,0,0,0,0,0,0,0,0,0,0,0,0,0,0,0,0,0,0,0,0,0,0,0,0,0,0],"sum_hessian":[3.3491077E1,2.715152E1,6.339559E0,2.5122425E1,2.0290945E0,5.1430006E0,1.1965584E0,9.0750675E0,1.6047358E1,1.0082532E0,1.0208412E0,2.1376781E0,3.0053225E0,3.1227345E0,5.952333E0,7.2221537E0,8.825204E0,1.5816619E0,1.4236606E0,1.1611059E0,1.9616287E0,2.0010164E0,3.9513166E0,6.1828537E0,1.0393002E0,1.9409057E0,6.884299E0,2.7555654E0,1.1957511E0,5.8638263E0,1.0204724E0],"tree_param":{"num_deleted":"0","num_feature":"75","num_nodes":"31","size_leaf_vector":"0"}},{"base_weights":[-1.6585322E-1,-3.437082E-1,8.482017E-3,-1.7875913E-1,-7.4999505E-1,-3.8110256E-1,1.4209844E-1,-3.1367412E-1,4.2999324E-1,1.2773E-1,-6.991049E-1,2.5125498E-1,-5.4519004E-1,2.2920641E-1,-4.271755E-1,-3.8659254E-1,3.8046432E-1,-5.837684E-1,1.3950127E-1,-2.7605524E-2,6.5886647E-1,-7.282841E-1,-4.337538E-3,3.9662242E-1,-6.9091725E-1,8.8307285E-1,-1.0974259E-1],"categories":[],"categories_nodes":[],"categories_segments":[],"categories_sizes":[],"default_left":[1,1,1,1,0,1,1,1,0,0,0,1,0,0,1,0,1,1,0,1,1,0,0,0,0,0,0],"id":10,"left_children":[1,3,5,7,-1,9,11,13,-1,-1,-1,15,-1,-1,17,-1,19,21,-1,23,25,-1,-1,-1,-1,-1,-1],"loss_changes":[9.889976E-1,9.2254555E-1,9.409668E-1,1.1636927E0,0E0,8.3723384E-1,1.1433113E0,7.6537395E-1,0E0,0E0,0E0,1.1574943E0,0E0,0E0,9.07441E-1,0E0,1.2336447E0,6.236901E-1,0E0,1.765066E0,1.1998076E0,0E0,0E0,0E0,0E0,0E0,0E0],"parents":[2147483647,0,0,1,1,2,2,3,3,5,5,6,6,7,7,11,11,14,14,16,16,17,17,19,19,20,20],"right_children":[2,4,6,8,-1,10,12,14,-1,-1,-1,16,-1,-1,18,-1,20,22,-1,24,26,-1,-1,-1,-1,-1,-1],"split_conditions":[1.4816898E-1,1.4108291E-1,1.4484895E-2,1.14403084E-1,-2.2499852E-1,1.115436E-3,1.2064404E-1,5.718905E-3,1.2899798E-1,3.8319E-2,-2.0973147E-1,1.00002706E-1,-1.6355702E-1,6.876193E-2,1.4243807E-1,-1.15977764E-1,1.5764534E-2,9.761179E-3,4.1850384E-2,1.272372E-1,9.520583E-2,-2.1848525E-1,-1.3012615E-3,1.1898673E-1,-2.0727518E-1,2.6492187E-1,-3.292278E-2],"split_indices":[67,9,58,5,0,13,32,57,0,0,0,0,0,0,14,0,3,46,0,0,3,0,0,0,0,0,0],"split_type":[0,0,0,0,0,0,0,0,0,0,0,0,0,0,0,0,0,0,0,0,0,0,0,0,0,0,0],"sum_hessian":[3.0802551E1,1.4766445E1,1.6036106E1,1.152669E1,3.239756E0,3.6223192E0,1.2413787E1,9.832322E0,1.6943665E0,1.6232723E0,1.9990468E0,1.1259894E1,1.1538932E0,1.5239253E0,8.308397E0,1.5611621E0,9.698731E0,6.48594E0,1.8224573E0,4.298711E0,5.4000206E0,4.98559E0,1.5003499E0,2.8670907E0,1.4316205E0,4.065248E0,1.3347726E0],"tree_param":{"num_deleted":"0","num_feature":"75","num_nodes":"27","size_leaf_vector":"0"}},{"base_weights":[-1.4637294E-1,-4.060889E-1,-3.0886613E-2,-5.69655E-1,1.7440832E-1,8.89377E-2,-5.8326036E-1,-7.331547E-1,1.36289485E-2,-5.533352E-1,2.000362E-1,-7.417199E-1,-5.4429192E-2,-8.6708385E-1,-6.752943E-2,-7.708643E-2,5.262998E-1,-2.4862064E-1,7.228469E-1,6.475829E-1,-1.040781E-1,-4.4832048E-1,1.9840592E-1,8.927603E-1,3.368275E-2],"categories":[],"categories_nodes":[],"categories_segments":[],"categories_sizes":[],"default_left":[1,1,1,1,0,1,1,1,0,0,1,0,0,0,0,1,1,1,0,1,0,0,0,0,0],"id":11,"left_children":[1,3,5,7,-1,9,11,13,-1,-1,15,-1,-1,-1,-1,17,19,21,-1,23,-1,-1,-1,-1,-1],"loss_changes":[8.80296E-1,9.6150255E-1,1.4873233E0,7.079251E-1,0E0,1.4442688E0,2.9467738E-1,4.526477E-1,0E0,0E0,1.5475771E0,0E0,0E0,0E0,0E0,1.5360659E0,6.62431E-1,8.8198864E-1,0E0,9.7318864E-1,0E0,0E0,0E0,0E0,0E0],"parents":[2147483647,0,0,1,1,2,2,3,3,5,5,6,6,7,7,10,10,15,15,16,16,17,17,19,19],"right_children":[2,4,6,8,-1,10,12,14,-1,-1,16,-1,-1,-1,-1,18,20,22,-1,24,-1,-1,-1,-1,-1],"split_conditions":[2.383306E-2,1.7560358E-1,7.0074044E-2,7.157163E-2,5.2322496E-2,1.0337769E-1,1.6449378E-1,1.6304377E-1,4.088685E-3,-1.6600056E-1,1.1931391E-1,-2.2251599E-1,-1.6328758E-2,-2.6012516E-1,-2.025883E-2,2.0713221E-2,1.4811686E-3,1.2565272E-1,2.1685408E-1,1.6238739E-1,-3.1223431E-2,-1.3449615E-1,5.952178E-2,2.678281E-1,1.0104825E-2],"split_indices":[13,9,59,74,0,30,74,7,0,0,12,0,0,0,0,46,1,65,0,10,0,0,0,0,0],"split_type":[0,0,0,0,0,0,0,0,0,0,0,0,0,0,0,0,0,0,0,0,0,0,0,0,0],"sum_hessian":[2.8767595E1,8.080071E0,2.0687523E1,6.3184156E0,1.7616559E0,1.768925E1,2.9982712E0,4.734383E0,1.5840329E0,2.0215962E0,1.5667656E1,1.9972488E0,1.0010223E0,3.6893878E0,1.0449952E0,8.884795E0,6.7828603E0,7.883492E0,1.0013033E0,5.6655335E0,1.1173271E0,5.447182E0,2.4363098E0,3.724008E0,1.9415253E0],"tree_param":{"num_deleted":"0","num_feature":"75","num_nodes":"25","size_leaf_vector":"0"}},{"base_weights":[-1.2257372E-1,-2.079888E-1,2.016658E-1,2.8937665E-1,-2.746494E-1,3.6057436E-1,-3.1016958E-1,-3.2326844E-1,7.505529E-1,-1.24917656E-1,-5.76671E-1,5.7260674E-1,-8.018382E-2,-2.3787399E-1,6.885093E-1,-7.7617013E-1,-1.5286393E-1,6.9213635E-1,1.5069252E-1,-3.4882596E-1,2.3689568E-1,9.596039E-2,-3.6239463E-1,-7.281084E-1,-1.224566E-1,5.6787586E-1,-2.2448453E-1],"categories":[],"categories_nodes":[],"categories_segments":[],"categories_sizes":[],"default_left":[1,1,1,1,1,1,0,0,0,1,1,1,0,1,0,0,1,0,0,1,1,0,0,0,0,0,0],"id":12,"left_children":[1,3,5,7,9,11,-1,-1,-1,13,15,17,-1,19,-1,-1,21,-1,-1,23,25,-1,-1,-1,-1,-1,-1],"loss_changes":[8.096256E-1,8.23199E-1,6.232176E-1,1.1292616E0,8.456931E-1,5.375046E-1,0E0,0E0,0E0,1.5276711E0,4.2667413E-1,8.100772E-2,0E0,8.0837506E-1,0E0,0E0,2.0732592E-1,0E0,0E0,9.043791E-1,6.169603E-1,0E0,0E0,0E0,0E0,0E0,0E0],"parents":[2147483647,0,0,1,1,2,2,3,3,4,4,5,5,9,9,10,10,11,11,13,13,16,16,19,19,20,20],"right_children":[2,4,6,8,10,12,-1,-1,-1,14,16,18,-1,20,-1,-1,22,-1,-1,24,26,-1,-1,-1,-1,-1,-1],"split_conditions":[5.677483E-3,2.2519096E-3,8.218837E-2,7.281316E-4,1.2077461E-1,1.2231668E-1,-9.3050875E-2,-9.6980534E-2,2.2516587E-1,1.6008337E-1,2.595141E-1,1.5594682E-2,-2.4055148E-2,1.1230351E-1,2.0655279E-1,-2.3285104E-1,2.8561532E-1,2.0764092E-1,4.5207758E-2,8.292001E-2,1.2156858E-1,2.878812E-2,-1.08718395E-1,-2.1843253E-1,-3.6736984E-2,1.7036277E-1,-6.7345366E-2],"split_indices":[61,27,11,27,32,17,0,0,0,74,32,3,0,2,0,0,0,0,0,12,2,0,0,0,0,0,0],"split_type":[0,0,0,0,0,0,0,0,0,0,0,0,0,0,0,0,0,0,0,0,0,0,0,0,0,0,0],"sum_hessian":[2.6719189E1,2.1431879E1,5.2873096E0,2.1381035E0,1.9293776E1,4.2601852E0,1.0271249E0,1.0466828E0,1.0914207E0,1.3844006E1,5.4497695E0,2.6744606E0,1.5857242E0,1.277726E1,1.0667454E0,3.1401703E0,2.3095994E0,1.5849677E0,1.089493E0,1.0571915E1,2.2053454E0,1.3035796E0,1.0060198E0,3.122947E0,7.4489675E0,1.1497383E0,1.0556072E0],"tree_param":{"num_deleted":"0","num_feature":"75","num_nodes":"27","size_leaf_vector":"0"}},{"base_weights":[-9.353033E-2,-1.4670849E-1,3.881578E-1,-2.0870268E-1,3.2568577E-1,4.9638283E-3,-3.8948086E-1,2.0358294E-2,4.964479E-1,-1.6234776E-1,6.2910324E-1,-4.8089242E-1,1.7037484E-1,-2.8009662E-1,3.2201186E-1,-7.59064E-1,-1.2075838E-1,-6.7686695E-1,-5.5598382E-2,-1.5678853E-1,-8.525649E-1,-3.8516432E-1,5.390839E-1],"categories":[],"categories_nodes":[],"categories_segments":[],"categories_sizes":[],"default_left":[1,1,0,1,1,1,1,0,0,1,0,1,0,1,0,1,1,0,0,0,0,0,0],"id":13,"left_children":[1,3,-1,5,7,9,11,-1,-1,13,-1,15,-1,17,-1,19,21,-1,-1,-1,-1,-1,-1],"loss_changes":[7.2953975E-1,7.817405E-1,0E0,8.5768265E-1,1.5767449E-1,1.265552E0,6.967504E-1,0E0,0E0,6.366123E-1,0E0,9.691224E-1,0E0,6.965128E-1,0E0,1.9210577E-1,1.220202E0,0E0,0E0,0E0,0E0,0E0,0E0],"parents":[2147483647,0,0,1,1,3,3,4,4,5,5,6,6,9,9,11,11,13,13,15,15,16,16],"right_children":[2,4,-1,6,8,10,12,-1,-1,14,-1,16,-1,18,-1,20,22,-1,-1,-1,-1,-1,-1],"split_conditions":[1.6956644E-1,1.1708411E-2,1.1644735E-1,7.092029E-2,8.001953E-2,6.3168E-2,2.8500104E-1,6.1074886E-3,1.4893438E-1,1.6146089E-1,1.8873098E-1,1.5902894E-2,5.1112454E-2,1.0364519E-1,9.6603565E-2,1.2940586E-1,1.4008543E-1,-2.0306009E-1,-1.6679516E-2,-4.7036562E-2,-2.5576946E-1,-1.155493E-1,1.6172518E-1],"split_indices":[29,31,0,17,73,17,45,0,0,4,0,63,0,30,0,0,15,0,0,0,0,0,0],"split_type":[0,0,0,0,0,0,0,0,0,0,0,0,0,0,0,0,0,0,0,0,0,0,0],"sum_hessian":[2.5257507E1,2.337261E1,1.8848976E0,2.1154608E1,2.2180018E0,1.0141108E1,1.1013501E1,1.1969829E0,1.0210189E0,8.580767E0,1.5603406E0,9.588897E0,1.4246042E0,7.241951E0,1.3388159E0,4.785103E0,4.803794E0,1.888775E0,5.353176E0,1.0027654E0,3.7823374E0,3.7267308E0,1.0770631E0],"tree_param":{"num_deleted":"0","num_feature":"75","num_nodes":"23","size_leaf_vector":"0"}},{"base_weights":[-6.7698985E-2,-4.9624E-1,-1.1005526E-2,3.26695E-1,-1.0751583E-1,-1.9541773E-1,7.6487607E-1,-2.8168878E-1,9.023692E-2,-5.6390953E-1,3.0340216E-1,-5.9174037E-1,4.3473337E-2,-1.4455046E-1,4.497828E-1,-7.7252007E-1,-1.2267899E-2,5.2800584E-1,-4.1090736E-1,3.0198148E-1,-4.8923638E-1,6.5779227E-1,4.4790275E-2,7.434122E-1,2.4000471E-2,1.4625777E-1,-6.8109804E-1,5.5207074E-1,-1.0574832E-1,-6.8545496E-1,3.0149937E-2],"categories":[],"categories_nodes":[],"categories_segments":[],"categories_sizes":[],"default_left":[1,0,1,1,1,1,0,1,1,0,0,1,1,1,1,0,0,1,1,1,1,0,0,0,0,0,0,0,0,0,0],"id":14,"left_children":[1,-1,3,5,7,9,-1,11,13,-1,-1,15,17,19,21,-1,-1,23,25,27,29,-1,-1,-1,-1,-1,-1,-1,-1,-1,-1],"loss_changes":[6.0236454E-1,0E0,7.885677E-1,1.3816547E0,6.706023E-1,7.692274E-1,0E0,1.0542927E0,8.694665E-1,0E0,0E0,5.44786E-1,1.5184231E0,1.1515195E0,3.0816174E-1,0E0,0E0,3.40253E-1,6.4351445E-1,4.1113698E-1,4.346652E-1,0E0,0E0,0E0,0E0,0E0,0E0,0E0,0E0,0E0,0E0],"parents":[2147483647,0,0,2,2,3,3,4,4,5,5,7,7,8,8,11,11,12,12,13,13,14,14,17,17,18,18,19,19,20,20],"right_children":[2,-1,4,6,8,10,-1,12,14,-1,-1,16,18,20,22,-1,-1,24,26,28,30,-1,-1,-1,-1,-1,-1,-1,-1,-1,-1],"split_conditions":[2.3320226E-2,-1.48872E-1,4.1582175E-2,5.897224E-2,1.5769346E-2,8.0842614E-2,2.2946283E-1,2.3122509E-1,1.3428462E-1,-1.6917287E-1,9.102065E-2,1.9489664E-3,2.6655972E-1,1.4339158E-1,9.993172E-2,-2.3175603E-1,-3.6803698E-3,1.7313083E-1,2.314931E-3,7.993089E-2,1.3269675E-1,1.9733769E-1,1.3437083E-2,2.2302367E-1,7.200142E-3,4.3877333E-2,-2.0432942E-1,1.6562122E-1,-3.1724498E-2,-2.056365E-1,9.044982E-3],"split_indices":[32,0,17,28,63,12,0,60,15,0,0,61,47,9,17,0,0,13,72,47,45,0,0,0,0,0,0,0,0,0,0],"split_type":[0,0,0,0,0,0,0,0,0,0,0,0,0,0,0,0,0,0,0,0,0,0,0,0,0,0,0,0,0,0,0],"sum_hessian":[2.4018078E1,1.9003624E0,2.2117716E1,4.3858943E0,1.7731823E1,2.25408E0,2.131814E0,9.202323E0,8.529499E0,1.221349E0,1.032731E0,4.2909474E0,4.911375E0,5.52172E0,3.0077794E0,3.016681E0,1.2742667E0,2.2984114E0,2.6129637E0,2.4594536E0,3.0622663E0,1.5747557E0,1.4330237E0,1.2774394E0,1.0209721E0,1.003113E0,1.6098506E0,1.3049966E0,1.154457E0,1.9905267E0,1.0717396E0],"tree_param":{"num_deleted":"0","num_feature":"75","num_nodes":"31","size_leaf_vector":"0"}},{"base_weights":[-5.5151697E-2,-5.3817564E-1,-7.883155E-3,4.4427675E-1,-7.03785E-2,9.0211234E-4,-5.9585816E-1,-1.465484E-1,2.4562278E-1,-6.554605E-1,-1.1724741E-2,-4.6236748E-1,4.3956998E-1,-1.5796317E-1,4.0298012E-1,-5.7029128E-2,5.907403E-1],"categories":[],"categories_nodes":[],"categories_segments":[],"categories_sizes":[],"default_left":[1,0,1,0,1,1,0,1,1,0,1,0,1,0,0,0,0],"id":15,"left_children":[1,-1,3,-1,5,7,-1,9,11,-1,13,-1,15,-1,-1,-1,-1],"loss_changes":[5.2676815E-1,0E0,6.5857106E-1,0E0,7.6340675E-1,7.191616E-1,0E0,8.4590083E-1,1.2319958E0,0E0,7.218565E-1,0E0,5.1366675E-1,0E0,0E0,0E0,0E0],"parents":[2147483647,0,0,2,2,4,4,5,5,7,7,8,8,10,10,12,12],"right_children":[2,-1,4,-1,6,8,-1,10,12,-1,14,-1,16,-1,-1,-1,-1],"split_conditions":[2.2606313E-2,-1.614527E-1,3.609648E-2,1.3328303E-1,1.6332126E-1,1.2502103E-1,-1.7875746E-1,1.828214E-2,1.0535215E-1,-1.9663815E-1,6.9199754E-3,-1.3871025E-1,2.269502E-2,-4.7388952E-2,1.2089404E-1,-1.7108738E-2,1.772221E-1],"split_indices":[47,0,47,0,7,65,0,43,0,0,61,0,72,0,0,0,0],"split_type":[0,0,0,0,0,0,0,0,0,0,0,0,0,0,0,0,0],"sum_hessian":[2.2257465E1,1.058229E0,2.1199236E1,1.8324348E0,1.9366802E1,1.7932558E1,1.4342442E0,1.1440514E1,6.4920444E0,1.5873208E0,9.853193E0,1.0984061E0,5.393638E0,7.7421527E0,2.11104E0,1.4040481E0,3.9895902E0],"tree_param":{"num_deleted":"0","num_feature":"75","num_nodes":"17","size_leaf_vector":"0"}},{"base_weights":[-5.6032404E-2,-1.0855436E-1,3.2191667E-1,-3.8933452E-2,-5.0372964E-1,-3.5818422E-1,9.505041E-2,-7.273927E-1,1.6937163E-1,1.733737E-1,-4.2936864E-1,-1.7440595E-1,4.3306893E-1,3.0286375E-1,-2.4438314E-1,-5.175787E-2,4.629515E-1,-4.7807714E-1,1.3922533E-1],"categories":[],"categories_nodes":[],"categories_segments":[],"categories_sizes":[],"default_left":[1,1,0,1,0,1,1,0,1,1,0,0,0,1,1,0,0,0,0],"id":16,"left_children":[1,3,-1,5,-1,7,9,-1,11,13,-1,-1,-1,15,17,-1,-1,-1,-1],"loss_changes":[4.7615665E-1,5.3785974E-1,0E0,8.1729704E-1,0E0,1.218401E0,6.3668084E-1,0E0,3.589217E-1,7.568065E-1,0E0,0E0,0E0,5.96319E-1,3.8391638E-1,0E0,0E0,0E0,0E0],"parents":[2147483647,0,0,1,1,3,3,5,5,6,6,8,8,9,9,13,13,14,14],"right_children":[2,4,-1,6,-1,8,10,-1,12,14,-1,-1,-1,16,18,-1,-1,-1,-1],"split_conditions":[1.6675773E-1,1.472129E-1,9.657501E-2,2.383306E-2,-1.511189E-1,1.3092723E-1,1.6149491E-1,-2.182178E-1,6.861613E-2,1.4407347E-1,-1.288106E-1,-5.2321788E-2,1.2992069E-1,1.1569673E-1,2.805651E-1,-1.5527361E-2,1.3888545E-1,-1.4342315E-1,4.17676E-2],"split_indices":[29,59,0,13,0,5,7,0,57,43,0,0,0,30,45,0,0,0,0],"split_type":[0,0,0,0,0,0,0,0,0,0,0,0,0,0,0,0,0,0,0],"sum_hessian":[2.1226564E1,1.9262516E1,1.9640486E0,1.7311197E1,1.951318E0,4.6228166E0,1.268838E1,2.4967065E0,2.12611E0,1.1622004E1,1.0663767E0,1.0699058E0,1.0562044E0,9.081943E0,2.5400615E0,3.035184E0,6.0467587E0,1.4254284E0,1.1146332E0],"tree_param":{"num_deleted":"0","num_feature":"75","num_nodes":"19","size_leaf_vector":"0"}},{"base_weights":[-5.816533E-2,-1.0426189E-1,2.8488135E-1,-1.630322E-1,2.0108294E-1,-7.686874E-2,-5.144117E-1,4.0855584E-1,-1.6235779E-1,-5.4939985E-1,9.892142E-3,-1.9941092E-1,2.900419E-1,-3.4040222E-1,2.570529E-1,6.8100756E-1,-2.6381472E-2],"categories":[],"categories_nodes":[],"categories_segments":[],"categories_sizes":[],"default_left":[1,1,0,1,1,1,0,0,0,0,1,1,1,0,0,0,0],"id":17,"left_children":[1,3,-1,5,7,9,-1,-1,-1,-1,11,13,15,-1,-1,-1,-1],"loss_changes":[3.660227E-1,3.8237286E-1,0E0,4.7178623E-1,3.371905E-1,6.0968024E-1,0E0,0E0,0E0,0E0,8.455943E-1,6.205237E-1,7.790872E-1,0E0,0E0,0E0,0E0],"parents":[2147483647,0,0,1,1,3,3,4,4,5,5,10,10,11,11,12,12],"right_children":[2,4,-1,6,8,10,-1,-1,-1,-1,12,14,16,-1,-1,-1,-1],"split_conditions":[1.1708411E-2,1.6208607E-1,8.546441E-2,3.0370986E-3,7.917498E-2,1.0364519E-1,-1.5432352E-1,1.2256675E-1,-4.870734E-2,-1.6481996E-1,1.2625097E-1,7.157163E-2,1.2074371E-1,-1.0212067E-1,7.711587E-2,2.0430228E-1,-7.914442E-3],"split_indices":[31,4,0,1,47,30,0,0,0,0,27,74,60,0,0,0,0],"split_type":[0,0,0,0,0,0,0,0,0,0,0,0,0,0,0,0,0],"sum_hessian":[2.026824E1,1.8480953E1,1.7872885E0,1.5888864E1,2.592089E0,1.3738694E1,2.150169E0,1.5710881E0,1.0210009E0,1.3040457E0,1.24346485E1,7.282219E0,5.15243E0,5.757974E0,1.524245E0,1.7893475E0,3.3630822E0],"tree_param":{"num_deleted":"0","num_feature":"75","num_nodes":"17","size_leaf_vector":"0"}},{"base_weights":[-4.29091E-2,-9.633616E-2,2.58884E-1,-1.6061436E-1,2.627269E-1,4.419289E-1,-4.2552423E-2,-2.668164E-1,2.1296856E-1,5.5013096E-1,-1.6911432E-1,4.4096455E-2,-4.5136815E-1,-1.4146385E-1,4.3472335E-1,4.140883E-1,-2.9909524E-1,2.4522515E-1,-6.284781E-1,3.127721E-2,6.051119E-1,5.1793147E-2,-5.2996254E-1,-7.732179E-1,-2.4648206E-2],"categories":[],"categories_nodes":[],"categories_segments":[],"categories_sizes":[],"default_left":[1,1,1,1,1,0,0,1,1,0,0,1,1,0,0,1,1,0,1,0,0,0,0,0,0],"id":18,"left_children":[1,3,5,7,9,-1,-1,11,13,-1,-1,15,17,-1,-1,19,21,-1,23,-1,-1,-1,-1,-1,-1],"loss_changes":[3.5254124E-1,4.5741996E-1,2.023824E-1,6.868514E-1,4.7915167E-1,0E0,0E0,7.5484866E-1,3.8147604E-1,0E0,0E0,8.4533334E-1,1.1567211E0,0E0,0E0,2.1168292E-1,3.1327498E-1,0E0,5.7174325E-1,0E0,0E0,0E0,0E0,0E0,0E0],"parents":[2147483647,0,0,1,1,2,2,3,3,4,4,7,7,8,8,11,11,12,12,15,15,16,16,18,18],"right_children":[2,4,6,8,10,-1,-1,12,14,-1,-1,16,18,-1,-1,20,22,-1,24,-1,-1,-1,-1,-1,-1],"split_conditions":[1.1665314E-2,1.5875018E-1,1.3149616E-1,5.677483E-3,1.007303E-1,1.3257867E-1,-1.2765727E-2,1.2018016E-1,1.285798E-1,1.650393E-1,-5.07343E-2,2.7164178E-2,1.5816039E-3,-4.2439155E-2,1.30417E-1,1.2811595E-1,3.4867153E-2,7.356755E-2,1.5263936E-1,9.383163E-3,1.8153358E-1,1.5537945E-2,-1.5898877E-1,-2.3196538E-1,-7.3944624E-3],"split_indices":[46,74,0,61,2,0,0,60,15,0,0,73,72,0,0,12,17,0,72,0,0,0,0,0,0],"split_type":[0,0,0,0,0,0,0,0,0,0,0,0,0,0,0,0,0,0,0,0,0,0,0,0,0],"sum_hessian":[1.9317722E1,1.6990623E1,2.327098E0,1.4879613E1,2.111011E0,1.1578975E0,1.1692005E0,1.180849E1,3.0711231E0,1.1030059E0,1.008005E0,4.6819344E0,7.1265554E0,1.3213192E0,1.749804E0,2.1535892E0,2.528345E0,1.3666754E0,5.75988E0,1.1043025E0,1.0492867E0,1.3111799E0,1.2171654E0,4.419895E0,1.339985E0],"tree_param":{"num_deleted":"0","num_feature":"75","num_nodes":"25","size_leaf_vector":"0"}},{"base_weights":[-2.4928281E-2,-9.91531E-2,1.9753726E-1,1.3320278E-1,-3.142366E-1,6.249103E-1,-1.0556192E-1,-2.846375E-1,2.3999278E-1,-4.150595E-1,1.0833198E-1,-3.6624733E-1,1.153194E-1,4.7907943E-1,-2.398826E-2,-5.994563E-1,6.042746E-2,3.0796083E-3,6.607376E-1,-3.442956E-1,2.637801E-1,-6.7723954E-1,-1.611364E-1],"categories":[],"categories_nodes":[],"categories_segments":[],"categories_sizes":[],"default_left":[1,1,1,1,1,0,1,0,1,1,0,0,0,1,1,1,0,0,0,0,0,0,0],"id":19,"left_children":[1,3,5,7,9,-1,11,-1,13,15,-1,-1,-1,17,19,21,-1,-1,-1,-1,-1,-1,-1],"loss_changes":[3.3510336E-1,7.9116064E-1,7.284823E-1,4.212445E-1,3.893686E-1,0E0,2.6379412E-1,0E0,4.4332632E-1,6.266067E-1,0E0,0E0,0E0,3.1254208E-1,4.783256E-1,5.941522E-2,0E0,0E0,0E0,0E0,0E0,0E0,0E0],"parents":[2147483647,0,0,1,1,2,2,3,3,4,4,6,6,8,8,9,9,13,13,14,14,15,15],"right_children":[2,4,6,8,10,-1,12,-1,14,16,-1,-1,-1,18,20,22,-1,-1,-1,-1,-1,-1,-1],"split_conditions":[1.2800834E-1,8.631134E-2,1.4387599E-1,9.977388E-2,1.4243807E-1,1.8747309E-1,1.8406847E-1,-8.539125E-2,1.1680939E-1,1.6535716E-1,3.2499596E-2,-1.09874204E-1,3.459582E-2,8.965902E-2,1.2888221E-1,3.433215E-3,1.8128239E-2,9.2388253E-4,1.9822128E-1,-1.0328868E-1,7.913403E-2,-2.0317186E-1,-4.8340924E-2],"split_indices":[43,47,43,0,14,0,73,0,15,9,0,0,0,12,60,46,0,0,0,0,0,0,0],"split_type":[0,0,0,0,0,0,0,0,0,0,0,0,0,0,0,0,0,0,0,0,0,0,0],"sum_hessian":[1.8107803E1,1.3993292E1,4.1145124E0,6.9095545E0,7.083737E0,1.2667068E0,2.8478055E0,1.0674636E0,5.8420906E0,5.7335167E0,1.3502204E0,1.0043489E0,1.8434566E0,2.6380205E0,3.2040703E0,3.9434872E0,1.7900295E0,1.0095761E0,1.6284444E0,1.423347E0,1.7807233E0,2.886224E0,1.057263E0],"tree_param":{"num_deleted":"0","num_feature":"75","num_nodes":"23","size_leaf_vector":"0"}},{"base_weights":[-1.9233381E-2,-7.176689E-2,3.2207605E-1,-2.4755802E-3,-5.716476E-1,-7.222945E-2,4.1011852E-1,-2.6638302E-1,1.174937E-1,1.6820839E-1,-5.23596E-1,2.697777E-1,-2.283781E-1,-1.6554564E-1,4.0816584E-1,-6.5895456E-1,-3.2494385E-2,-1.0611338E-1,3.7087545E-1],"categories":[],"categories_nodes":[],"categories_segments":[],"categories_sizes":[],"default_left":[1,1,0,1,0,1,0,1,1,1,1,1,0,0,0,0,0,0,0],"id":20,"left_children":[1,3,-1,5,-1,7,-1,9,11,13,15,17,-1,-1,-1,-1,-1,-1,-1],"loss_changes":[3.5100156E-1,5.758318E-1,0E0,4.79769E-1,0E0,5.554404E-1,0E0,9.084013E-1,4.772196E-1,3.467005E-1,3.0120683E-1,2.6497072E-1,0E0,0E0,0E0,0E0,0E0,0E0,0E0],"parents":[2147483647,0,0,1,1,3,3,5,5,7,7,8,8,9,9,10,10,11,11],"right_children":[2,4,-1,6,-1,8,-1,10,12,14,16,18,-1,-1,-1,-1,-1,-1,-1],"split_conditions":[2.8500104E-1,2.5152344E-1,9.662282E-2,2.3122509E-1,-1.7149428E-1,1.5454793E-1,1.2303556E-1,2.825391E-2,1.5694918E-1,1.8258868E-2,1.6082615E-1,2.5623944E-2,-6.851343E-2,-4.9663696E-2,1.22449756E-1,-1.9768637E-1,-9.748315E-3,-3.1834017E-2,1.1126264E-1],"split_indices":[45,15,0,60,0,67,0,73,8,43,9,73,0,0,0,0,0,0,0],"split_type":[0,0,0,0,0,0,0,0,0,0,0,0,0,0,0,0,0,0,0],"sum_hessian":[1.7286886E1,1.5665432E1,1.6214539E0,1.4640923E1,1.0245094E0,1.3229293E1,1.411629E0,6.3386064E0,6.890687E0,2.4853501E0,3.853256E0,4.9369864E0,1.9537005E0,1.1692115E0,1.3161387E0,2.7527483E0,1.1005076E0,1.0358789E0,3.9011078E0],"tree_param":{"num_deleted":"0","num_feature":"75","num_nodes":"19","size_leaf_vector":"0"}},{"base_weights":[-2.0630462E-2,-6.546001E-2,2.8704777E-1,1.4077184E-1,-1.5737318E-1,-1.0423619E-1,4.639247E-1,-2.5168416E-1,2.6069954E-1,1.5208887E-1,-3.5759175E-1,-5.3764933E-1,3.000231E-2,-1.02239594E-1,-6.475577E-1,-2.282813E-1,3.3034122E-1,-4.0706256E-1,8.274673E-2,4.4978544E-1,4.8994735E-2],"categories":[],"categories_nodes":[],"categories_segments":[],"categories_sizes":[],"default_left":[1,1,0,1,1,1,0,1,0,0,0,1,1,0,0,1,1,0,0,0,0],"id":21,"left_children":[1,3,-1,5,7,9,-1,11,-1,-1,-1,13,15,-1,-1,17,19,-1,-1,-1,-1],"loss_changes":[2.612389E-1,3.2840648E-1,0E0,4.8450252E-1,5.2487564E-1,3.108829E-1,0E0,8.226801E-1,0E0,0E0,0E0,1.7409754E-1,5.4016685E-1,0E0,0E0,2.4568044E-1,8.478543E-2,0E0,0E0,0E0,0E0],"parents":[2147483647,0,0,1,1,3,3,4,4,5,5,7,7,11,11,12,12,15,15,16,16],"right_children":[2,4,-1,6,8,10,-1,12,-1,-1,-1,14,16,-1,-1,18,20,-1,-1,-1,-1],"split_conditions":[1.6956644E-1,1.1550248E-1,8.611433E-2,1.1556457E-1,2.8500104E-1,1.4723243E-1,1.3917741E-1,1.5769346E-2,7.820986E-2,4.5626663E-2,-1.0727753E-1,8.771044E-2,1.3428462E-1,-3.067188E-2,-1.9426732E-1,8.5055634E-2,9.603477E-2,-1.2211877E-1,2.482402E-2,1.3493563E-1,1.4698421E-2],"split_indices":[29,0,0,30,45,5,0,63,0,0,0,47,15,0,0,12,17,0,0,0,0],"split_type":[0,0,0,0,0,0,0,0,0,0,0,0,0,0,0,0,0,0,0,0,0],"sum_hessian":[1.6577568E1,1.5156475E1,1.4210941E0,4.508614E0,1.0647861E1,2.9496722E0,1.5589421E0,9.012715E0,1.6351448E0,1.6649299E0,1.2847422E0,4.0214753E0,4.99124E0,1.1995598E0,2.8219156E0,2.812492E0,2.1787484E0,1.5898621E0,1.2226297E0,1.1091682E0,1.0695802E0],"tree_param":{"num_deleted":"0","num_feature":"75","num_nodes":"21","size_leaf_vector":"0"}},{"base_weights":[-1.2969396E-2,-3.3505026E-1,2.982662E-2,3.2165405E-1,-4.524288E-2,-1.7385757E-1,6.2579757E-1,-3.6976248E-1,2.1615012E-2,4.9633685E-1,-7.421876E-2,2.9810958E-2,-4.6144113E-1,2.99056E-1,-9.163057E-2],"categories":[],"categories_nodes":[],"categories_segments":[],"categories_sizes":[],"default_left":[1,0,1,1,1,0,0,0,1,0,1,1,0,0,0],"id":22,"left_children":[1,-1,3,5,7,-1,-1,-1,9,-1,11,13,-1,-1,-1],"loss_changes":[2.4337602E-1,0E0,3.6209148E-1,6.165603E-1,3.0078596E-1,0E0,0E0,0E0,5.8888143E-1,0E0,4.554993E-1,3.407491E-1,0E0,0E0,0E0],"parents":[2147483647,0,0,2,2,3,3,4,4,8,8,10,10,11,11],"right_children":[2,-1,4,6,8,-1,-1,-1,10,-1,12,14,-1,-1,-1],"split_conditions":[2.3320226E-2,-1.0051508E-1,4.46692E-2,5.897224E-2,1.6038388E-3,-5.215727E-2,1.8773928E-1,-1.1092875E-1,8.982239E-3,1.4890106E-1,2.4417004E-1,1.1121563E-1,-1.3843234E-1,8.97168E-2,-2.7489172E-2],"split_indices":[32,0,32,28,57,0,0,0,57,0,2,4,0,0,0],"split_type":[0,0,0,0,0,0,0,0,0,0,0,0,0,0,0],"sum_hessian":[1.5931685E1,1.0676435E0,1.4864042E1,2.3691986E0,1.24948435E1,1.0640366E0,1.305162E0,1.3605133E0,1.1134331E1,1.1682328E0,9.966098E0,8.583184E0,1.3829129E0,2.213387E0,6.3697977E0],"tree_param":{"num_deleted":"0","num_feature":"75","num_nodes":"15","size_leaf_vector":"0"}},{"base_weights":[-9.4759725E-3,-4.9843427E-2,3.0534023E-1,2.0996371E-2,-4.7417313E-1,-6.0061067E-2,4.6454024E-1,2.1647163E-2,-4.6506462E-1,-3.531913E-1,9.474079E-2,-1.7682858E-1,2.1938448E-1],"categories":[],"categories_nodes":[],"categories_segments":[],"categories_sizes":[],"default_left":[1,1,0,1,0,1,0,1,0,0,1,0,0],"id":23,"left_children":[1,3,-1,5,-1,7,-1,9,-1,-1,11,-1,-1],"loss_changes":[2.2345912E-1,4.723736E-1,0E0,5.3627896E-1,0E0,4.3500084E-1,0E0,3.5239816E-1,0E0,0E0,3.9521745E-1,0E0,0E0],"parents":[2147483647,0,0,1,1,3,3,5,5,7,7,10,10],"right_children":[2,4,-1,6,-1,8,-1,10,-1,-1,12,-1,-1],"split_conditions":[2.9458714E-1,2.5215864E-1,9.160207E-2,2.3122509E-1,-1.4225194E-1,1.442779E-1,1.3936208E-1,9.977388E-2,-1.395194E-1,-1.0595739E-1,2.7291141E-2,-5.3048577E-2,6.5815344E-2],"split_indices":[60,62,0,60,0,60,0,0,0,0,57,0,0],"split_type":[0,0,0,0,0,0,0,0,0,0,0,0,0],"sum_hessian":[1.5386096E1,1.4383447E1,1.0026497E0,1.3140262E1,1.2431846E0,1.1840926E1,1.2993356E0,1.064074E1,1.2001863E0,1.1110449E0,9.5296955E0,2.866214E0,6.663481E0],"tree_param":{"num_deleted":"0","num_feature":"75","num_nodes":"13","size_leaf_vector":"0"}},{"base_weights":[-1.6729461E-2,2.5616705E-1,-6.2297355E-2,-2.1040462E-1,1.152845E-1,-5.3400445E-1,-2.4987755E-2,3.191948E-1,-1.19484276E-1,1.07375495E-1,-3.61701E-1,5.209537E-1,2.6893668E-2,-3.3312514E-1,2.0562053E-1,-1.6651192E-1,2.1780755E-1,-1.24702305E-1,3.786471E-1],"categories":[],"categories_nodes":[],"categories_segments":[],"categories_sizes":[],"default_left":[1,0,1,1,1,0,1,1,1,1,0,0,0,0,0,0,1,0,0],"id":24,"left_children":[1,-1,3,5,7,-1,9,11,13,15,-1,-1,-1,-1,-1,-1,17,-1,-1],"loss_changes":[2.1500355E-1,0E0,4.0616262E-1,4.829399E-1,3.8517255E-1,0E0,3.1995025E-1,2.3084888E-1,3.5307634E-1,1.9653179E-1,0E0,0E0,0E0,0E0,0E0,0E0,2.791111E-1,0E0,0E0],"parents":[2147483647,0,0,2,2,3,3,4,4,6,6,7,7,8,8,9,9,16,16],"right_children":[2,-1,4,6,8,-1,10,12,14,16,-1,-1,-1,-1,-1,-1,18,-1,-1],"split_conditions":[2.2519096E-3,7.6850116E-2,1.580584E-1,5.5774204E-2,1.2922502E-1,-1.6020134E-1,1.4697829E-1,1.2575749E-1,3.551942E-3,2.4839599E-2,-1.0851031E-1,1.5628612E-1,8.068101E-3,-9.993755E-2,6.1686162E-2,-4.995358E-2,1.1902879E-1,-3.741069E-2,1.1359413E-1],"split_indices":[27,0,9,57,5,0,74,0,61,28,0,0,0,0,0,0,30,0,0],"split_type":[0,0,0,0,0,0,0,0,0,0,0,0,0,0,0,0,0,0,0],"sum_hessian":[1.5006426E1,1.4859183E0,1.3520508E1,7.2712717E0,6.249236E0,1.9638427E0,5.307429E0,3.151961E0,3.0972748E0,4.298701E0,1.0087283E0,1.4019941E0,1.7499671E0,1.854156E0,1.2431188E0,1.0892878E0,3.209413E0,1.0973247E0,2.1120882E0],"tree_param":{"num_deleted":"0","num_feature":"75","num_nodes":"19","size_leaf_vector":"0"}},{"base_weights":[-1.5443311E-2,-5.84387E-2,2.3550373E-1,1.1277589E-2,-3.7537533E-1,1.3878228E-1,-1.1752168E-1,2.4580207E-1,-2.1454932E-1,-3.353958E-1,1.8230335E-1,6.523008E-3,5.5368847E-1,-2.0574536E-2,-4.7741735E-1,-1.20874286E-1,4.284671E-1,-2.2754791E-1,3.0778635E-1],"categories":[],"categories_nodes":[],"categories_segments":[],"categories_sizes":[],"default_left":[1,1,0,1,0,1,1,1,0,1,1,1,0,0,0,0,0,0,0],"id":25,"left_children":[1,3,-1,5,-1,7,9,11,-1,13,15,17,-1,-1,-1,-1,-1,-1,-1],"loss_changes":[1.802421E-1,3.129968E-1,0E0,2.203626E-1,0E0,3.0618125E-1,5.002973E-1,4.0971023E-1,0E0,1.800032E-1,3.1129175E-1,3.6401105E-1,0E0,0E0,0E0,0E0,0E0,0E0,0E0],"parents":[2147483647,0,0,1,1,3,3,5,5,6,6,7,7,9,9,10,10,11,11],"right_children":[2,4,-1,6,-1,8,10,12,-1,14,16,18,-1,-1,-1,-1,-1,-1,-1],"split_conditions":[2.8500104E-1,1.4966398E-1,7.065112E-2,8.631134E-2,-1.12612605E-1,8.184351E-2,1.3547622E-1,5.8746975E-2,-6.43648E-2,1.2017302E-1,1.599947E-2,6.3145794E-2,1.6610655E-1,-6.1723613E-3,-1.4322521E-1,-3.626229E-2,1.2854013E-1,-6.826438E-2,9.233591E-2],"split_indices":[45,73,0,47,0,28,15,43,0,5,3,32,0,0,0,0,0,0,0],"split_type":[0,0,0,0,0,0,0,0,0,0,0,0,0,0,0,0,0,0,0],"sum_hessian":[1.4429684E1,1.2973951E1,1.4557322E0,1.142518E1,1.5487705E0,5.7024946E0,5.7226863E0,4.6103935E0,1.0921012E0,3.2455797E0,2.4771068E0,3.1688528E0,1.4415406E0,1.3648858E0,1.8806938E0,1.3380811E0,1.1390256E0,1.9209952E0,1.2478576E0],"tree_param":{"num_deleted":"0","num_feature":"75","num_nodes":"19","size_leaf_vector":"0"}},{"base_weights":[-9.699944E-3,-7.951952E-2,1.8835565E-1,4.7717407E-2,-3.548008E-1,3.806594E-1,-2.0970215E-1,3.757752E-1,-7.012032E-2,-4.6776092E-1,-5.7753887E-2,4.892202E-1,9.5638245E-2,1.4418772E-1,-2.7093187E-1,3.334249E-1,-4.563578E-2,-5.073682E-1,8.207925E-2],"categories":[],"categories_nodes":[],"categories_segments":[],"categories_sizes":[],"default_left":[1,1,1,1,1,1,0,0,1,0,0,0,0,1,1,0,0,0,0],"id":26,"left_children":[1,3,5,7,9,11,-1,-1,13,-1,-1,-1,-1,15,17,-1,-1,-1,-1],"loss_changes":[2.21209E-1,4.2777807E-1,4.0010437E-1,3.705353E-1,1.013768E-1,5.149454E-2,0E0,0E0,3.5723782E-1,0E0,0E0,0E0,0E0,1.6713253E-1,3.892042E-1,0E0,0E0,0E0,0E0],"parents":[2147483647,0,0,1,1,2,2,3,3,4,4,5,5,8,8,13,13,14,14],"right_children":[2,4,6,8,10,12,-1,-1,14,-1,-1,-1,-1,16,18,-1,-1,-1,-1],"split_conditions":[1.2800834E-1,1.3593024E-1,1.7829016E-1,2.7665935E-2,2.3122509E-1,1.4387599E-1,-6.2910646E-2,1.1273256E-1,1.2132296E-1,-1.4032829E-1,-1.7326167E-2,1.4676607E-1,2.8691474E-2,1.4111361E-1,1.3092723E-1,1.0002747E-1,-1.3690734E-2,-1.5221047E-1,2.4623776E-2],"split_indices":[43,30,28,6,60,43,0,0,60,0,0,0,0,9,5,0,0,0,0],"split_type":[0,0,0,0,0,0,0,0,0,0,0,0,0,0,0,0,0,0,0],"sum_hessian":[1.391385E1,1.0729818E1,3.1840315E0,7.9034486E0,2.8263698E0,2.1763391E0,1.0076923E0,1.5101901E0,6.3932586E0,1.6313144E0,1.1950554E0,1.0572225E0,1.1191168E0,3.229103E0,3.1641552E0,1.2382139E0,1.9908892E0,1.6330969E0,1.5310583E0],"tree_param":{"num_deleted":"0","num_feature":"75","num_nodes":"19","size_leaf_vector":"0"}},{"base_weights":[-5.9793117E-3,-4.718675E-2,2.4992731E-1,-1.0981505E-1,1.484389E-1,8.133109E-2,-3.1820583E-1,4.2335588E-1,-1.6090146E-1,-8.169918E-2,3.610365E-1,8.18307E-2,-4.9429548E-1,1.8274847E-1,-2.6417232E-1,-5.9641266E-1,-1.0856962E-1,1.6548665E-2,-4.0247157E-1],"categories":[],"categories_nodes":[],"categories_segments":[],"categories_sizes":[],"default_left":[1,1,0,1,1,1,1,0,0,1,0,0,1,0,1,0,0,0,0],"id":27,"left_children":[1,3,-1,5,7,9,11,-1,-1,13,-1,-1,15,-1,17,-1,-1,-1,-1],"loss_changes":[1.6367349E-1,1.7859107E-1,0E0,4.4846117E-1,3.774662E-1,3.1813726E-1,4.1231453E-1,0E0,0E0,2.8059438E-1,0E0,0E0,8.522421E-2,0E0,1.3313338E-1,0E0,0E0,0E0,0E0],"parents":[2147483647,0,0,1,1,3,3,4,4,5,5,6,6,9,9,12,12,14,14],"right_children":[2,4,-1,6,8,10,12,-1,-1,14,-1,-1,16,-1,18,-1,-1,-1,-1],"split_conditions":[1.6956644E-1,1.2800834E-1,7.4978195E-2,9.134053E-2,1.5823227E-1,8.780983E-2,1.2816803E-1,1.2700677E-1,-4.8270438E-2,2.5327828E-2,1.0831096E-1,2.4549212E-2,3.7789834E-3,5.4824542E-2,1.0736409E-1,-1.789238E-1,-3.2570887E-2,4.9646E-3,-1.2074148E-1],"split_indices":[29,43,0,47,73,62,45,0,0,73,0,0,31,0,15,0,0,0,0],"split_type":[0,0,0,0,0,0,0,0,0,0,0,0,0,0,0,0,0,0,0],"sum_hessian":[1.3402705E1,1.2246344E1,1.1563615E0,9.608796E0,2.6375475E0,5.3297806E0,4.279015E0,1.2013276E0,1.43622E0,3.8144085E0,1.5153722E0,1.4714645E0,2.8075507E0,1.5567675E0,2.257641E0,1.787989E0,1.0195618E0,1.0357033E0,1.2219377E0],"tree_param":{"num_deleted":"0","num_feature":"75","num_nodes":"19","size_leaf_vector":"0"}},{"base_weights":[-4.738417E-3,2.4502726E-1,-5.0614744E-2,-1.8630847E-1,1.0745702E-1,-4.5878288E-1,-2.9004028E-2,-5.5992845E-2,3.1736842E-1,1.6621788E-1,-2.0865609E-1,-2.323017E-1,2.1133257E-1,-5.498921E-2,3.0021316E-1,-3.595396E-1,7.146007E-2,7.6559044E-2,-4.4277605E-1],"categories":[],"categories_nodes":[],"categories_segments":[],"categories_sizes":[],"default_left":[1,0,1,1,1,0,1,1,0,1,1,1,0,0,0,0,0,0,0],"id":28,"left_children":[1,-1,3,5,7,-1,9,11,-1,13,15,17,-1,-1,-1,-1,-1,-1,-1],"loss_changes":[1.7211375E-1,0E0,2.9037568E-1,2.930694E-1,2.3928648E-1,0E0,2.3105985E-1,2.6023903E-1,0E0,1.12543084E-1,1.6767353E-1,2.4035315E-1,0E0,0E0,0E0,0E0,0E0,0E0,0E0],"parents":[2147483647,0,0,2,2,3,3,4,4,6,6,7,7,9,9,10,10,11,11],"right_children":[2,-1,4,6,8,-1,10,12,-1,14,16,18,-1,-1,-1,-1,-1,-1,-1],"split_conditions":[2.2519096E-3,7.350818E-2,1.5885524E-1,5.5774204E-2,9.27086E-4,-1.3763487E-1,1.2747714E-1,1.3428462E-1,9.521053E-2,2.4839599E-2,2.1689855E-1,1.2413186E-1,6.339978E-2,-1.6496764E-2,9.006395E-2,-1.07861884E-1,2.1438021E-2,2.2967715E-2,-1.3283283E-1],"split_indices":[27,0,10,57,61,0,72,15,0,28,12,15,0,0,0,0,0,0,0],"split_type":[0,0,0,0,0,0,0,0,0,0,0,0,0,0,0,0,0,0,0],"sum_hessian":[1.2938482E1,1.3341106E0,1.1604371E1,6.148056E0,5.456315E0,1.5487921E0,4.599264E0,3.479904E0,1.9764112E0,2.2399566E0,2.3593073E0,2.1758702E0,1.3040339E0,1.0674187E0,1.1725378E0,1.3490884E0,1.010219E0,1.1396885E0,1.0361817E0],"tree_param":{"num_deleted":"0","num_feature":"75","num_nodes":"19","size_leaf_vector":"0"}},{"base_weights":[-6.739912E-3,-1.7071778E-1,6.30894E-2,-3.8675237E-1,1.348726E-1,1.3361374E-1,-2.7624917E-1,-1.2720077E-1,2.7890822E-1,-4.6715474E-1,1.9643731E-1,4.2974105E-1,6.814066E-2,-2.7618432E-1,3.3073077E-1],"categories":[],"categories_nodes":[],"categories_segments":[],"categories_sizes":[],"default_left":[1,1,1,0,0,1,0,1,1,0,0,0,1,0,0],"id":29,"left_children":[1,3,5,-1,-1,7,-1,9,11,-1,-1,-1,13,-1,-1],"loss_changes":[1.658377E-1,3.3699393E-1,2.8168327E-1,0E0,0E0,3.8191596E-1,0E0,5.2718616E-1,1.673272E-1,0E0,0E0,0E0,4.3204626E-1,0E0,0E0],"parents":[2147483647,0,0,1,1,2,2,5,5,7,7,8,8,12,12],"right_children":[2,4,6,-1,-1,8,-1,10,12,-1,-1,-1,14,-1,-1],"split_conditions":[2.173998E-2,1.3092723E-1,7.0074044E-2,-1.16025716E-1,4.0461782E-2,8.88398E-2,-8.287475E-2,5.6774966E-2,1.2077461E-1,-1.4014643E-1,5.8931198E-2,1.2892233E-1,2.5814795E-1,-8.28553E-2,9.921923E-2],"split_indices":[13,5,59,0,0,62,0,6,32,0,0,0,32,0,0],"split_type":[0,0,0,0,0,0,0,0,0,0,0,0,0,0,0],"sum_hessian":[1.2542443E1,3.3144479E0,9.227996E0,1.7861518E0,1.528296E0,8.142088E0,1.0859079E0,2.9575665E0,5.184521E0,1.2261517E0,1.7314148E0,2.4163568E0,2.7681646E0,1.1752853E0,1.5928793E0],"tree_param":{"num_deleted":"0","num_feature":"75","num_nodes":"15","size_leaf_vector":"0"}},{"base_weights":[-1.2785819E-2,-5.79042E-2,2.3230143E-1,-1.1152621E-1,2.1282801E-1,-2.9471758E-1,3.8423892E-2,-6.061343E-1,-4.198784E-3,2.7028102E-1,-1.5144126E-1,1.9536673E-1,-1.9629194E-1,4.3080935E-1,-3.096919E-2,-3.963071E-1,1.9972259E-1],"categories":[],"categories_nodes":[],"categories_segments":[],"categories_sizes":[],"default_left":[1,1,0,1,0,1,1,0,1,1,1,0,0,0,0,0,0],"id":30,"left_children":[1,3,-1,5,-1,7,9,-1,11,13,15,-1,-1,-1,-1,-1,-1],"loss_changes":[1.5863827E-1,1.9632897E-1,0E0,3.0194026E-1,0E0,4.387159E-1,3.35976E-1,0E0,1.7368315E-1,1.7662922E-1,4.511109E-1,0E0,0E0,0E0,0E0,0E0,0E0],"parents":[2147483647,0,0,1,1,3,3,5,5,6,6,8,8,9,9,10,10],"right_children":[2,4,-1,6,-1,8,10,-1,12,14,16,-1,-1,-1,-1,-1,-1],"split_conditions":[1.6675773E-1,2.8500104E-1,6.969043E-2,7.950093E-2,6.3848406E-2,1.5472643E-1,1.2132296E-1,-1.818403E-1,1.552988E-1,4.361105E-2,9.27086E-4,5.861002E-2,-5.8887582E-2,1.2924281E-1,-9.290758E-3,-1.1889214E-1,5.991678E-2],"split_indices":[29,45,0,12,0,67,60,0,8,13,61,0,0,0,0,0,0],"split_type":[0,0,0,0,0,0,0,0,0,0,0,0,0,0,0,0,0],"sum_hessian":[1.2129665E1,1.0888863E1,1.2408023E0,9.579564E0,1.3092993E0,3.877299E0,5.702265E0,1.3470094E0,2.5302896E0,2.3765533E0,3.3257115E0,1.2326493E0,1.2976403E0,1.2698251E0,1.1067281E0,1.8836752E0,1.4420363E0],"tree_param":{"num_deleted":"0","num_feature":"75","num_nodes":"17","size_leaf_vector":"0"}},{"base_weights":[-9.8453965E-3,-1.1938464E-1,8.3441414E-2,-2.667999E-1,1.5284257E-1,-1.7444111E-1,2.3784342E-1,-1.1294889E-2,-4.276564E-1,1.618199E-1,-4.486878E-1,3.8643643E-1,4.4222612E-2,-2.026843E-1,2.5535405E-1],"categories":[],"categories_nodes":[],"categories_segments":[],"categories_sizes":[],"default_left":[1,1,1,1,0,1,1,0,0,0,0,0,1,0,0],"id":31,"left_children":[1,3,5,7,-1,9,11,-1,-1,-1,-1,-1,13,-1,-1],"loss_changes":[1.3935395E-1,2.910041E-1,3.3722132E-1,1.7638382E-1,0E0,3.8231224E-1,1.287429E-1,0E0,0E0,0E0,0E0,0E0,2.2535594E-1,0E0,0E0],"parents":[2147483647,0,0,1,1,2,2,3,3,5,5,6,6,12,12],"right_children":[2,4,6,8,-1,10,12,-1,-1,-1,-1,-1,14,-1,-1],"split_conditions":[5.572532E-2,1.5713401E-1,8.88398E-2,1.2116102E-1,4.5852773E-2,4.7365256E-2,1.2680808E-1,-3.388467E-3,-1.2829693E-1,4.8545975E-2,-1.3460635E-1,1.1593094E-1,2.6868117E-1,-6.080529E-2,7.6606214E-2],"split_indices":[28,4,62,60,0,32,32,0,0,0,0,0,17,0,0],"split_type":[0,0,0,0,0,0,0,0,0,0,0,0,0,0,0],"sum_hessian":[1.1662471E1,5.2353086E0,6.4271626E0,3.4091418E0,1.8261666E0,2.35839E0,4.068773E0,1.730549E0,1.6785928E0,1.2435673E0,1.1148227E0,1.7386308E0,2.330142E0,1.0925143E0,1.2376279E0],"tree_param":{"num_deleted":"0","num_feature":"75","num_nodes":"15","size_leaf_vector":"0"}},{"base_weights":[-1.1235904E-2,-5.786593E-2,2.0725662E-1,-1.219721E-1,2.4498978E-1,-2.0888071E-1,1.5734155E-1,4.480991E-2,-3.4947273E-1,2.7663493E-1,-1.9989093E-1,1.1894962E-1,-5.215583E-1,-6.50337E-1,-7.104622E-2],"categories":[],"categories_nodes":[],"categories_segments":[],"categories_sizes":[],"default_left":[1,1,0,1,0,1,0,1,1,0,0,0,1,0,0],"id":32,"left_children":[1,3,-1,5,-1,7,-1,9,11,-1,-1,-1,13,-1,-1],"loss_changes":[1.3758095E-1,2.4228841E-1,0E0,2.6825237E-1,0E0,2.947622E-1,0E0,2.6386523E-1,4.7706097E-1,0E0,0E0,0E0,1.8302059E-1,0E0,0E0],"parents":[2147483647,0,0,1,1,3,3,5,5,7,7,8,8,12,12],"right_children":[2,4,-1,6,-1,8,-1,10,12,-1,-1,-1,14,-1,-1],"split_conditions":[1.1665314E-2,1.5875018E-1,6.2176988E-2,5.677483E-3,7.349694E-2,1.2018016E-1,4.7202468E-2,2.7164178E-2,5.4890187E-3,8.299048E-2,-5.996728E-2,3.5684887E-2,1.4417991E-1,-1.951011E-1,-2.1313867E-2],"split_indices":[46,74,0,61,0,60,0,73,57,0,0,0,72,0,0],"split_type":[0,0,0,0,0,0,0,0,0,0,0,0,0,0,0],"sum_hessian":[1.1326661E1,9.940374E0,1.3862869E0,8.696769E0,1.2436053E0,6.825252E0,1.871517E0,2.6766539E0,4.148598E0,1.3074744E0,1.3691795E0,1.1975648E0,2.9510336E0,1.9500593E0,1.0009742E0],"tree_param":{"num_deleted":"0","num_feature":"75","num_nodes":"15","size_leaf_vector":"0"}},{"base_weights":[-8.405826E-3,-5.2811436E-2,2.3065051E-1,-1.10278845E-1,1.9134475E-1,-2.5322044E-1,1.8953191E-2,-3.8370278E-1,-1.5760884E-2,-1.137794E-1,2.5020233E-1,-2.9274732E-1,1.8073338E-1],"categories":[],"categories_nodes":[],"categories_segments":[],"categories_sizes":[],"default_left":[1,1,0,1,0,1,1,0,0,1,0,0,0],"id":33,"left_children":[1,3,-1,5,-1,7,9,-1,-1,11,-1,-1,-1],"loss_changes":[1.3866746E-1,1.7351227E-1,0E0,1.7894503E-1,0E0,1.3480154E-1,2.0899348E-1,0E0,0E0,2.8609335E-1,0E0,0E0,0E0],"parents":[2147483647,0,0,1,1,3,3,5,5,6,6,9,9],"right_children":[2,4,-1,6,-1,8,10,-1,-1,12,-1,-1,-1],"split_conditions":[1.1708411E-2,1.6208607E-1,6.919516E-2,9.643228E-2,5.7403427E-2,1.3442141E-1,1.6119362E-1,-1.1511084E-1,-4.728265E-3,1.3440174E-1,7.50607E-2,-8.7824196E-2,5.4220017E-2],"split_indices":[31,4,0,62,0,5,9,0,0,13,0,0,0],"split_type":[0,0,0,0,0,0,0,0,0,0,0,0,0],"sum_hessian":[1.0915328E1,9.862429E0,1.0528994E0,8.427226E0,1.4352022E0,3.545822E0,4.8814044E0,1.8909128E0,1.6549091E0,3.4240465E0,1.4573581E0,2.133542E0,1.2905045E0],"tree_param":{"num_deleted":"0","num_feature":"75","num_nodes":"13","size_leaf_vector":"0"}},{"base_weights":[-2.485595E-3,-1.7380211E-1,7.157987E-2,-3.3902222E-1,8.258689E-2,1.8812023E-1,-7.0040815E-2,3.4235528E-1,-4.558629E-2,-2.801006E-1,1.3553895E-1,7.002389E-2,4.4953012E-1,2.6976207E-1,-6.6329084E-2],"categories":[],"categories_nodes":[],"categories_segments":[],"categories_sizes":[],"default_left":[1,1,1,0,0,1,1,1,0,0,1,0,0,0,0],"id":34,"left_children":[1,3,5,-1,-1,7,9,11,-1,-1,13,-1,-1,-1,-1],"loss_changes":[1.6077136E-1,1.898247E-1,1.5956856E-1,0E0,0E0,2.0077646E-1,2.4234428E-1,6.2277526E-2,0E0,0E0,1.0096172E-1,0E0,0E0,0E0,0E0],"parents":[2147483647,0,0,1,1,2,2,5,5,6,6,7,7,10,10],"right_children":[2,4,6,-1,-1,8,10,12,-1,-1,14,-1,-1,-1,-1],"split_conditions":[2.173998E-2,1.6188475E-1,7.648264E-2,-1.0170667E-1,2.477607E-2,9.177187E-2,1.2077269E-1,1.1479725E-1,-1.3675888E-2,-8.403019E-2,2.5215864E-1,2.1007167E-2,1.3485904E-1,8.092862E-2,-1.9898726E-2],"split_indices":[13,7,43,0,0,47,47,30,0,0,62,0,0,0,0],"split_type":[0,0,0,0,0,0,0,0,0,0,0,0,0,0,0],"sum_hessian":[1.0690036E1,2.820198E0,7.8698373E0,1.5190246E0,1.3011736E0,4.1370773E0,3.7327602E0,2.2122228E0,1.9248545E0,1.666971E0,2.0657892E0,1.0916641E0,1.1205587E0,1.038774E0,1.0270152E0],"tree_param":{"num_deleted":"0","num_feature":"75","num_nodes":"15","size_leaf_vector":"0"}},{"base_weights":[1.9813247E-3,-5.353432E-2,1.8562737E-1,-1.11944154E-1,2.2173889E-1,-1.8994014E-1,2.085218E-1,-4.422098E-1,5.4664806E-2,-1.1396002E-1,-5.699644E-1,-2.1788828E-1,2.2320163E-1,3.8232228E-1,-5.9493296E-2],"categories":[],"categories_nodes":[],"categories_segments":[],"categories_sizes":[],"default_left":[1,1,0,1,0,1,0,1,1,0,0,0,1,0,0],"id":35,"left_children":[1,3,-1,5,-1,7,-1,9,11,-1,-1,-1,13,-1,-1],"loss_changes":[1.2667964E-1,1.7867638E-1,0E0,2.5352353E-1,0E0,4.8119852E-1,0E0,9.2561185E-2,2.6224706E-1,0E0,0E0,0E0,1.742225E-1,0E0,0E0],"parents":[2147483647,0,0,1,1,3,3,5,5,7,7,8,8,12,12],"right_children":[2,4,-1,6,-1,8,-1,10,12,-1,-1,-1,14,-1,-1],"split_conditions":[1.5742262E-1,1.580839E-1,5.5688214E-2,2.8500104E-1,6.652167E-2,1.6762206E-2,6.255654E-2,3.6857687E-2,7.950093E-2,-3.4188006E-2,-1.7098933E-1,-6.5366484E-2,1.3381994E-1,1.1469669E-1,-1.7847989E-2],"split_indices":[72,74,0,45,0,63,0,72,12,0,0,0,12,0,0],"split_type":[0,0,0,0,0,0,0,0,0,0,0,0,0,0,0],"sum_hessian":[1.0450672E1,8.568831E0,1.8818401E0,7.558367E0,1.0104648E0,6.4064465E0,1.1519204E0,2.756115E0,3.6503315E0,1.3022264E0,1.4538885E0,1.2828765E0,2.367455E0,1.2893167E0,1.0781384E0],"tree_param":{"num_deleted":"0","num_feature":"75","num_nodes":"15","size_leaf_vector":"0"}},{"base_weights":[1.2685471E-3,-1.5284076E-1,6.879153E-2,-3.3393845E-1,8.528633E-2,-2.0205626E-2,2.5821626E-1,-1.0850292E-1,2.3614505E-1,1.3415112E-1,-2.0654425E-1,-3.472265E-1,1.3262722E-1,4.4104196E-2,-5.3244305E-1],"categories":[],"categories_nodes":[],"categories_segments":[],"categories_sizes":[],"default_left":[1,1,1,0,0,1,0,1,0,0,1,1,0,0,0],"id":36,"left_children":[1,3,5,-1,-1,7,-1,9,-1,-1,11,13,-1,-1,-1],"loss_changes":[1.261397E-1,1.8785238E-1,1.4709438E-1,0E0,0E0,1.7621759E-1,0E0,1.6173792E-1,0E0,0E0,2.5630277E-1,2.692588E-1,0E0,0E0,0E0],"parents":[2147483647,0,0,1,1,2,2,5,5,7,7,10,10,11,11],"right_children":[2,4,6,-1,-1,8,-1,10,-1,-1,12,14,-1,-1,-1],"split_conditions":[2.383306E-2,1.5818381E-1,3.8052804E-3,-1.0018154E-1,2.55859E-2,4.228548E-3,7.746488E-2,5.443298E-2,7.084352E-2,4.0245336E-2,2.6102704E-1,4.0353622E-2,3.9788168E-2,1.323126E-2,-1.5973292E-1],"split_indices":[13,4,46,0,0,31,0,13,0,0,0,17,0,0,0],"split_type":[0,0,0,0,0,0,0,0,0,0,0,0,0,0,0],"sum_hessian":[1.0111516E1,2.6956449E0,7.415871E0,1.3026297E0,1.393015E0,5.653178E0,1.7626929E0,4.6338406E0,1.0193374E0,1.2274841E0,3.4063566E0,2.3909037E0,1.015453E0,1.0128351E0,1.3780686E0],"tree_param":{"num_deleted":"0","num_feature":"75","num_nodes":"15","size_leaf_vector":"0"}},{"base_weights":[2.2122907E-4,5.2231703E-2,-1.7921178E-1,-2.5533698E-2,2.7918547E-1,1.2926203E-1,-1.5410767E-1,-1.6680792E-1,2.9549843E-1,-2.6125395E-1,7.7128515E-2,5.0929092E-2,-4.443841E-1],"categories":[],"categories_nodes":[],"categories_segments":[],"categories_sizes":[],"default_left":[1,1,0,1,0,1,1,0,0,1,0,0,0],"id":37,"left_children":[1,3,-1,5,-1,7,9,-1,-1,11,-1,-1,-1],"loss_changes":[1.1034855E-1,1.6886164E-1,0E0,1.7399426E-1,0E0,2.4893501E-1,1.3622653E-1,0E0,0E0,2.1869549E-1,0E0,0E0,0E0],"parents":[2147483647,0,0,1,1,3,3,5,5,6,6,9,9],"right_children":[2,4,-1,6,-1,8,10,-1,-1,12,-1,-1,-1],"split_conditions":[3.3599348E-3,4.228548E-3,-5.3763535E-2,7.092029E-2,8.375564E-2,1.0590192E-1,1.5541802E-1,-5.004238E-2,8.864953E-2,1.30337E-1,2.3138555E-2,1.5278728E-2,-1.3331524E-1],"split_indices":[16,31,0,17,0,0,73,0,0,60,0,0,0],"split_type":[0,0,0,0,0,0,0,0,0,0,0,0,0],"sum_hessian":[9.821232E0,8.163783E0,1.6574484E0,6.7413597E0,1.4224238E0,3.056344E0,3.6850157E0,1.0977659E0,1.9585782E0,2.4294734E0,1.2555422E0,1.1651434E0,1.26433E0],"tree_param":{"num_deleted":"0","num_feature":"75","num_nodes":"13","size_leaf_vector":"0"}},{"base_weights":[-2.8044188E-3,-1.03834905E-1,8.154068E-2,-2.1951328E-1,1.6692844E-1,2.6025644E-1,-5.5208243E-2,-1.7026834E-2,-3.857705E-1,-2.7499363E-1,1.036471E-1,2.0238268E-1,-4.9689565E-2],"categories":[],"categories_nodes":[],"categories_segments":[],"categories_sizes":[],"default_left":[1,1,1,1,0,0,1,0,0,0,1,0,0],"id":38,"left_children":[1,3,5,7,-1,-1,9,-1,-1,-1,11,-1,-1],"loss_changes":[9.8684534E-2,2.0129943E-1,1.6907285E-1,1.3197275E-1,0E0,0E0,1.8251333E-1,0E0,0E0,0E0,5.9817046E-2,0E0,0E0],"parents":[2147483647,0,0,1,1,2,2,3,3,6,6,10,10],"right_children":[2,4,6,8,-1,-1,10,-1,-1,-1,12,-1,-1],"split_conditions":[5.572532E-2,1.4291263E-1,7.648264E-2,1.3007061E-1,5.0078534E-2,7.807694E-2,1.2800834E-1,-5.1080505E-3,-1.1573116E-1,-8.249809E-2,1.4030413E-1,6.0714807E-2,-1.490687E-2],"split_indices":[28,44,43,45,0,0,43,0,0,0,13,0,0],"split_type":[0,0,0,0,0,0,0,0,0,0,0,0,0],"sum_hessian":[9.587168E0,4.2569838E0,5.3301845E0,3.1153085E0,1.1416751E0,1.9190403E0,3.4111443E0,1.9016641E0,1.2136445E0,1.124391E0,2.2867532E0,1.1964709E0,1.0902823E0],"tree_param":{"num_deleted":"0","num_feature":"75","num_nodes":"13","size_leaf_vector":"0"}},{"base_weights":[-5.271197E-3,8.496053E-2,-1.0752881E-1,1.7914557E-1,-1.7085148E-1,1.17749535E-1,-3.0709353E-1,3.1428102E-1,-4.1480653E-2,2.3278114E-1,-4.033813E-2,8.2138464E-2,3.9574602E-1],"categories":[],"categories_nodes":[],"categories_segments":[],"categories_sizes":[],"default_left":[1,1,1,1,0,1,0,1,0,0,0,0,0],"id":39,"left_children":[1,3,5,7,-1,9,-1,11,-1,-1,-1,-1,-1],"loss_changes":[1.0512955E-1,1.7722857E-1,2.7525574E-1,1.6020074E-1,0E0,6.796444E-2,0E0,2.7588487E-2,0E0,0E0,0E0,0E0,0E0],"parents":[2147483647,0,0,1,1,2,2,3,3,5,5,7,7],"right_children":[2,4,6,8,-1,10,-1,12,-1,-1,-1,-1,-1],"split_conditions":[3.5914183E-2,2.6655972E-1,1.1814386E-1,6.908707E-2,-5.1255446E-2,9.48662E-2,-9.212806E-2,2.2478785E-2,-1.2444196E-2,6.9834344E-2,-1.2101439E-2,2.464154E-2,1.1872381E-1],"split_indices":[6,47,60,57,0,3,0,12,0,0,0,0,0],"split_type":[0,0,0,0,0,0,0,0,0,0,0,0,0],"sum_hessian":[9.403715E0,5.0854692E0,4.318246E0,3.936006E0,1.1494632E0,2.2210195E0,2.0972266E0,2.1776698E0,1.7583363E0,1.0120937E0,1.2089257E0,1.0873697E0,1.0903E0],"tree_param":{"num_deleted":"0","num_feature":"75","num_nodes":"13","size_leaf_vector":"0"}},{"base_weights":[7.4377377E-4,-1.636464E-1,5.240376E-2,1.4261024E-1,-1.7231761E-1,2.4658881E-1,-1.1884477E-1,4.2365685E-2,3.6856228E-1,-1.1873059E-1,1.8275544E-1,1.08622074E-1,4.4317624E-1],"categories":[],"categories_nodes":[],"categories_segments":[],"categories_sizes":[],"default_left":[1,0,1,1,0,1,0,1,1,0,0,0,0],"id":40,"left_children":[1,-1,3,5,-1,7,-1,9,11,-1,-1,-1,-1],"loss_changes":[9.52788E-2,0E0,1.9740237E-1,2.0956977E-1,0E0,1.106621E-1,0E0,9.012283E-2,1.0898352E-2,0E0,0E0,0E0,0E0],"parents":[2147483647,0,0,2,2,3,3,5,5,7,7,8,8],"right_children":[2,-1,4,6,-1,8,-1,10,12,-1,-1,-1,-1],"split_conditions":[1.24021415E-2,-4.909392E-2,1.2941262E-1,1.4387599E-1,-5.1695284E-2,1.5885524E-1,-3.565343E-2,2.2344568E-1,3.0962132E-2,-3.5619177E-2,5.4826636E-2,3.2586623E-2,1.3295288E-1],"split_indices":[73,0,5,43,0,10,0,45,72,0,0,0,0],"split_type":[0,0,0,0,0,0,0,0,0,0,0,0,0],"sum_hessian":[9.209502E0,1.6837589E0,7.525744E0,5.6308346E0,1.8949093E0,4.0693474E0,1.5614874E0,2.02544E0,2.0439072E0,1.0150062E0,1.0104338E0,1.0035446E0,1.0403626E0],"tree_param":{"num_deleted":"0","num_feature":"75","num_nodes":"13","size_leaf_vector":"0"}},{"base_weights":[5.8273114E-3,5.356975E-2,-1.6931337E-1,-4.6215486E-3,2.1438031E-1,1.5470447E-1,-9.611939E-2,2.3013665E-1,8.6105376E-4,5.602579E-2,-3.167067E-1,2.2249128E-1,-9.97258E-2],"categories":[],"categories_nodes":[],"categories_segments":[],"categories_sizes":[],"default_left":[1,1,0,1,0,1,1,0,0,1,0,0,0],"id":41,"left_children":[1,3,-1,5,-1,7,9,-1,-1,11,-1,-1,-1],"loss_changes":[9.299223E-2,8.19013E-2,0E0,1.2169478E-1,0E0,3.5269663E-2,1.9466166E-1,0E0,0E0,1.251042E-1,0E0,0E0,0E0],"parents":[2147483647,0,0,1,1,3,3,5,5,6,6,9,9],"right_children":[2,4,-1,6,-1,8,10,-1,-1,12,-1,-1,-1],"split_conditions":[4.4031153E-3,4.228548E-3,-5.0794013E-2,2.825391E-2,6.43141E-2,1.18911624E-1,1.5810542E-2,6.9041E-2,2.5831614E-4,7.092029E-2,-9.501201E-2,6.674739E-2,-2.9917741E-2],"split_indices":[16,31,0,73,0,45,3,0,0,17,0,0,0],"split_type":[0,0,0,0,0,0,0,0,0,0,0,0,0],"sum_hessian":[9.036563E0,7.6463428E0,1.3902202E0,6.327808E0,1.318535E0,2.05632E0,4.2714877E0,1.0470284E0,1.0092915E0,2.9694152E0,1.3020726E0,1.2282135E0,1.7412015E0],"tree_param":{"num_deleted":"0","num_feature":"75","num_nodes":"13","size_leaf_vector":"0"}},{"base_weights":[6.4853933E-3,2.0250021E-1,-3.942659E-2,3.434179E-2,-3.0257368E-1,-8.990646E-2,1.814412E-1,-2.0460372E-1,1.0337813E-1,3.2141104E-1,-1.1152902E-1,5.7783864E-2,-3.6595497E-1],"categories":[],"categories_nodes":[],"categories_segments":[],"categories_sizes":[],"default_left":[1,0,1,1,0,1,1,1,0,0,0,0,0],"id":42,"left_children":[1,-1,3,5,-1,7,9,11,-1,-1,-1,-1,-1],"loss_changes":[9.685485E-2,0E0,1.8195617E-1,1.5889177E-1,0E0,1.2972932E-1,1.9591306E-1,1.6548742E-1,0E0,0E0,0E0,0E0,0E0],"parents":[2147483647,0,0,2,2,3,3,5,5,6,6,7,7],"right_children":[2,-1,4,6,-1,8,10,12,-1,-1,-1,-1,-1],"split_conditions":[2.2519096E-3,6.0750064E-2,1.4387599E-1,5.572532E-2,-9.077211E-2,1.3092723E-1,1.2904555E-1,2.8168578E-2,3.101344E-2,9.642332E-2,-3.345871E-2,1.733516E-2,-1.09786496E-1],"split_indices":[27,0,43,28,0,5,5,6,0,0,0,0,0],"split_type":[0,0,0,0,0,0,0,0,0,0,0,0,0],"sum_hessian":[8.875178E0,1.0370443E0,7.838134E0,6.801075E0,1.0370588E0,3.8976827E0,2.9033923E0,2.409372E0,1.4883106E0,1.899031E0,1.0043612E0,1.1618538E0,1.2475183E0],"tree_param":{"num_deleted":"0","num_feature":"75","num_nodes":"13","size_leaf_vector":"0"}},{"base_weights":[1.3210574E-3,-4.1693505E-2,1.732297E-1,-9.598E-2,1.3289616E-1,1.0688573E-1,-1.7130801E-1,7.544174E-2,-3.2775205E-1,-4.323366E-1,-6.4005055E-2],"categories":[],"categories_nodes":[],"categories_segments":[],"categories_sizes":[],"default_left":[1,1,0,1,0,0,1,0,1,0,0],"id":43,"left_children":[1,3,-1,5,-1,-1,7,-1,9,-1,-1],"loss_changes":[7.886993E-2,9.384798E-2,0E0,1.2691998E-1,0E0,0E0,2.3962697E-1,0E0,7.146624E-2,0E0,0E0],"parents":[2147483647,0,0,1,1,3,3,6,6,8,8],"right_children":[2,4,-1,6,-1,-1,8,-1,10,-1,-1],"split_conditions":[1.1665314E-2,5.677483E-3,5.196891E-2,5.5729123E-3,3.9868847E-2,3.206572E-2,1.2018016E-1,2.2632523E-2,1.5173149E-1,-1.2970099E-1,-1.9201517E-2],"split_indices":[46,61,0,57,0,0,60,0,4,0,0],"split_type":[0,0,0,0,0,0,0,0,0,0,0],"sum_hessian":[8.68918E0,7.556003E0,1.1331776E0,6.107275E0,1.4487278E0,1.5402616E0,4.5670137E0,1.9729578E0,2.5940557E0,1.3997844E0,1.1942713E0],"tree_param":{"num_deleted":"0","num_feature":"75","num_nodes":"11","size_leaf_vector":"0"}},{"base_weights":[-7.7441786E-5,-1.3076375E-1,5.839209E-2,-2.8642285E-1,9.060271E-2,-9.724126E-2,1.359514E-1,2.5630007E-3,-1.4842665E-1,2.8051344E-1,-3.872212E-2,6.66046E-2,3.54638E-1,-2.3737553E-1,1.5662105E-1],"categories":[],"categories_nodes":[],"categories_segments":[],"categories_sizes":[],"default_left":[1,1,1,0,0,1,1,0,0,1,1,0,0,0,0],"id":44,"left_children":[1,3,5,-1,-1,7,9,-1,-1,11,13,-1,-1,-1,-1],"loss_changes":[8.062224E-2,1.38325E-1,1.01222925E-1,0E0,0E0,1.5745914E-2,1.4425708E-1,0E0,0E0,2.4134323E-2,1.6410814E-1,0E0,0E0,0E0,0E0],"parents":[2147483647,0,0,1,1,2,2,5,5,6,6,9,9,10,10],"right_children":[2,4,6,-1,-1,8,10,-1,-1,12,14,-1,-1,-1,-1],"split_conditions":[2.383306E-2,1.6144684E-1,8.77334E-2,-8.592686E-2,2.7180815E-2,7.6956704E-2,1.2077461E-1,7.689002E-4,-4.4527996E-2,1.5698344E-2,2.692154E-1,1.998138E-2,1.0639141E-1,-7.1212664E-2,4.698632E-2],"split_indices":[13,7,62,0,0,13,32,0,0,63,17,0,0,0,0],"split_type":[0,0,0,0,0,0,0,0,0,0,0,0,0,0,0],"sum_hessian":[8.55177E0,2.2612243E0,6.290546E0,1.1551017E0,1.1061227E0,2.0078182E0,4.2827277E0,1.0026736E0,1.0051446E0,2.0118036E0,2.270924E0,1.0063183E0,1.0054853E0,1.0192403E0,1.2516838E0],"tree_param":{"num_deleted":"0","num_feature":"75","num_nodes":"15","size_leaf_vector":"0"}},{"base_weights":[-1.4109294E-4,4.277713E-2,-1.5302362E-1,1.4047852E-1,-4.5692805E-2,-7.6391764E-2,2.3970398E-1,-2.0880659E-1,1.4137E-1,5.9178054E-2,3.030597E-1,7.7793426E-3,-3.2569194E-1],"categories":[],"categories_nodes":[],"categories_segments":[],"categories_sizes":[],"default_left":[1,1,0,1,1,0,1,1,0,0,0,0,0],"id":45,"left_children":[1,3,-1,5,7,-1,9,11,-1,-1,-1,-1,-1],"loss_changes":[6.828548E-2,7.667853E-2,0E0,1.06714875E-1,1.8270212E-1,0E0,1.7066464E-2,8.064668E-2,0E0,0E0,0E0,0E0,0E0],"parents":[2147483647,0,0,1,1,3,3,4,4,6,6,7,7],"right_children":[2,4,-1,6,8,-1,10,12,-1,-1,-1,-1,-1],"split_conditions":[4.4031153E-3,8.631134E-2,-4.5907088E-2,4.7654003E-2,1.6345066E-1,-2.291753E-2,1.3137269E-1,1.2012648E-1,4.2411E-2,1.7753417E-2,9.0917915E-2,2.3338029E-3,-9.7707585E-2],"split_indices":[16,47,0,62,17,0,5,5,0,0,0,0,0],"split_type":[0,0,0,0,0,0,0,0,0,0,0,0,0],"sum_hessian":[8.409446E0,7.1284847E0,1.2809606E0,3.1081476E0,4.020337E0,1.0479137E0,2.0602338E0,2.085553E0,1.9347844E0,1.0376401E0,1.0225939E0,1.0581919E0,1.0273609E0],"tree_param":{"num_deleted":"0","num_feature":"75","num_nodes":"13","size_leaf_vector":"0"}},{"base_weights":[-1.6566818E-3,4.1716263E-2,-1.7208503E-1,-4.557411E-2,3.3199313E-1,4.1700825E-2,-2.643601E-1,1.2227209E-1,-1.6283767E-1,2.2636542E-1,-7.557125E-2,3.288221E-1,-5.5334982E-3],"categories":[],"categories_nodes":[],"categories_segments":[],"categories_sizes":[],"default_left":[1,1,0,1,0,1,0,1,0,1,0,0,0],"id":46,"left_children":[1,3,-1,5,-1,7,-1,9,-1,11,-1,-1,-1],"loss_changes":[7.5886786E-2,2.2326484E-1,0E0,1.4839856E-1,0E0,1.18899785E-1,0E0,1.1761315E-1,0E0,8.374536E-2,0E0,0E0,0E0],"parents":[2147483647,0,0,1,1,3,3,5,5,7,7,9,9],"right_children":[2,4,-1,6,-1,8,-1,10,-1,12,-1,-1,-1],"split_conditions":[2.6655972E-1,2.3122509E-1,-5.1625513E-2,1.3593024E-1,9.9597946E-2,7.648264E-2,-7.930803E-2,8.631134E-2,-4.8851304E-2,9.371345E-2,-2.2671375E-2,9.864663E-2,-1.6600495E-3],"split_indices":[47,60,0,30,0,43,0,47,0,3,0,0,0],"split_type":[0,0,0,0,0,0,0,0,0,0,0,0,0],"sum_hessian":[8.294945E0,7.214203E0,1.0807422E0,6.1944437E0,1.0197592E0,5.006659E0,1.1877848E0,3.8803332E0,1.1263256E0,2.448116E0,1.4322172E0,1.4080585E0,1.0400574E0],"tree_param":{"num_deleted":"0","num_feature":"75","num_nodes":"13","size_leaf_vector":"0"}},{"base_weights":[-1.5719316E-3,-6.6337526E-2,9.073561E-2,4.6023756E-2,-2.2757645E-1,2.1775341E-1,-9.3062386E-2,1.987605E-1,-1.0143949E-1],"categories":[],"categories_nodes":[],"categories_segments":[],"categories_sizes":[],"default_left":[1,1,1,1,0,0,0,0,0],"id":47,"left_children":[1,3,5,7,-1,-1,-1,-1,-1],"loss_changes":[6.053483E-2,1.1802657E-1,1.1790269E-1,1.1769451E-1,0E0,0E0,0E0,0E0,0E0],"parents":[2147483647,0,0,1,1,2,2,3,3],"right_children":[2,4,6,8,-1,-1,-1,-1,-1],"split_conditions":[1.5454793E-1,1.4108291E-1,1.2941262E-1,1.9306427E-1,-6.827294E-2,6.532603E-2,-2.7918717E-2,5.962815E-2,-3.0431848E-2],"split_indices":[67,9,5,32,0,0,0,0,0],"split_type":[0,0,0,0,0,0,0,0,0],"sum_hessian":[8.118842E0,4.936556E0,3.182286E0,3.3303342E0,1.6062217E0,1.7725687E0,1.4097172E0,1.4650389E0,1.8652953E0],"tree_param":{"num_deleted":"0","num_feature":"75","num_nodes":"9","size_leaf_vector":"0"}},{"base_weights":[-1.3035096E-3,-1.3756067E-1,4.3549202E-2,1.12223126E-1,-1.278033E-1,4.8100185E-3,3.1980646E-1,-9.201741E-2,1.6278742E-1,-2.1259274E-1,1.1270504E-1],"categories":[],"categories_nodes":[],"categories_segments":[],"categories_sizes":[],"default_left":[1,0,1,1,0,1,0,1,0,0,0],"id":48,"left_children":[1,-1,3,5,-1,7,-1,9,-1,-1,-1],"loss_changes":[6.1064094E-2,0E0,1.0306028E-1,1.3034183E-1,0E0,9.013184E-2,0E0,1.14920735E-1,0E0,0E0,0E0],"parents":[2147483647,0,0,2,2,3,3,5,5,7,7],"right_children":[2,-1,4,6,-1,8,-1,10,-1,-1,-1],"split_conditions":[1.24021415E-2,-4.12682E-2,1.2941262E-1,1.5931396E-1,-3.834099E-2,1.4754465E-1,9.594194E-2,2.8274414E-1,4.8836228E-2,-6.377783E-2,3.3811513E-2],"split_indices":[73,0,5,7,0,42,0,45,0,0,0],"split_type":[0,0,0,0,0,0,0,0,0,0,0],"sum_hessian":[8.011439E0,1.4721828E0,6.539256E0,4.914656E0,1.6246003E0,3.9130414E0,1.0016148E0,2.6849258E0,1.2281154E0,1.6655333E0,1.0193924E0],"tree_param":{"num_deleted":"0","num_feature":"75","num_nodes":"11","size_leaf_vector":"0"}},{"base_weights":[3.1338772E-3,4.253857E-2,-1.378457E-1,-1.08712256E-1,8.267714E-2,2.311645E-1,-2.2597536E-2,-1.6576543E-1,1.3165724E-1],"categories":[],"categories_nodes":[],"categories_segments":[],"categories_sizes":[],"default_left":[1,1,0,0,1,0,1,0,0],"id":49,"left_children":[1,3,-1,-1,5,-1,7,-1,-1],"loss_changes":[5.5227853E-2,5.5789642E-2,0E0,0E0,1.09337494E-1,0E0,1.2800997E-1,0E0,0E0],"parents":[2147483647,0,0,1,1,4,4,6,6],"right_children":[2,4,-1,-1,6,-1,8,-1,-1],"split_conditions":[4.4031153E-3,4.7654003E-2,-4.135371E-2,-3.261368E-2,7.092029E-2,6.9349356E-2,1.6345066E-1,-4.9729634E-2,3.9497174E-2],"split_indices":[16,62,0,0,17,0,17,0,0],"split_type":[0,0,0,0,0,0,0,0,0],"sum_hessian":[7.886017E0,6.709057E0,1.17696E0,1.0487429E0,5.660314E0,1.8521206E0,3.8081932E0,1.9363735E0,1.8718199E0],"tree_param":{"num_deleted":"0","num_feature":"75","num_nodes":"9","size_leaf_vector":"0"}},{"base_weights":[5.4998806E-4,4.2343803E-2,-1.5752208E-1,-3.0646067E-2,2.1572185E-1,5.9651565E-2,-1.6276386E-1,1.5706459E-1,-1.3654959E-1,-1.0148963E-2,2.3362032E-1],"categories":[],"categories_nodes":[],"categories_segments":[],"categories_sizes":[],"default_left":[1,1,0,1,0,1,0,1,0,0,0],"id":50,"left_children":[1,3,-1,5,-1,7,-1,9,-1,-1,-1],"loss_changes":[6.4889535E-2,1.04785934E-1,0E0,8.528661E-2,0E0,1.07357025E-1,0E0,4.6774566E-2,0E0,0E0,0E0],"parents":[2147483647,0,0,1,1,3,3,5,5,7,7],"right_children":[2,4,-1,6,-1,8,-1,10,-1,-1,-1],"split_conditions":[2.6655972E-1,1.3924697E-1,-4.7256626E-2,9.134053E-2,6.4716555E-2,7.198254E-2,-4.882916E-2,2.1492727E-2,-4.096488E-2,-3.044689E-3,7.00861E-2],"split_indices":[47,47,0,47,0,43,0,13,0,0,0],"split_type":[0,0,0,0,0,0,0,0,0,0,0],"sum_hessian":[7.812538E0,6.7578936E0,1.0546447E0,5.3351197E0,1.4227737E0,3.4949486E0,1.8401711E0,2.4687145E0,1.0262343E0,1.0477161E0,1.4209982E0],"tree_param":{"num_deleted":"0","num_feature":"75","num_nodes":"11","size_leaf_vector":"0"}},{"base_weights":[-1.8309902E-4,-4.2538602E-2,1.3046578E-1,-1.601324E-1,5.627863E-2,5.00272E-2,-2.8184384E-1,1.6413015E-1,-1.5472315E-1,-6.3418776E-2,2.9903102E-1],"categories":[],"categories_nodes":[],"categories_segments":[],"categories_sizes":[],"default_left":[1,1,0,1,1,0,0,1,0,0,0],"id":51,"left_children":[1,3,-1,5,7,-1,-1,9,-1,-1,-1],"loss_changes":[5.3813882E-2,9.431254E-2,0E0,1.0648879E-1,1.3300559E-1,0E0,0E0,1.2991652E-1,0E0,0E0,0E0],"parents":[2147483647,0,0,1,1,3,3,4,4,7,7],"right_children":[2,4,-1,6,8,-1,-1,10,-1,-1,-1],"split_conditions":[1.4236411E-1,5.572532E-2,3.9139733E-2,1.2488367E-1,1.4387599E-1,1.500816E-2,-8.455315E-2,8.77334E-2,-4.6416946E-2,-1.9025633E-2,8.970931E-2],"split_indices":[29,28,0,45,43,0,0,62,0,0,0],"split_type":[0,0,0,0,0,0,0,0,0,0,0],"sum_hessian":[7.7218423E0,6.3406506E0,1.3811917E0,2.6119297E0,3.728721E0,1.1739078E0,1.4380219E0,2.614489E0,1.114232E0,1.170311E0,1.444178E0],"tree_param":{"num_deleted":"0","num_feature":"75","num_nodes":"11","size_leaf_vector":"0"}},{"base_weights":[-9.233632E-4,-4.608962E-2,1.2271606E-1,1.0074398E-1,-1.1873452E-1,5.804238E-2,-2.7869624E-1,-6.749037E-2,1.6954301E-1],"categories":[],"categories_nodes":[],"categories_segments":[],"categories_sizes":[],"default_left":[1,1,0,0,1,1,0,0,0],"id":52,"left_children":[1,3,-1,-1,5,7,-1,-1,-1],"loss_changes":[5.37125E-2,8.694909E-2,0E0,0E0,1.6215003E-1,5.7350345E-2,0E0,0E0,0E0],"parents":[2147483647,0,0,1,1,4,4,5,5],"right_children":[2,4,-1,-1,6,8,-1,-1,-1],"split_conditions":[5.0894767E-3,1.18481755E-1,3.681482E-2,3.0223195E-2,5.5639192E-2,1.3038224E-2,-8.360887E-2,-2.0247111E-2,5.0862905E-2],"split_indices":[61,60,0,0,27,12,0,0,0],"split_type":[0,0,0,0,0,0,0,0,0],"sum_hessian":[7.6056094E0,6.030028E0,1.5755816E0,1.8678446E0,4.1621833E0,2.2798376E0,1.8823459E0,1.2581079E0,1.0217296E0],"tree_param":{"num_deleted":"0","num_feature":"75","num_nodes":"9","size_leaf_vector":"0"}},{"base_weights":[7.433464E-4,-4.4384018E-2,1.2833132E-1,-1.4326787E-1,6.810036E-2,-2.5011095E-1,8.451515E-2,-9.057903E-2,2.3513785E-1,1.0853895E-2,-3.8530067E-1],"categories":[],"categories_nodes":[],"categories_segments":[],"categories_sizes":[],"default_left":[1,1,0,1,1,1,0,0,0,0,0],"id":53,"left_children":[1,3,-1,5,7,9,-1,-1,-1,-1,-1],"loss_changes":[5.4764397E-2,8.804563E-2,0E0,1.20139115E-1,1.2654197E-1,1.1078447E-1,0E0,0E0,0E0,0E0,0E0],"parents":[2147483647,0,0,1,1,3,3,4,4,5,5],"right_children":[2,4,-1,6,8,10,-1,-1,-1,-1,-1],"split_conditions":[6.8430156E-3,1.326268E-1,3.8499396E-2,1.4915273E-1,1.5574253E-2,1.1530505E-1,2.5354546E-2,-2.7173711E-2,7.054136E-2,3.2561687E-3,-1.1559021E-1],"split_indices":[46,0,0,27,3,4,0,0,0,0,0],"split_type":[0,0,0,0,0,0,0,0,0,0,0],"sum_hessian":[7.5222335E0,6.038552E0,1.4836819E0,3.0679126E0,2.9706392E0,2.021631E0,1.0462817E0,1.7581726E0,1.2124665E0,1.0037484E0,1.0178825E0],"tree_param":{"num_deleted":"0","num_feature":"75","num_nodes":"11","size_leaf_vector":"0"}},{"base_weights":[-5.223142E-4,-4.2638518E-2,1.3438283E-1,5.6473926E-2,-2.110814E-1,1.9156747E-1,-6.2066257E-2,1.08686246E-1,-2.475447E-1],"categories":[],"categories_nodes":[],"categories_segments":[],"categories_sizes":[],"default_left":[1,1,0,1,0,0,1,0,0],"id":54,"left_children":[1,3,-1,5,-1,-1,7,-1,-1],"loss_changes":[5.3456407E-2,1.3146661E-1,0E0,9.671648E-2,0E0,0E0,1.4018074E-1,0E0,0E0],"parents":[2147483647,0,0,1,1,3,3,6,6],"right_children":[2,4,-1,6,-1,-1,8,-1,-1],"split_conditions":[1.3391781E-1,1.3593024E-1,4.031485E-2,2.825391E-2,-6.332442E-2,5.7470243E-2,4.49358E-2,3.2605875E-2,-7.4263416E-2],"split_indices":[13,30,0,73,0,0,3,0,0],"split_type":[0,0,0,0,0,0,0,0,0],"sum_hessian":[7.4000535E0,6.1606803E0,1.2393736E0,4.297024E0,1.8636562E0,1.7203656E0,2.5766582E0,1.5571549E0,1.0195035E0],"tree_param":{"num_deleted":"0","num_feature":"75","num_nodes":"9","size_leaf_vector":"0"}},{"base_weights":[-1.4479468E-3,-5.341709E-2,1.1507517E-1,-2.626339E-1,3.7679344E-2,-1.2184581E-1,1.2846088E-1,-7.0580766E-2,2.2475994E-1],"categories":[],"categories_nodes":[],"categories_segments":[],"categories_sizes":[],"default_left":[1,1,0,0,1,0,1,0,0],"id":55,"left_children":[1,3,-1,-1,5,-1,7,-1,-1],"loss_changes":[5.644042E-2,1.3237968E-1,0E0,0E0,9.315536E-2,0E0,9.0569556E-2,0E0,0E0],"parents":[2147483647,0,0,1,1,4,4,6,6],"right_children":[2,4,-1,-1,6,-1,8,-1,-1],"split_conditions":[2.3122509E-1,1.497126E-2,3.4522552E-2,-7.879017E-2,1.1569673E-1,-3.6553744E-2,1.2497335E-1,-2.117423E-2,6.7427985E-2],"split_indices":[60,63,0,0,30,0,5,0,0],"split_type":[0,0,0,0,0,0,0,0,0],"sum_hessian":[7.305269E0,5.426592E0,1.878677E0,1.0748967E0,4.351695E0,1.4541734E0,2.8975217E0,1.0318485E0,1.8656732E0],"tree_param":{"num_deleted":"0","num_feature":"75","num_nodes":"9","size_leaf_vector":"0"}},{"base_weights":[-5.314097E-3,-1.167202E-1,4.5800015E-2,1.4593044E-1,-7.882433E-2,2.5380778E-1,-4.4280525E-2,-2.2248185E-1,1.0292604E-1],"categories":[],"categories_nodes":[],"categories_segments":[],"categories_sizes":[],"default_left":[1,0,1,1,1,0,0,0,0],"id":56,"left_children":[1,-1,3,5,7,-1,-1,-1,-1],"loss_changes":[5.220494E-2,0E0,9.08556E-2,9.0787515E-2,1.13821626E-1,0E0,0E0,0E0,0E0],"parents":[2147483647,0,0,2,2,3,3,4,4],"right_children":[2,-1,4,6,8,-1,-1,-1,-1],"split_conditions":[2.383306E-2,-3.501606E-2,8.014999E-2,1.2175577E-1,1.3391781E-1,7.614234E-2,-1.3284158E-2,-6.674456E-2,3.0877812E-2],"split_indices":[13,0,73,5,13,0,0,0,0],"split_type":[0,0,0,0,0,0,0,0,0],"sum_hessian":[7.228954E0,1.8698934E0,5.3590603E0,2.87675E0,2.4823103E0,1.6223133E0,1.2544367E0,1.2612765E0,1.2210338E0],"tree_param":{"num_deleted":"0","num_feature":"75","num_nodes":"9","size_leaf_vector":"0"}},{"base_weights":[-4.719023E-3,-4.5856975E-2,1.10965915E-1,8.274705E-2,-1.1028672E-1,-1.9760975E-1,9.0446755E-2,-3.3070147E-1,3.3001523E-2],"categories":[],"categories_nodes":[],"categories_segments":[],"categories_sizes":[],"default_left":[1,1,0,0,1,1,0,0,0],"id":57,"left_children":[1,3,-1,-1,5,7,-1,-1,-1],"loss_changes":[4.3878578E-2,6.48095E-2,0E0,0E0,1.0386661E-1,1.2547854E-1,0E0,0E0,0E0],"parents":[2147483647,0,0,1,1,4,4,5,5],"right_children":[2,4,-1,-1,6,8,-1,-1,-1],"split_conditions":[6.8430156E-3,2.825391E-2,3.3289775E-2,2.4824116E-2,2.480627E-1,1.5454793E-1,2.7134027E-2,-9.921045E-2,9.900457E-3],"split_indices":[46,73,0,0,15,67,0,0,0],"split_type":[0,0,0,0,0,0,0,0,0],"sum_hessian":[7.150805E0,5.7202644E0,1.4305406E0,1.8143866E0,3.905878E0,2.7326727E0,1.1732051E0,1.457494E0,1.2751788E0],"tree_param":{"num_deleted":"0","num_feature":"75","num_nodes":"9","size_leaf_vector":"0"}},{"base_weights":[-4.2709825E-3,1.0572756E-1,-5.401022E-2,4.7884665E-2,-2.29597E-1,1.487373E-1,-1.2111327E-1,-9.029656E-2,2.9376996E-1],"categories":[],"categories_nodes":[],"categories_segments":[],"categories_sizes":[],"default_left":[1,0,1,1,0,1,0,0,0],"id":58,"left_children":[1,-1,3,5,-1,7,-1,-1,-1],"loss_changes":[4.9880277E-2,0E0,1.2229971E-1,9.921303E-2,0E0,1.4552028E-1,0E0,0E0,0E0],"parents":[2147483647,0,0,2,2,3,3,5,5],"right_children":[2,-1,4,6,-1,8,-1,-1,-1],"split_conditions":[1.18481755E-1,3.171827E-2,3.5914183E-2,6.908707E-2,-6.8879105E-2,1.0272046E-2,-3.6333982E-2,-2.7088968E-2,8.813099E-2],"split_indices":[60,0,6,57,0,12,0,0,0],"split_type":[0,0,0,0,0,0,0,0,0],"sum_hessian":[7.0731015E0,1.8519248E0,5.221177E0,3.764111E0,1.4570659E0,2.4324114E0,1.3316994E0,1.0610539E0,1.3713577E0],"tree_param":{"num_deleted":"0","num_feature":"75","num_nodes":"9","size_leaf_vector":"0"}},{"base_weights":[-4.5461273E-3,-8.506518E-2,7.303309E-2,9.422989E-2,-2.1110976E-1,1.8949012E-1,-6.6111065E-2],"categories":[],"categories_nodes":[],"categories_segments":[],"categories_sizes":[],"default_left":[1,1,1,0,0,0,0],"id":59,"left_children":[1,3,5,-1,-1,-1,-1],"loss_changes":[5.602939E-2,1.18771255E-1,8.7062575E-2,0E0,0E0,0E0,0E0],"parents":[2147483647,0,0,1,1,2,2],"right_children":[2,4,6,-1,-1,-1,-1],"split_conditions":[7.410278E-2,5.5729123E-3,1.21836394E-1,2.8268969E-2,-6.333293E-2,5.684704E-2,-1.983332E-2],"split_indices":[27,57,45,0,0,0,0],"split_type":[0,0,0,0,0,0,0],"sum_hessian":[6.9750233E0,3.3753114E0,3.5997117E0,1.4975271E0,1.8777844E0,1.76264E0,1.8370718E0],"tree_param":{"num_deleted":"0","num_feature":"75","num_nodes":"7","size_leaf_vector":"0"}},{"base_weights":[-3.0300491E-3,-1.2563942E-1,3.880747E-2,1.03326485E-1,-1.19981706E-1,2.3693232E-1,-4.9300432E-2,-1.793264E-1,9.819732E-2],"categories":[],"categories_nodes":[],"categories_segments":[],"categories_sizes":[],"default_left":[1,0,1,1,0,0,1,0,0],"id":60,"left_children":[1,-1,3,5,-1,-1,7,-1,-1],"loss_changes":[4.548672E-2,0E0,8.069737E-2,1.1930585E-1,0E0,0E0,8.073203E-2,0E0,0E0],"parents":[2147483647,0,0,2,2,3,3,6,6],"right_children":[2,-1,4,6,-1,-1,8,-1,-1],"split_conditions":[1.24021415E-2,-3.7691828E-2,1.2941262E-1,7.512702E-2,-3.5994515E-2,7.10797E-2,1.3391781E-1,-5.3797923E-2,2.9459197E-2],"split_indices":[73,0,5,73,0,0,13,0,0],"split_type":[0,0,0,0,0,0,0,0,0],"sum_hessian":[6.9168744E0,1.2501482E0,5.6667266E0,4.2778435E0,1.3888828E0,1.9865255E0,2.291318E0,1.1030971E0,1.188221E0],"tree_param":{"num_deleted":"0","num_feature":"75","num_nodes":"9","size_leaf_vector":"0"}},{"base_weights":[-5.525556E-3,-4.9409993E-2,9.726669E-2,1.1325341E-1,-1.21739924E-1,5.704406E-2,-2.2968087E-1,-5.9611127E-2,-2.857545E-1],"categories":[],"categories_nodes":[],"categories_segments":[],"categories_sizes":[],"default_left":[1,1,0,0,1,0,1,0,0],"id":61,"left_children":[1,3,-1,-1,5,-1,7,-1,-1],"loss_changes":[4.018125E-2,8.6249664E-2,0E0,0E0,1.04674645E-1,0E0,1.3079435E-2,0E0,0E0],"parents":[2147483647,0,0,1,1,4,4,6,6],"right_children":[2,4,-1,-1,6,-1,8,-1,-1],"split_conditions":[9.27086E-4,5.5729123E-3,2.9180007E-2,3.3976022E-2,1.2018016E-1,1.7113218E-2,2.7283262E-2,-1.7883338E-2,-8.572635E-2],"split_indices":[61,57,0,0,60,0,11,0,0],"split_type":[0,0,0,0,0,0,0,0,0],"sum_hessian":[6.8420434E0,5.1589065E0,1.6831372E0,1.4137417E0,3.7451646E0,1.5874221E0,2.1577425E0,1.0465804E0,1.1111622E0],"tree_param":{"num_deleted":"0","num_feature":"75","num_nodes":"9","size_leaf_vector":"0"}},{"base_weights":[-7.1340324E-3,-6.81132E-2,7.6334216E-2,1.2050323E-1,-1.4811744E-1,1.77465E-1,-7.490459E-2,-2.622747E-1,1.0792404E-2],"categories":[],"categories_nodes":[],"categories_segments":[],"categories_sizes":[],"default_left":[1,1,1,0,1,0,0,0,0],"id":62,"left_children":[1,3,5,-1,7,-1,-1,-1,-1],"loss_changes":[4.484597E-2,9.3744606E-2,7.0799775E-2,0E0,7.503348E-2,0E0,0E0,0E0,0E0],"parents":[2147483647,0,0,1,1,2,2,4,4],"right_children":[2,4,6,-1,8,-1,-1,-1,-1],"split_conditions":[1.580584E-1,5.5729123E-3,1.2941262E-1,3.615097E-2,1.2935999E-1,5.3239506E-2,-2.2471378E-2,-7.8682415E-2,3.2377215E-3],"split_indices":[9,57,5,0,12,0,0,0,0],"split_type":[0,0,0,0,0,0,0,0,0],"sum_hessian":[6.7893853E0,4.0295157E0,2.7598696E0,1.0493584E0,2.9801576E0,1.5500011E0,1.2098683E0,1.3557527E0,1.6244048E0],"tree_param":{"num_deleted":"0","num_feature":"75","num_nodes":"9","size_leaf_vector":"0"}},{"base_weights":[-6.304842E-3,-4.8672136E-2,1.1301776E-1,-1.5026534E-1,5.1238954E-2,-3.0224803E-1,3.9861023E-2,-8.3334506E-2,1.9877052E-1],"categories":[],"categories_nodes":[],"categories_segments":[],"categories_sizes":[],"default_left":[1,1,0,1,1,0,0,0,0],"id":63,"left_children":[1,3,-1,5,7,-1,-1,-1,-1],"loss_changes":[4.4542298E-2,7.264262E-2,0E0,1.1106433E-1,9.541401E-2,0E0,0E0,0E0,0E0],"parents":[2147483647,0,0,1,1,3,3,4,4],"right_children":[2,4,-1,6,8,-1,-1,-1,-1],"split_conditions":[6.8430156E-3,6.238804E-2,3.390533E-2,1.3680486E-1,1.3084604E-1,-9.0674415E-2,1.1958308E-2,-2.5000352E-2,5.9631158E-2],"split_indices":[46,72,0,0,5,0,0,0,0],"split_type":[0,0,0,0,0,0,0,0,0],"sum_hessian":[6.7227645E0,5.398162E0,1.3246028E0,2.4266582E0,2.9715037E0,1.0208733E0,1.4057848E0,1.7815623E0,1.1899414E0],"tree_param":{"num_deleted":"0","num_feature":"75","num_nodes":"9","size_leaf_vector":"0"}},{"base_weights":[-6.008284E-3,-4.5404606E-2,1.1240357E-1,-1.5403889E-1,4.6457868E-2,5.3756554E-3,-2.50546E-1,1.6301985E-1,-1.5908647E-1,-4.2633697E-2,2.769911E-1],"categories":[],"categories_nodes":[],"categories_segments":[],"categories_sizes":[],"default_left":[1,1,0,1,1,0,0,1,0,0,0],"id":64,"left_children":[1,3,-1,5,7,-1,-1,9,-1,-1,-1],"loss_changes":[4.077086E-2,7.151625E-2,0E0,5.037158E-2,1.2806198E-1,0E0,0E0,8.714106E-2,0E0,0E0,0E0],"parents":[2147483647,0,0,1,1,3,3,4,4,7,7],"right_children":[2,4,-1,6,8,-1,-1,10,-1,-1,-1],"split_conditions":[1.4236411E-1,5.572532E-2,3.3721074E-2,1.835449E-2,1.4387599E-1,1.6126967E-3,-7.5163804E-2,8.77334E-2,-4.7725942E-2,-1.279011E-2,8.309733E-2],"split_indices":[29,28,0,73,43,0,0,62,0,0,0],"split_type":[0,0,0,0,0,0,0,0,0,0,0],"sum_hessian":[6.64572E0,5.4492693E0,1.1964505E0,2.1866035E0,3.2626657E0,1.1806513E0,1.0059524E0,2.2140112E0,1.0486548E0,1.0126598E0,1.2013514E0],"tree_param":{"num_deleted":"0","num_feature":"75","num_nodes":"11","size_leaf_vector":"0"}},{"base_weights":[-6.5638805E-3,6.853455E-2,-6.843919E-2,-3.571842E-2,1.8122616E-1,-1.7500573E-1,1.0542614E-1,-4.144505E-3,-2.556027E-1],"categories":[],"categories_nodes":[],"categories_segments":[],"categories_sizes":[],"default_left":[1,1,1,0,0,1,0,0,0],"id":65,"left_children":[1,3,5,-1,-1,7,-1,-1,-1],"loss_changes":[3.9809953E-2,5.245393E-2,1.044971E-1,0E0,0E0,4.3768242E-2,0E0,0E0,0E0],"parents":[2147483647,0,0,1,1,2,2,5,5],"right_children":[2,4,6,-1,-1,8,-1,-1,-1],"split_conditions":[9.134053E-2,1.2839347E-1,1.23221025E-1,-1.0715526E-2,5.436785E-2,3.2594576E-2,3.1627845E-2,-1.2433516E-3,-7.668081E-2],"split_indices":[47,60,28,0,0,28,0,0,0],"split_type":[0,0,0,0,0,0,0,0,0],"sum_hessian":[6.557882E0,2.9137828E0,3.644099E0,1.8683668E0,1.045416E0,2.255243E0,1.3888558E0,1.0598469E0,1.1953963E0],"tree_param":{"num_deleted":"0","num_feature":"75","num_nodes":"9","size_leaf_vector":"0"}},{"base_weights":[-5.122173E-3,5.202408E-2,-8.885174E-2,-4.9164042E-2,1.9778249E-1,-2.0255874E-1,7.3438585E-2,-1.5422945E-1,1.09038375E-1],"categories":[],"categories_nodes":[],"categories_segments":[],"categories_sizes":[],"default_left":[1,1,1,1,0,0,0,0,0],"id":66,"left_children":[1,3,5,7,-1,-1,-1,-1,-1],"loss_changes":[4.051948E-2,8.4791556E-2,7.784985E-2,8.006309E-2,0E0,0E0,0E0,0E0,0E0],"parents":[2147483647,0,0,1,1,2,2,3,3],"right_children":[2,4,6,8,-1,-1,-1,-1,-1],"split_conditions":[7.648264E-2,5.572532E-2,1.3391781E-1,1.3092723E-1,5.9334747E-2,-6.0767625E-2,2.2031575E-2,-4.6268836E-2,3.2711513E-2],"split_indices":[43,28,13,5,0,0,0,0,0],"split_type":[0,0,0,0,0,0,0,0,0],"sum_hessian":[6.5022597E0,4.089679E0,2.412581E0,2.8050582E0,1.2846205E0,1.2727301E0,1.1398507E0,1.7007015E0,1.1043568E0],"tree_param":{"num_deleted":"0","num_feature":"75","num_nodes":"9","size_leaf_vector":"0"}},{"base_weights":[-2.7393394E-3,3.731861E-2,-1.2291902E-1,-1.016292E-1,8.7514736E-2,1.840763E-1,-1.1710181E-1,2.5592548E-1,3.4376398E-2],"categories":[],"categories_nodes":[],"categories_segments":[],"categories_sizes":[],"default_left":[1,1,0,0,1,1,0,0,0],"id":67,"left_children":[1,3,-1,-1,5,7,-1,-1,-1],"loss_changes":[4.0404547E-2,5.31634E-2,0E0,0E0,1.2429863E-1,3.3382818E-2,0E0,0E0,0E0],"parents":[2147483647,0,0,1,1,4,4,5,5],"right_children":[2,4,-1,-1,6,8,-1,-1,-1],"split_conditions":[1.5823227E-1,1.24021415E-2,